elements: [Ta] 
E0: [0.000000] 
deltaSplineBins: 0.001000 
embeddings:
  0: {ndensity: 1, FS_parameters: [1.0, 1.0], npoti: FinnisSinclair, rho_core_cutoff: 100000, drho_core_cutoff: 250}
bonds:
  [0, 0]: {nradmax: 12, lmax: 5, nradbasemax: 12, radbasename: ChebExpCos, radparameters: [1.808], radcoefficients: [[[1, 0, 0, 0, 0, 0, 0, 0, 0, 0, 0, 0], [1, 0, 0, 0, 0, 0, 0, 0, 0, 0, 0, 0], [1, 0, 0, 0, 0, 0, 0, 0, 0, 0, 0, 0], [1, 0, 0, 0, 0, 0, 0, 0, 0, 0, 0, 0], [1, 0, 0, 0, 0, 0, 0, 0, 0, 0, 0, 0], [1, 0, 0, 0, 0, 0, 0, 0, 0, 0, 0, 0]], [[0, 1, 0, 0, 0, 0, 0, 0, 0, 0, 0, 0], [0, 1, 0, 0, 0, 0, 0, 0, 0, 0, 0, 0], [0, 1, 0, 0, 0, 0, 0, 0, 0, 0, 0, 0], [0, 1, 0, 0, 0, 0, 0, 0, 0, 0, 0, 0], [0, 1, 0, 0, 0, 0, 0, 0, 0, 0, 0, 0], [0, 1, 0, 0, 0, 0, 0, 0, 0, 0, 0, 0]], [[0, 0, 1, 0, 0, 0, 0, 0, 0, 0, 0, 0], [0, 0, 1, 0, 0, 0, 0, 0, 0, 0, 0, 0], [0, 0, 1, 0, 0, 0, 0, 0, 0, 0, 0, 0], [0, 0, 1, 0, 0, 0, 0, 0, 0, 0, 0, 0], [0, 0, 1, 0, 0, 0, 0, 0, 0, 0, 0, 0], [0, 0, 1, 0, 0, 0, 0, 0, 0, 0, 0, 0]], [[0, 0, 0, 1, 0, 0, 0, 0, 0, 0, 0, 0], [0, 0, 0, 1, 0, 0, 0, 0, 0, 0, 0, 0], [0, 0, 0, 1, 0, 0, 0, 0, 0, 0, 0, 0], [0, 0, 0, 1, 0, 0, 0, 0, 0, 0, 0, 0], [0, 0, 0, 1, 0, 0, 0, 0, 0, 0, 0, 0], [0, 0, 0, 1, 0, 0, 0, 0, 0, 0, 0, 0]], [[0, 0, 0, 0, 1, 0, 0, 0, 0, 0, 0, 0], [0, 0, 0, 0, 1, 0, 0, 0, 0, 0, 0, 0], [0, 0, 0, 0, 1, 0, 0, 0, 0, 0, 0, 0], [0, 0, 0, 0, 1, 0, 0, 0, 0, 0, 0, 0], [0, 0, 0, 0, 1, 0, 0, 0, 0, 0, 0, 0], [0, 0, 0, 0, 1, 0, 0, 0, 0, 0, 0, 0]], [[0, 0, 0, 0, 0, 1, 0, 0, 0, 0, 0, 0], [0, 0, 0, 0, 0, 1, 0, 0, 0, 0, 0, 0], [0, 0, 0, 0, 0, 1, 0, 0, 0, 0, 0, 0], [0, 0, 0, 0, 0, 1, 0, 0, 0, 0, 0, 0], [0, 0, 0, 0, 0, 1, 0, 0, 0, 0, 0, 0], [0, 0, 0, 0, 0, 1, 0, 0, 0, 0, 0, 0]], [[0, 0, 0, 0, 0, 0, 1, 0, 0, 0, 0, 0], [0, 0, 0, 0, 0, 0, 1, 0, 0, 0, 0, 0], [0, 0, 0, 0, 0, 0, 1, 0, 0, 0, 0, 0], [0, 0, 0, 0, 0, 0, 1, 0, 0, 0, 0, 0], [0, 0, 0, 0, 0, 0, 1, 0, 0, 0, 0, 0], [0, 0, 0, 0, 0, 0, 1, 0, 0, 0, 0, 0]], [[0, 0, 0, 0, 0, 0, 0, 1, 0, 0, 0, 0], [0, 0, 0, 0, 0, 0, 0, 1, 0, 0, 0, 0], [0, 0, 0, 0, 0, 0, 0, 1, 0, 0, 0, 0], [0, 0, 0, 0, 0, 0, 0, 1, 0, 0, 0, 0], [0, 0, 0, 0, 0, 0, 0, 1, 0, 0, 0, 0], [0, 0, 0, 0, 0, 0, 0, 1, 0, 0, 0, 0]], [[0, 0, 0, 0, 0, 0, 0, 0, 1, 0, 0, 0], [0, 0, 0, 0, 0, 0, 0, 0, 1, 0, 0, 0], [0, 0, 0, 0, 0, 0, 0, 0, 1, 0, 0, 0], [0, 0, 0, 0, 0, 0, 0, 0, 1, 0, 0, 0], [0, 0, 0, 0, 0, 0, 0, 0, 1, 0, 0, 0], [0, 0, 0, 0, 0, 0, 0, 0, 1, 0, 0, 0]], [[0, 0, 0, 0, 0, 0, 0, 0, 0, 1, 0, 0], [0, 0, 0, 0, 0, 0, 0, 0, 0, 1, 0, 0], [0, 0, 0, 0, 0, 0, 0, 0, 0, 1, 0, 0], [0, 0, 0, 0, 0, 0, 0, 0, 0, 1, 0, 0], [0, 0, 0, 0, 0, 0, 0, 0, 0, 1, 0, 0], [0, 0, 0, 0, 0, 0, 0, 0, 0, 1, 0, 0]], [[0, 0, 0, 0, 0, 0, 0, 0, 0, 0, 1, 0], [0, 0, 0, 0, 0, 0, 0, 0, 0, 0, 1, 0], [0, 0, 0, 0, 0, 0, 0, 0, 0, 0, 1, 0], [0, 0, 0, 0, 0, 0, 0, 0, 0, 0, 1, 0], [0, 0, 0, 0, 0, 0, 0, 0, 0, 0, 1, 0], [0, 0, 0, 0, 0, 0, 0, 0, 0, 0, 1, 0]], [[0, 0, 0, 0, 0, 0, 0, 0, 0, 0, 0, 1], [0, 0, 0, 0, 0, 0, 0, 0, 0, 0, 0, 1], [0, 0, 0, 0, 0, 0, 0, 0, 0, 0, 0, 1], [0, 0, 0, 0, 0, 0, 0, 0, 0, 0, 0, 1], [0, 0, 0, 0, 0, 0, 0, 0, 0, 0, 0, 1], [0, 0, 0, 0, 0, 0, 0, 0, 0, 0, 0, 1]]], prehc: 0, lambdahc: 1.808, rcut: 6.026, dcut: 0.01, rcut_in: 0.580, dcut_in: 0.01, inner_cutoff_type: distance}
functions:
  0:
    - {mu0: 0, rank: 1, ndensity: 1, num_ms_combs: 1, mus: [0], ns: [1], ls: [0], ms_combs: [0], ctildes: [1.0]}
    - {mu0: 0, rank: 1, ndensity: 1, num_ms_combs: 1, mus: [0], ns: [2], ls: [0], ms_combs: [0], ctildes: [1.0]}
    - {mu0: 0, rank: 1, ndensity: 1, num_ms_combs: 1, mus: [0], ns: [3], ls: [0], ms_combs: [0], ctildes: [1.0]}
    - {mu0: 0, rank: 1, ndensity: 1, num_ms_combs: 1, mus: [0], ns: [4], ls: [0], ms_combs: [0], ctildes: [1.0]}
    - {mu0: 0, rank: 1, ndensity: 1, num_ms_combs: 1, mus: [0], ns: [5], ls: [0], ms_combs: [0], ctildes: [1.0]}
    - {mu0: 0, rank: 1, ndensity: 1, num_ms_combs: 1, mus: [0], ns: [6], ls: [0], ms_combs: [0], ctildes: [1.0]}
    - {mu0: 0, rank: 1, ndensity: 1, num_ms_combs: 1, mus: [0], ns: [7], ls: [0], ms_combs: [0], ctildes: [1.0]}
    - {mu0: 0, rank: 1, ndensity: 1, num_ms_combs: 1, mus: [0], ns: [8], ls: [0], ms_combs: [0], ctildes: [1.0]}
    - {mu0: 0, rank: 1, ndensity: 1, num_ms_combs: 1, mus: [0], ns: [9], ls: [0], ms_combs: [0], ctildes: [1.0]}
    - {mu0: 0, rank: 1, ndensity: 1, num_ms_combs: 1, mus: [0], ns: [10], ls: [0], ms_combs: [0], ctildes: [1.0]}
    - {mu0: 0, rank: 1, ndensity: 1, num_ms_combs: 1, mus: [0], ns: [11], ls: [0], ms_combs: [0], ctildes: [1.0]}
    - {mu0: 0, rank: 1, ndensity: 1, num_ms_combs: 1, mus: [0], ns: [12], ls: [0], ms_combs: [0], ctildes: [1.0]}
    - {mu0: 0, rank: 2, ndensity: 1, num_ms_combs: 1, mus: [0, 0], ns: [1, 1], ls: [0, 0], ms_combs: [0, 0], ctildes: [1.0]}
    - {mu0: 0, rank: 2, ndensity: 1, num_ms_combs: 1, mus: [0, 0], ns: [1, 2], ls: [0, 0], ms_combs: [0, 0], ctildes: [1.0]}
    - {mu0: 0, rank: 2, ndensity: 1, num_ms_combs: 1, mus: [0, 0], ns: [1, 3], ls: [0, 0], ms_combs: [0, 0], ctildes: [1.0]}
    - {mu0: 0, rank: 2, ndensity: 1, num_ms_combs: 1, mus: [0, 0], ns: [1, 4], ls: [0, 0], ms_combs: [0, 0], ctildes: [1.0]}
    - {mu0: 0, rank: 2, ndensity: 1, num_ms_combs: 1, mus: [0, 0], ns: [1, 5], ls: [0, 0], ms_combs: [0, 0], ctildes: [1.0]}
    - {mu0: 0, rank: 2, ndensity: 1, num_ms_combs: 1, mus: [0, 0], ns: [1, 6], ls: [0, 0], ms_combs: [0, 0], ctildes: [1.0]}
    - {mu0: 0, rank: 2, ndensity: 1, num_ms_combs: 1, mus: [0, 0], ns: [1, 7], ls: [0, 0], ms_combs: [0, 0], ctildes: [1.0]}
    - {mu0: 0, rank: 2, ndensity: 1, num_ms_combs: 1, mus: [0, 0], ns: [2, 2], ls: [0, 0], ms_combs: [0, 0], ctildes: [1.0]}
    - {mu0: 0, rank: 2, ndensity: 1, num_ms_combs: 1, mus: [0, 0], ns: [2, 3], ls: [0, 0], ms_combs: [0, 0], ctildes: [1.0]}
    - {mu0: 0, rank: 2, ndensity: 1, num_ms_combs: 1, mus: [0, 0], ns: [2, 4], ls: [0, 0], ms_combs: [0, 0], ctildes: [1.0]}
    - {mu0: 0, rank: 2, ndensity: 1, num_ms_combs: 1, mus: [0, 0], ns: [2, 5], ls: [0, 0], ms_combs: [0, 0], ctildes: [1.0]}
    - {mu0: 0, rank: 2, ndensity: 1, num_ms_combs: 1, mus: [0, 0], ns: [2, 6], ls: [0, 0], ms_combs: [0, 0], ctildes: [1.0]}
    - {mu0: 0, rank: 2, ndensity: 1, num_ms_combs: 1, mus: [0, 0], ns: [2, 7], ls: [0, 0], ms_combs: [0, 0], ctildes: [1.0]}
    - {mu0: 0, rank: 2, ndensity: 1, num_ms_combs: 1, mus: [0, 0], ns: [3, 3], ls: [0, 0], ms_combs: [0, 0], ctildes: [1.0]}
    - {mu0: 0, rank: 2, ndensity: 1, num_ms_combs: 1, mus: [0, 0], ns: [3, 4], ls: [0, 0], ms_combs: [0, 0], ctildes: [1.0]}
    - {mu0: 0, rank: 2, ndensity: 1, num_ms_combs: 1, mus: [0, 0], ns: [3, 5], ls: [0, 0], ms_combs: [0, 0], ctildes: [1.0]}
    - {mu0: 0, rank: 2, ndensity: 1, num_ms_combs: 1, mus: [0, 0], ns: [3, 6], ls: [0, 0], ms_combs: [0, 0], ctildes: [1.0]}
    - {mu0: 0, rank: 2, ndensity: 1, num_ms_combs: 1, mus: [0, 0], ns: [3, 7], ls: [0, 0], ms_combs: [0, 0], ctildes: [1.0]}
    - {mu0: 0, rank: 2, ndensity: 1, num_ms_combs: 1, mus: [0, 0], ns: [4, 4], ls: [0, 0], ms_combs: [0, 0], ctildes: [1.0]}
    - {mu0: 0, rank: 2, ndensity: 1, num_ms_combs: 1, mus: [0, 0], ns: [4, 5], ls: [0, 0], ms_combs: [0, 0], ctildes: [1.0]}
    - {mu0: 0, rank: 2, ndensity: 1, num_ms_combs: 1, mus: [0, 0], ns: [4, 6], ls: [0, 0], ms_combs: [0, 0], ctildes: [1.0]}
    - {mu0: 0, rank: 2, ndensity: 1, num_ms_combs: 1, mus: [0, 0], ns: [4, 7], ls: [0, 0], ms_combs: [0, 0], ctildes: [1.0]}
    - {mu0: 0, rank: 2, ndensity: 1, num_ms_combs: 1, mus: [0, 0], ns: [5, 5], ls: [0, 0], ms_combs: [0, 0], ctildes: [1.0]}
    - {mu0: 0, rank: 2, ndensity: 1, num_ms_combs: 1, mus: [0, 0], ns: [5, 6], ls: [0, 0], ms_combs: [0, 0], ctildes: [1.0]}
    - {mu0: 0, rank: 2, ndensity: 1, num_ms_combs: 1, mus: [0, 0], ns: [5, 7], ls: [0, 0], ms_combs: [0, 0], ctildes: [1.0]}
    - {mu0: 0, rank: 2, ndensity: 1, num_ms_combs: 1, mus: [0, 0], ns: [6, 6], ls: [0, 0], ms_combs: [0, 0], ctildes: [1.0]}
    - {mu0: 0, rank: 2, ndensity: 1, num_ms_combs: 1, mus: [0, 0], ns: [6, 7], ls: [0, 0], ms_combs: [0, 0], ctildes: [1.0]}
    - {mu0: 0, rank: 2, ndensity: 1, num_ms_combs: 1, mus: [0, 0], ns: [7, 7], ls: [0, 0], ms_combs: [0, 0], ctildes: [1.0]}
    - {mu0: 0, rank: 2, ndensity: 1, num_ms_combs: 3, mus: [0, 0], ns: [1, 1], ls: [1, 1], ms_combs: [-1, 1, 0, 0, 1, -1], ctildes: [0.5773502588272095, -0.5773502588272095, 0.5773502588272095]}
    - {mu0: 0, rank: 2, ndensity: 1, num_ms_combs: 3, mus: [0, 0], ns: [1, 2], ls: [1, 1], ms_combs: [-1, 1, 0, 0, 1, -1], ctildes: [0.5773502588272095, -0.5773502588272095, 0.5773502588272095]}
    - {mu0: 0, rank: 2, ndensity: 1, num_ms_combs: 3, mus: [0, 0], ns: [1, 3], ls: [1, 1], ms_combs: [-1, 1, 0, 0, 1, -1], ctildes: [0.5773502588272095, -0.5773502588272095, 0.5773502588272095]}
    - {mu0: 0, rank: 2, ndensity: 1, num_ms_combs: 3, mus: [0, 0], ns: [1, 4], ls: [1, 1], ms_combs: [-1, 1, 0, 0, 1, -1], ctildes: [0.5773502588272095, -0.5773502588272095, 0.5773502588272095]}
    - {mu0: 0, rank: 2, ndensity: 1, num_ms_combs: 3, mus: [0, 0], ns: [1, 5], ls: [1, 1], ms_combs: [-1, 1, 0, 0, 1, -1], ctildes: [0.5773502588272095, -0.5773502588272095, 0.5773502588272095]}
    - {mu0: 0, rank: 2, ndensity: 1, num_ms_combs: 3, mus: [0, 0], ns: [1, 6], ls: [1, 1], ms_combs: [-1, 1, 0, 0, 1, -1], ctildes: [0.5773502588272095, -0.5773502588272095, 0.5773502588272095]}
    - {mu0: 0, rank: 2, ndensity: 1, num_ms_combs: 3, mus: [0, 0], ns: [1, 7], ls: [1, 1], ms_combs: [-1, 1, 0, 0, 1, -1], ctildes: [0.5773502588272095, -0.5773502588272095, 0.5773502588272095]}
    - {mu0: 0, rank: 2, ndensity: 1, num_ms_combs: 3, mus: [0, 0], ns: [2, 2], ls: [1, 1], ms_combs: [-1, 1, 0, 0, 1, -1], ctildes: [0.5773502588272095, -0.5773502588272095, 0.5773502588272095]}
    - {mu0: 0, rank: 2, ndensity: 1, num_ms_combs: 3, mus: [0, 0], ns: [2, 3], ls: [1, 1], ms_combs: [-1, 1, 0, 0, 1, -1], ctildes: [0.5773502588272095, -0.5773502588272095, 0.5773502588272095]}
    - {mu0: 0, rank: 2, ndensity: 1, num_ms_combs: 3, mus: [0, 0], ns: [2, 4], ls: [1, 1], ms_combs: [-1, 1, 0, 0, 1, -1], ctildes: [0.5773502588272095, -0.5773502588272095, 0.5773502588272095]}
    - {mu0: 0, rank: 2, ndensity: 1, num_ms_combs: 3, mus: [0, 0], ns: [2, 5], ls: [1, 1], ms_combs: [-1, 1, 0, 0, 1, -1], ctildes: [0.5773502588272095, -0.5773502588272095, 0.5773502588272095]}
    - {mu0: 0, rank: 2, ndensity: 1, num_ms_combs: 3, mus: [0, 0], ns: [2, 6], ls: [1, 1], ms_combs: [-1, 1, 0, 0, 1, -1], ctildes: [0.5773502588272095, -0.5773502588272095, 0.5773502588272095]}
    - {mu0: 0, rank: 2, ndensity: 1, num_ms_combs: 3, mus: [0, 0], ns: [2, 7], ls: [1, 1], ms_combs: [-1, 1, 0, 0, 1, -1], ctildes: [0.5773502588272095, -0.5773502588272095, 0.5773502588272095]}
    - {mu0: 0, rank: 2, ndensity: 1, num_ms_combs: 3, mus: [0, 0], ns: [3, 3], ls: [1, 1], ms_combs: [-1, 1, 0, 0, 1, -1], ctildes: [0.5773502588272095, -0.5773502588272095, 0.5773502588272095]}
    - {mu0: 0, rank: 2, ndensity: 1, num_ms_combs: 3, mus: [0, 0], ns: [3, 4], ls: [1, 1], ms_combs: [-1, 1, 0, 0, 1, -1], ctildes: [0.5773502588272095, -0.5773502588272095, 0.5773502588272095]}
    - {mu0: 0, rank: 2, ndensity: 1, num_ms_combs: 3, mus: [0, 0], ns: [3, 5], ls: [1, 1], ms_combs: [-1, 1, 0, 0, 1, -1], ctildes: [0.5773502588272095, -0.5773502588272095, 0.5773502588272095]}
    - {mu0: 0, rank: 2, ndensity: 1, num_ms_combs: 3, mus: [0, 0], ns: [3, 6], ls: [1, 1], ms_combs: [-1, 1, 0, 0, 1, -1], ctildes: [0.5773502588272095, -0.5773502588272095, 0.5773502588272095]}
    - {mu0: 0, rank: 2, ndensity: 1, num_ms_combs: 3, mus: [0, 0], ns: [3, 7], ls: [1, 1], ms_combs: [-1, 1, 0, 0, 1, -1], ctildes: [0.5773502588272095, -0.5773502588272095, 0.5773502588272095]}
    - {mu0: 0, rank: 2, ndensity: 1, num_ms_combs: 3, mus: [0, 0], ns: [4, 4], ls: [1, 1], ms_combs: [-1, 1, 0, 0, 1, -1], ctildes: [0.5773502588272095, -0.5773502588272095, 0.5773502588272095]}
    - {mu0: 0, rank: 2, ndensity: 1, num_ms_combs: 3, mus: [0, 0], ns: [4, 5], ls: [1, 1], ms_combs: [-1, 1, 0, 0, 1, -1], ctildes: [0.5773502588272095, -0.5773502588272095, 0.5773502588272095]}
    - {mu0: 0, rank: 2, ndensity: 1, num_ms_combs: 3, mus: [0, 0], ns: [4, 6], ls: [1, 1], ms_combs: [-1, 1, 0, 0, 1, -1], ctildes: [0.5773502588272095, -0.5773502588272095, 0.5773502588272095]}
    - {mu0: 0, rank: 2, ndensity: 1, num_ms_combs: 3, mus: [0, 0], ns: [4, 7], ls: [1, 1], ms_combs: [-1, 1, 0, 0, 1, -1], ctildes: [0.5773502588272095, -0.5773502588272095, 0.5773502588272095]}
    - {mu0: 0, rank: 2, ndensity: 1, num_ms_combs: 3, mus: [0, 0], ns: [5, 5], ls: [1, 1], ms_combs: [-1, 1, 0, 0, 1, -1], ctildes: [0.5773502588272095, -0.5773502588272095, 0.5773502588272095]}
    - {mu0: 0, rank: 2, ndensity: 1, num_ms_combs: 3, mus: [0, 0], ns: [5, 6], ls: [1, 1], ms_combs: [-1, 1, 0, 0, 1, -1], ctildes: [0.5773502588272095, -0.5773502588272095, 0.5773502588272095]}
    - {mu0: 0, rank: 2, ndensity: 1, num_ms_combs: 3, mus: [0, 0], ns: [5, 7], ls: [1, 1], ms_combs: [-1, 1, 0, 0, 1, -1], ctildes: [0.5773502588272095, -0.5773502588272095, 0.5773502588272095]}
    - {mu0: 0, rank: 2, ndensity: 1, num_ms_combs: 3, mus: [0, 0], ns: [6, 6], ls: [1, 1], ms_combs: [-1, 1, 0, 0, 1, -1], ctildes: [0.5773502588272095, -0.5773502588272095, 0.5773502588272095]}
    - {mu0: 0, rank: 2, ndensity: 1, num_ms_combs: 3, mus: [0, 0], ns: [6, 7], ls: [1, 1], ms_combs: [-1, 1, 0, 0, 1, -1], ctildes: [0.5773502588272095, -0.5773502588272095, 0.5773502588272095]}
    - {mu0: 0, rank: 2, ndensity: 1, num_ms_combs: 3, mus: [0, 0], ns: [7, 7], ls: [1, 1], ms_combs: [-1, 1, 0, 0, 1, -1], ctildes: [0.5773502588272095, -0.5773502588272095, 0.5773502588272095]}
    - {mu0: 0, rank: 2, ndensity: 1, num_ms_combs: 5, mus: [0, 0], ns: [1, 1], ls: [2, 2], ms_combs: [-2, 2, -1, 1, 0, 0, 1, -1, 2, -2], ctildes: [0.4472135901451111, -0.4472135901451111, 0.4472135901451111, -0.4472135901451111, 0.4472135901451111]}
    - {mu0: 0, rank: 2, ndensity: 1, num_ms_combs: 5, mus: [0, 0], ns: [1, 2], ls: [2, 2], ms_combs: [-2, 2, -1, 1, 0, 0, 1, -1, 2, -2], ctildes: [0.4472135901451111, -0.4472135901451111, 0.4472135901451111, -0.4472135901451111, 0.4472135901451111]}
    - {mu0: 0, rank: 2, ndensity: 1, num_ms_combs: 5, mus: [0, 0], ns: [1, 3], ls: [2, 2], ms_combs: [-2, 2, -1, 1, 0, 0, 1, -1, 2, -2], ctildes: [0.4472135901451111, -0.4472135901451111, 0.4472135901451111, -0.4472135901451111, 0.4472135901451111]}
    - {mu0: 0, rank: 2, ndensity: 1, num_ms_combs: 5, mus: [0, 0], ns: [1, 4], ls: [2, 2], ms_combs: [-2, 2, -1, 1, 0, 0, 1, -1, 2, -2], ctildes: [0.4472135901451111, -0.4472135901451111, 0.4472135901451111, -0.4472135901451111, 0.4472135901451111]}
    - {mu0: 0, rank: 2, ndensity: 1, num_ms_combs: 5, mus: [0, 0], ns: [1, 5], ls: [2, 2], ms_combs: [-2, 2, -1, 1, 0, 0, 1, -1, 2, -2], ctildes: [0.4472135901451111, -0.4472135901451111, 0.4472135901451111, -0.4472135901451111, 0.4472135901451111]}
    - {mu0: 0, rank: 2, ndensity: 1, num_ms_combs: 5, mus: [0, 0], ns: [1, 6], ls: [2, 2], ms_combs: [-2, 2, -1, 1, 0, 0, 1, -1, 2, -2], ctildes: [0.4472135901451111, -0.4472135901451111, 0.4472135901451111, -0.4472135901451111, 0.4472135901451111]}
    - {mu0: 0, rank: 2, ndensity: 1, num_ms_combs: 5, mus: [0, 0], ns: [1, 7], ls: [2, 2], ms_combs: [-2, 2, -1, 1, 0, 0, 1, -1, 2, -2], ctildes: [0.4472135901451111, -0.4472135901451111, 0.4472135901451111, -0.4472135901451111, 0.4472135901451111]}
    - {mu0: 0, rank: 2, ndensity: 1, num_ms_combs: 5, mus: [0, 0], ns: [2, 2], ls: [2, 2], ms_combs: [-2, 2, -1, 1, 0, 0, 1, -1, 2, -2], ctildes: [0.4472135901451111, -0.4472135901451111, 0.4472135901451111, -0.4472135901451111, 0.4472135901451111]}
    - {mu0: 0, rank: 2, ndensity: 1, num_ms_combs: 5, mus: [0, 0], ns: [2, 3], ls: [2, 2], ms_combs: [-2, 2, -1, 1, 0, 0, 1, -1, 2, -2], ctildes: [0.4472135901451111, -0.4472135901451111, 0.4472135901451111, -0.4472135901451111, 0.4472135901451111]}
    - {mu0: 0, rank: 2, ndensity: 1, num_ms_combs: 5, mus: [0, 0], ns: [2, 4], ls: [2, 2], ms_combs: [-2, 2, -1, 1, 0, 0, 1, -1, 2, -2], ctildes: [0.4472135901451111, -0.4472135901451111, 0.4472135901451111, -0.4472135901451111, 0.4472135901451111]}
    - {mu0: 0, rank: 2, ndensity: 1, num_ms_combs: 5, mus: [0, 0], ns: [2, 5], ls: [2, 2], ms_combs: [-2, 2, -1, 1, 0, 0, 1, -1, 2, -2], ctildes: [0.4472135901451111, -0.4472135901451111, 0.4472135901451111, -0.4472135901451111, 0.4472135901451111]}
    - {mu0: 0, rank: 2, ndensity: 1, num_ms_combs: 5, mus: [0, 0], ns: [2, 6], ls: [2, 2], ms_combs: [-2, 2, -1, 1, 0, 0, 1, -1, 2, -2], ctildes: [0.4472135901451111, -0.4472135901451111, 0.4472135901451111, -0.4472135901451111, 0.4472135901451111]}
    - {mu0: 0, rank: 2, ndensity: 1, num_ms_combs: 5, mus: [0, 0], ns: [2, 7], ls: [2, 2], ms_combs: [-2, 2, -1, 1, 0, 0, 1, -1, 2, -2], ctildes: [0.4472135901451111, -0.4472135901451111, 0.4472135901451111, -0.4472135901451111, 0.4472135901451111]}
    - {mu0: 0, rank: 2, ndensity: 1, num_ms_combs: 5, mus: [0, 0], ns: [3, 3], ls: [2, 2], ms_combs: [-2, 2, -1, 1, 0, 0, 1, -1, 2, -2], ctildes: [0.4472135901451111, -0.4472135901451111, 0.4472135901451111, -0.4472135901451111, 0.4472135901451111]}
    - {mu0: 0, rank: 2, ndensity: 1, num_ms_combs: 5, mus: [0, 0], ns: [3, 4], ls: [2, 2], ms_combs: [-2, 2, -1, 1, 0, 0, 1, -1, 2, -2], ctildes: [0.4472135901451111, -0.4472135901451111, 0.4472135901451111, -0.4472135901451111, 0.4472135901451111]}
    - {mu0: 0, rank: 2, ndensity: 1, num_ms_combs: 5, mus: [0, 0], ns: [3, 5], ls: [2, 2], ms_combs: [-2, 2, -1, 1, 0, 0, 1, -1, 2, -2], ctildes: [0.4472135901451111, -0.4472135901451111, 0.4472135901451111, -0.4472135901451111, 0.4472135901451111]}
    - {mu0: 0, rank: 2, ndensity: 1, num_ms_combs: 5, mus: [0, 0], ns: [3, 6], ls: [2, 2], ms_combs: [-2, 2, -1, 1, 0, 0, 1, -1, 2, -2], ctildes: [0.4472135901451111, -0.4472135901451111, 0.4472135901451111, -0.4472135901451111, 0.4472135901451111]}
    - {mu0: 0, rank: 2, ndensity: 1, num_ms_combs: 5, mus: [0, 0], ns: [3, 7], ls: [2, 2], ms_combs: [-2, 2, -1, 1, 0, 0, 1, -1, 2, -2], ctildes: [0.4472135901451111, -0.4472135901451111, 0.4472135901451111, -0.4472135901451111, 0.4472135901451111]}
    - {mu0: 0, rank: 2, ndensity: 1, num_ms_combs: 5, mus: [0, 0], ns: [4, 4], ls: [2, 2], ms_combs: [-2, 2, -1, 1, 0, 0, 1, -1, 2, -2], ctildes: [0.4472135901451111, -0.4472135901451111, 0.4472135901451111, -0.4472135901451111, 0.4472135901451111]}
    - {mu0: 0, rank: 2, ndensity: 1, num_ms_combs: 5, mus: [0, 0], ns: [4, 5], ls: [2, 2], ms_combs: [-2, 2, -1, 1, 0, 0, 1, -1, 2, -2], ctildes: [0.4472135901451111, -0.4472135901451111, 0.4472135901451111, -0.4472135901451111, 0.4472135901451111]}
    - {mu0: 0, rank: 2, ndensity: 1, num_ms_combs: 5, mus: [0, 0], ns: [4, 6], ls: [2, 2], ms_combs: [-2, 2, -1, 1, 0, 0, 1, -1, 2, -2], ctildes: [0.4472135901451111, -0.4472135901451111, 0.4472135901451111, -0.4472135901451111, 0.4472135901451111]}
    - {mu0: 0, rank: 2, ndensity: 1, num_ms_combs: 5, mus: [0, 0], ns: [4, 7], ls: [2, 2], ms_combs: [-2, 2, -1, 1, 0, 0, 1, -1, 2, -2], ctildes: [0.4472135901451111, -0.4472135901451111, 0.4472135901451111, -0.4472135901451111, 0.4472135901451111]}
    - {mu0: 0, rank: 2, ndensity: 1, num_ms_combs: 5, mus: [0, 0], ns: [5, 5], ls: [2, 2], ms_combs: [-2, 2, -1, 1, 0, 0, 1, -1, 2, -2], ctildes: [0.4472135901451111, -0.4472135901451111, 0.4472135901451111, -0.4472135901451111, 0.4472135901451111]}
    - {mu0: 0, rank: 2, ndensity: 1, num_ms_combs: 5, mus: [0, 0], ns: [5, 6], ls: [2, 2], ms_combs: [-2, 2, -1, 1, 0, 0, 1, -1, 2, -2], ctildes: [0.4472135901451111, -0.4472135901451111, 0.4472135901451111, -0.4472135901451111, 0.4472135901451111]}
    - {mu0: 0, rank: 2, ndensity: 1, num_ms_combs: 5, mus: [0, 0], ns: [5, 7], ls: [2, 2], ms_combs: [-2, 2, -1, 1, 0, 0, 1, -1, 2, -2], ctildes: [0.4472135901451111, -0.4472135901451111, 0.4472135901451111, -0.4472135901451111, 0.4472135901451111]}
    - {mu0: 0, rank: 2, ndensity: 1, num_ms_combs: 5, mus: [0, 0], ns: [6, 6], ls: [2, 2], ms_combs: [-2, 2, -1, 1, 0, 0, 1, -1, 2, -2], ctildes: [0.4472135901451111, -0.4472135901451111, 0.4472135901451111, -0.4472135901451111, 0.4472135901451111]}
    - {mu0: 0, rank: 2, ndensity: 1, num_ms_combs: 5, mus: [0, 0], ns: [6, 7], ls: [2, 2], ms_combs: [-2, 2, -1, 1, 0, 0, 1, -1, 2, -2], ctildes: [0.4472135901451111, -0.4472135901451111, 0.4472135901451111, -0.4472135901451111, 0.4472135901451111]}
    - {mu0: 0, rank: 2, ndensity: 1, num_ms_combs: 5, mus: [0, 0], ns: [7, 7], ls: [2, 2], ms_combs: [-2, 2, -1, 1, 0, 0, 1, -1, 2, -2], ctildes: [0.4472135901451111, -0.4472135901451111, 0.4472135901451111, -0.4472135901451111, 0.4472135901451111]}
    - {mu0: 0, rank: 2, ndensity: 1, num_ms_combs: 7, mus: [0, 0], ns: [1, 1], ls: [3, 3], ms_combs: [-3, 3, -2, 2, -1, 1, 0, 0, 1, -1, 2, -2, 3, -3], ctildes: [0.37796446681022644, -0.37796446681022644, 0.37796446681022644, -0.37796446681022644, 0.37796446681022644, -0.37796446681022644, 0.37796446681022644]}
    - {mu0: 0, rank: 2, ndensity: 1, num_ms_combs: 7, mus: [0, 0], ns: [1, 2], ls: [3, 3], ms_combs: [-3, 3, -2, 2, -1, 1, 0, 0, 1, -1, 2, -2, 3, -3], ctildes: [0.37796446681022644, -0.37796446681022644, 0.37796446681022644, -0.37796446681022644, 0.37796446681022644, -0.37796446681022644, 0.37796446681022644]}
    - {mu0: 0, rank: 2, ndensity: 1, num_ms_combs: 7, mus: [0, 0], ns: [1, 3], ls: [3, 3], ms_combs: [-3, 3, -2, 2, -1, 1, 0, 0, 1, -1, 2, -2, 3, -3], ctildes: [0.37796446681022644, -0.37796446681022644, 0.37796446681022644, -0.37796446681022644, 0.37796446681022644, -0.37796446681022644, 0.37796446681022644]}
    - {mu0: 0, rank: 2, ndensity: 1, num_ms_combs: 7, mus: [0, 0], ns: [1, 4], ls: [3, 3], ms_combs: [-3, 3, -2, 2, -1, 1, 0, 0, 1, -1, 2, -2, 3, -3], ctildes: [0.37796446681022644, -0.37796446681022644, 0.37796446681022644, -0.37796446681022644, 0.37796446681022644, -0.37796446681022644, 0.37796446681022644]}
    - {mu0: 0, rank: 2, ndensity: 1, num_ms_combs: 7, mus: [0, 0], ns: [1, 5], ls: [3, 3], ms_combs: [-3, 3, -2, 2, -1, 1, 0, 0, 1, -1, 2, -2, 3, -3], ctildes: [0.37796446681022644, -0.37796446681022644, 0.37796446681022644, -0.37796446681022644, 0.37796446681022644, -0.37796446681022644, 0.37796446681022644]}
    - {mu0: 0, rank: 2, ndensity: 1, num_ms_combs: 7, mus: [0, 0], ns: [1, 6], ls: [3, 3], ms_combs: [-3, 3, -2, 2, -1, 1, 0, 0, 1, -1, 2, -2, 3, -3], ctildes: [0.37796446681022644, -0.37796446681022644, 0.37796446681022644, -0.37796446681022644, 0.37796446681022644, -0.37796446681022644, 0.37796446681022644]}
    - {mu0: 0, rank: 2, ndensity: 1, num_ms_combs: 7, mus: [0, 0], ns: [1, 7], ls: [3, 3], ms_combs: [-3, 3, -2, 2, -1, 1, 0, 0, 1, -1, 2, -2, 3, -3], ctildes: [0.37796446681022644, -0.37796446681022644, 0.37796446681022644, -0.37796446681022644, 0.37796446681022644, -0.37796446681022644, 0.37796446681022644]}
    - {mu0: 0, rank: 2, ndensity: 1, num_ms_combs: 7, mus: [0, 0], ns: [2, 2], ls: [3, 3], ms_combs: [-3, 3, -2, 2, -1, 1, 0, 0, 1, -1, 2, -2, 3, -3], ctildes: [0.37796446681022644, -0.37796446681022644, 0.37796446681022644, -0.37796446681022644, 0.37796446681022644, -0.37796446681022644, 0.37796446681022644]}
    - {mu0: 0, rank: 2, ndensity: 1, num_ms_combs: 7, mus: [0, 0], ns: [2, 3], ls: [3, 3], ms_combs: [-3, 3, -2, 2, -1, 1, 0, 0, 1, -1, 2, -2, 3, -3], ctildes: [0.37796446681022644, -0.37796446681022644, 0.37796446681022644, -0.37796446681022644, 0.37796446681022644, -0.37796446681022644, 0.37796446681022644]}
    - {mu0: 0, rank: 2, ndensity: 1, num_ms_combs: 7, mus: [0, 0], ns: [2, 4], ls: [3, 3], ms_combs: [-3, 3, -2, 2, -1, 1, 0, 0, 1, -1, 2, -2, 3, -3], ctildes: [0.37796446681022644, -0.37796446681022644, 0.37796446681022644, -0.37796446681022644, 0.37796446681022644, -0.37796446681022644, 0.37796446681022644]}
    - {mu0: 0, rank: 2, ndensity: 1, num_ms_combs: 7, mus: [0, 0], ns: [2, 5], ls: [3, 3], ms_combs: [-3, 3, -2, 2, -1, 1, 0, 0, 1, -1, 2, -2, 3, -3], ctildes: [0.37796446681022644, -0.37796446681022644, 0.37796446681022644, -0.37796446681022644, 0.37796446681022644, -0.37796446681022644, 0.37796446681022644]}
    - {mu0: 0, rank: 2, ndensity: 1, num_ms_combs: 7, mus: [0, 0], ns: [2, 6], ls: [3, 3], ms_combs: [-3, 3, -2, 2, -1, 1, 0, 0, 1, -1, 2, -2, 3, -3], ctildes: [0.37796446681022644, -0.37796446681022644, 0.37796446681022644, -0.37796446681022644, 0.37796446681022644, -0.37796446681022644, 0.37796446681022644]}
    - {mu0: 0, rank: 2, ndensity: 1, num_ms_combs: 7, mus: [0, 0], ns: [2, 7], ls: [3, 3], ms_combs: [-3, 3, -2, 2, -1, 1, 0, 0, 1, -1, 2, -2, 3, -3], ctildes: [0.37796446681022644, -0.37796446681022644, 0.37796446681022644, -0.37796446681022644, 0.37796446681022644, -0.37796446681022644, 0.37796446681022644]}
    - {mu0: 0, rank: 2, ndensity: 1, num_ms_combs: 7, mus: [0, 0], ns: [3, 3], ls: [3, 3], ms_combs: [-3, 3, -2, 2, -1, 1, 0, 0, 1, -1, 2, -2, 3, -3], ctildes: [0.37796446681022644, -0.37796446681022644, 0.37796446681022644, -0.37796446681022644, 0.37796446681022644, -0.37796446681022644, 0.37796446681022644]}
    - {mu0: 0, rank: 2, ndensity: 1, num_ms_combs: 7, mus: [0, 0], ns: [3, 4], ls: [3, 3], ms_combs: [-3, 3, -2, 2, -1, 1, 0, 0, 1, -1, 2, -2, 3, -3], ctildes: [0.37796446681022644, -0.37796446681022644, 0.37796446681022644, -0.37796446681022644, 0.37796446681022644, -0.37796446681022644, 0.37796446681022644]}
    - {mu0: 0, rank: 2, ndensity: 1, num_ms_combs: 7, mus: [0, 0], ns: [3, 5], ls: [3, 3], ms_combs: [-3, 3, -2, 2, -1, 1, 0, 0, 1, -1, 2, -2, 3, -3], ctildes: [0.37796446681022644, -0.37796446681022644, 0.37796446681022644, -0.37796446681022644, 0.37796446681022644, -0.37796446681022644, 0.37796446681022644]}
    - {mu0: 0, rank: 2, ndensity: 1, num_ms_combs: 7, mus: [0, 0], ns: [3, 6], ls: [3, 3], ms_combs: [-3, 3, -2, 2, -1, 1, 0, 0, 1, -1, 2, -2, 3, -3], ctildes: [0.37796446681022644, -0.37796446681022644, 0.37796446681022644, -0.37796446681022644, 0.37796446681022644, -0.37796446681022644, 0.37796446681022644]}
    - {mu0: 0, rank: 2, ndensity: 1, num_ms_combs: 7, mus: [0, 0], ns: [3, 7], ls: [3, 3], ms_combs: [-3, 3, -2, 2, -1, 1, 0, 0, 1, -1, 2, -2, 3, -3], ctildes: [0.37796446681022644, -0.37796446681022644, 0.37796446681022644, -0.37796446681022644, 0.37796446681022644, -0.37796446681022644, 0.37796446681022644]}
    - {mu0: 0, rank: 2, ndensity: 1, num_ms_combs: 7, mus: [0, 0], ns: [4, 4], ls: [3, 3], ms_combs: [-3, 3, -2, 2, -1, 1, 0, 0, 1, -1, 2, -2, 3, -3], ctildes: [0.37796446681022644, -0.37796446681022644, 0.37796446681022644, -0.37796446681022644, 0.37796446681022644, -0.37796446681022644, 0.37796446681022644]}
    - {mu0: 0, rank: 2, ndensity: 1, num_ms_combs: 7, mus: [0, 0], ns: [4, 5], ls: [3, 3], ms_combs: [-3, 3, -2, 2, -1, 1, 0, 0, 1, -1, 2, -2, 3, -3], ctildes: [0.37796446681022644, -0.37796446681022644, 0.37796446681022644, -0.37796446681022644, 0.37796446681022644, -0.37796446681022644, 0.37796446681022644]}
    - {mu0: 0, rank: 2, ndensity: 1, num_ms_combs: 7, mus: [0, 0], ns: [4, 6], ls: [3, 3], ms_combs: [-3, 3, -2, 2, -1, 1, 0, 0, 1, -1, 2, -2, 3, -3], ctildes: [0.37796446681022644, -0.37796446681022644, 0.37796446681022644, -0.37796446681022644, 0.37796446681022644, -0.37796446681022644, 0.37796446681022644]}
    - {mu0: 0, rank: 2, ndensity: 1, num_ms_combs: 7, mus: [0, 0], ns: [4, 7], ls: [3, 3], ms_combs: [-3, 3, -2, 2, -1, 1, 0, 0, 1, -1, 2, -2, 3, -3], ctildes: [0.37796446681022644, -0.37796446681022644, 0.37796446681022644, -0.37796446681022644, 0.37796446681022644, -0.37796446681022644, 0.37796446681022644]}
    - {mu0: 0, rank: 2, ndensity: 1, num_ms_combs: 7, mus: [0, 0], ns: [5, 5], ls: [3, 3], ms_combs: [-3, 3, -2, 2, -1, 1, 0, 0, 1, -1, 2, -2, 3, -3], ctildes: [0.37796446681022644, -0.37796446681022644, 0.37796446681022644, -0.37796446681022644, 0.37796446681022644, -0.37796446681022644, 0.37796446681022644]}
    - {mu0: 0, rank: 2, ndensity: 1, num_ms_combs: 7, mus: [0, 0], ns: [5, 6], ls: [3, 3], ms_combs: [-3, 3, -2, 2, -1, 1, 0, 0, 1, -1, 2, -2, 3, -3], ctildes: [0.37796446681022644, -0.37796446681022644, 0.37796446681022644, -0.37796446681022644, 0.37796446681022644, -0.37796446681022644, 0.37796446681022644]}
    - {mu0: 0, rank: 2, ndensity: 1, num_ms_combs: 7, mus: [0, 0], ns: [5, 7], ls: [3, 3], ms_combs: [-3, 3, -2, 2, -1, 1, 0, 0, 1, -1, 2, -2, 3, -3], ctildes: [0.37796446681022644, -0.37796446681022644, 0.37796446681022644, -0.37796446681022644, 0.37796446681022644, -0.37796446681022644, 0.37796446681022644]}
    - {mu0: 0, rank: 2, ndensity: 1, num_ms_combs: 7, mus: [0, 0], ns: [6, 6], ls: [3, 3], ms_combs: [-3, 3, -2, 2, -1, 1, 0, 0, 1, -1, 2, -2, 3, -3], ctildes: [0.37796446681022644, -0.37796446681022644, 0.37796446681022644, -0.37796446681022644, 0.37796446681022644, -0.37796446681022644, 0.37796446681022644]}
    - {mu0: 0, rank: 2, ndensity: 1, num_ms_combs: 7, mus: [0, 0], ns: [6, 7], ls: [3, 3], ms_combs: [-3, 3, -2, 2, -1, 1, 0, 0, 1, -1, 2, -2, 3, -3], ctildes: [0.37796446681022644, -0.37796446681022644, 0.37796446681022644, -0.37796446681022644, 0.37796446681022644, -0.37796446681022644, 0.37796446681022644]}
    - {mu0: 0, rank: 2, ndensity: 1, num_ms_combs: 7, mus: [0, 0], ns: [7, 7], ls: [3, 3], ms_combs: [-3, 3, -2, 2, -1, 1, 0, 0, 1, -1, 2, -2, 3, -3], ctildes: [0.37796446681022644, -0.37796446681022644, 0.37796446681022644, -0.37796446681022644, 0.37796446681022644, -0.37796446681022644, 0.37796446681022644]}
    - {mu0: 0, rank: 2, ndensity: 1, num_ms_combs: 9, mus: [0, 0], ns: [1, 1], ls: [4, 4], ms_combs: [-4, 4, -3, 3, -2, 2, -1, 1, 0, 0, 1, -1, 2, -2, 3, -3, 4, -4], ctildes: [0.3333333432674408, -0.3333333432674408, 0.3333333432674408, -0.3333333432674408, 0.3333333432674408, -0.3333333432674408, 0.3333333432674408, -0.3333333432674408, 0.3333333432674408]}
    - {mu0: 0, rank: 2, ndensity: 1, num_ms_combs: 9, mus: [0, 0], ns: [1, 2], ls: [4, 4], ms_combs: [-4, 4, -3, 3, -2, 2, -1, 1, 0, 0, 1, -1, 2, -2, 3, -3, 4, -4], ctildes: [0.3333333432674408, -0.3333333432674408, 0.3333333432674408, -0.3333333432674408, 0.3333333432674408, -0.3333333432674408, 0.3333333432674408, -0.3333333432674408, 0.3333333432674408]}
    - {mu0: 0, rank: 2, ndensity: 1, num_ms_combs: 9, mus: [0, 0], ns: [1, 3], ls: [4, 4], ms_combs: [-4, 4, -3, 3, -2, 2, -1, 1, 0, 0, 1, -1, 2, -2, 3, -3, 4, -4], ctildes: [0.3333333432674408, -0.3333333432674408, 0.3333333432674408, -0.3333333432674408, 0.3333333432674408, -0.3333333432674408, 0.3333333432674408, -0.3333333432674408, 0.3333333432674408]}
    - {mu0: 0, rank: 2, ndensity: 1, num_ms_combs: 9, mus: [0, 0], ns: [1, 4], ls: [4, 4], ms_combs: [-4, 4, -3, 3, -2, 2, -1, 1, 0, 0, 1, -1, 2, -2, 3, -3, 4, -4], ctildes: [0.3333333432674408, -0.3333333432674408, 0.3333333432674408, -0.3333333432674408, 0.3333333432674408, -0.3333333432674408, 0.3333333432674408, -0.3333333432674408, 0.3333333432674408]}
    - {mu0: 0, rank: 2, ndensity: 1, num_ms_combs: 9, mus: [0, 0], ns: [1, 5], ls: [4, 4], ms_combs: [-4, 4, -3, 3, -2, 2, -1, 1, 0, 0, 1, -1, 2, -2, 3, -3, 4, -4], ctildes: [0.3333333432674408, -0.3333333432674408, 0.3333333432674408, -0.3333333432674408, 0.3333333432674408, -0.3333333432674408, 0.3333333432674408, -0.3333333432674408, 0.3333333432674408]}
    - {mu0: 0, rank: 2, ndensity: 1, num_ms_combs: 9, mus: [0, 0], ns: [1, 6], ls: [4, 4], ms_combs: [-4, 4, -3, 3, -2, 2, -1, 1, 0, 0, 1, -1, 2, -2, 3, -3, 4, -4], ctildes: [0.3333333432674408, -0.3333333432674408, 0.3333333432674408, -0.3333333432674408, 0.3333333432674408, -0.3333333432674408, 0.3333333432674408, -0.3333333432674408, 0.3333333432674408]}
    - {mu0: 0, rank: 2, ndensity: 1, num_ms_combs: 9, mus: [0, 0], ns: [1, 7], ls: [4, 4], ms_combs: [-4, 4, -3, 3, -2, 2, -1, 1, 0, 0, 1, -1, 2, -2, 3, -3, 4, -4], ctildes: [0.3333333432674408, -0.3333333432674408, 0.3333333432674408, -0.3333333432674408, 0.3333333432674408, -0.3333333432674408, 0.3333333432674408, -0.3333333432674408, 0.3333333432674408]}
    - {mu0: 0, rank: 2, ndensity: 1, num_ms_combs: 9, mus: [0, 0], ns: [2, 2], ls: [4, 4], ms_combs: [-4, 4, -3, 3, -2, 2, -1, 1, 0, 0, 1, -1, 2, -2, 3, -3, 4, -4], ctildes: [0.3333333432674408, -0.3333333432674408, 0.3333333432674408, -0.3333333432674408, 0.3333333432674408, -0.3333333432674408, 0.3333333432674408, -0.3333333432674408, 0.3333333432674408]}
    - {mu0: 0, rank: 2, ndensity: 1, num_ms_combs: 9, mus: [0, 0], ns: [2, 3], ls: [4, 4], ms_combs: [-4, 4, -3, 3, -2, 2, -1, 1, 0, 0, 1, -1, 2, -2, 3, -3, 4, -4], ctildes: [0.3333333432674408, -0.3333333432674408, 0.3333333432674408, -0.3333333432674408, 0.3333333432674408, -0.3333333432674408, 0.3333333432674408, -0.3333333432674408, 0.3333333432674408]}
    - {mu0: 0, rank: 2, ndensity: 1, num_ms_combs: 9, mus: [0, 0], ns: [2, 4], ls: [4, 4], ms_combs: [-4, 4, -3, 3, -2, 2, -1, 1, 0, 0, 1, -1, 2, -2, 3, -3, 4, -4], ctildes: [0.3333333432674408, -0.3333333432674408, 0.3333333432674408, -0.3333333432674408, 0.3333333432674408, -0.3333333432674408, 0.3333333432674408, -0.3333333432674408, 0.3333333432674408]}
    - {mu0: 0, rank: 2, ndensity: 1, num_ms_combs: 9, mus: [0, 0], ns: [2, 5], ls: [4, 4], ms_combs: [-4, 4, -3, 3, -2, 2, -1, 1, 0, 0, 1, -1, 2, -2, 3, -3, 4, -4], ctildes: [0.3333333432674408, -0.3333333432674408, 0.3333333432674408, -0.3333333432674408, 0.3333333432674408, -0.3333333432674408, 0.3333333432674408, -0.3333333432674408, 0.3333333432674408]}
    - {mu0: 0, rank: 2, ndensity: 1, num_ms_combs: 9, mus: [0, 0], ns: [2, 6], ls: [4, 4], ms_combs: [-4, 4, -3, 3, -2, 2, -1, 1, 0, 0, 1, -1, 2, -2, 3, -3, 4, -4], ctildes: [0.3333333432674408, -0.3333333432674408, 0.3333333432674408, -0.3333333432674408, 0.3333333432674408, -0.3333333432674408, 0.3333333432674408, -0.3333333432674408, 0.3333333432674408]}
    - {mu0: 0, rank: 2, ndensity: 1, num_ms_combs: 9, mus: [0, 0], ns: [2, 7], ls: [4, 4], ms_combs: [-4, 4, -3, 3, -2, 2, -1, 1, 0, 0, 1, -1, 2, -2, 3, -3, 4, -4], ctildes: [0.3333333432674408, -0.3333333432674408, 0.3333333432674408, -0.3333333432674408, 0.3333333432674408, -0.3333333432674408, 0.3333333432674408, -0.3333333432674408, 0.3333333432674408]}
    - {mu0: 0, rank: 2, ndensity: 1, num_ms_combs: 9, mus: [0, 0], ns: [3, 3], ls: [4, 4], ms_combs: [-4, 4, -3, 3, -2, 2, -1, 1, 0, 0, 1, -1, 2, -2, 3, -3, 4, -4], ctildes: [0.3333333432674408, -0.3333333432674408, 0.3333333432674408, -0.3333333432674408, 0.3333333432674408, -0.3333333432674408, 0.3333333432674408, -0.3333333432674408, 0.3333333432674408]}
    - {mu0: 0, rank: 2, ndensity: 1, num_ms_combs: 9, mus: [0, 0], ns: [3, 4], ls: [4, 4], ms_combs: [-4, 4, -3, 3, -2, 2, -1, 1, 0, 0, 1, -1, 2, -2, 3, -3, 4, -4], ctildes: [0.3333333432674408, -0.3333333432674408, 0.3333333432674408, -0.3333333432674408, 0.3333333432674408, -0.3333333432674408, 0.3333333432674408, -0.3333333432674408, 0.3333333432674408]}
    - {mu0: 0, rank: 2, ndensity: 1, num_ms_combs: 9, mus: [0, 0], ns: [3, 5], ls: [4, 4], ms_combs: [-4, 4, -3, 3, -2, 2, -1, 1, 0, 0, 1, -1, 2, -2, 3, -3, 4, -4], ctildes: [0.3333333432674408, -0.3333333432674408, 0.3333333432674408, -0.3333333432674408, 0.3333333432674408, -0.3333333432674408, 0.3333333432674408, -0.3333333432674408, 0.3333333432674408]}
    - {mu0: 0, rank: 2, ndensity: 1, num_ms_combs: 9, mus: [0, 0], ns: [3, 6], ls: [4, 4], ms_combs: [-4, 4, -3, 3, -2, 2, -1, 1, 0, 0, 1, -1, 2, -2, 3, -3, 4, -4], ctildes: [0.3333333432674408, -0.3333333432674408, 0.3333333432674408, -0.3333333432674408, 0.3333333432674408, -0.3333333432674408, 0.3333333432674408, -0.3333333432674408, 0.3333333432674408]}
    - {mu0: 0, rank: 2, ndensity: 1, num_ms_combs: 9, mus: [0, 0], ns: [3, 7], ls: [4, 4], ms_combs: [-4, 4, -3, 3, -2, 2, -1, 1, 0, 0, 1, -1, 2, -2, 3, -3, 4, -4], ctildes: [0.3333333432674408, -0.3333333432674408, 0.3333333432674408, -0.3333333432674408, 0.3333333432674408, -0.3333333432674408, 0.3333333432674408, -0.3333333432674408, 0.3333333432674408]}
    - {mu0: 0, rank: 2, ndensity: 1, num_ms_combs: 9, mus: [0, 0], ns: [4, 4], ls: [4, 4], ms_combs: [-4, 4, -3, 3, -2, 2, -1, 1, 0, 0, 1, -1, 2, -2, 3, -3, 4, -4], ctildes: [0.3333333432674408, -0.3333333432674408, 0.3333333432674408, -0.3333333432674408, 0.3333333432674408, -0.3333333432674408, 0.3333333432674408, -0.3333333432674408, 0.3333333432674408]}
    - {mu0: 0, rank: 2, ndensity: 1, num_ms_combs: 9, mus: [0, 0], ns: [4, 5], ls: [4, 4], ms_combs: [-4, 4, -3, 3, -2, 2, -1, 1, 0, 0, 1, -1, 2, -2, 3, -3, 4, -4], ctildes: [0.3333333432674408, -0.3333333432674408, 0.3333333432674408, -0.3333333432674408, 0.3333333432674408, -0.3333333432674408, 0.3333333432674408, -0.3333333432674408, 0.3333333432674408]}
    - {mu0: 0, rank: 2, ndensity: 1, num_ms_combs: 9, mus: [0, 0], ns: [4, 6], ls: [4, 4], ms_combs: [-4, 4, -3, 3, -2, 2, -1, 1, 0, 0, 1, -1, 2, -2, 3, -3, 4, -4], ctildes: [0.3333333432674408, -0.3333333432674408, 0.3333333432674408, -0.3333333432674408, 0.3333333432674408, -0.3333333432674408, 0.3333333432674408, -0.3333333432674408, 0.3333333432674408]}
    - {mu0: 0, rank: 2, ndensity: 1, num_ms_combs: 9, mus: [0, 0], ns: [4, 7], ls: [4, 4], ms_combs: [-4, 4, -3, 3, -2, 2, -1, 1, 0, 0, 1, -1, 2, -2, 3, -3, 4, -4], ctildes: [0.3333333432674408, -0.3333333432674408, 0.3333333432674408, -0.3333333432674408, 0.3333333432674408, -0.3333333432674408, 0.3333333432674408, -0.3333333432674408, 0.3333333432674408]}
    - {mu0: 0, rank: 2, ndensity: 1, num_ms_combs: 9, mus: [0, 0], ns: [5, 5], ls: [4, 4], ms_combs: [-4, 4, -3, 3, -2, 2, -1, 1, 0, 0, 1, -1, 2, -2, 3, -3, 4, -4], ctildes: [0.3333333432674408, -0.3333333432674408, 0.3333333432674408, -0.3333333432674408, 0.3333333432674408, -0.3333333432674408, 0.3333333432674408, -0.3333333432674408, 0.3333333432674408]}
    - {mu0: 0, rank: 2, ndensity: 1, num_ms_combs: 9, mus: [0, 0], ns: [5, 6], ls: [4, 4], ms_combs: [-4, 4, -3, 3, -2, 2, -1, 1, 0, 0, 1, -1, 2, -2, 3, -3, 4, -4], ctildes: [0.3333333432674408, -0.3333333432674408, 0.3333333432674408, -0.3333333432674408, 0.3333333432674408, -0.3333333432674408, 0.3333333432674408, -0.3333333432674408, 0.3333333432674408]}
    - {mu0: 0, rank: 2, ndensity: 1, num_ms_combs: 9, mus: [0, 0], ns: [5, 7], ls: [4, 4], ms_combs: [-4, 4, -3, 3, -2, 2, -1, 1, 0, 0, 1, -1, 2, -2, 3, -3, 4, -4], ctildes: [0.3333333432674408, -0.3333333432674408, 0.3333333432674408, -0.3333333432674408, 0.3333333432674408, -0.3333333432674408, 0.3333333432674408, -0.3333333432674408, 0.3333333432674408]}
    - {mu0: 0, rank: 2, ndensity: 1, num_ms_combs: 9, mus: [0, 0], ns: [6, 6], ls: [4, 4], ms_combs: [-4, 4, -3, 3, -2, 2, -1, 1, 0, 0, 1, -1, 2, -2, 3, -3, 4, -4], ctildes: [0.3333333432674408, -0.3333333432674408, 0.3333333432674408, -0.3333333432674408, 0.3333333432674408, -0.3333333432674408, 0.3333333432674408, -0.3333333432674408, 0.3333333432674408]}
    - {mu0: 0, rank: 2, ndensity: 1, num_ms_combs: 9, mus: [0, 0], ns: [6, 7], ls: [4, 4], ms_combs: [-4, 4, -3, 3, -2, 2, -1, 1, 0, 0, 1, -1, 2, -2, 3, -3, 4, -4], ctildes: [0.3333333432674408, -0.3333333432674408, 0.3333333432674408, -0.3333333432674408, 0.3333333432674408, -0.3333333432674408, 0.3333333432674408, -0.3333333432674408, 0.3333333432674408]}
    - {mu0: 0, rank: 2, ndensity: 1, num_ms_combs: 9, mus: [0, 0], ns: [7, 7], ls: [4, 4], ms_combs: [-4, 4, -3, 3, -2, 2, -1, 1, 0, 0, 1, -1, 2, -2, 3, -3, 4, -4], ctildes: [0.3333333432674408, -0.3333333432674408, 0.3333333432674408, -0.3333333432674408, 0.3333333432674408, -0.3333333432674408, 0.3333333432674408, -0.3333333432674408, 0.3333333432674408]}
    - {mu0: 0, rank: 2, ndensity: 1, num_ms_combs: 11, mus: [0, 0], ns: [1, 1], ls: [5, 5], ms_combs: [-5, 5, -4, 4, -3, 3, -2, 2, -1, 1, 0, 0, 1, -1, 2, -2, 3, -3, 4, -4, 5, -5], ctildes: [0.30151134729385376, -0.30151134729385376, 0.30151134729385376, -0.30151134729385376, 0.30151134729385376, -0.30151134729385376, 0.30151134729385376, -0.30151134729385376, 0.30151134729385376, -0.30151134729385376, 0.30151134729385376]}
    - {mu0: 0, rank: 2, ndensity: 1, num_ms_combs: 11, mus: [0, 0], ns: [1, 2], ls: [5, 5], ms_combs: [-5, 5, -4, 4, -3, 3, -2, 2, -1, 1, 0, 0, 1, -1, 2, -2, 3, -3, 4, -4, 5, -5], ctildes: [0.30151134729385376, -0.30151134729385376, 0.30151134729385376, -0.30151134729385376, 0.30151134729385376, -0.30151134729385376, 0.30151134729385376, -0.30151134729385376, 0.30151134729385376, -0.30151134729385376, 0.30151134729385376]}
    - {mu0: 0, rank: 2, ndensity: 1, num_ms_combs: 11, mus: [0, 0], ns: [1, 3], ls: [5, 5], ms_combs: [-5, 5, -4, 4, -3, 3, -2, 2, -1, 1, 0, 0, 1, -1, 2, -2, 3, -3, 4, -4, 5, -5], ctildes: [0.30151134729385376, -0.30151134729385376, 0.30151134729385376, -0.30151134729385376, 0.30151134729385376, -0.30151134729385376, 0.30151134729385376, -0.30151134729385376, 0.30151134729385376, -0.30151134729385376, 0.30151134729385376]}
    - {mu0: 0, rank: 2, ndensity: 1, num_ms_combs: 11, mus: [0, 0], ns: [1, 4], ls: [5, 5], ms_combs: [-5, 5, -4, 4, -3, 3, -2, 2, -1, 1, 0, 0, 1, -1, 2, -2, 3, -3, 4, -4, 5, -5], ctildes: [0.30151134729385376, -0.30151134729385376, 0.30151134729385376, -0.30151134729385376, 0.30151134729385376, -0.30151134729385376, 0.30151134729385376, -0.30151134729385376, 0.30151134729385376, -0.30151134729385376, 0.30151134729385376]}
    - {mu0: 0, rank: 2, ndensity: 1, num_ms_combs: 11, mus: [0, 0], ns: [1, 5], ls: [5, 5], ms_combs: [-5, 5, -4, 4, -3, 3, -2, 2, -1, 1, 0, 0, 1, -1, 2, -2, 3, -3, 4, -4, 5, -5], ctildes: [0.30151134729385376, -0.30151134729385376, 0.30151134729385376, -0.30151134729385376, 0.30151134729385376, -0.30151134729385376, 0.30151134729385376, -0.30151134729385376, 0.30151134729385376, -0.30151134729385376, 0.30151134729385376]}
    - {mu0: 0, rank: 2, ndensity: 1, num_ms_combs: 11, mus: [0, 0], ns: [1, 6], ls: [5, 5], ms_combs: [-5, 5, -4, 4, -3, 3, -2, 2, -1, 1, 0, 0, 1, -1, 2, -2, 3, -3, 4, -4, 5, -5], ctildes: [0.30151134729385376, -0.30151134729385376, 0.30151134729385376, -0.30151134729385376, 0.30151134729385376, -0.30151134729385376, 0.30151134729385376, -0.30151134729385376, 0.30151134729385376, -0.30151134729385376, 0.30151134729385376]}
    - {mu0: 0, rank: 2, ndensity: 1, num_ms_combs: 11, mus: [0, 0], ns: [1, 7], ls: [5, 5], ms_combs: [-5, 5, -4, 4, -3, 3, -2, 2, -1, 1, 0, 0, 1, -1, 2, -2, 3, -3, 4, -4, 5, -5], ctildes: [0.30151134729385376, -0.30151134729385376, 0.30151134729385376, -0.30151134729385376, 0.30151134729385376, -0.30151134729385376, 0.30151134729385376, -0.30151134729385376, 0.30151134729385376, -0.30151134729385376, 0.30151134729385376]}
    - {mu0: 0, rank: 2, ndensity: 1, num_ms_combs: 11, mus: [0, 0], ns: [2, 2], ls: [5, 5], ms_combs: [-5, 5, -4, 4, -3, 3, -2, 2, -1, 1, 0, 0, 1, -1, 2, -2, 3, -3, 4, -4, 5, -5], ctildes: [0.30151134729385376, -0.30151134729385376, 0.30151134729385376, -0.30151134729385376, 0.30151134729385376, -0.30151134729385376, 0.30151134729385376, -0.30151134729385376, 0.30151134729385376, -0.30151134729385376, 0.30151134729385376]}
    - {mu0: 0, rank: 2, ndensity: 1, num_ms_combs: 11, mus: [0, 0], ns: [2, 3], ls: [5, 5], ms_combs: [-5, 5, -4, 4, -3, 3, -2, 2, -1, 1, 0, 0, 1, -1, 2, -2, 3, -3, 4, -4, 5, -5], ctildes: [0.30151134729385376, -0.30151134729385376, 0.30151134729385376, -0.30151134729385376, 0.30151134729385376, -0.30151134729385376, 0.30151134729385376, -0.30151134729385376, 0.30151134729385376, -0.30151134729385376, 0.30151134729385376]}
    - {mu0: 0, rank: 2, ndensity: 1, num_ms_combs: 11, mus: [0, 0], ns: [2, 4], ls: [5, 5], ms_combs: [-5, 5, -4, 4, -3, 3, -2, 2, -1, 1, 0, 0, 1, -1, 2, -2, 3, -3, 4, -4, 5, -5], ctildes: [0.30151134729385376, -0.30151134729385376, 0.30151134729385376, -0.30151134729385376, 0.30151134729385376, -0.30151134729385376, 0.30151134729385376, -0.30151134729385376, 0.30151134729385376, -0.30151134729385376, 0.30151134729385376]}
    - {mu0: 0, rank: 2, ndensity: 1, num_ms_combs: 11, mus: [0, 0], ns: [2, 5], ls: [5, 5], ms_combs: [-5, 5, -4, 4, -3, 3, -2, 2, -1, 1, 0, 0, 1, -1, 2, -2, 3, -3, 4, -4, 5, -5], ctildes: [0.30151134729385376, -0.30151134729385376, 0.30151134729385376, -0.30151134729385376, 0.30151134729385376, -0.30151134729385376, 0.30151134729385376, -0.30151134729385376, 0.30151134729385376, -0.30151134729385376, 0.30151134729385376]}
    - {mu0: 0, rank: 2, ndensity: 1, num_ms_combs: 11, mus: [0, 0], ns: [2, 6], ls: [5, 5], ms_combs: [-5, 5, -4, 4, -3, 3, -2, 2, -1, 1, 0, 0, 1, -1, 2, -2, 3, -3, 4, -4, 5, -5], ctildes: [0.30151134729385376, -0.30151134729385376, 0.30151134729385376, -0.30151134729385376, 0.30151134729385376, -0.30151134729385376, 0.30151134729385376, -0.30151134729385376, 0.30151134729385376, -0.30151134729385376, 0.30151134729385376]}
    - {mu0: 0, rank: 2, ndensity: 1, num_ms_combs: 11, mus: [0, 0], ns: [2, 7], ls: [5, 5], ms_combs: [-5, 5, -4, 4, -3, 3, -2, 2, -1, 1, 0, 0, 1, -1, 2, -2, 3, -3, 4, -4, 5, -5], ctildes: [0.30151134729385376, -0.30151134729385376, 0.30151134729385376, -0.30151134729385376, 0.30151134729385376, -0.30151134729385376, 0.30151134729385376, -0.30151134729385376, 0.30151134729385376, -0.30151134729385376, 0.30151134729385376]}
    - {mu0: 0, rank: 2, ndensity: 1, num_ms_combs: 11, mus: [0, 0], ns: [3, 3], ls: [5, 5], ms_combs: [-5, 5, -4, 4, -3, 3, -2, 2, -1, 1, 0, 0, 1, -1, 2, -2, 3, -3, 4, -4, 5, -5], ctildes: [0.30151134729385376, -0.30151134729385376, 0.30151134729385376, -0.30151134729385376, 0.30151134729385376, -0.30151134729385376, 0.30151134729385376, -0.30151134729385376, 0.30151134729385376, -0.30151134729385376, 0.30151134729385376]}
    - {mu0: 0, rank: 2, ndensity: 1, num_ms_combs: 11, mus: [0, 0], ns: [3, 4], ls: [5, 5], ms_combs: [-5, 5, -4, 4, -3, 3, -2, 2, -1, 1, 0, 0, 1, -1, 2, -2, 3, -3, 4, -4, 5, -5], ctildes: [0.30151134729385376, -0.30151134729385376, 0.30151134729385376, -0.30151134729385376, 0.30151134729385376, -0.30151134729385376, 0.30151134729385376, -0.30151134729385376, 0.30151134729385376, -0.30151134729385376, 0.30151134729385376]}
    - {mu0: 0, rank: 2, ndensity: 1, num_ms_combs: 11, mus: [0, 0], ns: [3, 5], ls: [5, 5], ms_combs: [-5, 5, -4, 4, -3, 3, -2, 2, -1, 1, 0, 0, 1, -1, 2, -2, 3, -3, 4, -4, 5, -5], ctildes: [0.30151134729385376, -0.30151134729385376, 0.30151134729385376, -0.30151134729385376, 0.30151134729385376, -0.30151134729385376, 0.30151134729385376, -0.30151134729385376, 0.30151134729385376, -0.30151134729385376, 0.30151134729385376]}
    - {mu0: 0, rank: 2, ndensity: 1, num_ms_combs: 11, mus: [0, 0], ns: [3, 6], ls: [5, 5], ms_combs: [-5, 5, -4, 4, -3, 3, -2, 2, -1, 1, 0, 0, 1, -1, 2, -2, 3, -3, 4, -4, 5, -5], ctildes: [0.30151134729385376, -0.30151134729385376, 0.30151134729385376, -0.30151134729385376, 0.30151134729385376, -0.30151134729385376, 0.30151134729385376, -0.30151134729385376, 0.30151134729385376, -0.30151134729385376, 0.30151134729385376]}
    - {mu0: 0, rank: 2, ndensity: 1, num_ms_combs: 11, mus: [0, 0], ns: [3, 7], ls: [5, 5], ms_combs: [-5, 5, -4, 4, -3, 3, -2, 2, -1, 1, 0, 0, 1, -1, 2, -2, 3, -3, 4, -4, 5, -5], ctildes: [0.30151134729385376, -0.30151134729385376, 0.30151134729385376, -0.30151134729385376, 0.30151134729385376, -0.30151134729385376, 0.30151134729385376, -0.30151134729385376, 0.30151134729385376, -0.30151134729385376, 0.30151134729385376]}
    - {mu0: 0, rank: 2, ndensity: 1, num_ms_combs: 11, mus: [0, 0], ns: [4, 4], ls: [5, 5], ms_combs: [-5, 5, -4, 4, -3, 3, -2, 2, -1, 1, 0, 0, 1, -1, 2, -2, 3, -3, 4, -4, 5, -5], ctildes: [0.30151134729385376, -0.30151134729385376, 0.30151134729385376, -0.30151134729385376, 0.30151134729385376, -0.30151134729385376, 0.30151134729385376, -0.30151134729385376, 0.30151134729385376, -0.30151134729385376, 0.30151134729385376]}
    - {mu0: 0, rank: 2, ndensity: 1, num_ms_combs: 11, mus: [0, 0], ns: [4, 5], ls: [5, 5], ms_combs: [-5, 5, -4, 4, -3, 3, -2, 2, -1, 1, 0, 0, 1, -1, 2, -2, 3, -3, 4, -4, 5, -5], ctildes: [0.30151134729385376, -0.30151134729385376, 0.30151134729385376, -0.30151134729385376, 0.30151134729385376, -0.30151134729385376, 0.30151134729385376, -0.30151134729385376, 0.30151134729385376, -0.30151134729385376, 0.30151134729385376]}
    - {mu0: 0, rank: 2, ndensity: 1, num_ms_combs: 11, mus: [0, 0], ns: [4, 6], ls: [5, 5], ms_combs: [-5, 5, -4, 4, -3, 3, -2, 2, -1, 1, 0, 0, 1, -1, 2, -2, 3, -3, 4, -4, 5, -5], ctildes: [0.30151134729385376, -0.30151134729385376, 0.30151134729385376, -0.30151134729385376, 0.30151134729385376, -0.30151134729385376, 0.30151134729385376, -0.30151134729385376, 0.30151134729385376, -0.30151134729385376, 0.30151134729385376]}
    - {mu0: 0, rank: 2, ndensity: 1, num_ms_combs: 11, mus: [0, 0], ns: [4, 7], ls: [5, 5], ms_combs: [-5, 5, -4, 4, -3, 3, -2, 2, -1, 1, 0, 0, 1, -1, 2, -2, 3, -3, 4, -4, 5, -5], ctildes: [0.30151134729385376, -0.30151134729385376, 0.30151134729385376, -0.30151134729385376, 0.30151134729385376, -0.30151134729385376, 0.30151134729385376, -0.30151134729385376, 0.30151134729385376, -0.30151134729385376, 0.30151134729385376]}
    - {mu0: 0, rank: 2, ndensity: 1, num_ms_combs: 11, mus: [0, 0], ns: [5, 5], ls: [5, 5], ms_combs: [-5, 5, -4, 4, -3, 3, -2, 2, -1, 1, 0, 0, 1, -1, 2, -2, 3, -3, 4, -4, 5, -5], ctildes: [0.30151134729385376, -0.30151134729385376, 0.30151134729385376, -0.30151134729385376, 0.30151134729385376, -0.30151134729385376, 0.30151134729385376, -0.30151134729385376, 0.30151134729385376, -0.30151134729385376, 0.30151134729385376]}
    - {mu0: 0, rank: 2, ndensity: 1, num_ms_combs: 11, mus: [0, 0], ns: [5, 6], ls: [5, 5], ms_combs: [-5, 5, -4, 4, -3, 3, -2, 2, -1, 1, 0, 0, 1, -1, 2, -2, 3, -3, 4, -4, 5, -5], ctildes: [0.30151134729385376, -0.30151134729385376, 0.30151134729385376, -0.30151134729385376, 0.30151134729385376, -0.30151134729385376, 0.30151134729385376, -0.30151134729385376, 0.30151134729385376, -0.30151134729385376, 0.30151134729385376]}
    - {mu0: 0, rank: 2, ndensity: 1, num_ms_combs: 11, mus: [0, 0], ns: [5, 7], ls: [5, 5], ms_combs: [-5, 5, -4, 4, -3, 3, -2, 2, -1, 1, 0, 0, 1, -1, 2, -2, 3, -3, 4, -4, 5, -5], ctildes: [0.30151134729385376, -0.30151134729385376, 0.30151134729385376, -0.30151134729385376, 0.30151134729385376, -0.30151134729385376, 0.30151134729385376, -0.30151134729385376, 0.30151134729385376, -0.30151134729385376, 0.30151134729385376]}
    - {mu0: 0, rank: 2, ndensity: 1, num_ms_combs: 11, mus: [0, 0], ns: [6, 6], ls: [5, 5], ms_combs: [-5, 5, -4, 4, -3, 3, -2, 2, -1, 1, 0, 0, 1, -1, 2, -2, 3, -3, 4, -4, 5, -5], ctildes: [0.30151134729385376, -0.30151134729385376, 0.30151134729385376, -0.30151134729385376, 0.30151134729385376, -0.30151134729385376, 0.30151134729385376, -0.30151134729385376, 0.30151134729385376, -0.30151134729385376, 0.30151134729385376]}
    - {mu0: 0, rank: 2, ndensity: 1, num_ms_combs: 11, mus: [0, 0], ns: [6, 7], ls: [5, 5], ms_combs: [-5, 5, -4, 4, -3, 3, -2, 2, -1, 1, 0, 0, 1, -1, 2, -2, 3, -3, 4, -4, 5, -5], ctildes: [0.30151134729385376, -0.30151134729385376, 0.30151134729385376, -0.30151134729385376, 0.30151134729385376, -0.30151134729385376, 0.30151134729385376, -0.30151134729385376, 0.30151134729385376, -0.30151134729385376, 0.30151134729385376]}
    - {mu0: 0, rank: 2, ndensity: 1, num_ms_combs: 11, mus: [0, 0], ns: [7, 7], ls: [5, 5], ms_combs: [-5, 5, -4, 4, -3, 3, -2, 2, -1, 1, 0, 0, 1, -1, 2, -2, 3, -3, 4, -4, 5, -5], ctildes: [0.30151134729385376, -0.30151134729385376, 0.30151134729385376, -0.30151134729385376, 0.30151134729385376, -0.30151134729385376, 0.30151134729385376, -0.30151134729385376, 0.30151134729385376, -0.30151134729385376, 0.30151134729385376]}
    - {mu0: 0, rank: 3, ndensity: 1, num_ms_combs: 9, mus: [0, 0, 0], ns: [1, 1, 1], ls: [1, 1, 2], ms_combs: [-1, -1, 2, -1, 0, 1, -1, 1, 0, 0, -1, 1, 0, 0, 0, 0, 1, -1, 1, -1, 0, 1, 0, -1, 1, 1, -2], ctildes: [0.1999999952104794, -0.14142135359335306, 0.08164966239889981, -0.14142135359335306, 0.16329932479779963, -0.14142135359335306, 0.08164966239889981, -0.14142135359335306, 0.1999999952104794]}
    - {mu0: 0, rank: 3, ndensity: 1, num_ms_combs: 9, mus: [0, 0, 0], ns: [1, 1, 2], ls: [1, 1, 2], ms_combs: [-1, -1, 2, -1, 0, 1, -1, 1, 0, 0, -1, 1, 0, 0, 0, 0, 1, -1, 1, -1, 0, 1, 0, -1, 1, 1, -2], ctildes: [0.1999999952104794, -0.14142135359335306, 0.08164966239889981, -0.14142135359335306, 0.16329932479779963, -0.14142135359335306, 0.08164966239889981, -0.14142135359335306, 0.1999999952104794]}
    - {mu0: 0, rank: 3, ndensity: 1, num_ms_combs: 9, mus: [0, 0, 0], ns: [1, 1, 3], ls: [1, 1, 2], ms_combs: [-1, -1, 2, -1, 0, 1, -1, 1, 0, 0, -1, 1, 0, 0, 0, 0, 1, -1, 1, -1, 0, 1, 0, -1, 1, 1, -2], ctildes: [0.1999999952104794, -0.14142135359335306, 0.08164966239889981, -0.14142135359335306, 0.16329932479779963, -0.14142135359335306, 0.08164966239889981, -0.14142135359335306, 0.1999999952104794]}
    - {mu0: 0, rank: 3, ndensity: 1, num_ms_combs: 9, mus: [0, 0, 0], ns: [1, 2, 1], ls: [1, 1, 2], ms_combs: [-1, -1, 2, -1, 0, 1, -1, 1, 0, 0, -1, 1, 0, 0, 0, 0, 1, -1, 1, -1, 0, 1, 0, -1, 1, 1, -2], ctildes: [0.1999999952104794, -0.14142135359335306, 0.08164966239889981, -0.14142135359335306, 0.16329932479779963, -0.14142135359335306, 0.08164966239889981, -0.14142135359335306, 0.1999999952104794]}
    - {mu0: 0, rank: 3, ndensity: 1, num_ms_combs: 9, mus: [0, 0, 0], ns: [1, 2, 2], ls: [1, 1, 2], ms_combs: [-1, -1, 2, -1, 0, 1, -1, 1, 0, 0, -1, 1, 0, 0, 0, 0, 1, -1, 1, -1, 0, 1, 0, -1, 1, 1, -2], ctildes: [0.1999999952104794, -0.14142135359335306, 0.08164966239889981, -0.14142135359335306, 0.16329932479779963, -0.14142135359335306, 0.08164966239889981, -0.14142135359335306, 0.1999999952104794]}
    - {mu0: 0, rank: 3, ndensity: 1, num_ms_combs: 9, mus: [0, 0, 0], ns: [1, 2, 3], ls: [1, 1, 2], ms_combs: [-1, -1, 2, -1, 0, 1, -1, 1, 0, 0, -1, 1, 0, 0, 0, 0, 1, -1, 1, -1, 0, 1, 0, -1, 1, 1, -2], ctildes: [0.1999999952104794, -0.14142135359335306, 0.08164966239889981, -0.14142135359335306, 0.16329932479779963, -0.14142135359335306, 0.08164966239889981, -0.14142135359335306, 0.1999999952104794]}
    - {mu0: 0, rank: 3, ndensity: 1, num_ms_combs: 9, mus: [0, 0, 0], ns: [1, 3, 1], ls: [1, 1, 2], ms_combs: [-1, -1, 2, -1, 0, 1, -1, 1, 0, 0, -1, 1, 0, 0, 0, 0, 1, -1, 1, -1, 0, 1, 0, -1, 1, 1, -2], ctildes: [0.1999999952104794, -0.14142135359335306, 0.08164966239889981, -0.14142135359335306, 0.16329932479779963, -0.14142135359335306, 0.08164966239889981, -0.14142135359335306, 0.1999999952104794]}
    - {mu0: 0, rank: 3, ndensity: 1, num_ms_combs: 9, mus: [0, 0, 0], ns: [1, 3, 2], ls: [1, 1, 2], ms_combs: [-1, -1, 2, -1, 0, 1, -1, 1, 0, 0, -1, 1, 0, 0, 0, 0, 1, -1, 1, -1, 0, 1, 0, -1, 1, 1, -2], ctildes: [0.1999999952104794, -0.14142135359335306, 0.08164966239889981, -0.14142135359335306, 0.16329932479779963, -0.14142135359335306, 0.08164966239889981, -0.14142135359335306, 0.1999999952104794]}
    - {mu0: 0, rank: 3, ndensity: 1, num_ms_combs: 9, mus: [0, 0, 0], ns: [1, 3, 3], ls: [1, 1, 2], ms_combs: [-1, -1, 2, -1, 0, 1, -1, 1, 0, 0, -1, 1, 0, 0, 0, 0, 1, -1, 1, -1, 0, 1, 0, -1, 1, 1, -2], ctildes: [0.1999999952104794, -0.14142135359335306, 0.08164966239889981, -0.14142135359335306, 0.16329932479779963, -0.14142135359335306, 0.08164966239889981, -0.14142135359335306, 0.1999999952104794]}
    - {mu0: 0, rank: 3, ndensity: 1, num_ms_combs: 9, mus: [0, 0, 0], ns: [2, 2, 1], ls: [1, 1, 2], ms_combs: [-1, -1, 2, -1, 0, 1, -1, 1, 0, 0, -1, 1, 0, 0, 0, 0, 1, -1, 1, -1, 0, 1, 0, -1, 1, 1, -2], ctildes: [0.1999999952104794, -0.14142135359335306, 0.08164966239889981, -0.14142135359335306, 0.16329932479779963, -0.14142135359335306, 0.08164966239889981, -0.14142135359335306, 0.1999999952104794]}
    - {mu0: 0, rank: 3, ndensity: 1, num_ms_combs: 9, mus: [0, 0, 0], ns: [2, 2, 2], ls: [1, 1, 2], ms_combs: [-1, -1, 2, -1, 0, 1, -1, 1, 0, 0, -1, 1, 0, 0, 0, 0, 1, -1, 1, -1, 0, 1, 0, -1, 1, 1, -2], ctildes: [0.1999999952104794, -0.14142135359335306, 0.08164966239889981, -0.14142135359335306, 0.16329932479779963, -0.14142135359335306, 0.08164966239889981, -0.14142135359335306, 0.1999999952104794]}
    - {mu0: 0, rank: 3, ndensity: 1, num_ms_combs: 9, mus: [0, 0, 0], ns: [2, 2, 3], ls: [1, 1, 2], ms_combs: [-1, -1, 2, -1, 0, 1, -1, 1, 0, 0, -1, 1, 0, 0, 0, 0, 1, -1, 1, -1, 0, 1, 0, -1, 1, 1, -2], ctildes: [0.1999999952104794, -0.14142135359335306, 0.08164966239889981, -0.14142135359335306, 0.16329932479779963, -0.14142135359335306, 0.08164966239889981, -0.14142135359335306, 0.1999999952104794]}
    - {mu0: 0, rank: 3, ndensity: 1, num_ms_combs: 9, mus: [0, 0, 0], ns: [2, 3, 1], ls: [1, 1, 2], ms_combs: [-1, -1, 2, -1, 0, 1, -1, 1, 0, 0, -1, 1, 0, 0, 0, 0, 1, -1, 1, -1, 0, 1, 0, -1, 1, 1, -2], ctildes: [0.1999999952104794, -0.14142135359335306, 0.08164966239889981, -0.14142135359335306, 0.16329932479779963, -0.14142135359335306, 0.08164966239889981, -0.14142135359335306, 0.1999999952104794]}
    - {mu0: 0, rank: 3, ndensity: 1, num_ms_combs: 9, mus: [0, 0, 0], ns: [2, 3, 2], ls: [1, 1, 2], ms_combs: [-1, -1, 2, -1, 0, 1, -1, 1, 0, 0, -1, 1, 0, 0, 0, 0, 1, -1, 1, -1, 0, 1, 0, -1, 1, 1, -2], ctildes: [0.1999999952104794, -0.14142135359335306, 0.08164966239889981, -0.14142135359335306, 0.16329932479779963, -0.14142135359335306, 0.08164966239889981, -0.14142135359335306, 0.1999999952104794]}
    - {mu0: 0, rank: 3, ndensity: 1, num_ms_combs: 9, mus: [0, 0, 0], ns: [2, 3, 3], ls: [1, 1, 2], ms_combs: [-1, -1, 2, -1, 0, 1, -1, 1, 0, 0, -1, 1, 0, 0, 0, 0, 1, -1, 1, -1, 0, 1, 0, -1, 1, 1, -2], ctildes: [0.1999999952104794, -0.14142135359335306, 0.08164966239889981, -0.14142135359335306, 0.16329932479779963, -0.14142135359335306, 0.08164966239889981, -0.14142135359335306, 0.1999999952104794]}
    - {mu0: 0, rank: 3, ndensity: 1, num_ms_combs: 9, mus: [0, 0, 0], ns: [3, 3, 1], ls: [1, 1, 2], ms_combs: [-1, -1, 2, -1, 0, 1, -1, 1, 0, 0, -1, 1, 0, 0, 0, 0, 1, -1, 1, -1, 0, 1, 0, -1, 1, 1, -2], ctildes: [0.1999999952104794, -0.14142135359335306, 0.08164966239889981, -0.14142135359335306, 0.16329932479779963, -0.14142135359335306, 0.08164966239889981, -0.14142135359335306, 0.1999999952104794]}
    - {mu0: 0, rank: 3, ndensity: 1, num_ms_combs: 9, mus: [0, 0, 0], ns: [3, 3, 2], ls: [1, 1, 2], ms_combs: [-1, -1, 2, -1, 0, 1, -1, 1, 0, 0, -1, 1, 0, 0, 0, 0, 1, -1, 1, -1, 0, 1, 0, -1, 1, 1, -2], ctildes: [0.1999999952104794, -0.14142135359335306, 0.08164966239889981, -0.14142135359335306, 0.16329932479779963, -0.14142135359335306, 0.08164966239889981, -0.14142135359335306, 0.1999999952104794]}
    - {mu0: 0, rank: 3, ndensity: 1, num_ms_combs: 9, mus: [0, 0, 0], ns: [3, 3, 3], ls: [1, 1, 2], ms_combs: [-1, -1, 2, -1, 0, 1, -1, 1, 0, 0, -1, 1, 0, 0, 0, 0, 1, -1, 1, -1, 0, 1, 0, -1, 1, 1, -2], ctildes: [0.1999999952104794, -0.14142135359335306, 0.08164966239889981, -0.14142135359335306, 0.16329932479779963, -0.14142135359335306, 0.08164966239889981, -0.14142135359335306, 0.1999999952104794]}
    - {mu0: 0, rank: 3, ndensity: 1, num_ms_combs: 15, mus: [0, 0, 0], ns: [1, 1, 1], ls: [1, 2, 3], ms_combs: [-1, -2, 3, -1, -1, 2, -1, 0, 1, -1, 1, 0, -1, 2, -1, 0, -2, 2, 0, -1, 1, 0, 0, 0, 0, 1, -1, 0, 2, -2, 1, -2, 1, 1, -1, 0, 1, 0, -1, 1, 1, -2, 1, 2, -3], ctildes: [0.14285713817113876, -0.11664237211493589, 0.09035078971800603, -0.06388765326736667, 0.03688555491939627, -0.08247860448643873, 0.10432810273894777, -0.11065666757424353, 0.10432810273894777, -0.08247860448643873, 0.03688555491939627, -0.06388765326736667, 0.09035078971800603, -0.11664237211493589, 0.14285713817113876]}
    - {mu0: 0, rank: 3, ndensity: 1, num_ms_combs: 15, mus: [0, 0, 0], ns: [1, 1, 2], ls: [1, 2, 3], ms_combs: [-1, -2, 3, -1, -1, 2, -1, 0, 1, -1, 1, 0, -1, 2, -1, 0, -2, 2, 0, -1, 1, 0, 0, 0, 0, 1, -1, 0, 2, -2, 1, -2, 1, 1, -1, 0, 1, 0, -1, 1, 1, -2, 1, 2, -3], ctildes: [0.14285713817113876, -0.11664237211493589, 0.09035078971800603, -0.06388765326736667, 0.03688555491939627, -0.08247860448643873, 0.10432810273894777, -0.11065666757424353, 0.10432810273894777, -0.08247860448643873, 0.03688555491939627, -0.06388765326736667, 0.09035078971800603, -0.11664237211493589, 0.14285713817113876]}
    - {mu0: 0, rank: 3, ndensity: 1, num_ms_combs: 15, mus: [0, 0, 0], ns: [1, 1, 3], ls: [1, 2, 3], ms_combs: [-1, -2, 3, -1, -1, 2, -1, 0, 1, -1, 1, 0, -1, 2, -1, 0, -2, 2, 0, -1, 1, 0, 0, 0, 0, 1, -1, 0, 2, -2, 1, -2, 1, 1, -1, 0, 1, 0, -1, 1, 1, -2, 1, 2, -3], ctildes: [0.14285713817113876, -0.11664237211493589, 0.09035078971800603, -0.06388765326736667, 0.03688555491939627, -0.08247860448643873, 0.10432810273894777, -0.11065666757424353, 0.10432810273894777, -0.08247860448643873, 0.03688555491939627, -0.06388765326736667, 0.09035078971800603, -0.11664237211493589, 0.14285713817113876]}
    - {mu0: 0, rank: 3, ndensity: 1, num_ms_combs: 15, mus: [0, 0, 0], ns: [1, 2, 1], ls: [1, 2, 3], ms_combs: [-1, -2, 3, -1, -1, 2, -1, 0, 1, -1, 1, 0, -1, 2, -1, 0, -2, 2, 0, -1, 1, 0, 0, 0, 0, 1, -1, 0, 2, -2, 1, -2, 1, 1, -1, 0, 1, 0, -1, 1, 1, -2, 1, 2, -3], ctildes: [0.14285713817113876, -0.11664237211493589, 0.09035078971800603, -0.06388765326736667, 0.03688555491939627, -0.08247860448643873, 0.10432810273894777, -0.11065666757424353, 0.10432810273894777, -0.08247860448643873, 0.03688555491939627, -0.06388765326736667, 0.09035078971800603, -0.11664237211493589, 0.14285713817113876]}
    - {mu0: 0, rank: 3, ndensity: 1, num_ms_combs: 15, mus: [0, 0, 0], ns: [1, 2, 2], ls: [1, 2, 3], ms_combs: [-1, -2, 3, -1, -1, 2, -1, 0, 1, -1, 1, 0, -1, 2, -1, 0, -2, 2, 0, -1, 1, 0, 0, 0, 0, 1, -1, 0, 2, -2, 1, -2, 1, 1, -1, 0, 1, 0, -1, 1, 1, -2, 1, 2, -3], ctildes: [0.14285713817113876, -0.11664237211493589, 0.09035078971800603, -0.06388765326736667, 0.03688555491939627, -0.08247860448643873, 0.10432810273894777, -0.11065666757424353, 0.10432810273894777, -0.08247860448643873, 0.03688555491939627, -0.06388765326736667, 0.09035078971800603, -0.11664237211493589, 0.14285713817113876]}
    - {mu0: 0, rank: 3, ndensity: 1, num_ms_combs: 15, mus: [0, 0, 0], ns: [1, 2, 3], ls: [1, 2, 3], ms_combs: [-1, -2, 3, -1, -1, 2, -1, 0, 1, -1, 1, 0, -1, 2, -1, 0, -2, 2, 0, -1, 1, 0, 0, 0, 0, 1, -1, 0, 2, -2, 1, -2, 1, 1, -1, 0, 1, 0, -1, 1, 1, -2, 1, 2, -3], ctildes: [0.14285713817113876, -0.11664237211493589, 0.09035078971800603, -0.06388765326736667, 0.03688555491939627, -0.08247860448643873, 0.10432810273894777, -0.11065666757424353, 0.10432810273894777, -0.08247860448643873, 0.03688555491939627, -0.06388765326736667, 0.09035078971800603, -0.11664237211493589, 0.14285713817113876]}
    - {mu0: 0, rank: 3, ndensity: 1, num_ms_combs: 15, mus: [0, 0, 0], ns: [1, 3, 1], ls: [1, 2, 3], ms_combs: [-1, -2, 3, -1, -1, 2, -1, 0, 1, -1, 1, 0, -1, 2, -1, 0, -2, 2, 0, -1, 1, 0, 0, 0, 0, 1, -1, 0, 2, -2, 1, -2, 1, 1, -1, 0, 1, 0, -1, 1, 1, -2, 1, 2, -3], ctildes: [0.14285713817113876, -0.11664237211493589, 0.09035078971800603, -0.06388765326736667, 0.03688555491939627, -0.08247860448643873, 0.10432810273894777, -0.11065666757424353, 0.10432810273894777, -0.08247860448643873, 0.03688555491939627, -0.06388765326736667, 0.09035078971800603, -0.11664237211493589, 0.14285713817113876]}
    - {mu0: 0, rank: 3, ndensity: 1, num_ms_combs: 15, mus: [0, 0, 0], ns: [1, 3, 2], ls: [1, 2, 3], ms_combs: [-1, -2, 3, -1, -1, 2, -1, 0, 1, -1, 1, 0, -1, 2, -1, 0, -2, 2, 0, -1, 1, 0, 0, 0, 0, 1, -1, 0, 2, -2, 1, -2, 1, 1, -1, 0, 1, 0, -1, 1, 1, -2, 1, 2, -3], ctildes: [0.14285713817113876, -0.11664237211493589, 0.09035078971800603, -0.06388765326736667, 0.03688555491939627, -0.08247860448643873, 0.10432810273894777, -0.11065666757424353, 0.10432810273894777, -0.08247860448643873, 0.03688555491939627, -0.06388765326736667, 0.09035078971800603, -0.11664237211493589, 0.14285713817113876]}
    - {mu0: 0, rank: 3, ndensity: 1, num_ms_combs: 15, mus: [0, 0, 0], ns: [1, 3, 3], ls: [1, 2, 3], ms_combs: [-1, -2, 3, -1, -1, 2, -1, 0, 1, -1, 1, 0, -1, 2, -1, 0, -2, 2, 0, -1, 1, 0, 0, 0, 0, 1, -1, 0, 2, -2, 1, -2, 1, 1, -1, 0, 1, 0, -1, 1, 1, -2, 1, 2, -3], ctildes: [0.14285713817113876, -0.11664237211493589, 0.09035078971800603, -0.06388765326736667, 0.03688555491939627, -0.08247860448643873, 0.10432810273894777, -0.11065666757424353, 0.10432810273894777, -0.08247860448643873, 0.03688555491939627, -0.06388765326736667, 0.09035078971800603, -0.11664237211493589, 0.14285713817113876]}
    - {mu0: 0, rank: 3, ndensity: 1, num_ms_combs: 15, mus: [0, 0, 0], ns: [2, 1, 1], ls: [1, 2, 3], ms_combs: [-1, -2, 3, -1, -1, 2, -1, 0, 1, -1, 1, 0, -1, 2, -1, 0, -2, 2, 0, -1, 1, 0, 0, 0, 0, 1, -1, 0, 2, -2, 1, -2, 1, 1, -1, 0, 1, 0, -1, 1, 1, -2, 1, 2, -3], ctildes: [0.14285713817113876, -0.11664237211493589, 0.09035078971800603, -0.06388765326736667, 0.03688555491939627, -0.08247860448643873, 0.10432810273894777, -0.11065666757424353, 0.10432810273894777, -0.08247860448643873, 0.03688555491939627, -0.06388765326736667, 0.09035078971800603, -0.11664237211493589, 0.14285713817113876]}
    - {mu0: 0, rank: 3, ndensity: 1, num_ms_combs: 15, mus: [0, 0, 0], ns: [2, 1, 2], ls: [1, 2, 3], ms_combs: [-1, -2, 3, -1, -1, 2, -1, 0, 1, -1, 1, 0, -1, 2, -1, 0, -2, 2, 0, -1, 1, 0, 0, 0, 0, 1, -1, 0, 2, -2, 1, -2, 1, 1, -1, 0, 1, 0, -1, 1, 1, -2, 1, 2, -3], ctildes: [0.14285713817113876, -0.11664237211493589, 0.09035078971800603, -0.06388765326736667, 0.03688555491939627, -0.08247860448643873, 0.10432810273894777, -0.11065666757424353, 0.10432810273894777, -0.08247860448643873, 0.03688555491939627, -0.06388765326736667, 0.09035078971800603, -0.11664237211493589, 0.14285713817113876]}
    - {mu0: 0, rank: 3, ndensity: 1, num_ms_combs: 15, mus: [0, 0, 0], ns: [2, 1, 3], ls: [1, 2, 3], ms_combs: [-1, -2, 3, -1, -1, 2, -1, 0, 1, -1, 1, 0, -1, 2, -1, 0, -2, 2, 0, -1, 1, 0, 0, 0, 0, 1, -1, 0, 2, -2, 1, -2, 1, 1, -1, 0, 1, 0, -1, 1, 1, -2, 1, 2, -3], ctildes: [0.14285713817113876, -0.11664237211493589, 0.09035078971800603, -0.06388765326736667, 0.03688555491939627, -0.08247860448643873, 0.10432810273894777, -0.11065666757424353, 0.10432810273894777, -0.08247860448643873, 0.03688555491939627, -0.06388765326736667, 0.09035078971800603, -0.11664237211493589, 0.14285713817113876]}
    - {mu0: 0, rank: 3, ndensity: 1, num_ms_combs: 15, mus: [0, 0, 0], ns: [2, 2, 1], ls: [1, 2, 3], ms_combs: [-1, -2, 3, -1, -1, 2, -1, 0, 1, -1, 1, 0, -1, 2, -1, 0, -2, 2, 0, -1, 1, 0, 0, 0, 0, 1, -1, 0, 2, -2, 1, -2, 1, 1, -1, 0, 1, 0, -1, 1, 1, -2, 1, 2, -3], ctildes: [0.14285713817113876, -0.11664237211493589, 0.09035078971800603, -0.06388765326736667, 0.03688555491939627, -0.08247860448643873, 0.10432810273894777, -0.11065666757424353, 0.10432810273894777, -0.08247860448643873, 0.03688555491939627, -0.06388765326736667, 0.09035078971800603, -0.11664237211493589, 0.14285713817113876]}
    - {mu0: 0, rank: 3, ndensity: 1, num_ms_combs: 15, mus: [0, 0, 0], ns: [2, 2, 2], ls: [1, 2, 3], ms_combs: [-1, -2, 3, -1, -1, 2, -1, 0, 1, -1, 1, 0, -1, 2, -1, 0, -2, 2, 0, -1, 1, 0, 0, 0, 0, 1, -1, 0, 2, -2, 1, -2, 1, 1, -1, 0, 1, 0, -1, 1, 1, -2, 1, 2, -3], ctildes: [0.14285713817113876, -0.11664237211493589, 0.09035078971800603, -0.06388765326736667, 0.03688555491939627, -0.08247860448643873, 0.10432810273894777, -0.11065666757424353, 0.10432810273894777, -0.08247860448643873, 0.03688555491939627, -0.06388765326736667, 0.09035078971800603, -0.11664237211493589, 0.14285713817113876]}
    - {mu0: 0, rank: 3, ndensity: 1, num_ms_combs: 15, mus: [0, 0, 0], ns: [2, 2, 3], ls: [1, 2, 3], ms_combs: [-1, -2, 3, -1, -1, 2, -1, 0, 1, -1, 1, 0, -1, 2, -1, 0, -2, 2, 0, -1, 1, 0, 0, 0, 0, 1, -1, 0, 2, -2, 1, -2, 1, 1, -1, 0, 1, 0, -1, 1, 1, -2, 1, 2, -3], ctildes: [0.14285713817113876, -0.11664237211493589, 0.09035078971800603, -0.06388765326736667, 0.03688555491939627, -0.08247860448643873, 0.10432810273894777, -0.11065666757424353, 0.10432810273894777, -0.08247860448643873, 0.03688555491939627, -0.06388765326736667, 0.09035078971800603, -0.11664237211493589, 0.14285713817113876]}
    - {mu0: 0, rank: 3, ndensity: 1, num_ms_combs: 15, mus: [0, 0, 0], ns: [2, 3, 1], ls: [1, 2, 3], ms_combs: [-1, -2, 3, -1, -1, 2, -1, 0, 1, -1, 1, 0, -1, 2, -1, 0, -2, 2, 0, -1, 1, 0, 0, 0, 0, 1, -1, 0, 2, -2, 1, -2, 1, 1, -1, 0, 1, 0, -1, 1, 1, -2, 1, 2, -3], ctildes: [0.14285713817113876, -0.11664237211493589, 0.09035078971800603, -0.06388765326736667, 0.03688555491939627, -0.08247860448643873, 0.10432810273894777, -0.11065666757424353, 0.10432810273894777, -0.08247860448643873, 0.03688555491939627, -0.06388765326736667, 0.09035078971800603, -0.11664237211493589, 0.14285713817113876]}
    - {mu0: 0, rank: 3, ndensity: 1, num_ms_combs: 15, mus: [0, 0, 0], ns: [2, 3, 2], ls: [1, 2, 3], ms_combs: [-1, -2, 3, -1, -1, 2, -1, 0, 1, -1, 1, 0, -1, 2, -1, 0, -2, 2, 0, -1, 1, 0, 0, 0, 0, 1, -1, 0, 2, -2, 1, -2, 1, 1, -1, 0, 1, 0, -1, 1, 1, -2, 1, 2, -3], ctildes: [0.14285713817113876, -0.11664237211493589, 0.09035078971800603, -0.06388765326736667, 0.03688555491939627, -0.08247860448643873, 0.10432810273894777, -0.11065666757424353, 0.10432810273894777, -0.08247860448643873, 0.03688555491939627, -0.06388765326736667, 0.09035078971800603, -0.11664237211493589, 0.14285713817113876]}
    - {mu0: 0, rank: 3, ndensity: 1, num_ms_combs: 15, mus: [0, 0, 0], ns: [2, 3, 3], ls: [1, 2, 3], ms_combs: [-1, -2, 3, -1, -1, 2, -1, 0, 1, -1, 1, 0, -1, 2, -1, 0, -2, 2, 0, -1, 1, 0, 0, 0, 0, 1, -1, 0, 2, -2, 1, -2, 1, 1, -1, 0, 1, 0, -1, 1, 1, -2, 1, 2, -3], ctildes: [0.14285713817113876, -0.11664237211493589, 0.09035078971800603, -0.06388765326736667, 0.03688555491939627, -0.08247860448643873, 0.10432810273894777, -0.11065666757424353, 0.10432810273894777, -0.08247860448643873, 0.03688555491939627, -0.06388765326736667, 0.09035078971800603, -0.11664237211493589, 0.14285713817113876]}
    - {mu0: 0, rank: 3, ndensity: 1, num_ms_combs: 15, mus: [0, 0, 0], ns: [3, 1, 1], ls: [1, 2, 3], ms_combs: [-1, -2, 3, -1, -1, 2, -1, 0, 1, -1, 1, 0, -1, 2, -1, 0, -2, 2, 0, -1, 1, 0, 0, 0, 0, 1, -1, 0, 2, -2, 1, -2, 1, 1, -1, 0, 1, 0, -1, 1, 1, -2, 1, 2, -3], ctildes: [0.14285713817113876, -0.11664237211493589, 0.09035078971800603, -0.06388765326736667, 0.03688555491939627, -0.08247860448643873, 0.10432810273894777, -0.11065666757424353, 0.10432810273894777, -0.08247860448643873, 0.03688555491939627, -0.06388765326736667, 0.09035078971800603, -0.11664237211493589, 0.14285713817113876]}
    - {mu0: 0, rank: 3, ndensity: 1, num_ms_combs: 15, mus: [0, 0, 0], ns: [3, 1, 2], ls: [1, 2, 3], ms_combs: [-1, -2, 3, -1, -1, 2, -1, 0, 1, -1, 1, 0, -1, 2, -1, 0, -2, 2, 0, -1, 1, 0, 0, 0, 0, 1, -1, 0, 2, -2, 1, -2, 1, 1, -1, 0, 1, 0, -1, 1, 1, -2, 1, 2, -3], ctildes: [0.14285713817113876, -0.11664237211493589, 0.09035078971800603, -0.06388765326736667, 0.03688555491939627, -0.08247860448643873, 0.10432810273894777, -0.11065666757424353, 0.10432810273894777, -0.08247860448643873, 0.03688555491939627, -0.06388765326736667, 0.09035078971800603, -0.11664237211493589, 0.14285713817113876]}
    - {mu0: 0, rank: 3, ndensity: 1, num_ms_combs: 15, mus: [0, 0, 0], ns: [3, 1, 3], ls: [1, 2, 3], ms_combs: [-1, -2, 3, -1, -1, 2, -1, 0, 1, -1, 1, 0, -1, 2, -1, 0, -2, 2, 0, -1, 1, 0, 0, 0, 0, 1, -1, 0, 2, -2, 1, -2, 1, 1, -1, 0, 1, 0, -1, 1, 1, -2, 1, 2, -3], ctildes: [0.14285713817113876, -0.11664237211493589, 0.09035078971800603, -0.06388765326736667, 0.03688555491939627, -0.08247860448643873, 0.10432810273894777, -0.11065666757424353, 0.10432810273894777, -0.08247860448643873, 0.03688555491939627, -0.06388765326736667, 0.09035078971800603, -0.11664237211493589, 0.14285713817113876]}
    - {mu0: 0, rank: 3, ndensity: 1, num_ms_combs: 15, mus: [0, 0, 0], ns: [3, 2, 1], ls: [1, 2, 3], ms_combs: [-1, -2, 3, -1, -1, 2, -1, 0, 1, -1, 1, 0, -1, 2, -1, 0, -2, 2, 0, -1, 1, 0, 0, 0, 0, 1, -1, 0, 2, -2, 1, -2, 1, 1, -1, 0, 1, 0, -1, 1, 1, -2, 1, 2, -3], ctildes: [0.14285713817113876, -0.11664237211493589, 0.09035078971800603, -0.06388765326736667, 0.03688555491939627, -0.08247860448643873, 0.10432810273894777, -0.11065666757424353, 0.10432810273894777, -0.08247860448643873, 0.03688555491939627, -0.06388765326736667, 0.09035078971800603, -0.11664237211493589, 0.14285713817113876]}
    - {mu0: 0, rank: 3, ndensity: 1, num_ms_combs: 15, mus: [0, 0, 0], ns: [3, 2, 2], ls: [1, 2, 3], ms_combs: [-1, -2, 3, -1, -1, 2, -1, 0, 1, -1, 1, 0, -1, 2, -1, 0, -2, 2, 0, -1, 1, 0, 0, 0, 0, 1, -1, 0, 2, -2, 1, -2, 1, 1, -1, 0, 1, 0, -1, 1, 1, -2, 1, 2, -3], ctildes: [0.14285713817113876, -0.11664237211493589, 0.09035078971800603, -0.06388765326736667, 0.03688555491939627, -0.08247860448643873, 0.10432810273894777, -0.11065666757424353, 0.10432810273894777, -0.08247860448643873, 0.03688555491939627, -0.06388765326736667, 0.09035078971800603, -0.11664237211493589, 0.14285713817113876]}
    - {mu0: 0, rank: 3, ndensity: 1, num_ms_combs: 15, mus: [0, 0, 0], ns: [3, 2, 3], ls: [1, 2, 3], ms_combs: [-1, -2, 3, -1, -1, 2, -1, 0, 1, -1, 1, 0, -1, 2, -1, 0, -2, 2, 0, -1, 1, 0, 0, 0, 0, 1, -1, 0, 2, -2, 1, -2, 1, 1, -1, 0, 1, 0, -1, 1, 1, -2, 1, 2, -3], ctildes: [0.14285713817113876, -0.11664237211493589, 0.09035078971800603, -0.06388765326736667, 0.03688555491939627, -0.08247860448643873, 0.10432810273894777, -0.11065666757424353, 0.10432810273894777, -0.08247860448643873, 0.03688555491939627, -0.06388765326736667, 0.09035078971800603, -0.11664237211493589, 0.14285713817113876]}
    - {mu0: 0, rank: 3, ndensity: 1, num_ms_combs: 15, mus: [0, 0, 0], ns: [3, 3, 1], ls: [1, 2, 3], ms_combs: [-1, -2, 3, -1, -1, 2, -1, 0, 1, -1, 1, 0, -1, 2, -1, 0, -2, 2, 0, -1, 1, 0, 0, 0, 0, 1, -1, 0, 2, -2, 1, -2, 1, 1, -1, 0, 1, 0, -1, 1, 1, -2, 1, 2, -3], ctildes: [0.14285713817113876, -0.11664237211493589, 0.09035078971800603, -0.06388765326736667, 0.03688555491939627, -0.08247860448643873, 0.10432810273894777, -0.11065666757424353, 0.10432810273894777, -0.08247860448643873, 0.03688555491939627, -0.06388765326736667, 0.09035078971800603, -0.11664237211493589, 0.14285713817113876]}
    - {mu0: 0, rank: 3, ndensity: 1, num_ms_combs: 15, mus: [0, 0, 0], ns: [3, 3, 2], ls: [1, 2, 3], ms_combs: [-1, -2, 3, -1, -1, 2, -1, 0, 1, -1, 1, 0, -1, 2, -1, 0, -2, 2, 0, -1, 1, 0, 0, 0, 0, 1, -1, 0, 2, -2, 1, -2, 1, 1, -1, 0, 1, 0, -1, 1, 1, -2, 1, 2, -3], ctildes: [0.14285713817113876, -0.11664237211493589, 0.09035078971800603, -0.06388765326736667, 0.03688555491939627, -0.08247860448643873, 0.10432810273894777, -0.11065666757424353, 0.10432810273894777, -0.08247860448643873, 0.03688555491939627, -0.06388765326736667, 0.09035078971800603, -0.11664237211493589, 0.14285713817113876]}
    - {mu0: 0, rank: 3, ndensity: 1, num_ms_combs: 15, mus: [0, 0, 0], ns: [3, 3, 3], ls: [1, 2, 3], ms_combs: [-1, -2, 3, -1, -1, 2, -1, 0, 1, -1, 1, 0, -1, 2, -1, 0, -2, 2, 0, -1, 1, 0, 0, 0, 0, 1, -1, 0, 2, -2, 1, -2, 1, 1, -1, 0, 1, 0, -1, 1, 1, -2, 1, 2, -3], ctildes: [0.14285713817113876, -0.11664237211493589, 0.09035078971800603, -0.06388765326736667, 0.03688555491939627, -0.08247860448643873, 0.10432810273894777, -0.11065666757424353, 0.10432810273894777, -0.08247860448643873, 0.03688555491939627, -0.06388765326736667, 0.09035078971800603, -0.11664237211493589, 0.14285713817113876]}
    - {mu0: 0, rank: 3, ndensity: 1, num_ms_combs: 19, mus: [0, 0, 0], ns: [1, 1, 1], ls: [2, 2, 2], ms_combs: [-2, 0, 2, -2, 1, 1, -2, 2, 0, -1, -1, 2, -1, 0, 1, -1, 1, 0, -1, 2, -1, 0, -2, 2, 0, -1, 1, 0, 0, 0, 0, 1, -1, 0, 2, -2, 1, -2, 1, 1, -1, 0, 1, 0, -1, 1, 1, -2, 2, -2, 0, 2, -1, -1, 2, 0, -2], ctildes: [0.106904496560845, -0.13093073535988964, 0.106904496560845, -0.13093073535988964, 0.0534522482804225, 0.0534522482804225, -0.13093073535988964, 0.106904496560845, 0.0534522482804225, -0.106904496560845, 0.0534522482804225, 0.106904496560845, -0.13093073535988964, 0.0534522482804225, 0.0534522482804225, -0.13093073535988964, 0.106904496560845, -0.13093073535988964, 0.106904496560845]}
    - {mu0: 0, rank: 3, ndensity: 1, num_ms_combs: 19, mus: [0, 0, 0], ns: [1, 1, 2], ls: [2, 2, 2], ms_combs: [-2, 0, 2, -2, 1, 1, -2, 2, 0, -1, -1, 2, -1, 0, 1, -1, 1, 0, -1, 2, -1, 0, -2, 2, 0, -1, 1, 0, 0, 0, 0, 1, -1, 0, 2, -2, 1, -2, 1, 1, -1, 0, 1, 0, -1, 1, 1, -2, 2, -2, 0, 2, -1, -1, 2, 0, -2], ctildes: [0.106904496560845, -0.13093073535988964, 0.106904496560845, -0.13093073535988964, 0.0534522482804225, 0.0534522482804225, -0.13093073535988964, 0.106904496560845, 0.0534522482804225, -0.106904496560845, 0.0534522482804225, 0.106904496560845, -0.13093073535988964, 0.0534522482804225, 0.0534522482804225, -0.13093073535988964, 0.106904496560845, -0.13093073535988964, 0.106904496560845]}
    - {mu0: 0, rank: 3, ndensity: 1, num_ms_combs: 19, mus: [0, 0, 0], ns: [1, 1, 3], ls: [2, 2, 2], ms_combs: [-2, 0, 2, -2, 1, 1, -2, 2, 0, -1, -1, 2, -1, 0, 1, -1, 1, 0, -1, 2, -1, 0, -2, 2, 0, -1, 1, 0, 0, 0, 0, 1, -1, 0, 2, -2, 1, -2, 1, 1, -1, 0, 1, 0, -1, 1, 1, -2, 2, -2, 0, 2, -1, -1, 2, 0, -2], ctildes: [0.106904496560845, -0.13093073535988964, 0.106904496560845, -0.13093073535988964, 0.0534522482804225, 0.0534522482804225, -0.13093073535988964, 0.106904496560845, 0.0534522482804225, -0.106904496560845, 0.0534522482804225, 0.106904496560845, -0.13093073535988964, 0.0534522482804225, 0.0534522482804225, -0.13093073535988964, 0.106904496560845, -0.13093073535988964, 0.106904496560845]}
    - {mu0: 0, rank: 3, ndensity: 1, num_ms_combs: 19, mus: [0, 0, 0], ns: [1, 2, 2], ls: [2, 2, 2], ms_combs: [-2, 0, 2, -2, 1, 1, -2, 2, 0, -1, -1, 2, -1, 0, 1, -1, 1, 0, -1, 2, -1, 0, -2, 2, 0, -1, 1, 0, 0, 0, 0, 1, -1, 0, 2, -2, 1, -2, 1, 1, -1, 0, 1, 0, -1, 1, 1, -2, 2, -2, 0, 2, -1, -1, 2, 0, -2], ctildes: [0.106904496560845, -0.13093073535988964, 0.106904496560845, -0.13093073535988964, 0.0534522482804225, 0.0534522482804225, -0.13093073535988964, 0.106904496560845, 0.0534522482804225, -0.106904496560845, 0.0534522482804225, 0.106904496560845, -0.13093073535988964, 0.0534522482804225, 0.0534522482804225, -0.13093073535988964, 0.106904496560845, -0.13093073535988964, 0.106904496560845]}
    - {mu0: 0, rank: 3, ndensity: 1, num_ms_combs: 19, mus: [0, 0, 0], ns: [1, 2, 3], ls: [2, 2, 2], ms_combs: [-2, 0, 2, -2, 1, 1, -2, 2, 0, -1, -1, 2, -1, 0, 1, -1, 1, 0, -1, 2, -1, 0, -2, 2, 0, -1, 1, 0, 0, 0, 0, 1, -1, 0, 2, -2, 1, -2, 1, 1, -1, 0, 1, 0, -1, 1, 1, -2, 2, -2, 0, 2, -1, -1, 2, 0, -2], ctildes: [0.106904496560845, -0.13093073535988964, 0.106904496560845, -0.13093073535988964, 0.0534522482804225, 0.0534522482804225, -0.13093073535988964, 0.106904496560845, 0.0534522482804225, -0.106904496560845, 0.0534522482804225, 0.106904496560845, -0.13093073535988964, 0.0534522482804225, 0.0534522482804225, -0.13093073535988964, 0.106904496560845, -0.13093073535988964, 0.106904496560845]}
    - {mu0: 0, rank: 3, ndensity: 1, num_ms_combs: 19, mus: [0, 0, 0], ns: [1, 3, 3], ls: [2, 2, 2], ms_combs: [-2, 0, 2, -2, 1, 1, -2, 2, 0, -1, -1, 2, -1, 0, 1, -1, 1, 0, -1, 2, -1, 0, -2, 2, 0, -1, 1, 0, 0, 0, 0, 1, -1, 0, 2, -2, 1, -2, 1, 1, -1, 0, 1, 0, -1, 1, 1, -2, 2, -2, 0, 2, -1, -1, 2, 0, -2], ctildes: [0.106904496560845, -0.13093073535988964, 0.106904496560845, -0.13093073535988964, 0.0534522482804225, 0.0534522482804225, -0.13093073535988964, 0.106904496560845, 0.0534522482804225, -0.106904496560845, 0.0534522482804225, 0.106904496560845, -0.13093073535988964, 0.0534522482804225, 0.0534522482804225, -0.13093073535988964, 0.106904496560845, -0.13093073535988964, 0.106904496560845]}
    - {mu0: 0, rank: 3, ndensity: 1, num_ms_combs: 19, mus: [0, 0, 0], ns: [2, 2, 2], ls: [2, 2, 2], ms_combs: [-2, 0, 2, -2, 1, 1, -2, 2, 0, -1, -1, 2, -1, 0, 1, -1, 1, 0, -1, 2, -1, 0, -2, 2, 0, -1, 1, 0, 0, 0, 0, 1, -1, 0, 2, -2, 1, -2, 1, 1, -1, 0, 1, 0, -1, 1, 1, -2, 2, -2, 0, 2, -1, -1, 2, 0, -2], ctildes: [0.106904496560845, -0.13093073535988964, 0.106904496560845, -0.13093073535988964, 0.0534522482804225, 0.0534522482804225, -0.13093073535988964, 0.106904496560845, 0.0534522482804225, -0.106904496560845, 0.0534522482804225, 0.106904496560845, -0.13093073535988964, 0.0534522482804225, 0.0534522482804225, -0.13093073535988964, 0.106904496560845, -0.13093073535988964, 0.106904496560845]}
    - {mu0: 0, rank: 3, ndensity: 1, num_ms_combs: 19, mus: [0, 0, 0], ns: [2, 2, 3], ls: [2, 2, 2], ms_combs: [-2, 0, 2, -2, 1, 1, -2, 2, 0, -1, -1, 2, -1, 0, 1, -1, 1, 0, -1, 2, -1, 0, -2, 2, 0, -1, 1, 0, 0, 0, 0, 1, -1, 0, 2, -2, 1, -2, 1, 1, -1, 0, 1, 0, -1, 1, 1, -2, 2, -2, 0, 2, -1, -1, 2, 0, -2], ctildes: [0.106904496560845, -0.13093073535988964, 0.106904496560845, -0.13093073535988964, 0.0534522482804225, 0.0534522482804225, -0.13093073535988964, 0.106904496560845, 0.0534522482804225, -0.106904496560845, 0.0534522482804225, 0.106904496560845, -0.13093073535988964, 0.0534522482804225, 0.0534522482804225, -0.13093073535988964, 0.106904496560845, -0.13093073535988964, 0.106904496560845]}
    - {mu0: 0, rank: 3, ndensity: 1, num_ms_combs: 19, mus: [0, 0, 0], ns: [2, 3, 3], ls: [2, 2, 2], ms_combs: [-2, 0, 2, -2, 1, 1, -2, 2, 0, -1, -1, 2, -1, 0, 1, -1, 1, 0, -1, 2, -1, 0, -2, 2, 0, -1, 1, 0, 0, 0, 0, 1, -1, 0, 2, -2, 1, -2, 1, 1, -1, 0, 1, 0, -1, 1, 1, -2, 2, -2, 0, 2, -1, -1, 2, 0, -2], ctildes: [0.106904496560845, -0.13093073535988964, 0.106904496560845, -0.13093073535988964, 0.0534522482804225, 0.0534522482804225, -0.13093073535988964, 0.106904496560845, 0.0534522482804225, -0.106904496560845, 0.0534522482804225, 0.106904496560845, -0.13093073535988964, 0.0534522482804225, 0.0534522482804225, -0.13093073535988964, 0.106904496560845, -0.13093073535988964, 0.106904496560845]}
    - {mu0: 0, rank: 3, ndensity: 1, num_ms_combs: 19, mus: [0, 0, 0], ns: [3, 3, 3], ls: [2, 2, 2], ms_combs: [-2, 0, 2, -2, 1, 1, -2, 2, 0, -1, -1, 2, -1, 0, 1, -1, 1, 0, -1, 2, -1, 0, -2, 2, 0, -1, 1, 0, 0, 0, 0, 1, -1, 0, 2, -2, 1, -2, 1, 1, -1, 0, 1, 0, -1, 1, 1, -2, 2, -2, 0, 2, -1, -1, 2, 0, -2], ctildes: [0.106904496560845, -0.13093073535988964, 0.106904496560845, -0.13093073535988964, 0.0534522482804225, 0.0534522482804225, -0.13093073535988964, 0.106904496560845, 0.0534522482804225, -0.106904496560845, 0.0534522482804225, 0.106904496560845, -0.13093073535988964, 0.0534522482804225, 0.0534522482804225, -0.13093073535988964, 0.106904496560845, -0.13093073535988964, 0.106904496560845]}
    - {mu0: 0, rank: 3, ndensity: 1, num_ms_combs: 29, mus: [0, 0, 0], ns: [1, 1, 1], ls: [2, 3, 3], ms_combs: [-2, -1, 3, -2, 0, 2, -2, 1, 1, -2, 2, 0, -2, 3, -1, -1, -2, 3, -1, -1, 2, -1, 0, 1, -1, 1, 0, -1, 2, -1, -1, 3, -2, 0, -3, 3, 0, -2, 2, 0, -1, 1, 0, 0, 0, 0, 1, -1, 0, 2, -2, 0, 3, -3, 1, -3, 2, 1, -2, 1, 1, -1, 0, 1, 0, -1, 1, 1, -2, 1, 2, -3, 2, -3, 1, 2, -2, 0, 2, -1, -1, 2, 0, -2, 2, 1, -3], ctildes: [0.058321186057467944, -0.08247860448643873, 0.09035078971800603, -0.08247860448643873, 0.058321186057467944, -0.09221388589046331, 0.07142856908556938, -0.026082025684736942, -0.026082025684736942, 0.07142856908556938, -0.09221388589046331, 0.09221388589046331, -0.0, -0.055328333787121764, 0.07377110983879254, -0.055328333787121764, -0.0, 0.09221388589046331, -0.09221388589046331, 0.07142856908556938, -0.026082025684736942, -0.026082025684736942, 0.07142856908556938, -0.09221388589046331, 0.058321186057467944, -0.08247860448643873, 0.09035078971800603, -0.08247860448643873, 0.058321186057467944]}
    - {mu0: 0, rank: 3, ndensity: 1, num_ms_combs: 29, mus: [0, 0, 0], ns: [1, 1, 2], ls: [2, 3, 3], ms_combs: [-2, -1, 3, -2, 0, 2, -2, 1, 1, -2, 2, 0, -2, 3, -1, -1, -2, 3, -1, -1, 2, -1, 0, 1, -1, 1, 0, -1, 2, -1, -1, 3, -2, 0, -3, 3, 0, -2, 2, 0, -1, 1, 0, 0, 0, 0, 1, -1, 0, 2, -2, 0, 3, -3, 1, -3, 2, 1, -2, 1, 1, -1, 0, 1, 0, -1, 1, 1, -2, 1, 2, -3, 2, -3, 1, 2, -2, 0, 2, -1, -1, 2, 0, -2, 2, 1, -3], ctildes: [0.058321186057467944, -0.08247860448643873, 0.09035078971800603, -0.08247860448643873, 0.058321186057467944, -0.09221388589046331, 0.07142856908556938, -0.026082025684736942, -0.026082025684736942, 0.07142856908556938, -0.09221388589046331, 0.09221388589046331, -0.0, -0.055328333787121764, 0.07377110983879254, -0.055328333787121764, -0.0, 0.09221388589046331, -0.09221388589046331, 0.07142856908556938, -0.026082025684736942, -0.026082025684736942, 0.07142856908556938, -0.09221388589046331, 0.058321186057467944, -0.08247860448643873, 0.09035078971800603, -0.08247860448643873, 0.058321186057467944]}
    - {mu0: 0, rank: 3, ndensity: 1, num_ms_combs: 29, mus: [0, 0, 0], ns: [1, 1, 3], ls: [2, 3, 3], ms_combs: [-2, -1, 3, -2, 0, 2, -2, 1, 1, -2, 2, 0, -2, 3, -1, -1, -2, 3, -1, -1, 2, -1, 0, 1, -1, 1, 0, -1, 2, -1, -1, 3, -2, 0, -3, 3, 0, -2, 2, 0, -1, 1, 0, 0, 0, 0, 1, -1, 0, 2, -2, 0, 3, -3, 1, -3, 2, 1, -2, 1, 1, -1, 0, 1, 0, -1, 1, 1, -2, 1, 2, -3, 2, -3, 1, 2, -2, 0, 2, -1, -1, 2, 0, -2, 2, 1, -3], ctildes: [0.058321186057467944, -0.08247860448643873, 0.09035078971800603, -0.08247860448643873, 0.058321186057467944, -0.09221388589046331, 0.07142856908556938, -0.026082025684736942, -0.026082025684736942, 0.07142856908556938, -0.09221388589046331, 0.09221388589046331, -0.0, -0.055328333787121764, 0.07377110983879254, -0.055328333787121764, -0.0, 0.09221388589046331, -0.09221388589046331, 0.07142856908556938, -0.026082025684736942, -0.026082025684736942, 0.07142856908556938, -0.09221388589046331, 0.058321186057467944, -0.08247860448643873, 0.09035078971800603, -0.08247860448643873, 0.058321186057467944]}
    - {mu0: 0, rank: 3, ndensity: 1, num_ms_combs: 29, mus: [0, 0, 0], ns: [1, 2, 2], ls: [2, 3, 3], ms_combs: [-2, -1, 3, -2, 0, 2, -2, 1, 1, -2, 2, 0, -2, 3, -1, -1, -2, 3, -1, -1, 2, -1, 0, 1, -1, 1, 0, -1, 2, -1, -1, 3, -2, 0, -3, 3, 0, -2, 2, 0, -1, 1, 0, 0, 0, 0, 1, -1, 0, 2, -2, 0, 3, -3, 1, -3, 2, 1, -2, 1, 1, -1, 0, 1, 0, -1, 1, 1, -2, 1, 2, -3, 2, -3, 1, 2, -2, 0, 2, -1, -1, 2, 0, -2, 2, 1, -3], ctildes: [0.058321186057467944, -0.08247860448643873, 0.09035078971800603, -0.08247860448643873, 0.058321186057467944, -0.09221388589046331, 0.07142856908556938, -0.026082025684736942, -0.026082025684736942, 0.07142856908556938, -0.09221388589046331, 0.09221388589046331, -0.0, -0.055328333787121764, 0.07377110983879254, -0.055328333787121764, -0.0, 0.09221388589046331, -0.09221388589046331, 0.07142856908556938, -0.026082025684736942, -0.026082025684736942, 0.07142856908556938, -0.09221388589046331, 0.058321186057467944, -0.08247860448643873, 0.09035078971800603, -0.08247860448643873, 0.058321186057467944]}
    - {mu0: 0, rank: 3, ndensity: 1, num_ms_combs: 29, mus: [0, 0, 0], ns: [1, 2, 3], ls: [2, 3, 3], ms_combs: [-2, -1, 3, -2, 0, 2, -2, 1, 1, -2, 2, 0, -2, 3, -1, -1, -2, 3, -1, -1, 2, -1, 0, 1, -1, 1, 0, -1, 2, -1, -1, 3, -2, 0, -3, 3, 0, -2, 2, 0, -1, 1, 0, 0, 0, 0, 1, -1, 0, 2, -2, 0, 3, -3, 1, -3, 2, 1, -2, 1, 1, -1, 0, 1, 0, -1, 1, 1, -2, 1, 2, -3, 2, -3, 1, 2, -2, 0, 2, -1, -1, 2, 0, -2, 2, 1, -3], ctildes: [0.058321186057467944, -0.08247860448643873, 0.09035078971800603, -0.08247860448643873, 0.058321186057467944, -0.09221388589046331, 0.07142856908556938, -0.026082025684736942, -0.026082025684736942, 0.07142856908556938, -0.09221388589046331, 0.09221388589046331, -0.0, -0.055328333787121764, 0.07377110983879254, -0.055328333787121764, -0.0, 0.09221388589046331, -0.09221388589046331, 0.07142856908556938, -0.026082025684736942, -0.026082025684736942, 0.07142856908556938, -0.09221388589046331, 0.058321186057467944, -0.08247860448643873, 0.09035078971800603, -0.08247860448643873, 0.058321186057467944]}
    - {mu0: 0, rank: 3, ndensity: 1, num_ms_combs: 29, mus: [0, 0, 0], ns: [1, 3, 3], ls: [2, 3, 3], ms_combs: [-2, -1, 3, -2, 0, 2, -2, 1, 1, -2, 2, 0, -2, 3, -1, -1, -2, 3, -1, -1, 2, -1, 0, 1, -1, 1, 0, -1, 2, -1, -1, 3, -2, 0, -3, 3, 0, -2, 2, 0, -1, 1, 0, 0, 0, 0, 1, -1, 0, 2, -2, 0, 3, -3, 1, -3, 2, 1, -2, 1, 1, -1, 0, 1, 0, -1, 1, 1, -2, 1, 2, -3, 2, -3, 1, 2, -2, 0, 2, -1, -1, 2, 0, -2, 2, 1, -3], ctildes: [0.058321186057467944, -0.08247860448643873, 0.09035078971800603, -0.08247860448643873, 0.058321186057467944, -0.09221388589046331, 0.07142856908556938, -0.026082025684736942, -0.026082025684736942, 0.07142856908556938, -0.09221388589046331, 0.09221388589046331, -0.0, -0.055328333787121764, 0.07377110983879254, -0.055328333787121764, -0.0, 0.09221388589046331, -0.09221388589046331, 0.07142856908556938, -0.026082025684736942, -0.026082025684736942, 0.07142856908556938, -0.09221388589046331, 0.058321186057467944, -0.08247860448643873, 0.09035078971800603, -0.08247860448643873, 0.058321186057467944]}
    - {mu0: 0, rank: 3, ndensity: 1, num_ms_combs: 29, mus: [0, 0, 0], ns: [2, 1, 1], ls: [2, 3, 3], ms_combs: [-2, -1, 3, -2, 0, 2, -2, 1, 1, -2, 2, 0, -2, 3, -1, -1, -2, 3, -1, -1, 2, -1, 0, 1, -1, 1, 0, -1, 2, -1, -1, 3, -2, 0, -3, 3, 0, -2, 2, 0, -1, 1, 0, 0, 0, 0, 1, -1, 0, 2, -2, 0, 3, -3, 1, -3, 2, 1, -2, 1, 1, -1, 0, 1, 0, -1, 1, 1, -2, 1, 2, -3, 2, -3, 1, 2, -2, 0, 2, -1, -1, 2, 0, -2, 2, 1, -3], ctildes: [0.058321186057467944, -0.08247860448643873, 0.09035078971800603, -0.08247860448643873, 0.058321186057467944, -0.09221388589046331, 0.07142856908556938, -0.026082025684736942, -0.026082025684736942, 0.07142856908556938, -0.09221388589046331, 0.09221388589046331, -0.0, -0.055328333787121764, 0.07377110983879254, -0.055328333787121764, -0.0, 0.09221388589046331, -0.09221388589046331, 0.07142856908556938, -0.026082025684736942, -0.026082025684736942, 0.07142856908556938, -0.09221388589046331, 0.058321186057467944, -0.08247860448643873, 0.09035078971800603, -0.08247860448643873, 0.058321186057467944]}
    - {mu0: 0, rank: 3, ndensity: 1, num_ms_combs: 29, mus: [0, 0, 0], ns: [2, 1, 2], ls: [2, 3, 3], ms_combs: [-2, -1, 3, -2, 0, 2, -2, 1, 1, -2, 2, 0, -2, 3, -1, -1, -2, 3, -1, -1, 2, -1, 0, 1, -1, 1, 0, -1, 2, -1, -1, 3, -2, 0, -3, 3, 0, -2, 2, 0, -1, 1, 0, 0, 0, 0, 1, -1, 0, 2, -2, 0, 3, -3, 1, -3, 2, 1, -2, 1, 1, -1, 0, 1, 0, -1, 1, 1, -2, 1, 2, -3, 2, -3, 1, 2, -2, 0, 2, -1, -1, 2, 0, -2, 2, 1, -3], ctildes: [0.058321186057467944, -0.08247860448643873, 0.09035078971800603, -0.08247860448643873, 0.058321186057467944, -0.09221388589046331, 0.07142856908556938, -0.026082025684736942, -0.026082025684736942, 0.07142856908556938, -0.09221388589046331, 0.09221388589046331, -0.0, -0.055328333787121764, 0.07377110983879254, -0.055328333787121764, -0.0, 0.09221388589046331, -0.09221388589046331, 0.07142856908556938, -0.026082025684736942, -0.026082025684736942, 0.07142856908556938, -0.09221388589046331, 0.058321186057467944, -0.08247860448643873, 0.09035078971800603, -0.08247860448643873, 0.058321186057467944]}
    - {mu0: 0, rank: 3, ndensity: 1, num_ms_combs: 29, mus: [0, 0, 0], ns: [2, 1, 3], ls: [2, 3, 3], ms_combs: [-2, -1, 3, -2, 0, 2, -2, 1, 1, -2, 2, 0, -2, 3, -1, -1, -2, 3, -1, -1, 2, -1, 0, 1, -1, 1, 0, -1, 2, -1, -1, 3, -2, 0, -3, 3, 0, -2, 2, 0, -1, 1, 0, 0, 0, 0, 1, -1, 0, 2, -2, 0, 3, -3, 1, -3, 2, 1, -2, 1, 1, -1, 0, 1, 0, -1, 1, 1, -2, 1, 2, -3, 2, -3, 1, 2, -2, 0, 2, -1, -1, 2, 0, -2, 2, 1, -3], ctildes: [0.058321186057467944, -0.08247860448643873, 0.09035078971800603, -0.08247860448643873, 0.058321186057467944, -0.09221388589046331, 0.07142856908556938, -0.026082025684736942, -0.026082025684736942, 0.07142856908556938, -0.09221388589046331, 0.09221388589046331, -0.0, -0.055328333787121764, 0.07377110983879254, -0.055328333787121764, -0.0, 0.09221388589046331, -0.09221388589046331, 0.07142856908556938, -0.026082025684736942, -0.026082025684736942, 0.07142856908556938, -0.09221388589046331, 0.058321186057467944, -0.08247860448643873, 0.09035078971800603, -0.08247860448643873, 0.058321186057467944]}
    - {mu0: 0, rank: 3, ndensity: 1, num_ms_combs: 29, mus: [0, 0, 0], ns: [2, 2, 2], ls: [2, 3, 3], ms_combs: [-2, -1, 3, -2, 0, 2, -2, 1, 1, -2, 2, 0, -2, 3, -1, -1, -2, 3, -1, -1, 2, -1, 0, 1, -1, 1, 0, -1, 2, -1, -1, 3, -2, 0, -3, 3, 0, -2, 2, 0, -1, 1, 0, 0, 0, 0, 1, -1, 0, 2, -2, 0, 3, -3, 1, -3, 2, 1, -2, 1, 1, -1, 0, 1, 0, -1, 1, 1, -2, 1, 2, -3, 2, -3, 1, 2, -2, 0, 2, -1, -1, 2, 0, -2, 2, 1, -3], ctildes: [0.058321186057467944, -0.08247860448643873, 0.09035078971800603, -0.08247860448643873, 0.058321186057467944, -0.09221388589046331, 0.07142856908556938, -0.026082025684736942, -0.026082025684736942, 0.07142856908556938, -0.09221388589046331, 0.09221388589046331, -0.0, -0.055328333787121764, 0.07377110983879254, -0.055328333787121764, -0.0, 0.09221388589046331, -0.09221388589046331, 0.07142856908556938, -0.026082025684736942, -0.026082025684736942, 0.07142856908556938, -0.09221388589046331, 0.058321186057467944, -0.08247860448643873, 0.09035078971800603, -0.08247860448643873, 0.058321186057467944]}
    - {mu0: 0, rank: 3, ndensity: 1, num_ms_combs: 29, mus: [0, 0, 0], ns: [2, 2, 3], ls: [2, 3, 3], ms_combs: [-2, -1, 3, -2, 0, 2, -2, 1, 1, -2, 2, 0, -2, 3, -1, -1, -2, 3, -1, -1, 2, -1, 0, 1, -1, 1, 0, -1, 2, -1, -1, 3, -2, 0, -3, 3, 0, -2, 2, 0, -1, 1, 0, 0, 0, 0, 1, -1, 0, 2, -2, 0, 3, -3, 1, -3, 2, 1, -2, 1, 1, -1, 0, 1, 0, -1, 1, 1, -2, 1, 2, -3, 2, -3, 1, 2, -2, 0, 2, -1, -1, 2, 0, -2, 2, 1, -3], ctildes: [0.058321186057467944, -0.08247860448643873, 0.09035078971800603, -0.08247860448643873, 0.058321186057467944, -0.09221388589046331, 0.07142856908556938, -0.026082025684736942, -0.026082025684736942, 0.07142856908556938, -0.09221388589046331, 0.09221388589046331, -0.0, -0.055328333787121764, 0.07377110983879254, -0.055328333787121764, -0.0, 0.09221388589046331, -0.09221388589046331, 0.07142856908556938, -0.026082025684736942, -0.026082025684736942, 0.07142856908556938, -0.09221388589046331, 0.058321186057467944, -0.08247860448643873, 0.09035078971800603, -0.08247860448643873, 0.058321186057467944]}
    - {mu0: 0, rank: 3, ndensity: 1, num_ms_combs: 29, mus: [0, 0, 0], ns: [2, 3, 3], ls: [2, 3, 3], ms_combs: [-2, -1, 3, -2, 0, 2, -2, 1, 1, -2, 2, 0, -2, 3, -1, -1, -2, 3, -1, -1, 2, -1, 0, 1, -1, 1, 0, -1, 2, -1, -1, 3, -2, 0, -3, 3, 0, -2, 2, 0, -1, 1, 0, 0, 0, 0, 1, -1, 0, 2, -2, 0, 3, -3, 1, -3, 2, 1, -2, 1, 1, -1, 0, 1, 0, -1, 1, 1, -2, 1, 2, -3, 2, -3, 1, 2, -2, 0, 2, -1, -1, 2, 0, -2, 2, 1, -3], ctildes: [0.058321186057467944, -0.08247860448643873, 0.09035078971800603, -0.08247860448643873, 0.058321186057467944, -0.09221388589046331, 0.07142856908556938, -0.026082025684736942, -0.026082025684736942, 0.07142856908556938, -0.09221388589046331, 0.09221388589046331, -0.0, -0.055328333787121764, 0.07377110983879254, -0.055328333787121764, -0.0, 0.09221388589046331, -0.09221388589046331, 0.07142856908556938, -0.026082025684736942, -0.026082025684736942, 0.07142856908556938, -0.09221388589046331, 0.058321186057467944, -0.08247860448643873, 0.09035078971800603, -0.08247860448643873, 0.058321186057467944]}
    - {mu0: 0, rank: 3, ndensity: 1, num_ms_combs: 29, mus: [0, 0, 0], ns: [3, 1, 1], ls: [2, 3, 3], ms_combs: [-2, -1, 3, -2, 0, 2, -2, 1, 1, -2, 2, 0, -2, 3, -1, -1, -2, 3, -1, -1, 2, -1, 0, 1, -1, 1, 0, -1, 2, -1, -1, 3, -2, 0, -3, 3, 0, -2, 2, 0, -1, 1, 0, 0, 0, 0, 1, -1, 0, 2, -2, 0, 3, -3, 1, -3, 2, 1, -2, 1, 1, -1, 0, 1, 0, -1, 1, 1, -2, 1, 2, -3, 2, -3, 1, 2, -2, 0, 2, -1, -1, 2, 0, -2, 2, 1, -3], ctildes: [0.058321186057467944, -0.08247860448643873, 0.09035078971800603, -0.08247860448643873, 0.058321186057467944, -0.09221388589046331, 0.07142856908556938, -0.026082025684736942, -0.026082025684736942, 0.07142856908556938, -0.09221388589046331, 0.09221388589046331, -0.0, -0.055328333787121764, 0.07377110983879254, -0.055328333787121764, -0.0, 0.09221388589046331, -0.09221388589046331, 0.07142856908556938, -0.026082025684736942, -0.026082025684736942, 0.07142856908556938, -0.09221388589046331, 0.058321186057467944, -0.08247860448643873, 0.09035078971800603, -0.08247860448643873, 0.058321186057467944]}
    - {mu0: 0, rank: 3, ndensity: 1, num_ms_combs: 29, mus: [0, 0, 0], ns: [3, 1, 2], ls: [2, 3, 3], ms_combs: [-2, -1, 3, -2, 0, 2, -2, 1, 1, -2, 2, 0, -2, 3, -1, -1, -2, 3, -1, -1, 2, -1, 0, 1, -1, 1, 0, -1, 2, -1, -1, 3, -2, 0, -3, 3, 0, -2, 2, 0, -1, 1, 0, 0, 0, 0, 1, -1, 0, 2, -2, 0, 3, -3, 1, -3, 2, 1, -2, 1, 1, -1, 0, 1, 0, -1, 1, 1, -2, 1, 2, -3, 2, -3, 1, 2, -2, 0, 2, -1, -1, 2, 0, -2, 2, 1, -3], ctildes: [0.058321186057467944, -0.08247860448643873, 0.09035078971800603, -0.08247860448643873, 0.058321186057467944, -0.09221388589046331, 0.07142856908556938, -0.026082025684736942, -0.026082025684736942, 0.07142856908556938, -0.09221388589046331, 0.09221388589046331, -0.0, -0.055328333787121764, 0.07377110983879254, -0.055328333787121764, -0.0, 0.09221388589046331, -0.09221388589046331, 0.07142856908556938, -0.026082025684736942, -0.026082025684736942, 0.07142856908556938, -0.09221388589046331, 0.058321186057467944, -0.08247860448643873, 0.09035078971800603, -0.08247860448643873, 0.058321186057467944]}
    - {mu0: 0, rank: 3, ndensity: 1, num_ms_combs: 29, mus: [0, 0, 0], ns: [3, 1, 3], ls: [2, 3, 3], ms_combs: [-2, -1, 3, -2, 0, 2, -2, 1, 1, -2, 2, 0, -2, 3, -1, -1, -2, 3, -1, -1, 2, -1, 0, 1, -1, 1, 0, -1, 2, -1, -1, 3, -2, 0, -3, 3, 0, -2, 2, 0, -1, 1, 0, 0, 0, 0, 1, -1, 0, 2, -2, 0, 3, -3, 1, -3, 2, 1, -2, 1, 1, -1, 0, 1, 0, -1, 1, 1, -2, 1, 2, -3, 2, -3, 1, 2, -2, 0, 2, -1, -1, 2, 0, -2, 2, 1, -3], ctildes: [0.058321186057467944, -0.08247860448643873, 0.09035078971800603, -0.08247860448643873, 0.058321186057467944, -0.09221388589046331, 0.07142856908556938, -0.026082025684736942, -0.026082025684736942, 0.07142856908556938, -0.09221388589046331, 0.09221388589046331, -0.0, -0.055328333787121764, 0.07377110983879254, -0.055328333787121764, -0.0, 0.09221388589046331, -0.09221388589046331, 0.07142856908556938, -0.026082025684736942, -0.026082025684736942, 0.07142856908556938, -0.09221388589046331, 0.058321186057467944, -0.08247860448643873, 0.09035078971800603, -0.08247860448643873, 0.058321186057467944]}
    - {mu0: 0, rank: 3, ndensity: 1, num_ms_combs: 29, mus: [0, 0, 0], ns: [3, 2, 2], ls: [2, 3, 3], ms_combs: [-2, -1, 3, -2, 0, 2, -2, 1, 1, -2, 2, 0, -2, 3, -1, -1, -2, 3, -1, -1, 2, -1, 0, 1, -1, 1, 0, -1, 2, -1, -1, 3, -2, 0, -3, 3, 0, -2, 2, 0, -1, 1, 0, 0, 0, 0, 1, -1, 0, 2, -2, 0, 3, -3, 1, -3, 2, 1, -2, 1, 1, -1, 0, 1, 0, -1, 1, 1, -2, 1, 2, -3, 2, -3, 1, 2, -2, 0, 2, -1, -1, 2, 0, -2, 2, 1, -3], ctildes: [0.058321186057467944, -0.08247860448643873, 0.09035078971800603, -0.08247860448643873, 0.058321186057467944, -0.09221388589046331, 0.07142856908556938, -0.026082025684736942, -0.026082025684736942, 0.07142856908556938, -0.09221388589046331, 0.09221388589046331, -0.0, -0.055328333787121764, 0.07377110983879254, -0.055328333787121764, -0.0, 0.09221388589046331, -0.09221388589046331, 0.07142856908556938, -0.026082025684736942, -0.026082025684736942, 0.07142856908556938, -0.09221388589046331, 0.058321186057467944, -0.08247860448643873, 0.09035078971800603, -0.08247860448643873, 0.058321186057467944]}
    - {mu0: 0, rank: 3, ndensity: 1, num_ms_combs: 29, mus: [0, 0, 0], ns: [3, 2, 3], ls: [2, 3, 3], ms_combs: [-2, -1, 3, -2, 0, 2, -2, 1, 1, -2, 2, 0, -2, 3, -1, -1, -2, 3, -1, -1, 2, -1, 0, 1, -1, 1, 0, -1, 2, -1, -1, 3, -2, 0, -3, 3, 0, -2, 2, 0, -1, 1, 0, 0, 0, 0, 1, -1, 0, 2, -2, 0, 3, -3, 1, -3, 2, 1, -2, 1, 1, -1, 0, 1, 0, -1, 1, 1, -2, 1, 2, -3, 2, -3, 1, 2, -2, 0, 2, -1, -1, 2, 0, -2, 2, 1, -3], ctildes: [0.058321186057467944, -0.08247860448643873, 0.09035078971800603, -0.08247860448643873, 0.058321186057467944, -0.09221388589046331, 0.07142856908556938, -0.026082025684736942, -0.026082025684736942, 0.07142856908556938, -0.09221388589046331, 0.09221388589046331, -0.0, -0.055328333787121764, 0.07377110983879254, -0.055328333787121764, -0.0, 0.09221388589046331, -0.09221388589046331, 0.07142856908556938, -0.026082025684736942, -0.026082025684736942, 0.07142856908556938, -0.09221388589046331, 0.058321186057467944, -0.08247860448643873, 0.09035078971800603, -0.08247860448643873, 0.058321186057467944]}
