elements: [Ta] 
E0: [-5.972336] 
deltaSplineBins: 0.001000 
embeddings:
  0: {ndensity: 1, FS_parameters: [1.0, 1.0], npoti: FinnisSinclair, rho_core_cutoff: 100000, drho_core_cutoff: 250}
bonds:
  [0, 0]: {nradmax: 22, lmax: 5, nradbasemax: 22, radbasename: ChebExpCos, radparameters: [1.275], radcoefficients: [[[1, 0, 0, 0, 0, 0, 0, 0, 0, 0, 0, 0, 0, 0, 0, 0, 0, 0, 0, 0, 0, 0], [1, 0, 0, 0, 0, 0, 0, 0, 0, 0, 0, 0, 0, 0, 0, 0, 0, 0, 0, 0, 0, 0], [1, 0, 0, 0, 0, 0, 0, 0, 0, 0, 0, 0, 0, 0, 0, 0, 0, 0, 0, 0, 0, 0], [1, 0, 0, 0, 0, 0, 0, 0, 0, 0, 0, 0, 0, 0, 0, 0, 0, 0, 0, 0, 0, 0], [1, 0, 0, 0, 0, 0, 0, 0, 0, 0, 0, 0, 0, 0, 0, 0, 0, 0, 0, 0, 0, 0], [1, 0, 0, 0, 0, 0, 0, 0, 0, 0, 0, 0, 0, 0, 0, 0, 0, 0, 0, 0, 0, 0]], [[0, 1, 0, 0, 0, 0, 0, 0, 0, 0, 0, 0, 0, 0, 0, 0, 0, 0, 0, 0, 0, 0], [0, 1, 0, 0, 0, 0, 0, 0, 0, 0, 0, 0, 0, 0, 0, 0, 0, 0, 0, 0, 0, 0], [0, 1, 0, 0, 0, 0, 0, 0, 0, 0, 0, 0, 0, 0, 0, 0, 0, 0, 0, 0, 0, 0], [0, 1, 0, 0, 0, 0, 0, 0, 0, 0, 0, 0, 0, 0, 0, 0, 0, 0, 0, 0, 0, 0], [0, 1, 0, 0, 0, 0, 0, 0, 0, 0, 0, 0, 0, 0, 0, 0, 0, 0, 0, 0, 0, 0], [0, 1, 0, 0, 0, 0, 0, 0, 0, 0, 0, 0, 0, 0, 0, 0, 0, 0, 0, 0, 0, 0]], [[0, 0, 1, 0, 0, 0, 0, 0, 0, 0, 0, 0, 0, 0, 0, 0, 0, 0, 0, 0, 0, 0], [0, 0, 1, 0, 0, 0, 0, 0, 0, 0, 0, 0, 0, 0, 0, 0, 0, 0, 0, 0, 0, 0], [0, 0, 1, 0, 0, 0, 0, 0, 0, 0, 0, 0, 0, 0, 0, 0, 0, 0, 0, 0, 0, 0], [0, 0, 1, 0, 0, 0, 0, 0, 0, 0, 0, 0, 0, 0, 0, 0, 0, 0, 0, 0, 0, 0], [0, 0, 1, 0, 0, 0, 0, 0, 0, 0, 0, 0, 0, 0, 0, 0, 0, 0, 0, 0, 0, 0], [0, 0, 1, 0, 0, 0, 0, 0, 0, 0, 0, 0, 0, 0, 0, 0, 0, 0, 0, 0, 0, 0]], [[0, 0, 0, 1, 0, 0, 0, 0, 0, 0, 0, 0, 0, 0, 0, 0, 0, 0, 0, 0, 0, 0], [0, 0, 0, 1, 0, 0, 0, 0, 0, 0, 0, 0, 0, 0, 0, 0, 0, 0, 0, 0, 0, 0], [0, 0, 0, 1, 0, 0, 0, 0, 0, 0, 0, 0, 0, 0, 0, 0, 0, 0, 0, 0, 0, 0], [0, 0, 0, 1, 0, 0, 0, 0, 0, 0, 0, 0, 0, 0, 0, 0, 0, 0, 0, 0, 0, 0], [0, 0, 0, 1, 0, 0, 0, 0, 0, 0, 0, 0, 0, 0, 0, 0, 0, 0, 0, 0, 0, 0], [0, 0, 0, 1, 0, 0, 0, 0, 0, 0, 0, 0, 0, 0, 0, 0, 0, 0, 0, 0, 0, 0]], [[0, 0, 0, 0, 1, 0, 0, 0, 0, 0, 0, 0, 0, 0, 0, 0, 0, 0, 0, 0, 0, 0], [0, 0, 0, 0, 1, 0, 0, 0, 0, 0, 0, 0, 0, 0, 0, 0, 0, 0, 0, 0, 0, 0], [0, 0, 0, 0, 1, 0, 0, 0, 0, 0, 0, 0, 0, 0, 0, 0, 0, 0, 0, 0, 0, 0], [0, 0, 0, 0, 1, 0, 0, 0, 0, 0, 0, 0, 0, 0, 0, 0, 0, 0, 0, 0, 0, 0], [0, 0, 0, 0, 1, 0, 0, 0, 0, 0, 0, 0, 0, 0, 0, 0, 0, 0, 0, 0, 0, 0], [0, 0, 0, 0, 1, 0, 0, 0, 0, 0, 0, 0, 0, 0, 0, 0, 0, 0, 0, 0, 0, 0]], [[0, 0, 0, 0, 0, 1, 0, 0, 0, 0, 0, 0, 0, 0, 0, 0, 0, 0, 0, 0, 0, 0], [0, 0, 0, 0, 0, 1, 0, 0, 0, 0, 0, 0, 0, 0, 0, 0, 0, 0, 0, 0, 0, 0], [0, 0, 0, 0, 0, 1, 0, 0, 0, 0, 0, 0, 0, 0, 0, 0, 0, 0, 0, 0, 0, 0], [0, 0, 0, 0, 0, 1, 0, 0, 0, 0, 0, 0, 0, 0, 0, 0, 0, 0, 0, 0, 0, 0], [0, 0, 0, 0, 0, 1, 0, 0, 0, 0, 0, 0, 0, 0, 0, 0, 0, 0, 0, 0, 0, 0], [0, 0, 0, 0, 0, 1, 0, 0, 0, 0, 0, 0, 0, 0, 0, 0, 0, 0, 0, 0, 0, 0]], [[0, 0, 0, 0, 0, 0, 1, 0, 0, 0, 0, 0, 0, 0, 0, 0, 0, 0, 0, 0, 0, 0], [0, 0, 0, 0, 0, 0, 1, 0, 0, 0, 0, 0, 0, 0, 0, 0, 0, 0, 0, 0, 0, 0], [0, 0, 0, 0, 0, 0, 1, 0, 0, 0, 0, 0, 0, 0, 0, 0, 0, 0, 0, 0, 0, 0], [0, 0, 0, 0, 0, 0, 1, 0, 0, 0, 0, 0, 0, 0, 0, 0, 0, 0, 0, 0, 0, 0], [0, 0, 0, 0, 0, 0, 1, 0, 0, 0, 0, 0, 0, 0, 0, 0, 0, 0, 0, 0, 0, 0], [0, 0, 0, 0, 0, 0, 1, 0, 0, 0, 0, 0, 0, 0, 0, 0, 0, 0, 0, 0, 0, 0]], [[0, 0, 0, 0, 0, 0, 0, 1, 0, 0, 0, 0, 0, 0, 0, 0, 0, 0, 0, 0, 0, 0], [0, 0, 0, 0, 0, 0, 0, 1, 0, 0, 0, 0, 0, 0, 0, 0, 0, 0, 0, 0, 0, 0], [0, 0, 0, 0, 0, 0, 0, 1, 0, 0, 0, 0, 0, 0, 0, 0, 0, 0, 0, 0, 0, 0], [0, 0, 0, 0, 0, 0, 0, 1, 0, 0, 0, 0, 0, 0, 0, 0, 0, 0, 0, 0, 0, 0], [0, 0, 0, 0, 0, 0, 0, 1, 0, 0, 0, 0, 0, 0, 0, 0, 0, 0, 0, 0, 0, 0], [0, 0, 0, 0, 0, 0, 0, 1, 0, 0, 0, 0, 0, 0, 0, 0, 0, 0, 0, 0, 0, 0]], [[0, 0, 0, 0, 0, 0, 0, 0, 1, 0, 0, 0, 0, 0, 0, 0, 0, 0, 0, 0, 0, 0], [0, 0, 0, 0, 0, 0, 0, 0, 1, 0, 0, 0, 0, 0, 0, 0, 0, 0, 0, 0, 0, 0], [0, 0, 0, 0, 0, 0, 0, 0, 1, 0, 0, 0, 0, 0, 0, 0, 0, 0, 0, 0, 0, 0], [0, 0, 0, 0, 0, 0, 0, 0, 1, 0, 0, 0, 0, 0, 0, 0, 0, 0, 0, 0, 0, 0], [0, 0, 0, 0, 0, 0, 0, 0, 1, 0, 0, 0, 0, 0, 0, 0, 0, 0, 0, 0, 0, 0], [0, 0, 0, 0, 0, 0, 0, 0, 1, 0, 0, 0, 0, 0, 0, 0, 0, 0, 0, 0, 0, 0]], [[0, 0, 0, 0, 0, 0, 0, 0, 0, 1, 0, 0, 0, 0, 0, 0, 0, 0, 0, 0, 0, 0], [0, 0, 0, 0, 0, 0, 0, 0, 0, 1, 0, 0, 0, 0, 0, 0, 0, 0, 0, 0, 0, 0], [0, 0, 0, 0, 0, 0, 0, 0, 0, 1, 0, 0, 0, 0, 0, 0, 0, 0, 0, 0, 0, 0], [0, 0, 0, 0, 0, 0, 0, 0, 0, 1, 0, 0, 0, 0, 0, 0, 0, 0, 0, 0, 0, 0], [0, 0, 0, 0, 0, 0, 0, 0, 0, 1, 0, 0, 0, 0, 0, 0, 0, 0, 0, 0, 0, 0], [0, 0, 0, 0, 0, 0, 0, 0, 0, 1, 0, 0, 0, 0, 0, 0, 0, 0, 0, 0, 0, 0]], [[0, 0, 0, 0, 0, 0, 0, 0, 0, 0, 1, 0, 0, 0, 0, 0, 0, 0, 0, 0, 0, 0], [0, 0, 0, 0, 0, 0, 0, 0, 0, 0, 1, 0, 0, 0, 0, 0, 0, 0, 0, 0, 0, 0], [0, 0, 0, 0, 0, 0, 0, 0, 0, 0, 1, 0, 0, 0, 0, 0, 0, 0, 0, 0, 0, 0], [0, 0, 0, 0, 0, 0, 0, 0, 0, 0, 1, 0, 0, 0, 0, 0, 0, 0, 0, 0, 0, 0], [0, 0, 0, 0, 0, 0, 0, 0, 0, 0, 1, 0, 0, 0, 0, 0, 0, 0, 0, 0, 0, 0], [0, 0, 0, 0, 0, 0, 0, 0, 0, 0, 1, 0, 0, 0, 0, 0, 0, 0, 0, 0, 0, 0]], [[0, 0, 0, 0, 0, 0, 0, 0, 0, 0, 0, 1, 0, 0, 0, 0, 0, 0, 0, 0, 0, 0], [0, 0, 0, 0, 0, 0, 0, 0, 0, 0, 0, 1, 0, 0, 0, 0, 0, 0, 0, 0, 0, 0], [0, 0, 0, 0, 0, 0, 0, 0, 0, 0, 0, 1, 0, 0, 0, 0, 0, 0, 0, 0, 0, 0], [0, 0, 0, 0, 0, 0, 0, 0, 0, 0, 0, 1, 0, 0, 0, 0, 0, 0, 0, 0, 0, 0], [0, 0, 0, 0, 0, 0, 0, 0, 0, 0, 0, 1, 0, 0, 0, 0, 0, 0, 0, 0, 0, 0], [0, 0, 0, 0, 0, 0, 0, 0, 0, 0, 0, 1, 0, 0, 0, 0, 0, 0, 0, 0, 0, 0]], [[0, 0, 0, 0, 0, 0, 0, 0, 0, 0, 0, 0, 1, 0, 0, 0, 0, 0, 0, 0, 0, 0], [0, 0, 0, 0, 0, 0, 0, 0, 0, 0, 0, 0, 1, 0, 0, 0, 0, 0, 0, 0, 0, 0], [0, 0, 0, 0, 0, 0, 0, 0, 0, 0, 0, 0, 1, 0, 0, 0, 0, 0, 0, 0, 0, 0], [0, 0, 0, 0, 0, 0, 0, 0, 0, 0, 0, 0, 1, 0, 0, 0, 0, 0, 0, 0, 0, 0], [0, 0, 0, 0, 0, 0, 0, 0, 0, 0, 0, 0, 1, 0, 0, 0, 0, 0, 0, 0, 0, 0], [0, 0, 0, 0, 0, 0, 0, 0, 0, 0, 0, 0, 1, 0, 0, 0, 0, 0, 0, 0, 0, 0]], [[0, 0, 0, 0, 0, 0, 0, 0, 0, 0, 0, 0, 0, 1, 0, 0, 0, 0, 0, 0, 0, 0], [0, 0, 0, 0, 0, 0, 0, 0, 0, 0, 0, 0, 0, 1, 0, 0, 0, 0, 0, 0, 0, 0], [0, 0, 0, 0, 0, 0, 0, 0, 0, 0, 0, 0, 0, 1, 0, 0, 0, 0, 0, 0, 0, 0], [0, 0, 0, 0, 0, 0, 0, 0, 0, 0, 0, 0, 0, 1, 0, 0, 0, 0, 0, 0, 0, 0], [0, 0, 0, 0, 0, 0, 0, 0, 0, 0, 0, 0, 0, 1, 0, 0, 0, 0, 0, 0, 0, 0], [0, 0, 0, 0, 0, 0, 0, 0, 0, 0, 0, 0, 0, 1, 0, 0, 0, 0, 0, 0, 0, 0]], [[0, 0, 0, 0, 0, 0, 0, 0, 0, 0, 0, 0, 0, 0, 1, 0, 0, 0, 0, 0, 0, 0], [0, 0, 0, 0, 0, 0, 0, 0, 0, 0, 0, 0, 0, 0, 1, 0, 0, 0, 0, 0, 0, 0], [0, 0, 0, 0, 0, 0, 0, 0, 0, 0, 0, 0, 0, 0, 1, 0, 0, 0, 0, 0, 0, 0], [0, 0, 0, 0, 0, 0, 0, 0, 0, 0, 0, 0, 0, 0, 1, 0, 0, 0, 0, 0, 0, 0], [0, 0, 0, 0, 0, 0, 0, 0, 0, 0, 0, 0, 0, 0, 1, 0, 0, 0, 0, 0, 0, 0], [0, 0, 0, 0, 0, 0, 0, 0, 0, 0, 0, 0, 0, 0, 1, 0, 0, 0, 0, 0, 0, 0]], [[0, 0, 0, 0, 0, 0, 0, 0, 0, 0, 0, 0, 0, 0, 0, 1, 0, 0, 0, 0, 0, 0], [0, 0, 0, 0, 0, 0, 0, 0, 0, 0, 0, 0, 0, 0, 0, 1, 0, 0, 0, 0, 0, 0], [0, 0, 0, 0, 0, 0, 0, 0, 0, 0, 0, 0, 0, 0, 0, 1, 0, 0, 0, 0, 0, 0], [0, 0, 0, 0, 0, 0, 0, 0, 0, 0, 0, 0, 0, 0, 0, 1, 0, 0, 0, 0, 0, 0], [0, 0, 0, 0, 0, 0, 0, 0, 0, 0, 0, 0, 0, 0, 0, 1, 0, 0, 0, 0, 0, 0], [0, 0, 0, 0, 0, 0, 0, 0, 0, 0, 0, 0, 0, 0, 0, 1, 0, 0, 0, 0, 0, 0]], [[0, 0, 0, 0, 0, 0, 0, 0, 0, 0, 0, 0, 0, 0, 0, 0, 1, 0, 0, 0, 0, 0], [0, 0, 0, 0, 0, 0, 0, 0, 0, 0, 0, 0, 0, 0, 0, 0, 1, 0, 0, 0, 0, 0], [0, 0, 0, 0, 0, 0, 0, 0, 0, 0, 0, 0, 0, 0, 0, 0, 1, 0, 0, 0, 0, 0], [0, 0, 0, 0, 0, 0, 0, 0, 0, 0, 0, 0, 0, 0, 0, 0, 1, 0, 0, 0, 0, 0], [0, 0, 0, 0, 0, 0, 0, 0, 0, 0, 0, 0, 0, 0, 0, 0, 1, 0, 0, 0, 0, 0], [0, 0, 0, 0, 0, 0, 0, 0, 0, 0, 0, 0, 0, 0, 0, 0, 1, 0, 0, 0, 0, 0]], [[0, 0, 0, 0, 0, 0, 0, 0, 0, 0, 0, 0, 0, 0, 0, 0, 0, 1, 0, 0, 0, 0], [0, 0, 0, 0, 0, 0, 0, 0, 0, 0, 0, 0, 0, 0, 0, 0, 0, 1, 0, 0, 0, 0], [0, 0, 0, 0, 0, 0, 0, 0, 0, 0, 0, 0, 0, 0, 0, 0, 0, 1, 0, 0, 0, 0], [0, 0, 0, 0, 0, 0, 0, 0, 0, 0, 0, 0, 0, 0, 0, 0, 0, 1, 0, 0, 0, 0], [0, 0, 0, 0, 0, 0, 0, 0, 0, 0, 0, 0, 0, 0, 0, 0, 0, 1, 0, 0, 0, 0], [0, 0, 0, 0, 0, 0, 0, 0, 0, 0, 0, 0, 0, 0, 0, 0, 0, 1, 0, 0, 0, 0]], [[0, 0, 0, 0, 0, 0, 0, 0, 0, 0, 0, 0, 0, 0, 0, 0, 0, 0, 1, 0, 0, 0], [0, 0, 0, 0, 0, 0, 0, 0, 0, 0, 0, 0, 0, 0, 0, 0, 0, 0, 1, 0, 0, 0], [0, 0, 0, 0, 0, 0, 0, 0, 0, 0, 0, 0, 0, 0, 0, 0, 0, 0, 1, 0, 0, 0], [0, 0, 0, 0, 0, 0, 0, 0, 0, 0, 0, 0, 0, 0, 0, 0, 0, 0, 1, 0, 0, 0], [0, 0, 0, 0, 0, 0, 0, 0, 0, 0, 0, 0, 0, 0, 0, 0, 0, 0, 1, 0, 0, 0], [0, 0, 0, 0, 0, 0, 0, 0, 0, 0, 0, 0, 0, 0, 0, 0, 0, 0, 1, 0, 0, 0]], [[0, 0, 0, 0, 0, 0, 0, 0, 0, 0, 0, 0, 0, 0, 0, 0, 0, 0, 0, 1, 0, 0], [0, 0, 0, 0, 0, 0, 0, 0, 0, 0, 0, 0, 0, 0, 0, 0, 0, 0, 0, 1, 0, 0], [0, 0, 0, 0, 0, 0, 0, 0, 0, 0, 0, 0, 0, 0, 0, 0, 0, 0, 0, 1, 0, 0], [0, 0, 0, 0, 0, 0, 0, 0, 0, 0, 0, 0, 0, 0, 0, 0, 0, 0, 0, 1, 0, 0], [0, 0, 0, 0, 0, 0, 0, 0, 0, 0, 0, 0, 0, 0, 0, 0, 0, 0, 0, 1, 0, 0], [0, 0, 0, 0, 0, 0, 0, 0, 0, 0, 0, 0, 0, 0, 0, 0, 0, 0, 0, 1, 0, 0]], [[0, 0, 0, 0, 0, 0, 0, 0, 0, 0, 0, 0, 0, 0, 0, 0, 0, 0, 0, 0, 1, 0], [0, 0, 0, 0, 0, 0, 0, 0, 0, 0, 0, 0, 0, 0, 0, 0, 0, 0, 0, 0, 1, 0], [0, 0, 0, 0, 0, 0, 0, 0, 0, 0, 0, 0, 0, 0, 0, 0, 0, 0, 0, 0, 1, 0], [0, 0, 0, 0, 0, 0, 0, 0, 0, 0, 0, 0, 0, 0, 0, 0, 0, 0, 0, 0, 1, 0], [0, 0, 0, 0, 0, 0, 0, 0, 0, 0, 0, 0, 0, 0, 0, 0, 0, 0, 0, 0, 1, 0], [0, 0, 0, 0, 0, 0, 0, 0, 0, 0, 0, 0, 0, 0, 0, 0, 0, 0, 0, 0, 1, 0]], [[0, 0, 0, 0, 0, 0, 0, 0, 0, 0, 0, 0, 0, 0, 0, 0, 0, 0, 0, 0, 0, 1], [0, 0, 0, 0, 0, 0, 0, 0, 0, 0, 0, 0, 0, 0, 0, 0, 0, 0, 0, 0, 0, 1], [0, 0, 0, 0, 0, 0, 0, 0, 0, 0, 0, 0, 0, 0, 0, 0, 0, 0, 0, 0, 0, 1], [0, 0, 0, 0, 0, 0, 0, 0, 0, 0, 0, 0, 0, 0, 0, 0, 0, 0, 0, 0, 0, 1], [0, 0, 0, 0, 0, 0, 0, 0, 0, 0, 0, 0, 0, 0, 0, 0, 0, 0, 0, 0, 0, 1], [0, 0, 0, 0, 0, 0, 0, 0, 0, 0, 0, 0, 0, 0, 0, 0, 0, 0, 0, 0, 0, 1]]], prehc: 0, lambdahc: 1.275, rcut: 4.25, dcut: 0.01, rcut_in: 1.2, dcut_in: 0.01, inner_cutoff_type: distance}
functions:
  0:
    - {mu0: 0, rank: 1, ndensity: 1, num_ms_combs: 1, mus: [0], ns: [1], ls: [0], ms_combs: [0], ctildes: [-11.653995902510943]}
    - {mu0: 0, rank: 1, ndensity: 1, num_ms_combs: 1, mus: [0], ns: [2], ls: [0], ms_combs: [0], ctildes: [0.028183308418295448]}
    - {mu0: 0, rank: 1, ndensity: 1, num_ms_combs: 1, mus: [0], ns: [3], ls: [0], ms_combs: [0], ctildes: [16.132322908573723]}
    - {mu0: 0, rank: 1, ndensity: 1, num_ms_combs: 1, mus: [0], ns: [4], ls: [0], ms_combs: [0], ctildes: [-0.011806264871880344]}
    - {mu0: 0, rank: 1, ndensity: 1, num_ms_combs: 1, mus: [0], ns: [5], ls: [0], ms_combs: [0], ctildes: [0.002107975491097449]}
    - {mu0: 0, rank: 1, ndensity: 1, num_ms_combs: 1, mus: [0], ns: [6], ls: [0], ms_combs: [0], ctildes: [0.5778626083184201]}
    - {mu0: 0, rank: 1, ndensity: 1, num_ms_combs: 1, mus: [0], ns: [7], ls: [0], ms_combs: [0], ctildes: [0.0]}
    - {mu0: 0, rank: 1, ndensity: 1, num_ms_combs: 1, mus: [0], ns: [8], ls: [0], ms_combs: [0], ctildes: [0.0]}
    - {mu0: 0, rank: 1, ndensity: 1, num_ms_combs: 1, mus: [0], ns: [9], ls: [0], ms_combs: [0], ctildes: [0.0]}
    - {mu0: 0, rank: 1, ndensity: 1, num_ms_combs: 1, mus: [0], ns: [10], ls: [0], ms_combs: [0], ctildes: [0.0]}
    - {mu0: 0, rank: 1, ndensity: 1, num_ms_combs: 1, mus: [0], ns: [11], ls: [0], ms_combs: [0], ctildes: [0.0]}
    - {mu0: 0, rank: 1, ndensity: 1, num_ms_combs: 1, mus: [0], ns: [12], ls: [0], ms_combs: [0], ctildes: [0.0]}
    - {mu0: 0, rank: 1, ndensity: 1, num_ms_combs: 1, mus: [0], ns: [13], ls: [0], ms_combs: [0], ctildes: [0.0]}
    - {mu0: 0, rank: 1, ndensity: 1, num_ms_combs: 1, mus: [0], ns: [14], ls: [0], ms_combs: [0], ctildes: [0.0]}
    - {mu0: 0, rank: 1, ndensity: 1, num_ms_combs: 1, mus: [0], ns: [15], ls: [0], ms_combs: [0], ctildes: [0.0]}
    - {mu0: 0, rank: 1, ndensity: 1, num_ms_combs: 1, mus: [0], ns: [16], ls: [0], ms_combs: [0], ctildes: [0.0]}
    - {mu0: 0, rank: 1, ndensity: 1, num_ms_combs: 1, mus: [0], ns: [17], ls: [0], ms_combs: [0], ctildes: [0.0]}
    - {mu0: 0, rank: 1, ndensity: 1, num_ms_combs: 1, mus: [0], ns: [18], ls: [0], ms_combs: [0], ctildes: [0.0]}
    - {mu0: 0, rank: 1, ndensity: 1, num_ms_combs: 1, mus: [0], ns: [19], ls: [0], ms_combs: [0], ctildes: [0.0]}
    - {mu0: 0, rank: 1, ndensity: 1, num_ms_combs: 1, mus: [0], ns: [20], ls: [0], ms_combs: [0], ctildes: [0.0]}
    - {mu0: 0, rank: 1, ndensity: 1, num_ms_combs: 1, mus: [0], ns: [21], ls: [0], ms_combs: [0], ctildes: [0.0]}
    - {mu0: 0, rank: 1, ndensity: 1, num_ms_combs: 1, mus: [0], ns: [22], ls: [0], ms_combs: [0], ctildes: [0.0]}
    - {mu0: 0, rank: 2, ndensity: 1, num_ms_combs: 1, mus: [0, 0], ns: [1, 1], ls: [0, 0], ms_combs: [0, 0], ctildes: [8.51589382096828]}
    - {mu0: 0, rank: 2, ndensity: 1, num_ms_combs: 1, mus: [0, 0], ns: [1, 2], ls: [0, 0], ms_combs: [0, 0], ctildes: [-343.868319524561]}
    - {mu0: 0, rank: 2, ndensity: 1, num_ms_combs: 1, mus: [0, 0], ns: [1, 3], ls: [0, 0], ms_combs: [0, 0], ctildes: [159.2283298263111]}
    - {mu0: 0, rank: 2, ndensity: 1, num_ms_combs: 1, mus: [0, 0], ns: [1, 4], ls: [0, 0], ms_combs: [0, 0], ctildes: [-48.03510524910131]}
    - {mu0: 0, rank: 2, ndensity: 1, num_ms_combs: 1, mus: [0, 0], ns: [1, 5], ls: [0, 0], ms_combs: [0, 0], ctildes: [0.0]}
    - {mu0: 0, rank: 2, ndensity: 1, num_ms_combs: 1, mus: [0, 0], ns: [2, 2], ls: [0, 0], ms_combs: [0, 0], ctildes: [-0.018826794056541064]}
    - {mu0: 0, rank: 2, ndensity: 1, num_ms_combs: 1, mus: [0, 0], ns: [2, 3], ls: [0, 0], ms_combs: [0, 0], ctildes: [278.85601086578356]}
    - {mu0: 0, rank: 2, ndensity: 1, num_ms_combs: 1, mus: [0, 0], ns: [2, 4], ls: [0, 0], ms_combs: [0, 0], ctildes: [84.82947499969794]}
    - {mu0: 0, rank: 2, ndensity: 1, num_ms_combs: 1, mus: [0, 0], ns: [2, 5], ls: [0, 0], ms_combs: [0, 0], ctildes: [17.34321816054728]}
    - {mu0: 0, rank: 2, ndensity: 1, num_ms_combs: 1, mus: [0, 0], ns: [3, 3], ls: [0, 0], ms_combs: [0, 0], ctildes: [-134.186328062511]}
    - {mu0: 0, rank: 2, ndensity: 1, num_ms_combs: 1, mus: [0, 0], ns: [3, 4], ls: [0, 0], ms_combs: [0, 0], ctildes: [-0.13777436398522167]}
    - {mu0: 0, rank: 2, ndensity: 1, num_ms_combs: 1, mus: [0, 0], ns: [3, 5], ls: [0, 0], ms_combs: [0, 0], ctildes: [0.0]}
    - {mu0: 0, rank: 2, ndensity: 1, num_ms_combs: 1, mus: [0, 0], ns: [4, 4], ls: [0, 0], ms_combs: [0, 0], ctildes: [4.633615602776711]}
    - {mu0: 0, rank: 2, ndensity: 1, num_ms_combs: 1, mus: [0, 0], ns: [4, 5], ls: [0, 0], ms_combs: [0, 0], ctildes: [0.0]}
    - {mu0: 0, rank: 2, ndensity: 1, num_ms_combs: 1, mus: [0, 0], ns: [5, 5], ls: [0, 0], ms_combs: [0, 0], ctildes: [0.0]}
    - {mu0: 0, rank: 2, ndensity: 1, num_ms_combs: 3, mus: [0, 0], ns: [1, 1], ls: [1, 1], ms_combs: [-1, 1, 0, 0, 1, -1], ctildes: [-0.5543151443472498, 0.5543151443472498, -0.5543151443472498]}
    - {mu0: 0, rank: 2, ndensity: 1, num_ms_combs: 3, mus: [0, 0], ns: [1, 2], ls: [1, 1], ms_combs: [-1, 1, 0, 0, 1, -1], ctildes: [-0.026801010557616568, 0.026801010557616568, -0.026801010557616568]}
    - {mu0: 0, rank: 2, ndensity: 1, num_ms_combs: 3, mus: [0, 0], ns: [1, 3], ls: [1, 1], ms_combs: [-1, 1, 0, 0, 1, -1], ctildes: [-3.6589833545240054, 3.6589833545240054, -3.6589833545240054]}
    - {mu0: 0, rank: 2, ndensity: 1, num_ms_combs: 3, mus: [0, 0], ns: [1, 4], ls: [1, 1], ms_combs: [-1, 1, 0, 0, 1, -1], ctildes: [-2.706112315424945, 2.706112315424945, -2.706112315424945]}
    - {mu0: 0, rank: 2, ndensity: 1, num_ms_combs: 3, mus: [0, 0], ns: [1, 5], ls: [1, 1], ms_combs: [-1, 1, 0, 0, 1, -1], ctildes: [0.0, -0.0, 0.0]}
    - {mu0: 0, rank: 2, ndensity: 1, num_ms_combs: 3, mus: [0, 0], ns: [2, 2], ls: [1, 1], ms_combs: [-1, 1, 0, 0, 1, -1], ctildes: [0.0005086577490561202, -0.0005086577490561202, 0.0005086577490561202]}
    - {mu0: 0, rank: 2, ndensity: 1, num_ms_combs: 3, mus: [0, 0], ns: [2, 3], ls: [1, 1], ms_combs: [-1, 1, 0, 0, 1, -1], ctildes: [-672.5551706627414, 672.5551706627414, -672.5551706627414]}
    - {mu0: 0, rank: 2, ndensity: 1, num_ms_combs: 3, mus: [0, 0], ns: [2, 4], ls: [1, 1], ms_combs: [-1, 1, 0, 0, 1, -1], ctildes: [-353.29141834927754, 353.29141834927754, -353.29141834927754]}
    - {mu0: 0, rank: 2, ndensity: 1, num_ms_combs: 3, mus: [0, 0], ns: [2, 5], ls: [1, 1], ms_combs: [-1, 1, 0, 0, 1, -1], ctildes: [-0.0027968402748235035, 0.0027968402748235035, -0.0027968402748235035]}
    - {mu0: 0, rank: 2, ndensity: 1, num_ms_combs: 3, mus: [0, 0], ns: [3, 3], ls: [1, 1], ms_combs: [-1, 1, 0, 0, 1, -1], ctildes: [428.6442624275471, -428.6442624275471, 428.6442624275471]}
    - {mu0: 0, rank: 2, ndensity: 1, num_ms_combs: 3, mus: [0, 0], ns: [3, 4], ls: [1, 1], ms_combs: [-1, 1, 0, 0, 1, -1], ctildes: [0.003409932097233908, -0.003409932097233908, 0.003409932097233908]}
    - {mu0: 0, rank: 2, ndensity: 1, num_ms_combs: 3, mus: [0, 0], ns: [3, 5], ls: [1, 1], ms_combs: [-1, 1, 0, 0, 1, -1], ctildes: [46.8681717792116, -46.8681717792116, 46.8681717792116]}
    - {mu0: 0, rank: 2, ndensity: 1, num_ms_combs: 3, mus: [0, 0], ns: [4, 4], ls: [1, 1], ms_combs: [-1, 1, 0, 0, 1, -1], ctildes: [-48.1274008364782, 48.1274008364782, -48.1274008364782]}
    - {mu0: 0, rank: 2, ndensity: 1, num_ms_combs: 3, mus: [0, 0], ns: [4, 5], ls: [1, 1], ms_combs: [-1, 1, 0, 0, 1, -1], ctildes: [0.020481859011006638, -0.020481859011006638, 0.020481859011006638]}
    - {mu0: 0, rank: 2, ndensity: 1, num_ms_combs: 3, mus: [0, 0], ns: [5, 5], ls: [1, 1], ms_combs: [-1, 1, 0, 0, 1, -1], ctildes: [2.5425848549436374, -2.5425848549436374, 2.5425848549436374]}
    - {mu0: 0, rank: 2, ndensity: 1, num_ms_combs: 5, mus: [0, 0], ns: [1, 1], ls: [2, 2], ms_combs: [-2, 2, -1, 1, 0, 0, 1, -1, 2, -2], ctildes: [1.0326758723476919, -1.0326758723476919, 1.0326758723476919, -1.0326758723476919, 1.0326758723476919]}
    - {mu0: 0, rank: 2, ndensity: 1, num_ms_combs: 5, mus: [0, 0], ns: [1, 2], ls: [2, 2], ms_combs: [-2, 2, -1, 1, 0, 0, 1, -1, 2, -2], ctildes: [-0.0016368692760065557, 0.0016368692760065557, -0.0016368692760065557, 0.0016368692760065557, -0.0016368692760065557]}
    - {mu0: 0, rank: 2, ndensity: 1, num_ms_combs: 5, mus: [0, 0], ns: [1, 3], ls: [2, 2], ms_combs: [-2, 2, -1, 1, 0, 0, 1, -1, 2, -2], ctildes: [-33.87217520478293, 33.87217520478293, -33.87217520478293, 33.87217520478293, -33.87217520478293]}
    - {mu0: 0, rank: 2, ndensity: 1, num_ms_combs: 5, mus: [0, 0], ns: [1, 4], ls: [2, 2], ms_combs: [-2, 2, -1, 1, 0, 0, 1, -1, 2, -2], ctildes: [38.84121730022146, -38.84121730022146, 38.84121730022146, -38.84121730022146, 38.84121730022146]}
    - {mu0: 0, rank: 2, ndensity: 1, num_ms_combs: 5, mus: [0, 0], ns: [1, 5], ls: [2, 2], ms_combs: [-2, 2, -1, 1, 0, 0, 1, -1, 2, -2], ctildes: [-18.789720249015385, 18.789720249015385, -18.789720249015385, 18.789720249015385, -18.789720249015385]}
    - {mu0: 0, rank: 2, ndensity: 1, num_ms_combs: 5, mus: [0, 0], ns: [2, 2], ls: [2, 2], ms_combs: [-2, 2, -1, 1, 0, 0, 1, -1, 2, -2], ctildes: [259.55253103153524, -259.55253103153524, 259.55253103153524, -259.55253103153524, 259.55253103153524]}
    - {mu0: 0, rank: 2, ndensity: 1, num_ms_combs: 5, mus: [0, 0], ns: [2, 3], ls: [2, 2], ms_combs: [-2, 2, -1, 1, 0, 0, 1, -1, 2, -2], ctildes: [-0.00796905124212481, 0.00796905124212481, -0.00796905124212481, 0.00796905124212481, -0.00796905124212481]}
    - {mu0: 0, rank: 2, ndensity: 1, num_ms_combs: 5, mus: [0, 0], ns: [2, 4], ls: [2, 2], ms_combs: [-2, 2, -1, 1, 0, 0, 1, -1, 2, -2], ctildes: [-0.012707812274295169, 0.012707812274295169, -0.012707812274295169, 0.012707812274295169, -0.012707812274295169]}
    - {mu0: 0, rank: 2, ndensity: 1, num_ms_combs: 5, mus: [0, 0], ns: [2, 5], ls: [2, 2], ms_combs: [-2, 2, -1, 1, 0, 0, 1, -1, 2, -2], ctildes: [58.948189144781885, -58.948189144781885, 58.948189144781885, -58.948189144781885, 58.948189144781885]}
    - {mu0: 0, rank: 2, ndensity: 1, num_ms_combs: 5, mus: [0, 0], ns: [3, 3], ls: [2, 2], ms_combs: [-2, 2, -1, 1, 0, 0, 1, -1, 2, -2], ctildes: [-42.02670520862338, 42.02670520862338, -42.02670520862338, 42.02670520862338, -42.02670520862338]}
    - {mu0: 0, rank: 2, ndensity: 1, num_ms_combs: 5, mus: [0, 0], ns: [3, 4], ls: [2, 2], ms_combs: [-2, 2, -1, 1, 0, 0, 1, -1, 2, -2], ctildes: [0.03268025256684671, -0.03268025256684671, 0.03268025256684671, -0.03268025256684671, 0.03268025256684671]}
    - {mu0: 0, rank: 2, ndensity: 1, num_ms_combs: 5, mus: [0, 0], ns: [3, 5], ls: [2, 2], ms_combs: [-2, 2, -1, 1, 0, 0, 1, -1, 2, -2], ctildes: [0.01449227151505512, -0.01449227151505512, 0.01449227151505512, -0.01449227151505512, 0.01449227151505512]}
    - {mu0: 0, rank: 2, ndensity: 1, num_ms_combs: 5, mus: [0, 0], ns: [4, 4], ls: [2, 2], ms_combs: [-2, 2, -1, 1, 0, 0, 1, -1, 2, -2], ctildes: [0.702288845439346, -0.702288845439346, 0.702288845439346, -0.702288845439346, 0.702288845439346]}
    - {mu0: 0, rank: 2, ndensity: 1, num_ms_combs: 5, mus: [0, 0], ns: [4, 5], ls: [2, 2], ms_combs: [-2, 2, -1, 1, 0, 0, 1, -1, 2, -2], ctildes: [-12.294826470422679, 12.294826470422679, -12.294826470422679, 12.294826470422679, -12.294826470422679]}
    - {mu0: 0, rank: 2, ndensity: 1, num_ms_combs: 5, mus: [0, 0], ns: [5, 5], ls: [2, 2], ms_combs: [-2, 2, -1, 1, 0, 0, 1, -1, 2, -2], ctildes: [7.055149470983359, -7.055149470983359, 7.055149470983359, -7.055149470983359, 7.055149470983359]}
    - {mu0: 0, rank: 2, ndensity: 1, num_ms_combs: 7, mus: [0, 0], ns: [1, 1], ls: [3, 3], ms_combs: [-3, 3, -2, 2, -1, 1, 0, 0, 1, -1, 2, -2, 3, -3], ctildes: [1.6651325126781944, -1.6651325126781944, 1.6651325126781944, -1.6651325126781944, 1.6651325126781944, -1.6651325126781944, 1.6651325126781944]}
    - {mu0: 0, rank: 2, ndensity: 1, num_ms_combs: 7, mus: [0, 0], ns: [1, 2], ls: [3, 3], ms_combs: [-3, 3, -2, 2, -1, 1, 0, 0, 1, -1, 2, -2, 3, -3], ctildes: [7.376246687842826, -7.376246687842826, 7.376246687842826, -7.376246687842826, 7.376246687842826, -7.376246687842826, 7.376246687842826]}
    - {mu0: 0, rank: 2, ndensity: 1, num_ms_combs: 7, mus: [0, 0], ns: [1, 3], ls: [3, 3], ms_combs: [-3, 3, -2, 2, -1, 1, 0, 0, 1, -1, 2, -2, 3, -3], ctildes: [0.001954026763314948, -0.001954026763314948, 0.001954026763314948, -0.001954026763314948, 0.001954026763314948, -0.001954026763314948, 0.001954026763314948]}
    - {mu0: 0, rank: 2, ndensity: 1, num_ms_combs: 7, mus: [0, 0], ns: [1, 4], ls: [3, 3], ms_combs: [-3, 3, -2, 2, -1, 1, 0, 0, 1, -1, 2, -2, 3, -3], ctildes: [-4.50948799040325, 4.50948799040325, -4.50948799040325, 4.50948799040325, -4.50948799040325, 4.50948799040325, -4.50948799040325]}
    - {mu0: 0, rank: 2, ndensity: 1, num_ms_combs: 7, mus: [0, 0], ns: [1, 5], ls: [3, 3], ms_combs: [-3, 3, -2, 2, -1, 1, 0, 0, 1, -1, 2, -2, 3, -3], ctildes: [0.0, -0.0, 0.0, -0.0, 0.0, -0.0, 0.0]}
    - {mu0: 0, rank: 2, ndensity: 1, num_ms_combs: 7, mus: [0, 0], ns: [2, 2], ls: [3, 3], ms_combs: [-3, 3, -2, 2, -1, 1, 0, 0, 1, -1, 2, -2, 3, -3], ctildes: [10.778611964495388, -10.778611964495388, 10.778611964495388, -10.778611964495388, 10.778611964495388, -10.778611964495388, 10.778611964495388]}
    - {mu0: 0, rank: 2, ndensity: 1, num_ms_combs: 7, mus: [0, 0], ns: [2, 3], ls: [3, 3], ms_combs: [-3, 3, -2, 2, -1, 1, 0, 0, 1, -1, 2, -2, 3, -3], ctildes: [0.0, -0.0, 0.0, -0.0, 0.0, -0.0, 0.0]}
    - {mu0: 0, rank: 2, ndensity: 1, num_ms_combs: 7, mus: [0, 0], ns: [2, 4], ls: [3, 3], ms_combs: [-3, 3, -2, 2, -1, 1, 0, 0, 1, -1, 2, -2, 3, -3], ctildes: [0.03275434218269833, -0.03275434218269833, 0.03275434218269833, -0.03275434218269833, 0.03275434218269833, -0.03275434218269833, 0.03275434218269833]}
    - {mu0: 0, rank: 2, ndensity: 1, num_ms_combs: 7, mus: [0, 0], ns: [2, 5], ls: [3, 3], ms_combs: [-3, 3, -2, 2, -1, 1, 0, 0, 1, -1, 2, -2, 3, -3], ctildes: [0.023681998745859714, -0.023681998745859714, 0.023681998745859714, -0.023681998745859714, 0.023681998745859714, -0.023681998745859714, 0.023681998745859714]}
    - {mu0: 0, rank: 2, ndensity: 1, num_ms_combs: 7, mus: [0, 0], ns: [3, 3], ls: [3, 3], ms_combs: [-3, 3, -2, 2, -1, 1, 0, 0, 1, -1, 2, -2, 3, -3], ctildes: [-8.331717648217719, 8.331717648217719, -8.331717648217719, 8.331717648217719, -8.331717648217719, 8.331717648217719, -8.331717648217719]}
    - {mu0: 0, rank: 2, ndensity: 1, num_ms_combs: 7, mus: [0, 0], ns: [3, 4], ls: [3, 3], ms_combs: [-3, 3, -2, 2, -1, 1, 0, 0, 1, -1, 2, -2, 3, -3], ctildes: [0.021300323786230754, -0.021300323786230754, 0.021300323786230754, -0.021300323786230754, 0.021300323786230754, -0.021300323786230754, 0.021300323786230754]}
    - {mu0: 0, rank: 2, ndensity: 1, num_ms_combs: 7, mus: [0, 0], ns: [3, 5], ls: [3, 3], ms_combs: [-3, 3, -2, 2, -1, 1, 0, 0, 1, -1, 2, -2, 3, -3], ctildes: [0.02350703267344418, -0.02350703267344418, 0.02350703267344418, -0.02350703267344418, 0.02350703267344418, -0.02350703267344418, 0.02350703267344418]}
    - {mu0: 0, rank: 2, ndensity: 1, num_ms_combs: 7, mus: [0, 0], ns: [4, 4], ls: [3, 3], ms_combs: [-3, 3, -2, 2, -1, 1, 0, 0, 1, -1, 2, -2, 3, -3], ctildes: [8.871439355313067, -8.871439355313067, 8.871439355313067, -8.871439355313067, 8.871439355313067, -8.871439355313067, 8.871439355313067]}
    - {mu0: 0, rank: 2, ndensity: 1, num_ms_combs: 7, mus: [0, 0], ns: [4, 5], ls: [3, 3], ms_combs: [-3, 3, -2, 2, -1, 1, 0, 0, 1, -1, 2, -2, 3, -3], ctildes: [-6.801796143293988, 6.801796143293988, -6.801796143293988, 6.801796143293988, -6.801796143293988, 6.801796143293988, -6.801796143293988]}
    - {mu0: 0, rank: 2, ndensity: 1, num_ms_combs: 7, mus: [0, 0], ns: [5, 5], ls: [3, 3], ms_combs: [-3, 3, -2, 2, -1, 1, 0, 0, 1, -1, 2, -2, 3, -3], ctildes: [2.7676734298591503, -2.7676734298591503, 2.7676734298591503, -2.7676734298591503, 2.7676734298591503, -2.7676734298591503, 2.7676734298591503]}
    - {mu0: 0, rank: 2, ndensity: 1, num_ms_combs: 9, mus: [0, 0], ns: [1, 1], ls: [4, 4], ms_combs: [-4, 4, -3, 3, -2, 2, -1, 1, 0, 0, 1, -1, 2, -2, 3, -3, 4, -4], ctildes: [0.0, -0.0, 0.0, -0.0, 0.0, -0.0, 0.0, -0.0, 0.0]}
    - {mu0: 0, rank: 2, ndensity: 1, num_ms_combs: 9, mus: [0, 0], ns: [1, 2], ls: [4, 4], ms_combs: [-4, 4, -3, 3, -2, 2, -1, 1, 0, 0, 1, -1, 2, -2, 3, -3, 4, -4], ctildes: [-64.71113214421402, 64.71113214421402, -64.71113214421402, 64.71113214421402, -64.71113214421402, 64.71113214421402, -64.71113214421402, 64.71113214421402, -64.71113214421402]}
    - {mu0: 0, rank: 2, ndensity: 1, num_ms_combs: 9, mus: [0, 0], ns: [1, 3], ls: [4, 4], ms_combs: [-4, 4, -3, 3, -2, 2, -1, 1, 0, 0, 1, -1, 2, -2, 3, -3, 4, -4], ctildes: [23.423731045335476, -23.423731045335476, 23.423731045335476, -23.423731045335476, 23.423731045335476, -23.423731045335476, 23.423731045335476, -23.423731045335476, 23.423731045335476]}
    - {mu0: 0, rank: 2, ndensity: 1, num_ms_combs: 9, mus: [0, 0], ns: [1, 4], ls: [4, 4], ms_combs: [-4, 4, -3, 3, -2, 2, -1, 1, 0, 0, 1, -1, 2, -2, 3, -3, 4, -4], ctildes: [0.029368548632458562, -0.029368548632458562, 0.029368548632458562, -0.029368548632458562, 0.029368548632458562, -0.029368548632458562, 0.029368548632458562, -0.029368548632458562, 0.029368548632458562]}
    - {mu0: 0, rank: 2, ndensity: 1, num_ms_combs: 9, mus: [0, 0], ns: [1, 5], ls: [4, 4], ms_combs: [-4, 4, -3, 3, -2, 2, -1, 1, 0, 0, 1, -1, 2, -2, 3, -3, 4, -4], ctildes: [-1.8193161550534922, 1.8193161550534922, -1.8193161550534922, 1.8193161550534922, -1.8193161550534922, 1.8193161550534922, -1.8193161550534922, 1.8193161550534922, -1.8193161550534922]}
    - {mu0: 0, rank: 2, ndensity: 1, num_ms_combs: 9, mus: [0, 0], ns: [2, 2], ls: [4, 4], ms_combs: [-4, 4, -3, 3, -2, 2, -1, 1, 0, 0, 1, -1, 2, -2, 3, -3, 4, -4], ctildes: [49.98047576858336, -49.98047576858336, 49.98047576858336, -49.98047576858336, 49.98047576858336, -49.98047576858336, 49.98047576858336, -49.98047576858336, 49.98047576858336]}
    - {mu0: 0, rank: 2, ndensity: 1, num_ms_combs: 9, mus: [0, 0], ns: [2, 3], ls: [4, 4], ms_combs: [-4, 4, -3, 3, -2, 2, -1, 1, 0, 0, 1, -1, 2, -2, 3, -3, 4, -4], ctildes: [-0.005978496008343297, 0.005978496008343297, -0.005978496008343297, 0.005978496008343297, -0.005978496008343297, 0.005978496008343297, -0.005978496008343297, 0.005978496008343297, -0.005978496008343297]}
    - {mu0: 0, rank: 2, ndensity: 1, num_ms_combs: 9, mus: [0, 0], ns: [2, 4], ls: [4, 4], ms_combs: [-4, 4, -3, 3, -2, 2, -1, 1, 0, 0, 1, -1, 2, -2, 3, -3, 4, -4], ctildes: [0.009839218376994082, -0.009839218376994082, 0.009839218376994082, -0.009839218376994082, 0.009839218376994082, -0.009839218376994082, 0.009839218376994082, -0.009839218376994082, 0.009839218376994082]}
    - {mu0: 0, rank: 2, ndensity: 1, num_ms_combs: 9, mus: [0, 0], ns: [2, 5], ls: [4, 4], ms_combs: [-4, 4, -3, 3, -2, 2, -1, 1, 0, 0, 1, -1, 2, -2, 3, -3, 4, -4], ctildes: [0.0077368122051841345, -0.0077368122051841345, 0.0077368122051841345, -0.0077368122051841345, 0.0077368122051841345, -0.0077368122051841345, 0.0077368122051841345, -0.0077368122051841345, 0.0077368122051841345]}
    - {mu0: 0, rank: 2, ndensity: 1, num_ms_combs: 9, mus: [0, 0], ns: [3, 3], ls: [4, 4], ms_combs: [-4, 4, -3, 3, -2, 2, -1, 1, 0, 0, 1, -1, 2, -2, 3, -3, 4, -4], ctildes: [-2.559145740193083, 2.559145740193083, -2.559145740193083, 2.559145740193083, -2.559145740193083, 2.559145740193083, -2.559145740193083, 2.559145740193083, -2.559145740193083]}
    - {mu0: 0, rank: 2, ndensity: 1, num_ms_combs: 9, mus: [0, 0], ns: [3, 4], ls: [4, 4], ms_combs: [-4, 4, -3, 3, -2, 2, -1, 1, 0, 0, 1, -1, 2, -2, 3, -3, 4, -4], ctildes: [0.003508709336377713, -0.003508709336377713, 0.003508709336377713, -0.003508709336377713, 0.003508709336377713, -0.003508709336377713, 0.003508709336377713, -0.003508709336377713, 0.003508709336377713]}
    - {mu0: 0, rank: 2, ndensity: 1, num_ms_combs: 9, mus: [0, 0], ns: [3, 5], ls: [4, 4], ms_combs: [-4, 4, -3, 3, -2, 2, -1, 1, 0, 0, 1, -1, 2, -2, 3, -3, 4, -4], ctildes: [6.336355049123469, -6.336355049123469, 6.336355049123469, -6.336355049123469, 6.336355049123469, -6.336355049123469, 6.336355049123469, -6.336355049123469, 6.336355049123469]}
    - {mu0: 0, rank: 2, ndensity: 1, num_ms_combs: 9, mus: [0, 0], ns: [4, 4], ls: [4, 4], ms_combs: [-4, 4, -3, 3, -2, 2, -1, 1, 0, 0, 1, -1, 2, -2, 3, -3, 4, -4], ctildes: [-4.93598184082075, 4.93598184082075, -4.93598184082075, 4.93598184082075, -4.93598184082075, 4.93598184082075, -4.93598184082075, 4.93598184082075, -4.93598184082075]}
    - {mu0: 0, rank: 2, ndensity: 1, num_ms_combs: 9, mus: [0, 0], ns: [4, 5], ls: [4, 4], ms_combs: [-4, 4, -3, 3, -2, 2, -1, 1, 0, 0, 1, -1, 2, -2, 3, -3, 4, -4], ctildes: [-0.7135680813099358, 0.7135680813099358, -0.7135680813099358, 0.7135680813099358, -0.7135680813099358, 0.7135680813099358, -0.7135680813099358, 0.7135680813099358, -0.7135680813099358]}
    - {mu0: 0, rank: 2, ndensity: 1, num_ms_combs: 9, mus: [0, 0], ns: [5, 5], ls: [4, 4], ms_combs: [-4, 4, -3, 3, -2, 2, -1, 1, 0, 0, 1, -1, 2, -2, 3, -3, 4, -4], ctildes: [0.0, -0.0, 0.0, -0.0, 0.0, -0.0, 0.0, -0.0, 0.0]}
    - {mu0: 0, rank: 2, ndensity: 1, num_ms_combs: 11, mus: [0, 0], ns: [1, 1], ls: [5, 5], ms_combs: [-5, 5, -4, 4, -3, 3, -2, 2, -1, 1, 0, 0, 1, -1, 2, -2, 3, -3, 4, -4, 5, -5], ctildes: [-1.5220111481772822, 1.5220111481772822, -1.5220111481772822, 1.5220111481772822, -1.5220111481772822, 1.5220111481772822, -1.5220111481772822, 1.5220111481772822, -1.5220111481772822, 1.5220111481772822, -1.5220111481772822]}
    - {mu0: 0, rank: 2, ndensity: 1, num_ms_combs: 11, mus: [0, 0], ns: [1, 2], ls: [5, 5], ms_combs: [-5, 5, -4, 4, -3, 3, -2, 2, -1, 1, 0, 0, 1, -1, 2, -2, 3, -3, 4, -4, 5, -5], ctildes: [24.717672396689803, -24.717672396689803, 24.717672396689803, -24.717672396689803, 24.717672396689803, -24.717672396689803, 24.717672396689803, -24.717672396689803, 24.717672396689803, -24.717672396689803, 24.717672396689803]}
    - {mu0: 0, rank: 2, ndensity: 1, num_ms_combs: 11, mus: [0, 0], ns: [1, 3], ls: [5, 5], ms_combs: [-5, 5, -4, 4, -3, 3, -2, 2, -1, 1, 0, 0, 1, -1, 2, -2, 3, -3, 4, -4, 5, -5], ctildes: [0.00344781921627471, -0.00344781921627471, 0.00344781921627471, -0.00344781921627471, 0.00344781921627471, -0.00344781921627471, 0.00344781921627471, -0.00344781921627471, 0.00344781921627471, -0.00344781921627471, 0.00344781921627471]}
    - {mu0: 0, rank: 2, ndensity: 1, num_ms_combs: 11, mus: [0, 0], ns: [1, 4], ls: [5, 5], ms_combs: [-5, 5, -4, 4, -3, 3, -2, 2, -1, 1, 0, 0, 1, -1, 2, -2, 3, -3, 4, -4, 5, -5], ctildes: [-5.931984973900834, 5.931984973900834, -5.931984973900834, 5.931984973900834, -5.931984973900834, 5.931984973900834, -5.931984973900834, 5.931984973900834, -5.931984973900834, 5.931984973900834, -5.931984973900834]}
    - {mu0: 0, rank: 2, ndensity: 1, num_ms_combs: 11, mus: [0, 0], ns: [1, 5], ls: [5, 5], ms_combs: [-5, 5, -4, 4, -3, 3, -2, 2, -1, 1, 0, 0, 1, -1, 2, -2, 3, -3, 4, -4, 5, -5], ctildes: [4.3001597985112845, -4.3001597985112845, 4.3001597985112845, -4.3001597985112845, 4.3001597985112845, -4.3001597985112845, 4.3001597985112845, -4.3001597985112845, 4.3001597985112845, -4.3001597985112845, 4.3001597985112845]}
    - {mu0: 0, rank: 2, ndensity: 1, num_ms_combs: 11, mus: [0, 0], ns: [2, 2], ls: [5, 5], ms_combs: [-5, 5, -4, 4, -3, 3, -2, 2, -1, 1, 0, 0, 1, -1, 2, -2, 3, -3, 4, -4, 5, -5], ctildes: [140.62471860821194, -140.62471860821194, 140.62471860821194, -140.62471860821194, 140.62471860821194, -140.62471860821194, 140.62471860821194, -140.62471860821194, 140.62471860821194, -140.62471860821194, 140.62471860821194]}
    - {mu0: 0, rank: 2, ndensity: 1, num_ms_combs: 11, mus: [0, 0], ns: [2, 3], ls: [5, 5], ms_combs: [-5, 5, -4, 4, -3, 3, -2, 2, -1, 1, 0, 0, 1, -1, 2, -2, 3, -3, 4, -4, 5, -5], ctildes: [0.0010870864657082085, -0.0010870864657082085, 0.0010870864657082085, -0.0010870864657082085, 0.0010870864657082085, -0.0010870864657082085, 0.0010870864657082085, -0.0010870864657082085, 0.0010870864657082085, -0.0010870864657082085, 0.0010870864657082085]}
    - {mu0: 0, rank: 2, ndensity: 1, num_ms_combs: 11, mus: [0, 0], ns: [2, 4], ls: [5, 5], ms_combs: [-5, 5, -4, 4, -3, 3, -2, 2, -1, 1, 0, 0, 1, -1, 2, -2, 3, -3, 4, -4, 5, -5], ctildes: [0.011320937050811707, -0.011320937050811707, 0.011320937050811707, -0.011320937050811707, 0.011320937050811707, -0.011320937050811707, 0.011320937050811707, -0.011320937050811707, 0.011320937050811707, -0.011320937050811707, 0.011320937050811707]}
    - {mu0: 0, rank: 2, ndensity: 1, num_ms_combs: 11, mus: [0, 0], ns: [2, 5], ls: [5, 5], ms_combs: [-5, 5, -4, 4, -3, 3, -2, 2, -1, 1, 0, 0, 1, -1, 2, -2, 3, -3, 4, -4, 5, -5], ctildes: [0.002358894694140354, -0.002358894694140354, 0.002358894694140354, -0.002358894694140354, 0.002358894694140354, -0.002358894694140354, 0.002358894694140354, -0.002358894694140354, 0.002358894694140354, -0.002358894694140354, 0.002358894694140354]}
    - {mu0: 0, rank: 2, ndensity: 1, num_ms_combs: 11, mus: [0, 0], ns: [3, 3], ls: [5, 5], ms_combs: [-5, 5, -4, 4, -3, 3, -2, 2, -1, 1, 0, 0, 1, -1, 2, -2, 3, -3, 4, -4, 5, -5], ctildes: [-59.16513176630294, 59.16513176630294, -59.16513176630294, 59.16513176630294, -59.16513176630294, 59.16513176630294, -59.16513176630294, 59.16513176630294, -59.16513176630294, 59.16513176630294, -59.16513176630294]}
    - {mu0: 0, rank: 2, ndensity: 1, num_ms_combs: 11, mus: [0, 0], ns: [3, 4], ls: [5, 5], ms_combs: [-5, 5, -4, 4, -3, 3, -2, 2, -1, 1, 0, 0, 1, -1, 2, -2, 3, -3, 4, -4, 5, -5], ctildes: [40.64076656826597, -40.64076656826597, 40.64076656826597, -40.64076656826597, 40.64076656826597, -40.64076656826597, 40.64076656826597, -40.64076656826597, 40.64076656826597, -40.64076656826597, 40.64076656826597]}
    - {mu0: 0, rank: 2, ndensity: 1, num_ms_combs: 11, mus: [0, 0], ns: [3, 5], ls: [5, 5], ms_combs: [-5, 5, -4, 4, -3, 3, -2, 2, -1, 1, 0, 0, 1, -1, 2, -2, 3, -3, 4, -4, 5, -5], ctildes: [-12.276911646394847, 12.276911646394847, -12.276911646394847, 12.276911646394847, -12.276911646394847, 12.276911646394847, -12.276911646394847, 12.276911646394847, -12.276911646394847, 12.276911646394847, -12.276911646394847]}
    - {mu0: 0, rank: 2, ndensity: 1, num_ms_combs: 11, mus: [0, 0], ns: [4, 4], ls: [5, 5], ms_combs: [-5, 5, -4, 4, -3, 3, -2, 2, -1, 1, 0, 0, 1, -1, 2, -2, 3, -3, 4, -4, 5, -5], ctildes: [-1.0096381159805363, 1.0096381159805363, -1.0096381159805363, 1.0096381159805363, -1.0096381159805363, 1.0096381159805363, -1.0096381159805363, 1.0096381159805363, -1.0096381159805363, 1.0096381159805363, -1.0096381159805363]}
    - {mu0: 0, rank: 2, ndensity: 1, num_ms_combs: 11, mus: [0, 0], ns: [4, 5], ls: [5, 5], ms_combs: [-5, 5, -4, 4, -3, 3, -2, 2, -1, 1, 0, 0, 1, -1, 2, -2, 3, -3, 4, -4, 5, -5], ctildes: [0.0, -0.0, 0.0, -0.0, 0.0, -0.0, 0.0, -0.0, 0.0, -0.0, 0.0]}
    - {mu0: 0, rank: 2, ndensity: 1, num_ms_combs: 11, mus: [0, 0], ns: [5, 5], ls: [5, 5], ms_combs: [-5, 5, -4, 4, -3, 3, -2, 2, -1, 1, 0, 0, 1, -1, 2, -2, 3, -3, 4, -4, 5, -5], ctildes: [0.0, -0.0, 0.0, -0.0, 0.0, -0.0, 0.0, -0.0, 0.0, -0.0, 0.0]}
    - {mu0: 0, rank: 3, ndensity: 1, num_ms_combs: 9, mus: [0, 0, 0], ns: [1, 1, 1], ls: [1, 1, 2], ms_combs: [-1, -1, 2, -1, 0, 1, -1, 1, 0, 0, -1, 1, 0, 0, 0, 0, 1, -1, 1, -1, 0, 1, 0, -1, 1, 1, -2], ctildes: [0.04493480320238762, -0.03177370422256702, 0.01834455799648795, -0.03177370422256702, 0.0366891159929759, -0.03177370422256702, 0.01834455799648795, -0.03177370422256702, 0.04493480320238762]}
    - {mu0: 0, rank: 3, ndensity: 1, num_ms_combs: 9, mus: [0, 0, 0], ns: [1, 1, 2], ls: [1, 1, 2], ms_combs: [-1, -1, 2, -1, 0, 1, -1, 1, 0, 0, -1, 1, 0, 0, 0, 0, 1, -1, 1, -1, 0, 1, 0, -1, 1, 1, -2], ctildes: [0.007656799933595897, -0.005414175183669656, 0.0031258757230273487, -0.005414175183669656, 0.006251751446054697, -0.005414175183669656, 0.0031258757230273487, -0.005414175183669656, 0.007656799933595897]}
    - {mu0: 0, rank: 3, ndensity: 1, num_ms_combs: 9, mus: [0, 0, 0], ns: [1, 1, 3], ls: [1, 1, 2], ms_combs: [-1, -1, 2, -1, 0, 1, -1, 1, 0, 0, -1, 1, 0, 0, 0, 0, 1, -1, 1, -1, 0, 1, 0, -1, 1, 1, -2], ctildes: [0.024405501785499325, -0.017257295901422418, 0.009963505145910899, -0.017257295901422418, 0.019927010291821798, -0.017257295901422418, 0.009963505145910899, -0.017257295901422418, 0.024405501785499325]}
    - {mu0: 0, rank: 3, ndensity: 1, num_ms_combs: 9, mus: [0, 0, 0], ns: [1, 2, 1], ls: [1, 1, 2], ms_combs: [-1, -1, 2, -1, 0, 1, -1, 1, 0, 0, -1, 1, 0, 0, 0, 0, 1, -1, 1, -1, 0, 1, 0, -1, 1, 1, -2], ctildes: [2.8733868547823724, -2.031791340659885, 1.1730553612639505, -2.031791340659885, 2.346110722527901, -2.031791340659885, 1.1730553612639505, -2.031791340659885, 2.8733868547823724]}
    - {mu0: 0, rank: 3, ndensity: 1, num_ms_combs: 9, mus: [0, 0, 0], ns: [1, 2, 2], ls: [1, 1, 2], ms_combs: [-1, -1, 2, -1, 0, 1, -1, 1, 0, 0, -1, 1, 0, 0, 0, 0, 1, -1, 1, -1, 0, 1, 0, -1, 1, 1, -2], ctildes: [0.003310165792740707, -0.002340640691191761, 0.00135136962967039, -0.002340640691191761, 0.00270273925934078, -0.002340640691191761, 0.00135136962967039, -0.002340640691191761, 0.003310165792740707]}
    - {mu0: 0, rank: 3, ndensity: 1, num_ms_combs: 9, mus: [0, 0, 0], ns: [1, 2, 3], ls: [1, 1, 2], ms_combs: [-1, -1, 2, -1, 0, 1, -1, 1, 0, 0, -1, 1, 0, 0, 0, 0, 1, -1, 1, -1, 0, 1, 0, -1, 1, 1, -2], ctildes: [0.014169971759924871, -0.010019683173288208, 0.005784867190532753, -0.010019683173288208, 0.011569734381065505, -0.010019683173288208, 0.005784867190532753, -0.010019683173288208, 0.014169971759924871]}
    - {mu0: 0, rank: 3, ndensity: 1, num_ms_combs: 9, mus: [0, 0, 0], ns: [1, 3, 1], ls: [1, 1, 2], ms_combs: [-1, -1, 2, -1, 0, 1, -1, 1, 0, 0, -1, 1, 0, 0, 0, 0, 1, -1, 1, -1, 0, 1, 0, -1, 1, 1, -2], ctildes: [0.01169931692430521, -0.008272666375874866, 0.004776226500215453, -0.008272666375874866, 0.009552453000430906, -0.008272666375874866, 0.004776226500215453, -0.008272666375874866, 0.01169931692430521]}
    - {mu0: 0, rank: 3, ndensity: 1, num_ms_combs: 9, mus: [0, 0, 0], ns: [1, 3, 2], ls: [1, 1, 2], ms_combs: [-1, -1, 2, -1, 0, 1, -1, 1, 0, 0, -1, 1, 0, 0, 0, 0, 1, -1, 1, -1, 0, 1, 0, -1, 1, 1, -2], ctildes: [1.197955460437303, -0.8470824340835533, 0.48906330628001576, -0.8470824340835533, 0.9781266125600315, -0.8470824340835533, 0.48906330628001576, -0.8470824340835533, 1.197955460437303]}
    - {mu0: 0, rank: 3, ndensity: 1, num_ms_combs: 9, mus: [0, 0, 0], ns: [1, 3, 3], ls: [1, 1, 2], ms_combs: [-1, -1, 2, -1, 0, 1, -1, 1, 0, 0, -1, 1, 0, 0, 0, 0, 1, -1, 1, -1, 0, 1, 0, -1, 1, 1, -2], ctildes: [0.2946494774196536, -0.20834864465075825, 0.1202901546672957, -0.20834864465075825, 0.2405803093345914, -0.20834864465075825, 0.1202901546672957, -0.20834864465075825, 0.2946494774196536]}
    - {mu0: 0, rank: 3, ndensity: 1, num_ms_combs: 9, mus: [0, 0, 0], ns: [2, 2, 1], ls: [1, 1, 2], ms_combs: [-1, -1, 2, -1, 0, 1, -1, 1, 0, 0, -1, 1, 0, 0, 0, 0, 1, -1, 1, -1, 0, 1, 0, -1, 1, 1, -2], ctildes: [-0.005770601939575832, 0.004080431784432775, -0.0023558385574407024, 0.004080431784432775, -0.004711677114881405, 0.004080431784432775, -0.0023558385574407024, 0.004080431784432775, -0.005770601939575832]}
    - {mu0: 0, rank: 3, ndensity: 1, num_ms_combs: 9, mus: [0, 0, 0], ns: [2, 2, 2], ls: [1, 1, 2], ms_combs: [-1, -1, 2, -1, 0, 1, -1, 1, 0, 0, -1, 1, 0, 0, 0, 0, 1, -1, 1, -1, 0, 1, 0, -1, 1, 1, -2], ctildes: [-0.0058184728736808715, 0.004114281646737962, -0.002375381785950698, 0.004114281646737962, -0.004750763571901396, 0.004114281646737962, -0.002375381785950698, 0.004114281646737962, -0.0058184728736808715]}
    - {mu0: 0, rank: 3, ndensity: 1, num_ms_combs: 9, mus: [0, 0, 0], ns: [2, 2, 3], ls: [1, 1, 2], ms_combs: [-1, -1, 2, -1, 0, 1, -1, 1, 0, 0, -1, 1, 0, 0, 0, 0, 1, -1, 1, -1, 0, 1, 0, -1, 1, 1, -2], ctildes: [-3.7335057609435496, 2.639987255027459, -1.5241974612278177, 2.639987255027459, -3.0483949224556355, 2.639987255027459, -1.5241974612278177, 2.639987255027459, -3.7335057609435496]}
    - {mu0: 0, rank: 3, ndensity: 1, num_ms_combs: 9, mus: [0, 0, 0], ns: [2, 3, 1], ls: [1, 1, 2], ms_combs: [-1, -1, 2, -1, 0, 1, -1, 1, 0, 0, -1, 1, 0, 0, 0, 0, 1, -1, 1, -1, 0, 1, 0, -1, 1, 1, -2], ctildes: [-0.009467207874687725, 0.0066943269222530305, -0.0038649717266991015, 0.0066943269222530305, -0.007729943453398203, 0.0066943269222530305, -0.0038649717266991015, 0.0066943269222530305, -0.009467207874687725]}
    - {mu0: 0, rank: 3, ndensity: 1, num_ms_combs: 9, mus: [0, 0, 0], ns: [2, 3, 2], ls: [1, 1, 2], ms_combs: [-1, -1, 2, -1, 0, 1, -1, 1, 0, 0, -1, 1, 0, 0, 0, 0, 1, -1, 1, -1, 0, 1, 0, -1, 1, 1, -2], ctildes: [-0.003286112772964331, 0.0023236326377105445, -0.001341550024713158, 0.0023236326377105445, -0.002683100049426316, 0.0023236326377105445, -0.001341550024713158, 0.0023236326377105445, -0.003286112772964331]}
    - {mu0: 0, rank: 3, ndensity: 1, num_ms_combs: 9, mus: [0, 0, 0], ns: [2, 3, 3], ls: [1, 1, 2], ms_combs: [-1, -1, 2, -1, 0, 1, -1, 1, 0, 0, -1, 1, 0, 0, 0, 0, 1, -1, 1, -1, 0, 1, 0, -1, 1, 1, -2], ctildes: [-0.003544265629940674, 0.0025061742744199077, -0.0014469404953341566, 0.0025061742744199077, -0.002893880990668313, 0.0025061742744199077, -0.0014469404953341566, 0.0025061742744199077, -0.003544265629940674]}
    - {mu0: 0, rank: 3, ndensity: 1, num_ms_combs: 9, mus: [0, 0, 0], ns: [3, 3, 1], ls: [1, 1, 2], ms_combs: [-1, -1, 2, -1, 0, 1, -1, 1, 0, 0, -1, 1, 0, 0, 0, 0, 1, -1, 1, -1, 0, 1, 0, -1, 1, 1, -2], ctildes: [-1.5780566100505669, 1.115854535923488, -0.6442389627128843, 1.115854535923488, -1.2884779254257686, 1.115854535923488, -0.6442389627128843, 1.115854535923488, -1.5780566100505669]}
    - {mu0: 0, rank: 3, ndensity: 1, num_ms_combs: 9, mus: [0, 0, 0], ns: [3, 3, 2], ls: [1, 1, 2], ms_combs: [-1, -1, 2, -1, 0, 1, -1, 1, 0, 0, -1, 1, 0, 0, 0, 0, 1, -1, 1, -1, 0, 1, 0, -1, 1, 1, -2], ctildes: [0.011263121115219932, -0.007964229359725598, 0.004598150293192814, -0.007964229359725598, 0.009196300586385629, -0.007964229359725598, 0.004598150293192814, -0.007964229359725598, 0.011263121115219932]}
    - {mu0: 0, rank: 3, ndensity: 1, num_ms_combs: 9, mus: [0, 0, 0], ns: [3, 3, 3], ls: [1, 1, 2], ms_combs: [-1, -1, 2, -1, 0, 1, -1, 1, 0, 0, -1, 1, 0, 0, 0, 0, 1, -1, 1, -1, 0, 1, 0, -1, 1, 1, -2], ctildes: [0.010268997481205815, -0.007261277793084496, 0.0041923009879735965, -0.007261277793084496, 0.008384601975947193, -0.007261277793084496, 0.0041923009879735965, -0.007261277793084496, 0.010268997481205815]}
    - {mu0: 0, rank: 3, ndensity: 1, num_ms_combs: 19, mus: [0, 0, 0], ns: [1, 1, 1], ls: [2, 2, 2], ms_combs: [-2, 0, 2, -2, 1, 1, -2, 2, 0, -1, -1, 2, -1, 0, 1, -1, 1, 0, -1, 2, -1, 0, -2, 2, 0, -1, 1, 0, 0, 0, 0, 1, -1, 0, 2, -2, 1, -2, 1, 1, -1, 0, 1, 0, -1, 1, 1, -2, 2, -2, 0, 2, -1, -1, 2, 0, -2], ctildes: [0.0, -0.0, 0.0, -0.0, 0.0, 0.0, -0.0, 0.0, 0.0, -0.0, 0.0, 0.0, -0.0, 0.0, 0.0, -0.0, 0.0, -0.0, 0.0]}
    - {mu0: 0, rank: 3, ndensity: 1, num_ms_combs: 19, mus: [0, 0, 0], ns: [1, 1, 2], ls: [2, 2, 2], ms_combs: [-2, 0, 2, -2, 1, 1, -2, 2, 0, -1, -1, 2, -1, 0, 1, -1, 1, 0, -1, 2, -1, 0, -2, 2, 0, -1, 1, 0, 0, 0, 0, 1, -1, 0, 2, -2, 1, -2, 1, 1, -1, 0, 1, 0, -1, 1, 1, -2, 2, -2, 0, 2, -1, -1, 2, 0, -2], ctildes: [-7.147117662194094, 8.753395800167562, -7.147117662194094, 8.753395800167562, -3.573558831097047, -3.573558831097047, 8.753395800167562, -7.147117662194094, -3.573558831097047, 7.147117662194094, -3.573558831097047, -7.147117662194094, 8.753395800167562, -3.573558831097047, -3.573558831097047, 8.753395800167562, -7.147117662194094, 8.753395800167562, -7.147117662194094]}
    - {mu0: 0, rank: 3, ndensity: 1, num_ms_combs: 19, mus: [0, 0, 0], ns: [1, 1, 3], ls: [2, 2, 2], ms_combs: [-2, 0, 2, -2, 1, 1, -2, 2, 0, -1, -1, 2, -1, 0, 1, -1, 1, 0, -1, 2, -1, 0, -2, 2, 0, -1, 1, 0, 0, 0, 0, 1, -1, 0, 2, -2, 1, -2, 1, 1, -1, 0, 1, 0, -1, 1, 1, -2, 2, -2, 0, 2, -1, -1, 2, 0, -2], ctildes: [1.6669790494459988, -2.041624064421573, 1.6669790494459988, -2.041624064421573, 0.8334895247229994, 0.8334895247229994, -2.041624064421573, 1.6669790494459988, 0.8334895247229994, -1.6669790494459988, 0.8334895247229994, 1.6669790494459988, -2.041624064421573, 0.8334895247229994, 0.8334895247229994, -2.041624064421573, 1.6669790494459988, -2.041624064421573, 1.6669790494459988]}
    - {mu0: 0, rank: 3, ndensity: 1, num_ms_combs: 19, mus: [0, 0, 0], ns: [1, 2, 2], ls: [2, 2, 2], ms_combs: [-2, 0, 2, -2, 1, 1, -2, 2, 0, -1, -1, 2, -1, 0, 1, -1, 1, 0, -1, 2, -1, 0, -2, 2, 0, -1, 1, 0, 0, 0, 0, 1, -1, 0, 2, -2, 1, -2, 1, 1, -1, 0, 1, 0, -1, 1, 1, -2, 2, -2, 0, 2, -1, -1, 2, 0, -2], ctildes: [0.002113552090170124, -0.0025885621118837136, 0.002113552090170124, -0.0025885621118837136, 0.001056776045085062, 0.001056776045085062, -0.0025885621118837136, 0.002113552090170124, 0.001056776045085062, -0.002113552090170124, 0.001056776045085062, 0.002113552090170124, -0.0025885621118837136, 0.001056776045085062, 0.001056776045085062, -0.0025885621118837136, 0.002113552090170124, -0.0025885621118837136, 0.002113552090170124]}
    - {mu0: 0, rank: 3, ndensity: 1, num_ms_combs: 19, mus: [0, 0, 0], ns: [1, 2, 3], ls: [2, 2, 2], ms_combs: [-2, 0, 2, -2, 1, 1, -2, 2, 0, -1, -1, 2, -1, 0, 1, -1, 1, 0, -1, 2, -1, 0, -2, 2, 0, -1, 1, 0, 0, 0, 0, 1, -1, 0, 2, -2, 1, -2, 1, 1, -1, 0, 1, 0, -1, 1, 1, -2, 2, -2, 0, 2, -1, -1, 2, 0, -2], ctildes: [-0.0027947724521854185, 0.0034228832659057846, -0.0027947724521854185, 0.0034228832659057846, -0.0013973862260927093, -0.0013973862260927093, 0.0034228832659057846, -0.0027947724521854185, -0.0013973862260927093, 0.0027947724521854185, -0.0013973862260927093, -0.0027947724521854185, 0.0034228832659057846, -0.0013973862260927093, -0.0013973862260927093, 0.0034228832659057846, -0.0027947724521854185, 0.0034228832659057846, -0.0027947724521854185]}
    - {mu0: 0, rank: 3, ndensity: 1, num_ms_combs: 19, mus: [0, 0, 0], ns: [1, 3, 3], ls: [2, 2, 2], ms_combs: [-2, 0, 2, -2, 1, 1, -2, 2, 0, -1, -1, 2, -1, 0, 1, -1, 1, 0, -1, 2, -1, 0, -2, 2, 0, -1, 1, 0, 0, 0, 0, 1, -1, 0, 2, -2, 1, -2, 1, 1, -1, 0, 1, 0, -1, 1, 1, -2, 2, -2, 0, 2, -1, -1, 2, 0, -2], ctildes: [1.4624877649249086, -1.7911744096514752, 1.4624877649249086, -1.7911744096514752, 0.7312438824624543, 0.7312438824624543, -1.7911744096514752, 1.4624877649249086, 0.7312438824624543, -1.4624877649249086, 0.7312438824624543, 1.4624877649249086, -1.7911744096514752, 0.7312438824624543, 0.7312438824624543, -1.7911744096514752, 1.4624877649249086, -1.7911744096514752, 1.4624877649249086]}
    - {mu0: 0, rank: 3, ndensity: 1, num_ms_combs: 19, mus: [0, 0, 0], ns: [2, 2, 2], ls: [2, 2, 2], ms_combs: [-2, 0, 2, -2, 1, 1, -2, 2, 0, -1, -1, 2, -1, 0, 1, -1, 1, 0, -1, 2, -1, 0, -2, 2, 0, -1, 1, 0, 0, 0, 0, 1, -1, 0, 2, -2, 1, -2, 1, 1, -1, 0, 1, 0, -1, 1, 1, -2, 2, -2, 0, 2, -1, -1, 2, 0, -2], ctildes: [0.0030729580149830406, -0.003763589611058134, 0.0030729580149830406, -0.003763589611058134, 0.0015364790074915203, 0.0015364790074915203, -0.003763589611058134, 0.0030729580149830406, 0.0015364790074915203, -0.0030729580149830406, 0.0015364790074915203, 0.0030729580149830406, -0.003763589611058134, 0.0015364790074915203, 0.0015364790074915203, -0.003763589611058134, 0.0030729580149830406, -0.003763589611058134, 0.0030729580149830406]}
    - {mu0: 0, rank: 3, ndensity: 1, num_ms_combs: 19, mus: [0, 0, 0], ns: [2, 2, 3], ls: [2, 2, 2], ms_combs: [-2, 0, 2, -2, 1, 1, -2, 2, 0, -1, -1, 2, -1, 0, 1, -1, 1, 0, -1, 2, -1, 0, -2, 2, 0, -1, 1, 0, 0, 0, 0, 1, -1, 0, 2, -2, 1, -2, 1, 1, -1, 0, 1, 0, -1, 1, 1, -2, 2, -2, 0, 2, -1, -1, 2, 0, -2], ctildes: [13.645072996819763, -16.711733360029054, 13.645072996819763, -16.711733360029054, 6.822536498409882, 6.822536498409882, -16.711733360029054, 13.645072996819763, 6.822536498409882, -13.645072996819763, 6.822536498409882, 13.645072996819763, -16.711733360029054, 6.822536498409882, 6.822536498409882, -16.711733360029054, 13.645072996819763, -16.711733360029054, 13.645072996819763]}
    - {mu0: 0, rank: 3, ndensity: 1, num_ms_combs: 19, mus: [0, 0, 0], ns: [2, 3, 3], ls: [2, 2, 2], ms_combs: [-2, 0, 2, -2, 1, 1, -2, 2, 0, -1, -1, 2, -1, 0, 1, -1, 1, 0, -1, 2, -1, 0, -2, 2, 0, -1, 1, 0, 0, 0, 0, 1, -1, 0, 2, -2, 1, -2, 1, 1, -1, 0, 1, 0, -1, 1, 1, -2, 2, -2, 0, 2, -1, -1, 2, 0, -2], ctildes: [-0.009175343970058394, 0.011237455596602821, -0.009175343970058394, 0.011237455596602821, -0.004587671985029197, -0.004587671985029197, 0.011237455596602821, -0.009175343970058394, -0.004587671985029197, 0.009175343970058394, -0.004587671985029197, -0.009175343970058394, 0.011237455596602821, -0.004587671985029197, -0.004587671985029197, 0.011237455596602821, -0.009175343970058394, 0.011237455596602821, -0.009175343970058394]}
    - {mu0: 0, rank: 3, ndensity: 1, num_ms_combs: 19, mus: [0, 0, 0], ns: [3, 3, 3], ls: [2, 2, 2], ms_combs: [-2, 0, 2, -2, 1, 1, -2, 2, 0, -1, -1, 2, -1, 0, 1, -1, 1, 0, -1, 2, -1, 0, -2, 2, 0, -1, 1, 0, 0, 0, 0, 1, -1, 0, 2, -2, 1, -2, 1, 1, -1, 0, 1, 0, -1, 1, 1, -2, 2, -2, 0, 2, -1, -1, 2, 0, -2], ctildes: [-2.199151898912285, 2.6934000398084588, -2.199151898912285, 2.6934000398084588, -1.0995759494561426, -1.0995759494561426, 2.6934000398084588, -2.199151898912285, -1.0995759494561426, 2.199151898912285, -1.0995759494561426, -2.199151898912285, 2.6934000398084588, -1.0995759494561426, -1.0995759494561426, 2.6934000398084588, -2.199151898912285, 2.6934000398084588, -2.199151898912285]}
    - {mu0: 0, rank: 4, ndensity: 1, num_ms_combs: 19, mus: [0, 0, 0, 0], ns: [1, 1, 1, 1], ls: [1, 1, 1, 1], ms_combs: [-1, -1, 1, 1, -1, 0, 0, 1, -1, 0, 1, 0, -1, 1, -1, 1, -1, 1, 0, 0, -1, 1, 1, -1, 0, -1, 0, 1, 0, -1, 1, 0, 0, 0, -1, 1, 0, 0, 0, 0, 0, 0, 1, -1, 0, 1, -1, 0, 0, 1, 0, -1, 1, -1, -1, 1, 1, -1, 0, 0, 1, -1, 1, -1, 1, 0, -1, 0, 1, 0, 0, -1, 1, 1, -1, -1], ctildes: [-0.17212601854528925, 0.08606301017665183, 0.08606301017665183, -0.02868767415747251, -0.05737534831494502, -0.02868767415747251, 0.08606301017665183, 0.08606301017665183, -0.05737534831494502, -0.11475069662989004, -0.05737534831494502, 0.08606301017665183, 0.08606301017665183, -0.02868767415747251, -0.05737534831494502, -0.02868767415747251, 0.08606301017665183, 0.08606301017665183, -0.17212601854528925]}
# This file was generated by FitSNAP.
# Hash: adca875d805abaf90dece04da3d7e0f2
# FitSNAP REFERENCE section settings:
# units metal
# atom_style atomic
# pair_style hybrid/overlay zero 4.25
# pair_coeff * * zero
