# LAMMPS SNAP coefficients for Ta

1 31
Ta 0.5 1
 -2.979948487050 # B[0] 
 -0.011437453972 # B[1, 0, 0, 0] 
 -0.007654618551 # B[2, 1, 0, 1] 
 -0.050261683746 # B[3, 1, 1, 2] 
 -0.149917503069 # B[4, 2, 0, 2] 
  0.094682793590 # B[5, 2, 1, 3] 
  0.058262775548 # B[6, 2, 2, 2] 
  0.060607609684 # B[7, 2, 2, 4] 
 -0.115443486308 # B[8, 3, 0, 3] 
 -0.170155722689 # B[9, 3, 1, 4] 
 -0.105692176533 # B[10, 3, 2, 3] 
  0.039782663107 # B[11, 3, 2, 5] 
 -0.113740487868 # B[12, 3, 3, 4] 
  0.040487649681 # B[13, 3, 3, 6] 
 -0.072662941254 # B[14, 4, 0, 4] 
 -0.064870605288 # B[15, 4, 1, 5] 
 -0.095330639602 # B[16, 4, 2, 4] 
 -0.102394326003 # B[17, 4, 2, 6] 
 -0.157112282963 # B[18, 4, 3, 5] 
  0.048546707497 # B[19, 4, 4, 4] 
  0.002494660740 # B[20, 4, 4, 6] 
  0.001219822206 # B[21, 5, 0, 5] 
 -0.049737249501 # B[22, 5, 1, 6] 
 -0.051406278475 # B[23, 5, 2, 5] 
 -0.034156211229 # B[24, 5, 3, 6] 
 -0.015948912467 # B[25, 5, 4, 5] 
 -0.015009734574 # B[26, 5, 5, 6] 
 -0.006225537965 # B[27, 6, 0, 6] 
 -0.065015791691 # B[28, 6, 2, 6] 
  0.039665412706 # B[29, 6, 4, 6] 
  0.010754995263 # B[30, 6, 6, 6] 
