elements: [O, U] 
E0: [0.000391, 0.000280] 
deltaSplineBins: 0.001000 
embeddings:
  0: {ndensity: 1, FS_parameters: [1.0, 1.0], npoti: FinnisSinclair, rho_core_cutoff: 100000, drho_core_cutoff: 250}
  1: {ndensity: 1, FS_parameters: [1.0, 1.0], npoti: FinnisSinclair, rho_core_cutoff: 100000, drho_core_cutoff: 250}
bonds:
  [0, 0]: {nradmax: 16, lmax: 2, nradbasemax: 16, radbasename: ChebExpCos, radparameters: [3.3], radcoefficients: [[[1, 0, 0, 0, 0, 0, 0, 0, 0, 0, 0, 0, 0, 0, 0, 0], [1, 0, 0, 0, 0, 0, 0, 0, 0, 0, 0, 0, 0, 0, 0, 0], [1, 0, 0, 0, 0, 0, 0, 0, 0, 0, 0, 0, 0, 0, 0, 0]], [[0, 1, 0, 0, 0, 0, 0, 0, 0, 0, 0, 0, 0, 0, 0, 0], [0, 1, 0, 0, 0, 0, 0, 0, 0, 0, 0, 0, 0, 0, 0, 0], [0, 1, 0, 0, 0, 0, 0, 0, 0, 0, 0, 0, 0, 0, 0, 0]], [[0, 0, 1, 0, 0, 0, 0, 0, 0, 0, 0, 0, 0, 0, 0, 0], [0, 0, 1, 0, 0, 0, 0, 0, 0, 0, 0, 0, 0, 0, 0, 0], [0, 0, 1, 0, 0, 0, 0, 0, 0, 0, 0, 0, 0, 0, 0, 0]], [[0, 0, 0, 1, 0, 0, 0, 0, 0, 0, 0, 0, 0, 0, 0, 0], [0, 0, 0, 1, 0, 0, 0, 0, 0, 0, 0, 0, 0, 0, 0, 0], [0, 0, 0, 1, 0, 0, 0, 0, 0, 0, 0, 0, 0, 0, 0, 0]], [[0, 0, 0, 0, 1, 0, 0, 0, 0, 0, 0, 0, 0, 0, 0, 0], [0, 0, 0, 0, 1, 0, 0, 0, 0, 0, 0, 0, 0, 0, 0, 0], [0, 0, 0, 0, 1, 0, 0, 0, 0, 0, 0, 0, 0, 0, 0, 0]], [[0, 0, 0, 0, 0, 1, 0, 0, 0, 0, 0, 0, 0, 0, 0, 0], [0, 0, 0, 0, 0, 1, 0, 0, 0, 0, 0, 0, 0, 0, 0, 0], [0, 0, 0, 0, 0, 1, 0, 0, 0, 0, 0, 0, 0, 0, 0, 0]], [[0, 0, 0, 0, 0, 0, 1, 0, 0, 0, 0, 0, 0, 0, 0, 0], [0, 0, 0, 0, 0, 0, 1, 0, 0, 0, 0, 0, 0, 0, 0, 0], [0, 0, 0, 0, 0, 0, 1, 0, 0, 0, 0, 0, 0, 0, 0, 0]], [[0, 0, 0, 0, 0, 0, 0, 1, 0, 0, 0, 0, 0, 0, 0, 0], [0, 0, 0, 0, 0, 0, 0, 1, 0, 0, 0, 0, 0, 0, 0, 0], [0, 0, 0, 0, 0, 0, 0, 1, 0, 0, 0, 0, 0, 0, 0, 0]], [[0, 0, 0, 0, 0, 0, 0, 0, 1, 0, 0, 0, 0, 0, 0, 0], [0, 0, 0, 0, 0, 0, 0, 0, 1, 0, 0, 0, 0, 0, 0, 0], [0, 0, 0, 0, 0, 0, 0, 0, 1, 0, 0, 0, 0, 0, 0, 0]], [[0, 0, 0, 0, 0, 0, 0, 0, 0, 1, 0, 0, 0, 0, 0, 0], [0, 0, 0, 0, 0, 0, 0, 0, 0, 1, 0, 0, 0, 0, 0, 0], [0, 0, 0, 0, 0, 0, 0, 0, 0, 1, 0, 0, 0, 0, 0, 0]], [[0, 0, 0, 0, 0, 0, 0, 0, 0, 0, 1, 0, 0, 0, 0, 0], [0, 0, 0, 0, 0, 0, 0, 0, 0, 0, 1, 0, 0, 0, 0, 0], [0, 0, 0, 0, 0, 0, 0, 0, 0, 0, 1, 0, 0, 0, 0, 0]], [[0, 0, 0, 0, 0, 0, 0, 0, 0, 0, 0, 1, 0, 0, 0, 0], [0, 0, 0, 0, 0, 0, 0, 0, 0, 0, 0, 1, 0, 0, 0, 0], [0, 0, 0, 0, 0, 0, 0, 0, 0, 0, 0, 1, 0, 0, 0, 0]], [[0, 0, 0, 0, 0, 0, 0, 0, 0, 0, 0, 0, 1, 0, 0, 0], [0, 0, 0, 0, 0, 0, 0, 0, 0, 0, 0, 0, 1, 0, 0, 0], [0, 0, 0, 0, 0, 0, 0, 0, 0, 0, 0, 0, 1, 0, 0, 0]], [[0, 0, 0, 0, 0, 0, 0, 0, 0, 0, 0, 0, 0, 1, 0, 0], [0, 0, 0, 0, 0, 0, 0, 0, 0, 0, 0, 0, 0, 1, 0, 0], [0, 0, 0, 0, 0, 0, 0, 0, 0, 0, 0, 0, 0, 1, 0, 0]], [[0, 0, 0, 0, 0, 0, 0, 0, 0, 0, 0, 0, 0, 0, 1, 0], [0, 0, 0, 0, 0, 0, 0, 0, 0, 0, 0, 0, 0, 0, 1, 0], [0, 0, 0, 0, 0, 0, 0, 0, 0, 0, 0, 0, 0, 0, 1, 0]], [[0, 0, 0, 0, 0, 0, 0, 0, 0, 0, 0, 0, 0, 0, 0, 1], [0, 0, 0, 0, 0, 0, 0, 0, 0, 0, 0, 0, 0, 0, 0, 1], [0, 0, 0, 0, 0, 0, 0, 0, 0, 0, 0, 0, 0, 0, 0, 1]]], prehc: 0, lambdahc: 3.3, rcut: 5.0, dcut: 0.01, rcut_in: 0.1, dcut_in: 0.01, inner_cutoff_type: distance}
  [0, 1]: {nradmax: 16, lmax: 2, nradbasemax: 16, radbasename: ChebExpCos, radparameters: [3.3], radcoefficients: [[[1, 0, 0, 0, 0, 0, 0, 0, 0, 0, 0, 0, 0, 0, 0, 0], [1, 0, 0, 0, 0, 0, 0, 0, 0, 0, 0, 0, 0, 0, 0, 0], [1, 0, 0, 0, 0, 0, 0, 0, 0, 0, 0, 0, 0, 0, 0, 0]], [[0, 1, 0, 0, 0, 0, 0, 0, 0, 0, 0, 0, 0, 0, 0, 0], [0, 1, 0, 0, 0, 0, 0, 0, 0, 0, 0, 0, 0, 0, 0, 0], [0, 1, 0, 0, 0, 0, 0, 0, 0, 0, 0, 0, 0, 0, 0, 0]], [[0, 0, 1, 0, 0, 0, 0, 0, 0, 0, 0, 0, 0, 0, 0, 0], [0, 0, 1, 0, 0, 0, 0, 0, 0, 0, 0, 0, 0, 0, 0, 0], [0, 0, 1, 0, 0, 0, 0, 0, 0, 0, 0, 0, 0, 0, 0, 0]], [[0, 0, 0, 1, 0, 0, 0, 0, 0, 0, 0, 0, 0, 0, 0, 0], [0, 0, 0, 1, 0, 0, 0, 0, 0, 0, 0, 0, 0, 0, 0, 0], [0, 0, 0, 1, 0, 0, 0, 0, 0, 0, 0, 0, 0, 0, 0, 0]], [[0, 0, 0, 0, 1, 0, 0, 0, 0, 0, 0, 0, 0, 0, 0, 0], [0, 0, 0, 0, 1, 0, 0, 0, 0, 0, 0, 0, 0, 0, 0, 0], [0, 0, 0, 0, 1, 0, 0, 0, 0, 0, 0, 0, 0, 0, 0, 0]], [[0, 0, 0, 0, 0, 1, 0, 0, 0, 0, 0, 0, 0, 0, 0, 0], [0, 0, 0, 0, 0, 1, 0, 0, 0, 0, 0, 0, 0, 0, 0, 0], [0, 0, 0, 0, 0, 1, 0, 0, 0, 0, 0, 0, 0, 0, 0, 0]], [[0, 0, 0, 0, 0, 0, 1, 0, 0, 0, 0, 0, 0, 0, 0, 0], [0, 0, 0, 0, 0, 0, 1, 0, 0, 0, 0, 0, 0, 0, 0, 0], [0, 0, 0, 0, 0, 0, 1, 0, 0, 0, 0, 0, 0, 0, 0, 0]], [[0, 0, 0, 0, 0, 0, 0, 1, 0, 0, 0, 0, 0, 0, 0, 0], [0, 0, 0, 0, 0, 0, 0, 1, 0, 0, 0, 0, 0, 0, 0, 0], [0, 0, 0, 0, 0, 0, 0, 1, 0, 0, 0, 0, 0, 0, 0, 0]], [[0, 0, 0, 0, 0, 0, 0, 0, 1, 0, 0, 0, 0, 0, 0, 0], [0, 0, 0, 0, 0, 0, 0, 0, 1, 0, 0, 0, 0, 0, 0, 0], [0, 0, 0, 0, 0, 0, 0, 0, 1, 0, 0, 0, 0, 0, 0, 0]], [[0, 0, 0, 0, 0, 0, 0, 0, 0, 1, 0, 0, 0, 0, 0, 0], [0, 0, 0, 0, 0, 0, 0, 0, 0, 1, 0, 0, 0, 0, 0, 0], [0, 0, 0, 0, 0, 0, 0, 0, 0, 1, 0, 0, 0, 0, 0, 0]], [[0, 0, 0, 0, 0, 0, 0, 0, 0, 0, 1, 0, 0, 0, 0, 0], [0, 0, 0, 0, 0, 0, 0, 0, 0, 0, 1, 0, 0, 0, 0, 0], [0, 0, 0, 0, 0, 0, 0, 0, 0, 0, 1, 0, 0, 0, 0, 0]], [[0, 0, 0, 0, 0, 0, 0, 0, 0, 0, 0, 1, 0, 0, 0, 0], [0, 0, 0, 0, 0, 0, 0, 0, 0, 0, 0, 1, 0, 0, 0, 0], [0, 0, 0, 0, 0, 0, 0, 0, 0, 0, 0, 1, 0, 0, 0, 0]], [[0, 0, 0, 0, 0, 0, 0, 0, 0, 0, 0, 0, 1, 0, 0, 0], [0, 0, 0, 0, 0, 0, 0, 0, 0, 0, 0, 0, 1, 0, 0, 0], [0, 0, 0, 0, 0, 0, 0, 0, 0, 0, 0, 0, 1, 0, 0, 0]], [[0, 0, 0, 0, 0, 0, 0, 0, 0, 0, 0, 0, 0, 1, 0, 0], [0, 0, 0, 0, 0, 0, 0, 0, 0, 0, 0, 0, 0, 1, 0, 0], [0, 0, 0, 0, 0, 0, 0, 0, 0, 0, 0, 0, 0, 1, 0, 0]], [[0, 0, 0, 0, 0, 0, 0, 0, 0, 0, 0, 0, 0, 0, 1, 0], [0, 0, 0, 0, 0, 0, 0, 0, 0, 0, 0, 0, 0, 0, 1, 0], [0, 0, 0, 0, 0, 0, 0, 0, 0, 0, 0, 0, 0, 0, 1, 0]], [[0, 0, 0, 0, 0, 0, 0, 0, 0, 0, 0, 0, 0, 0, 0, 1], [0, 0, 0, 0, 0, 0, 0, 0, 0, 0, 0, 0, 0, 0, 0, 1], [0, 0, 0, 0, 0, 0, 0, 0, 0, 0, 0, 0, 0, 0, 0, 1]]], prehc: 0, lambdahc: 3.3, rcut: 5.5, dcut: 0.01, rcut_in: 0.1, dcut_in: 0.01, inner_cutoff_type: distance}
  [1, 0]: {nradmax: 16, lmax: 2, nradbasemax: 16, radbasename: ChebExpCos, radparameters: [3.3], radcoefficients: [[[1, 0, 0, 0, 0, 0, 0, 0, 0, 0, 0, 0, 0, 0, 0, 0], [1, 0, 0, 0, 0, 0, 0, 0, 0, 0, 0, 0, 0, 0, 0, 0], [1, 0, 0, 0, 0, 0, 0, 0, 0, 0, 0, 0, 0, 0, 0, 0]], [[0, 1, 0, 0, 0, 0, 0, 0, 0, 0, 0, 0, 0, 0, 0, 0], [0, 1, 0, 0, 0, 0, 0, 0, 0, 0, 0, 0, 0, 0, 0, 0], [0, 1, 0, 0, 0, 0, 0, 0, 0, 0, 0, 0, 0, 0, 0, 0]], [[0, 0, 1, 0, 0, 0, 0, 0, 0, 0, 0, 0, 0, 0, 0, 0], [0, 0, 1, 0, 0, 0, 0, 0, 0, 0, 0, 0, 0, 0, 0, 0], [0, 0, 1, 0, 0, 0, 0, 0, 0, 0, 0, 0, 0, 0, 0, 0]], [[0, 0, 0, 1, 0, 0, 0, 0, 0, 0, 0, 0, 0, 0, 0, 0], [0, 0, 0, 1, 0, 0, 0, 0, 0, 0, 0, 0, 0, 0, 0, 0], [0, 0, 0, 1, 0, 0, 0, 0, 0, 0, 0, 0, 0, 0, 0, 0]], [[0, 0, 0, 0, 1, 0, 0, 0, 0, 0, 0, 0, 0, 0, 0, 0], [0, 0, 0, 0, 1, 0, 0, 0, 0, 0, 0, 0, 0, 0, 0, 0], [0, 0, 0, 0, 1, 0, 0, 0, 0, 0, 0, 0, 0, 0, 0, 0]], [[0, 0, 0, 0, 0, 1, 0, 0, 0, 0, 0, 0, 0, 0, 0, 0], [0, 0, 0, 0, 0, 1, 0, 0, 0, 0, 0, 0, 0, 0, 0, 0], [0, 0, 0, 0, 0, 1, 0, 0, 0, 0, 0, 0, 0, 0, 0, 0]], [[0, 0, 0, 0, 0, 0, 1, 0, 0, 0, 0, 0, 0, 0, 0, 0], [0, 0, 0, 0, 0, 0, 1, 0, 0, 0, 0, 0, 0, 0, 0, 0], [0, 0, 0, 0, 0, 0, 1, 0, 0, 0, 0, 0, 0, 0, 0, 0]], [[0, 0, 0, 0, 0, 0, 0, 1, 0, 0, 0, 0, 0, 0, 0, 0], [0, 0, 0, 0, 0, 0, 0, 1, 0, 0, 0, 0, 0, 0, 0, 0], [0, 0, 0, 0, 0, 0, 0, 1, 0, 0, 0, 0, 0, 0, 0, 0]], [[0, 0, 0, 0, 0, 0, 0, 0, 1, 0, 0, 0, 0, 0, 0, 0], [0, 0, 0, 0, 0, 0, 0, 0, 1, 0, 0, 0, 0, 0, 0, 0], [0, 0, 0, 0, 0, 0, 0, 0, 1, 0, 0, 0, 0, 0, 0, 0]], [[0, 0, 0, 0, 0, 0, 0, 0, 0, 1, 0, 0, 0, 0, 0, 0], [0, 0, 0, 0, 0, 0, 0, 0, 0, 1, 0, 0, 0, 0, 0, 0], [0, 0, 0, 0, 0, 0, 0, 0, 0, 1, 0, 0, 0, 0, 0, 0]], [[0, 0, 0, 0, 0, 0, 0, 0, 0, 0, 1, 0, 0, 0, 0, 0], [0, 0, 0, 0, 0, 0, 0, 0, 0, 0, 1, 0, 0, 0, 0, 0], [0, 0, 0, 0, 0, 0, 0, 0, 0, 0, 1, 0, 0, 0, 0, 0]], [[0, 0, 0, 0, 0, 0, 0, 0, 0, 0, 0, 1, 0, 0, 0, 0], [0, 0, 0, 0, 0, 0, 0, 0, 0, 0, 0, 1, 0, 0, 0, 0], [0, 0, 0, 0, 0, 0, 0, 0, 0, 0, 0, 1, 0, 0, 0, 0]], [[0, 0, 0, 0, 0, 0, 0, 0, 0, 0, 0, 0, 1, 0, 0, 0], [0, 0, 0, 0, 0, 0, 0, 0, 0, 0, 0, 0, 1, 0, 0, 0], [0, 0, 0, 0, 0, 0, 0, 0, 0, 0, 0, 0, 1, 0, 0, 0]], [[0, 0, 0, 0, 0, 0, 0, 0, 0, 0, 0, 0, 0, 1, 0, 0], [0, 0, 0, 0, 0, 0, 0, 0, 0, 0, 0, 0, 0, 1, 0, 0], [0, 0, 0, 0, 0, 0, 0, 0, 0, 0, 0, 0, 0, 1, 0, 0]], [[0, 0, 0, 0, 0, 0, 0, 0, 0, 0, 0, 0, 0, 0, 1, 0], [0, 0, 0, 0, 0, 0, 0, 0, 0, 0, 0, 0, 0, 0, 1, 0], [0, 0, 0, 0, 0, 0, 0, 0, 0, 0, 0, 0, 0, 0, 1, 0]], [[0, 0, 0, 0, 0, 0, 0, 0, 0, 0, 0, 0, 0, 0, 0, 1], [0, 0, 0, 0, 0, 0, 0, 0, 0, 0, 0, 0, 0, 0, 0, 1], [0, 0, 0, 0, 0, 0, 0, 0, 0, 0, 0, 0, 0, 0, 0, 1]]], prehc: 0, lambdahc: 3.3, rcut: 5.5, dcut: 0.01, rcut_in: 0.1, dcut_in: 0.01, inner_cutoff_type: distance}
  [1, 1]: {nradmax: 16, lmax: 2, nradbasemax: 16, radbasename: ChebExpCos, radparameters: [3.3], radcoefficients: [[[1, 0, 0, 0, 0, 0, 0, 0, 0, 0, 0, 0, 0, 0, 0, 0], [1, 0, 0, 0, 0, 0, 0, 0, 0, 0, 0, 0, 0, 0, 0, 0], [1, 0, 0, 0, 0, 0, 0, 0, 0, 0, 0, 0, 0, 0, 0, 0]], [[0, 1, 0, 0, 0, 0, 0, 0, 0, 0, 0, 0, 0, 0, 0, 0], [0, 1, 0, 0, 0, 0, 0, 0, 0, 0, 0, 0, 0, 0, 0, 0], [0, 1, 0, 0, 0, 0, 0, 0, 0, 0, 0, 0, 0, 0, 0, 0]], [[0, 0, 1, 0, 0, 0, 0, 0, 0, 0, 0, 0, 0, 0, 0, 0], [0, 0, 1, 0, 0, 0, 0, 0, 0, 0, 0, 0, 0, 0, 0, 0], [0, 0, 1, 0, 0, 0, 0, 0, 0, 0, 0, 0, 0, 0, 0, 0]], [[0, 0, 0, 1, 0, 0, 0, 0, 0, 0, 0, 0, 0, 0, 0, 0], [0, 0, 0, 1, 0, 0, 0, 0, 0, 0, 0, 0, 0, 0, 0, 0], [0, 0, 0, 1, 0, 0, 0, 0, 0, 0, 0, 0, 0, 0, 0, 0]], [[0, 0, 0, 0, 1, 0, 0, 0, 0, 0, 0, 0, 0, 0, 0, 0], [0, 0, 0, 0, 1, 0, 0, 0, 0, 0, 0, 0, 0, 0, 0, 0], [0, 0, 0, 0, 1, 0, 0, 0, 0, 0, 0, 0, 0, 0, 0, 0]], [[0, 0, 0, 0, 0, 1, 0, 0, 0, 0, 0, 0, 0, 0, 0, 0], [0, 0, 0, 0, 0, 1, 0, 0, 0, 0, 0, 0, 0, 0, 0, 0], [0, 0, 0, 0, 0, 1, 0, 0, 0, 0, 0, 0, 0, 0, 0, 0]], [[0, 0, 0, 0, 0, 0, 1, 0, 0, 0, 0, 0, 0, 0, 0, 0], [0, 0, 0, 0, 0, 0, 1, 0, 0, 0, 0, 0, 0, 0, 0, 0], [0, 0, 0, 0, 0, 0, 1, 0, 0, 0, 0, 0, 0, 0, 0, 0]], [[0, 0, 0, 0, 0, 0, 0, 1, 0, 0, 0, 0, 0, 0, 0, 0], [0, 0, 0, 0, 0, 0, 0, 1, 0, 0, 0, 0, 0, 0, 0, 0], [0, 0, 0, 0, 0, 0, 0, 1, 0, 0, 0, 0, 0, 0, 0, 0]], [[0, 0, 0, 0, 0, 0, 0, 0, 1, 0, 0, 0, 0, 0, 0, 0], [0, 0, 0, 0, 0, 0, 0, 0, 1, 0, 0, 0, 0, 0, 0, 0], [0, 0, 0, 0, 0, 0, 0, 0, 1, 0, 0, 0, 0, 0, 0, 0]], [[0, 0, 0, 0, 0, 0, 0, 0, 0, 1, 0, 0, 0, 0, 0, 0], [0, 0, 0, 0, 0, 0, 0, 0, 0, 1, 0, 0, 0, 0, 0, 0], [0, 0, 0, 0, 0, 0, 0, 0, 0, 1, 0, 0, 0, 0, 0, 0]], [[0, 0, 0, 0, 0, 0, 0, 0, 0, 0, 1, 0, 0, 0, 0, 0], [0, 0, 0, 0, 0, 0, 0, 0, 0, 0, 1, 0, 0, 0, 0, 0], [0, 0, 0, 0, 0, 0, 0, 0, 0, 0, 1, 0, 0, 0, 0, 0]], [[0, 0, 0, 0, 0, 0, 0, 0, 0, 0, 0, 1, 0, 0, 0, 0], [0, 0, 0, 0, 0, 0, 0, 0, 0, 0, 0, 1, 0, 0, 0, 0], [0, 0, 0, 0, 0, 0, 0, 0, 0, 0, 0, 1, 0, 0, 0, 0]], [[0, 0, 0, 0, 0, 0, 0, 0, 0, 0, 0, 0, 1, 0, 0, 0], [0, 0, 0, 0, 0, 0, 0, 0, 0, 0, 0, 0, 1, 0, 0, 0], [0, 0, 0, 0, 0, 0, 0, 0, 0, 0, 0, 0, 1, 0, 0, 0]], [[0, 0, 0, 0, 0, 0, 0, 0, 0, 0, 0, 0, 0, 1, 0, 0], [0, 0, 0, 0, 0, 0, 0, 0, 0, 0, 0, 0, 0, 1, 0, 0], [0, 0, 0, 0, 0, 0, 0, 0, 0, 0, 0, 0, 0, 1, 0, 0]], [[0, 0, 0, 0, 0, 0, 0, 0, 0, 0, 0, 0, 0, 0, 1, 0], [0, 0, 0, 0, 0, 0, 0, 0, 0, 0, 0, 0, 0, 0, 1, 0], [0, 0, 0, 0, 0, 0, 0, 0, 0, 0, 0, 0, 0, 0, 1, 0]], [[0, 0, 0, 0, 0, 0, 0, 0, 0, 0, 0, 0, 0, 0, 0, 1], [0, 0, 0, 0, 0, 0, 0, 0, 0, 0, 0, 0, 0, 0, 0, 1], [0, 0, 0, 0, 0, 0, 0, 0, 0, 0, 0, 0, 0, 0, 0, 1]]], prehc: 0, lambdahc: 3.3, rcut: 6.0, dcut: 0.01, rcut_in: 0.1, dcut_in: 0.01, inner_cutoff_type: distance}
functions:
  0:
    - {mu0: 0, rank: 1, ndensity: 1, num_ms_combs: 1, mus: [0], ns: [1], ls: [0], ms_combs: [0], ctildes: [0.996056285184296]}
    - {mu0: 0, rank: 1, ndensity: 1, num_ms_combs: 1, mus: [1], ns: [1], ls: [0], ms_combs: [0], ctildes: [192.96177814206692]}
    - {mu0: 0, rank: 1, ndensity: 1, num_ms_combs: 1, mus: [0], ns: [2], ls: [0], ms_combs: [0], ctildes: [5766.673035549307]}
    - {mu0: 0, rank: 1, ndensity: 1, num_ms_combs: 1, mus: [1], ns: [2], ls: [0], ms_combs: [0], ctildes: [-2686.5258431630796]}
    - {mu0: 0, rank: 1, ndensity: 1, num_ms_combs: 1, mus: [0], ns: [3], ls: [0], ms_combs: [0], ctildes: [-2773.629666131262]}
    - {mu0: 0, rank: 1, ndensity: 1, num_ms_combs: 1, mus: [1], ns: [3], ls: [0], ms_combs: [0], ctildes: [-0.0006566088916731135]}
    - {mu0: 0, rank: 1, ndensity: 1, num_ms_combs: 1, mus: [0], ns: [4], ls: [0], ms_combs: [0], ctildes: [6183.347252151331]}
    - {mu0: 0, rank: 1, ndensity: 1, num_ms_combs: 1, mus: [1], ns: [4], ls: [0], ms_combs: [0], ctildes: [-4353.81117404437]}
    - {mu0: 0, rank: 1, ndensity: 1, num_ms_combs: 1, mus: [0], ns: [5], ls: [0], ms_combs: [0], ctildes: [-3947.2619068948434]}
    - {mu0: 0, rank: 1, ndensity: 1, num_ms_combs: 1, mus: [1], ns: [5], ls: [0], ms_combs: [0], ctildes: [7642.76112288699]}
    - {mu0: 0, rank: 1, ndensity: 1, num_ms_combs: 1, mus: [0], ns: [6], ls: [0], ms_combs: [0], ctildes: [-3374.7341339235204]}
    - {mu0: 0, rank: 1, ndensity: 1, num_ms_combs: 1, mus: [1], ns: [6], ls: [0], ms_combs: [0], ctildes: [-2176.5340786830216]}
    - {mu0: 0, rank: 1, ndensity: 1, num_ms_combs: 1, mus: [0], ns: [7], ls: [0], ms_combs: [0], ctildes: [3660.0936640415725]}
    - {mu0: 0, rank: 1, ndensity: 1, num_ms_combs: 1, mus: [1], ns: [7], ls: [0], ms_combs: [0], ctildes: [-2165.54182498367]}
    - {mu0: 0, rank: 1, ndensity: 1, num_ms_combs: 1, mus: [0], ns: [8], ls: [0], ms_combs: [0], ctildes: [656.9242345728326]}
    - {mu0: 0, rank: 1, ndensity: 1, num_ms_combs: 1, mus: [1], ns: [8], ls: [0], ms_combs: [0], ctildes: [-86.63560218807825]}
    - {mu0: 0, rank: 1, ndensity: 1, num_ms_combs: 1, mus: [0], ns: [9], ls: [0], ms_combs: [0], ctildes: [-1322.2460722580513]}
    - {mu0: 0, rank: 1, ndensity: 1, num_ms_combs: 1, mus: [1], ns: [9], ls: [0], ms_combs: [0], ctildes: [-1526.053905790262]}
    - {mu0: 0, rank: 1, ndensity: 1, num_ms_combs: 1, mus: [0], ns: [10], ls: [0], ms_combs: [0], ctildes: [0.0002453796380237966]}
    - {mu0: 0, rank: 1, ndensity: 1, num_ms_combs: 1, mus: [1], ns: [10], ls: [0], ms_combs: [0], ctildes: [686.1681119910818]}
    - {mu0: 0, rank: 1, ndensity: 1, num_ms_combs: 1, mus: [0], ns: [11], ls: [0], ms_combs: [0], ctildes: [0.001904654377107779]}
    - {mu0: 0, rank: 1, ndensity: 1, num_ms_combs: 1, mus: [1], ns: [11], ls: [0], ms_combs: [0], ctildes: [0.00016529875133251514]}
    - {mu0: 0, rank: 1, ndensity: 1, num_ms_combs: 1, mus: [0], ns: [12], ls: [0], ms_combs: [0], ctildes: [183.16104254268944]}
    - {mu0: 0, rank: 1, ndensity: 1, num_ms_combs: 1, mus: [1], ns: [12], ls: [0], ms_combs: [0], ctildes: [-0.0012188703634093752]}
    - {mu0: 0, rank: 1, ndensity: 1, num_ms_combs: 1, mus: [0], ns: [13], ls: [0], ms_combs: [0], ctildes: [-0.00014507797232710928]}
    - {mu0: 0, rank: 1, ndensity: 1, num_ms_combs: 1, mus: [1], ns: [13], ls: [0], ms_combs: [0], ctildes: [-96.77022380765116]}
    - {mu0: 0, rank: 1, ndensity: 1, num_ms_combs: 1, mus: [0], ns: [14], ls: [0], ms_combs: [0], ctildes: [-0.0017678156961474746]}
    - {mu0: 0, rank: 1, ndensity: 1, num_ms_combs: 1, mus: [1], ns: [14], ls: [0], ms_combs: [0], ctildes: [0.00016424251972540528]}
    - {mu0: 0, rank: 1, ndensity: 1, num_ms_combs: 1, mus: [0], ns: [15], ls: [0], ms_combs: [0], ctildes: [-23.164403426407443]}
    - {mu0: 0, rank: 1, ndensity: 1, num_ms_combs: 1, mus: [1], ns: [15], ls: [0], ms_combs: [0], ctildes: [43.03824959942326]}
    - {mu0: 0, rank: 1, ndensity: 1, num_ms_combs: 1, mus: [0], ns: [16], ls: [0], ms_combs: [0], ctildes: [-0.0015261236442882643]}
    - {mu0: 0, rank: 1, ndensity: 1, num_ms_combs: 1, mus: [1], ns: [16], ls: [0], ms_combs: [0], ctildes: [0.001249430330590577]}
    - {mu0: 0, rank: 2, ndensity: 1, num_ms_combs: 3, mus: [0, 0], ns: [1, 1], ls: [1, 1], ms_combs: [-1, 1, 0, 0, 1, -1], ctildes: [-0.0008248412868896589, 0.0008248412868896589, -0.0008248412868896589]}
    - {mu0: 0, rank: 2, ndensity: 1, num_ms_combs: 3, mus: [0, 1], ns: [1, 1], ls: [1, 1], ms_combs: [-1, 1, 0, 0, 1, -1], ctildes: [-0.4754898423961335, 0.4754898423961335, -0.4754898423961335]}
    - {mu0: 0, rank: 2, ndensity: 1, num_ms_combs: 3, mus: [1, 1], ns: [1, 1], ls: [1, 1], ms_combs: [-1, 1, 0, 0, 1, -1], ctildes: [-0.8927035675970372, 0.8927035675970372, -0.8927035675970372]}
    - {mu0: 0, rank: 2, ndensity: 1, num_ms_combs: 3, mus: [0, 0], ns: [1, 2], ls: [1, 1], ms_combs: [-1, 1, 0, 0, 1, -1], ctildes: [2.0984191702756467, -2.0984191702756467, 2.0984191702756467]}
    - {mu0: 0, rank: 2, ndensity: 1, num_ms_combs: 3, mus: [0, 1], ns: [1, 2], ls: [1, 1], ms_combs: [-1, 1, 0, 0, 1, -1], ctildes: [-0.002160021204166181, 0.002160021204166181, -0.002160021204166181]}
    - {mu0: 0, rank: 2, ndensity: 1, num_ms_combs: 3, mus: [1, 1], ns: [1, 2], ls: [1, 1], ms_combs: [-1, 1, 0, 0, 1, -1], ctildes: [-3.5120099349498717, 3.5120099349498717, -3.5120099349498717]}
    - {mu0: 0, rank: 2, ndensity: 1, num_ms_combs: 3, mus: [0, 1], ns: [2, 1], ls: [1, 1], ms_combs: [-1, 1, 0, 0, 1, -1], ctildes: [0.1931098812627545, -0.1931098812627545, 0.1931098812627545]}
    - {mu0: 0, rank: 2, ndensity: 1, num_ms_combs: 3, mus: [0, 0], ns: [2, 2], ls: [1, 1], ms_combs: [-1, 1, 0, 0, 1, -1], ctildes: [-0.767972399848412, 0.767972399848412, -0.767972399848412]}
    - {mu0: 0, rank: 2, ndensity: 1, num_ms_combs: 3, mus: [0, 1], ns: [2, 2], ls: [1, 1], ms_combs: [-1, 1, 0, 0, 1, -1], ctildes: [-0.0025991296043095875, 0.0025991296043095875, -0.0025991296043095875]}
    - {mu0: 0, rank: 2, ndensity: 1, num_ms_combs: 3, mus: [1, 1], ns: [2, 2], ls: [1, 1], ms_combs: [-1, 1, 0, 0, 1, -1], ctildes: [21.01251320226202, -21.01251320226202, 21.01251320226202]}
    - {mu0: 0, rank: 2, ndensity: 1, num_ms_combs: 5, mus: [0, 0], ns: [1, 1], ls: [2, 2], ms_combs: [-2, 2, -1, 1, 0, 0, 1, -1, 2, -2], ctildes: [-0.0270172695241101, 0.0270172695241101, -0.0270172695241101, 0.0270172695241101, -0.0270172695241101]}
    - {mu0: 0, rank: 2, ndensity: 1, num_ms_combs: 5, mus: [0, 1], ns: [1, 1], ls: [2, 2], ms_combs: [-2, 2, -1, 1, 0, 0, 1, -1, 2, -2], ctildes: [-0.001260111011659471, 0.001260111011659471, -0.001260111011659471, 0.001260111011659471, -0.001260111011659471]}
    - {mu0: 0, rank: 2, ndensity: 1, num_ms_combs: 5, mus: [1, 1], ns: [1, 1], ls: [2, 2], ms_combs: [-2, 2, -1, 1, 0, 0, 1, -1, 2, -2], ctildes: [0.3034930136039437, -0.3034930136039437, 0.3034930136039437, -0.3034930136039437, 0.3034930136039437]}
    - {mu0: 0, rank: 2, ndensity: 1, num_ms_combs: 5, mus: [0, 0], ns: [1, 2], ls: [2, 2], ms_combs: [-2, 2, -1, 1, 0, 0, 1, -1, 2, -2], ctildes: [0.7126510291638422, -0.7126510291638422, 0.7126510291638422, -0.7126510291638422, 0.7126510291638422]}
    - {mu0: 0, rank: 2, ndensity: 1, num_ms_combs: 5, mus: [0, 1], ns: [1, 2], ls: [2, 2], ms_combs: [-2, 2, -1, 1, 0, 0, 1, -1, 2, -2], ctildes: [-1.7126174216399028, 1.7126174216399028, -1.7126174216399028, 1.7126174216399028, -1.7126174216399028]}
    - {mu0: 0, rank: 2, ndensity: 1, num_ms_combs: 5, mus: [1, 1], ns: [1, 2], ls: [2, 2], ms_combs: [-2, 2, -1, 1, 0, 0, 1, -1, 2, -2], ctildes: [-0.001164479382685669, 0.001164479382685669, -0.001164479382685669, 0.001164479382685669, -0.001164479382685669]}
    - {mu0: 0, rank: 2, ndensity: 1, num_ms_combs: 5, mus: [0, 1], ns: [2, 1], ls: [2, 2], ms_combs: [-2, 2, -1, 1, 0, 0, 1, -1, 2, -2], ctildes: [-0.0006130704279037311, 0.0006130704279037311, -0.0006130704279037311, 0.0006130704279037311, -0.0006130704279037311]}
    - {mu0: 0, rank: 2, ndensity: 1, num_ms_combs: 5, mus: [0, 0], ns: [2, 2], ls: [2, 2], ms_combs: [-2, 2, -1, 1, 0, 0, 1, -1, 2, -2], ctildes: [0.0003449922539305707, -0.0003449922539305707, 0.0003449922539305707, -0.0003449922539305707, 0.0003449922539305707]}
    - {mu0: 0, rank: 2, ndensity: 1, num_ms_combs: 5, mus: [0, 1], ns: [2, 2], ls: [2, 2], ms_combs: [-2, 2, -1, 1, 0, 0, 1, -1, 2, -2], ctildes: [1.2395587474806047, -1.2395587474806047, 1.2395587474806047, -1.2395587474806047, 1.2395587474806047]}
    - {mu0: 0, rank: 2, ndensity: 1, num_ms_combs: 5, mus: [1, 1], ns: [2, 2], ls: [2, 2], ms_combs: [-2, 2, -1, 1, 0, 0, 1, -1, 2, -2], ctildes: [1.3585196785313551, -1.3585196785313551, 1.3585196785313551, -1.3585196785313551, 1.3585196785313551]}
    - {mu0: 0, rank: 3, ndensity: 1, num_ms_combs: 9, mus: [0, 0, 0], ns: [1, 1, 1], ls: [1, 1, 2], ms_combs: [-1, -1, 2, -1, 0, 1, -1, 1, 0, 0, -1, 1, 0, 0, 0, 0, 1, -1, 1, -1, 0, 1, 0, -1, 1, 1, -2], ctildes: [-3.206726557415463e-05, 2.2674981060683846e-05, -1.3091407354435767e-05, 2.2674981060683846e-05, -2.6182814708871534e-05, 2.2674981060683846e-05, -1.3091407354435767e-05, 2.2674981060683846e-05, -3.206726557415463e-05]}
    - {mu0: 0, rank: 3, ndensity: 1, num_ms_combs: 9, mus: [0, 0, 1], ns: [1, 1, 1], ls: [1, 1, 2], ms_combs: [-1, -1, 2, -1, 0, 1, -1, 1, 0, 0, -1, 1, 0, 0, 0, 0, 1, -1, 1, -1, 0, 1, 0, -1, 1, 1, -2], ctildes: [-5.477960210320694e-05, 3.8735028321315156e-05, -2.2363680625921088e-05, 3.8735028321315156e-05, -4.4727361251842175e-05, 3.8735028321315156e-05, -2.2363680625921088e-05, 3.8735028321315156e-05, -5.477960210320694e-05]}
    - {mu0: 0, rank: 3, ndensity: 1, num_ms_combs: 9, mus: [0, 1, 1], ns: [1, 1, 1], ls: [1, 1, 2], ms_combs: [-1, -1, 2, -1, 0, 1, -1, 1, 0, 0, -1, 1, 0, 0, 0, 0, 1, -1, 1, -1, 0, 1, 0, -1, 1, 1, -2], ctildes: [-0.8185138823700268, 0.5787767197589139, -0.3341569188238846, 0.5787767197589139, -0.6683138376477692, 0.5787767197589139, -0.3341569188238846, 0.5787767197589139, -0.8185138823700268]}
    - {mu0: 0, rank: 3, ndensity: 1, num_ms_combs: 9, mus: [1, 1, 1], ns: [1, 1, 1], ls: [1, 1, 2], ms_combs: [-1, -1, 2, -1, 0, 1, -1, 1, 0, 0, -1, 1, 0, 0, 0, 0, 1, -1, 1, -1, 0, 1, 0, -1, 1, 1, -2], ctildes: [-0.3762329197799721, 0.2660368502792602, -0.1535964580952024, 0.2660368502792602, -0.3071929161904048, 0.2660368502792602, -0.1535964580952024, 0.2660368502792602, -0.3762329197799721]}
    - {mu0: 0, rank: 3, ndensity: 1, num_ms_combs: 9, mus: [0, 0, 0], ns: [1, 1, 2], ls: [1, 1, 2], ms_combs: [-1, -1, 2, -1, 0, 1, -1, 1, 0, 0, -1, 1, 0, 0, 0, 0, 1, -1, 1, -1, 0, 1, 0, -1, 1, 1, -2], ctildes: [-0.0007847537261799452, 0.0005549046842576141, -0.0003203743917165547, 0.0005549046842576141, -0.0006407487834331094, 0.0005549046842576141, -0.0003203743917165547, 0.0005549046842576141, -0.0007847537261799452]}
    - {mu0: 0, rank: 3, ndensity: 1, num_ms_combs: 9, mus: [0, 0, 1], ns: [1, 1, 2], ls: [1, 1, 2], ms_combs: [-1, -1, 2, -1, 0, 1, -1, 1, 0, 0, -1, 1, 0, 0, 0, 0, 1, -1, 1, -1, 0, 1, 0, -1, 1, 1, -2], ctildes: [-0.9074572105047544, 0.6416691505545915, -0.3704678832676206, 0.6416691505545915, -0.7409357665352412, 0.6416691505545915, -0.3704678832676206, 0.6416691505545915, -0.9074572105047544]}
    - {mu0: 0, rank: 3, ndensity: 1, num_ms_combs: 9, mus: [0, 1, 1], ns: [1, 1, 2], ls: [1, 1, 2], ms_combs: [-1, -1, 2, -1, 0, 1, -1, 1, 0, 0, -1, 1, 0, 0, 0, 0, 1, -1, 1, -1, 0, 1, 0, -1, 1, 1, -2], ctildes: [4.121871050363177, -2.914602986195838, 1.6827469388675156, -2.914602986195838, 3.365493877735031, -2.914602986195838, 1.6827469388675156, -2.914602986195838, 4.121871050363177]}
    - {mu0: 0, rank: 3, ndensity: 1, num_ms_combs: 9, mus: [1, 1, 1], ns: [1, 1, 2], ls: [1, 1, 2], ms_combs: [-1, -1, 2, -1, 0, 1, -1, 1, 0, 0, -1, 1, 0, 0, 0, 0, 1, -1, 1, -1, 0, 1, 0, -1, 1, 1, -2], ctildes: [-0.0010460855173677632, 0.0007396941669166627, -0.0004270626568944085, 0.0007396941669166627, -0.000854125313788817, 0.0007396941669166627, -0.0004270626568944085, 0.0007396941669166627, -0.0010460855173677632]}
    - {mu0: 0, rank: 3, ndensity: 1, num_ms_combs: 9, mus: [0, 0, 0], ns: [1, 2, 1], ls: [1, 1, 2], ms_combs: [-1, -1, 2, -1, 0, 1, -1, 1, 0, 0, -1, 1, 0, 0, 0, 0, 1, -1, 1, -1, 0, 1, 0, -1, 1, 1, -2], ctildes: [0.00012281334584093005, -8.684215012042597e-05, 5.013834233064945e-05, -8.684215012042597e-05, 0.0001002766846612989, -8.684215012042597e-05, 5.013834233064945e-05, -8.684215012042597e-05, 0.00012281334584093005]}
    - {mu0: 0, rank: 3, ndensity: 1, num_ms_combs: 9, mus: [0, 0, 1], ns: [1, 2, 1], ls: [1, 1, 2], ms_combs: [-1, -1, 2, -1, 0, 1, -1, 1, 0, 0, -1, 1, 0, 0, 0, 0, 1, -1, 1, -1, 0, 1, 0, -1, 1, 1, -2], ctildes: [0.00012978939921661143, -9.177496479419674e-05, 5.2986304413856756e-05, -9.177496479419674e-05, 0.00010597260882771351, -9.177496479419674e-05, 5.2986304413856756e-05, -9.177496479419674e-05, 0.00012978939921661143]}
    - {mu0: 0, rank: 3, ndensity: 1, num_ms_combs: 9, mus: [0, 1, 1], ns: [1, 2, 1], ls: [1, 1, 2], ms_combs: [-1, -1, 2, -1, 0, 1, -1, 1, 0, 0, -1, 1, 0, 0, 0, 0, 1, -1, 1, -1, 0, 1, 0, -1, 1, 1, -2], ctildes: [-0.00024801396037132044, 0.00017537235412854932, -0.00010125128309738769, 0.00017537235412854932, -0.00020250256619477538, 0.00017537235412854932, -0.00010125128309738769, 0.00017537235412854932, -0.00024801396037132044]}
    - {mu0: 0, rank: 3, ndensity: 1, num_ms_combs: 9, mus: [1, 1, 1], ns: [1, 2, 1], ls: [1, 1, 2], ms_combs: [-1, -1, 2, -1, 0, 1, -1, 1, 0, 0, -1, 1, 0, 0, 0, 0, 1, -1, 1, -1, 0, 1, 0, -1, 1, 1, -2], ctildes: [-0.372166352875, 0.2631613532295035, -0.15193628898087777, 0.2631613532295035, -0.30387257796175554, 0.2631613532295035, -0.15193628898087777, 0.2631613532295035, -0.372166352875]}
    - {mu0: 0, rank: 3, ndensity: 1, num_ms_combs: 9, mus: [0, 0, 0], ns: [1, 2, 2], ls: [1, 1, 2], ms_combs: [-1, -1, 2, -1, 0, 1, -1, 1, 0, 0, -1, 1, 0, 0, 0, 0, 1, -1, 1, -1, 0, 1, 0, -1, 1, 1, -2], ctildes: [-0.00011425227365964704, 8.078855789501973e-05, -4.664329898007968e-05, 8.078855789501973e-05, -9.328659796015936e-05, 8.078855789501973e-05, -4.664329898007968e-05, 8.078855789501973e-05, -0.00011425227365964704]}
    - {mu0: 0, rank: 3, ndensity: 1, num_ms_combs: 9, mus: [0, 0, 1], ns: [1, 2, 2], ls: [1, 1, 2], ms_combs: [-1, -1, 2, -1, 0, 1, -1, 1, 0, 0, -1, 1, 0, 0, 0, 0, 1, -1, 1, -1, 0, 1, 0, -1, 1, 1, -2], ctildes: [9.116674627482682, -6.446462484821218, 3.72186711680268, -6.446462484821218, 7.44373423360536, -6.446462484821218, 3.72186711680268, -6.446462484821218, 9.116674627482682]}
    - {mu0: 0, rank: 3, ndensity: 1, num_ms_combs: 9, mus: [0, 1, 1], ns: [1, 2, 2], ls: [1, 1, 2], ms_combs: [-1, -1, 2, -1, 0, 1, -1, 1, 0, 0, -1, 1, 0, 0, 0, 0, 1, -1, 1, -1, 0, 1, 0, -1, 1, 1, -2], ctildes: [-8.18581881964206, 5.788248027333284, -3.3418467954408944, 5.788248027333284, -6.683693590881789, 5.788248027333284, -3.3418467954408944, 5.788248027333284, -8.18581881964206]}
    - {mu0: 0, rank: 3, ndensity: 1, num_ms_combs: 9, mus: [1, 1, 1], ns: [1, 2, 2], ls: [1, 1, 2], ms_combs: [-1, -1, 2, -1, 0, 1, -1, 1, 0, 0, -1, 1, 0, 0, 0, 0, 1, -1, 1, -1, 0, 1, 0, -1, 1, 1, -2], ctildes: [11.70467813986251, -8.276457327770744, 4.778415207469374, -8.276457327770744, 9.556830414938748, -8.276457327770744, 4.778415207469374, -8.276457327770744, 11.70467813986251]}
    - {mu0: 0, rank: 3, ndensity: 1, num_ms_combs: 9, mus: [0, 1, 1], ns: [2, 1, 1], ls: [1, 1, 2], ms_combs: [-1, -1, 2, -1, 0, 1, -1, 1, 0, 0, -1, 1, 0, 0, 0, 0, 1, -1, 1, -1, 0, 1, 0, -1, 1, 1, -2], ctildes: [4.706233154317195, -3.327809394740325, 1.9213117871133536, -3.327809394740325, 3.842623574226707, -3.327809394740325, 1.9213117871133536, -3.327809394740325, 4.706233154317195]}
    - {mu0: 0, rank: 3, ndensity: 1, num_ms_combs: 9, mus: [0, 1, 1], ns: [2, 1, 2], ls: [1, 1, 2], ms_combs: [-1, -1, 2, -1, 0, 1, -1, 1, 0, 0, -1, 1, 0, 0, 0, 0, 1, -1, 1, -1, 0, 1, 0, -1, 1, 1, -2], ctildes: [-25.546308687090047, 18.063968201798282, -10.429237648950162, 18.063968201798282, -20.858475297900323, 18.063968201798282, -10.429237648950162, 18.063968201798282, -25.546308687090047]}
    - {mu0: 0, rank: 3, ndensity: 1, num_ms_combs: 9, mus: [0, 0, 0], ns: [2, 2, 1], ls: [1, 1, 2], ms_combs: [-1, -1, 2, -1, 0, 1, -1, 1, 0, 0, -1, 1, 0, 0, 0, 0, 1, -1, 1, -1, 0, 1, 0, -1, 1, 1, -2], ctildes: [7.607470064571189e-05, -5.379293698584042e-05, 3.1057368867848244e-05, -5.379293698584042e-05, 6.211473773569649e-05, -5.379293698584042e-05, 3.1057368867848244e-05, -5.379293698584042e-05, 7.607470064571189e-05]}
    - {mu0: 0, rank: 3, ndensity: 1, num_ms_combs: 9, mus: [0, 0, 1], ns: [2, 2, 1], ls: [1, 1, 2], ms_combs: [-1, -1, 2, -1, 0, 1, -1, 1, 0, 0, -1, 1, 0, 0, 0, 0, 1, -1, 1, -1, 0, 1, 0, -1, 1, 1, -2], ctildes: [0.46992935859735674, -0.3322902378880267, 0.1918478719983252, -0.3322902378880267, 0.3836957439966504, -0.3322902378880267, 0.1918478719983252, -0.3322902378880267, 0.46992935859735674]}
    - {mu0: 0, rank: 3, ndensity: 1, num_ms_combs: 9, mus: [0, 1, 1], ns: [2, 2, 1], ls: [1, 1, 2], ms_combs: [-1, -1, 2, -1, 0, 1, -1, 1, 0, 0, -1, 1, 0, 0, 0, 0, 1, -1, 1, -1, 0, 1, 0, -1, 1, 1, -2], ctildes: [-6.554167453747418, 4.634496275917377, -2.675727863598936, 4.634496275917377, -5.351455727197872, 4.634496275917377, -2.675727863598936, 4.634496275917377, -6.554167453747418]}
    - {mu0: 0, rank: 3, ndensity: 1, num_ms_combs: 9, mus: [1, 1, 1], ns: [2, 2, 1], ls: [1, 1, 2], ms_combs: [-1, -1, 2, -1, 0, 1, -1, 1, 0, 0, -1, 1, 0, 0, 0, 0, 1, -1, 1, -1, 0, 1, 0, -1, 1, 1, -2], ctildes: [12.650687840753406, -8.94538720585218, 5.164622080237232, -8.94538720585218, 10.329244160474463, -8.94538720585218, 5.164622080237232, -8.94538720585218, 12.650687840753406]}
    - {mu0: 0, rank: 3, ndensity: 1, num_ms_combs: 9, mus: [0, 0, 0], ns: [2, 2, 2], ls: [1, 1, 2], ms_combs: [-1, -1, 2, -1, 0, 1, -1, 1, 0, 0, -1, 1, 0, 0, 0, 0, 1, -1, 1, -1, 0, 1, 0, -1, 1, 1, -2], ctildes: [-7.338492155194662, 5.1890975938756085, -2.995927106688367, 5.1890975938756085, -5.991854213376734, 5.1890975938756085, -2.995927106688367, 5.1890975938756085, -7.338492155194662]}
    - {mu0: 0, rank: 3, ndensity: 1, num_ms_combs: 9, mus: [0, 0, 1], ns: [2, 2, 2], ls: [1, 1, 2], ms_combs: [-1, -1, 2, -1, 0, 1, -1, 1, 0, 0, -1, 1, 0, 0, 0, 0, 1, -1, 1, -1, 0, 1, 0, -1, 1, 1, -2], ctildes: [-22.6948160281364, 16.047658395558827, -9.265120556389817, 16.047658395558827, -18.530241112779635, 16.047658395558827, -9.265120556389817, 16.047658395558827, -22.6948160281364]}
    - {mu0: 0, rank: 3, ndensity: 1, num_ms_combs: 9, mus: [0, 1, 1], ns: [2, 2, 2], ls: [1, 1, 2], ms_combs: [-1, -1, 2, -1, 0, 1, -1, 1, 0, 0, -1, 1, 0, 0, 0, 0, 1, -1, 1, -1, 0, 1, 0, -1, 1, 1, -2], ctildes: [80.62422072894661, -57.00993350473578, 32.914702806692596, -57.00993350473578, 65.82940561338519, -57.00993350473578, 32.914702806692596, -57.00993350473578, 80.62422072894661]}
    - {mu0: 0, rank: 3, ndensity: 1, num_ms_combs: 9, mus: [1, 1, 1], ns: [2, 2, 2], ls: [1, 1, 2], ms_combs: [-1, -1, 2, -1, 0, 1, -1, 1, 0, 0, -1, 1, 0, 0, 0, 0, 1, -1, 1, -1, 0, 1, 0, -1, 1, 1, -2], ctildes: [-63.056292009306986, 44.587531910434144, -25.74262538990597, 44.587531910434144, -51.48525077981194, 44.587531910434144, -25.74262538990597, 44.587531910434144, -63.056292009306986]}
    - {mu0: 0, rank: 3, ndensity: 1, num_ms_combs: 9, mus: [0, 0, 1], ns: [1, 1, 1], ls: [1, 2, 1], ms_combs: [-1, 0, 1, -1, 1, 0, -1, 2, -1, 0, -1, 1, 0, 0, 0, 0, 1, -1, 1, -2, 1, 1, -1, 0, 1, 0, -1], ctildes: [-2.0711875968848173e-05, 3.587402186339185e-05, -5.07335313705081e-05, 3.587402186339185e-05, -4.1423751937696346e-05, 3.587402186339185e-05, -5.07335313705081e-05, 3.587402186339185e-05, -2.0711875968848173e-05]}
    - {mu0: 0, rank: 3, ndensity: 1, num_ms_combs: 9, mus: [0, 0, 1], ns: [1, 1, 2], ls: [1, 2, 1], ms_combs: [-1, 0, 1, -1, 1, 0, -1, 2, -1, 0, -1, 1, 0, 0, 0, 0, 1, -1, 1, -2, 1, 1, -1, 0, 1, 0, -1], ctildes: [-4.687638341371973e-05, 8.119227857437001e-05, -0.00011482322856861776, 8.119227857437001e-05, -9.375276682743946e-05, 8.119227857437001e-05, -0.00011482322856861776, 8.119227857437001e-05, -4.687638341371973e-05]}
    - {mu0: 0, rank: 3, ndensity: 1, num_ms_combs: 9, mus: [0, 0, 1], ns: [1, 2, 1], ls: [1, 2, 1], ms_combs: [-1, 0, 1, -1, 1, 0, -1, 2, -1, 0, -1, 1, 0, 0, 0, 0, 1, -1, 1, -2, 1, 1, -1, 0, 1, 0, -1], ctildes: [-4.609289868862699e-05, 7.983524320973745e-05, -0.00011290409063352243, 7.983524320973745e-05, -9.218579737725399e-05, 7.983524320973745e-05, -0.00011290409063352243, 7.983524320973745e-05, -4.609289868862699e-05]}
    - {mu0: 0, rank: 3, ndensity: 1, num_ms_combs: 9, mus: [0, 0, 1], ns: [1, 2, 2], ls: [1, 2, 1], ms_combs: [-1, 0, 1, -1, 1, 0, -1, 2, -1, 0, -1, 1, 0, 0, 0, 0, 1, -1, 1, -2, 1, 1, -1, 0, 1, 0, -1], ctildes: [-0.000104608296705352, 0.00018118688663181848, -0.0002562369681287511, 0.00018118688663181848, -0.000209216593410704, 0.00018118688663181848, -0.0002562369681287511, 0.00018118688663181848, -0.000104608296705352]}
    - {mu0: 0, rank: 3, ndensity: 1, num_ms_combs: 9, mus: [0, 0, 1], ns: [2, 1, 1], ls: [1, 2, 1], ms_combs: [-1, 0, 1, -1, 1, 0, -1, 2, -1, 0, -1, 1, 0, 0, 0, 0, 1, -1, 1, -2, 1, 1, -1, 0, 1, 0, -1], ctildes: [7.159051541486402e-05, -0.00012399841130118297, 0.00017536024573986634, -0.00012399841130118297, 0.00014318103082972805, -0.00012399841130118297, 0.00017536024573986634, -0.00012399841130118297, 7.159051541486402e-05]}
    - {mu0: 0, rank: 3, ndensity: 1, num_ms_combs: 9, mus: [0, 0, 1], ns: [2, 1, 2], ls: [1, 2, 1], ms_combs: [-1, 0, 1, -1, 1, 0, -1, 2, -1, 0, -1, 1, 0, 0, 0, 0, 1, -1, 1, -2, 1, 1, -1, 0, 1, 0, -1], ctildes: [-6.427576688685758e-05, 0.00011132889507708067, -0.00015744284296712122, 0.00011132889507708067, -0.00012855153377371517, 0.00011132889507708067, -0.00015744284296712122, 0.00011132889507708067, -6.427576688685758e-05]}
    - {mu0: 0, rank: 3, ndensity: 1, num_ms_combs: 9, mus: [0, 0, 1], ns: [2, 2, 1], ls: [1, 2, 1], ms_combs: [-1, 0, 1, -1, 1, 0, -1, 2, -1, 0, -1, 1, 0, 0, 0, 0, 1, -1, 1, -2, 1, 1, -1, 0, 1, 0, -1], ctildes: [-5.4951660596688844e-05, 9.517906908289265e-05, -0.0001346035386141156, 9.517906908289265e-05, -0.00010990332119337769, 9.517906908289265e-05, -0.0001346035386141156, 9.517906908289265e-05, -5.4951660596688844e-05]}
    - {mu0: 0, rank: 3, ndensity: 1, num_ms_combs: 9, mus: [0, 0, 1], ns: [2, 2, 2], ls: [1, 2, 1], ms_combs: [-1, 0, 1, -1, 1, 0, -1, 2, -1, 0, -1, 1, 0, 0, 0, 0, 1, -1, 1, -2, 1, 1, -1, 0, 1, 0, -1], ctildes: [-0.0003157180196239679, 0.0005468396564218546, -0.0007733481060295298, 0.0005468396564218546, -0.0006314360392479358, 0.0005468396564218546, -0.0007733481060295298, 0.0005468396564218546, -0.0003157180196239679]}
    - {mu0: 0, rank: 3, ndensity: 1, num_ms_combs: 9, mus: [0, 1, 1], ns: [1, 1, 1], ls: [2, 1, 1], ms_combs: [-2, 1, 1, -1, 0, 1, -1, 1, 0, 0, -1, 1, 0, 0, 0, 0, 1, -1, 1, -1, 0, 1, 0, -1, 2, -1, -1], ctildes: [-0.2910628908260515, 0.20581253122043874, 0.20581253122043874, -0.11882591909279111, -0.23765183818558222, -0.11882591909279111, 0.20581253122043874, 0.20581253122043874, -0.2910628908260515]}
    - {mu0: 0, rank: 3, ndensity: 1, num_ms_combs: 9, mus: [0, 1, 1], ns: [1, 1, 2], ls: [2, 1, 1], ms_combs: [-2, 1, 1, -1, 0, 1, -1, 1, 0, 0, -1, 1, 0, 0, 0, 0, 1, -1, 1, -1, 0, 1, 0, -1, 2, -1, -1], ctildes: [-0.0010229640362772086, 0.0007233447625568791, 0.0007233447625568791, -0.0004176232891267323, -0.0008352465782534646, -0.0004176232891267323, 0.0007233447625568791, 0.0007233447625568791, -0.0010229640362772086]}
    - {mu0: 0, rank: 3, ndensity: 1, num_ms_combs: 9, mus: [0, 1, 1], ns: [1, 2, 2], ls: [2, 1, 1], ms_combs: [-2, 1, 1, -1, 0, 1, -1, 1, 0, 0, -1, 1, 0, 0, 0, 0, 1, -1, 1, -1, 0, 1, 0, -1, 2, -1, -1], ctildes: [4.819650459289959, -3.4080073135019964, -3.4080073135019964, 1.9676139198156515, 3.935227839631303, 1.9676139198156515, -3.4080073135019964, -3.4080073135019964, 4.819650459289959]}
    - {mu0: 0, rank: 3, ndensity: 1, num_ms_combs: 9, mus: [0, 1, 1], ns: [2, 1, 1], ls: [2, 1, 1], ms_combs: [-2, 1, 1, -1, 0, 1, -1, 1, 0, 0, -1, 1, 0, 0, 0, 0, 1, -1, 1, -1, 0, 1, 0, -1, 2, -1, -1], ctildes: [1.9515863037616847, -1.3799798247464594, -1.3799798247464594, 0.7967317151810174, 1.5934634303620347, 0.7967317151810174, -1.3799798247464594, -1.3799798247464594, 1.9515863037616847]}
    - {mu0: 0, rank: 3, ndensity: 1, num_ms_combs: 9, mus: [0, 1, 1], ns: [2, 1, 2], ls: [2, 1, 1], ms_combs: [-2, 1, 1, -1, 0, 1, -1, 1, 0, 0, -1, 1, 0, 0, 0, 0, 1, -1, 1, -1, 0, 1, 0, -1, 2, -1, -1], ctildes: [-3.134462133797749e-05, 2.2163992941204984e-05, 2.2163992941204984e-05, -1.2796387160624331e-05, -2.5592774321248662e-05, -1.2796387160624331e-05, 2.2163992941204984e-05, 2.2163992941204984e-05, -3.134462133797749e-05]}
    - {mu0: 0, rank: 3, ndensity: 1, num_ms_combs: 9, mus: [0, 1, 1], ns: [2, 2, 2], ls: [2, 1, 1], ms_combs: [-2, 1, 1, -1, 0, 1, -1, 1, 0, 0, -1, 1, 0, 0, 0, 0, 1, -1, 1, -1, 0, 1, 0, -1, 2, -1, -1], ctildes: [-6.733022853468419, 4.760965825305293, 4.760965825305293, -2.748744872853929, -5.497489745707858, -2.748744872853929, 4.760965825305293, 4.760965825305293, -6.733022853468419]}
    - {mu0: 0, rank: 3, ndensity: 1, num_ms_combs: 19, mus: [0, 0, 0], ns: [1, 1, 1], ls: [2, 2, 2], ms_combs: [-2, 0, 2, -2, 1, 1, -2, 2, 0, -1, -1, 2, -1, 0, 1, -1, 1, 0, -1, 2, -1, 0, -2, 2, 0, -1, 1, 0, 0, 0, 0, 1, -1, 0, 2, -2, 1, -2, 1, 1, -1, 0, 1, 0, -1, 1, 1, -2, 2, -2, 0, 2, -1, -1, 2, 0, -2], ctildes: [0.0, -0.0, 0.0, -0.0, 0.0, 0.0, -0.0, 0.0, 0.0, -0.0, 0.0, 0.0, -0.0, 0.0, 0.0, -0.0, 0.0, -0.0, 0.0]}
    - {mu0: 0, rank: 3, ndensity: 1, num_ms_combs: 19, mus: [0, 0, 1], ns: [1, 1, 1], ls: [2, 2, 2], ms_combs: [-2, 0, 2, -2, 1, 1, -2, 2, 0, -1, -1, 2, -1, 0, 1, -1, 1, 0, -1, 2, -1, 0, -2, 2, 0, -1, 1, 0, 0, 0, 0, 1, -1, 0, 2, -2, 1, -2, 1, 1, -1, 0, 1, 0, -1, 1, 1, -2, 2, -2, 0, 2, -1, -1, 2, 0, -2], ctildes: [-0.09419776844562702, 0.11536823509408675, -0.09419776844562702, 0.11536823509408675, -0.04709888422281351, -0.04709888422281351, 0.11536823509408675, -0.09419776844562702, -0.04709888422281351, 0.09419776844562702, -0.04709888422281351, -0.09419776844562702, 0.11536823509408675, -0.04709888422281351, -0.04709888422281351, 0.11536823509408675, -0.09419776844562702, 0.11536823509408675, -0.09419776844562702]}
    - {mu0: 0, rank: 3, ndensity: 1, num_ms_combs: 19, mus: [0, 1, 1], ns: [1, 1, 1], ls: [2, 2, 2], ms_combs: [-2, 0, 2, -2, 1, 1, -2, 2, 0, -1, -1, 2, -1, 0, 1, -1, 1, 0, -1, 2, -1, 0, -2, 2, 0, -1, 1, 0, 0, 0, 0, 1, -1, 0, 2, -2, 1, -2, 1, 1, -1, 0, 1, 0, -1, 1, 1, -2, 2, -2, 0, 2, -1, -1, 2, 0, -2], ctildes: [-0.06406615374629157, 0.0784646941104813, -0.06406615374629157, 0.0784646941104813, -0.032033076873145785, -0.032033076873145785, 0.0784646941104813, -0.06406615374629157, -0.032033076873145785, 0.06406615374629157, -0.032033076873145785, -0.06406615374629157, 0.0784646941104813, -0.032033076873145785, -0.032033076873145785, 0.0784646941104813, -0.06406615374629157, 0.0784646941104813, -0.06406615374629157]}
    - {mu0: 0, rank: 3, ndensity: 1, num_ms_combs: 19, mus: [1, 1, 1], ns: [1, 1, 1], ls: [2, 2, 2], ms_combs: [-2, 0, 2, -2, 1, 1, -2, 2, 0, -1, -1, 2, -1, 0, 1, -1, 1, 0, -1, 2, -1, 0, -2, 2, 0, -1, 1, 0, 0, 0, 0, 1, -1, 0, 2, -2, 1, -2, 1, 1, -1, 0, 1, 0, -1, 1, 1, -2, 2, -2, 0, 2, -1, -1, 2, 0, -2], ctildes: [0.00017426388269758242, -0.00021342879899610153, 0.00017426388269758242, -0.00021342879899610153, 8.713194134879121e-05, 8.713194134879121e-05, -0.00021342879899610153, 0.00017426388269758242, 8.713194134879121e-05, -0.00017426388269758242, 8.713194134879121e-05, 0.00017426388269758242, -0.00021342879899610153, 8.713194134879121e-05, 8.713194134879121e-05, -0.00021342879899610153, 0.00017426388269758242, -0.00021342879899610153, 0.00017426388269758242]}
    - {mu0: 0, rank: 3, ndensity: 1, num_ms_combs: 19, mus: [0, 0, 0], ns: [1, 1, 2], ls: [2, 2, 2], ms_combs: [-2, 0, 2, -2, 1, 1, -2, 2, 0, -1, -1, 2, -1, 0, 1, -1, 1, 0, -1, 2, -1, 0, -2, 2, 0, -1, 1, 0, 0, 0, 0, 1, -1, 0, 2, -2, 1, -2, 1, 1, -1, 0, 1, 0, -1, 1, 1, -2, 2, -2, 0, 2, -1, -1, 2, 0, -2], ctildes: [8.099130280780006e-05, -9.919368385356286e-05, 8.099130280780006e-05, -9.919368385356286e-05, 4.049565140390003e-05, 4.049565140390003e-05, -9.919368385356286e-05, 8.099130280780006e-05, 4.049565140390003e-05, -8.099130280780006e-05, 4.049565140390003e-05, 8.099130280780006e-05, -9.919368385356286e-05, 4.049565140390003e-05, 4.049565140390003e-05, -9.919368385356286e-05, 8.099130280780006e-05, -9.919368385356286e-05, 8.099130280780006e-05]}
    - {mu0: 0, rank: 3, ndensity: 1, num_ms_combs: 19, mus: [0, 0, 1], ns: [1, 1, 2], ls: [2, 2, 2], ms_combs: [-2, 0, 2, -2, 1, 1, -2, 2, 0, -1, -1, 2, -1, 0, 1, -1, 1, 0, -1, 2, -1, 0, -2, 2, 0, -1, 1, 0, 0, 0, 0, 1, -1, 0, 2, -2, 1, -2, 1, 1, -1, 0, 1, 0, -1, 1, 1, -2, 2, -2, 0, 2, -1, -1, 2, 0, -2], ctildes: [2.452419501477134e-05, -3.003588240617941e-05, 2.452419501477134e-05, -3.003588240617941e-05, 1.226209750738567e-05, 1.226209750738567e-05, -3.003588240617941e-05, 2.452419501477134e-05, 1.226209750738567e-05, -2.452419501477134e-05, 1.226209750738567e-05, 2.452419501477134e-05, -3.003588240617941e-05, 1.226209750738567e-05, 1.226209750738567e-05, -3.003588240617941e-05, 2.452419501477134e-05, -3.003588240617941e-05, 2.452419501477134e-05]}
    - {mu0: 0, rank: 3, ndensity: 1, num_ms_combs: 19, mus: [0, 1, 1], ns: [1, 1, 2], ls: [2, 2, 2], ms_combs: [-2, 0, 2, -2, 1, 1, -2, 2, 0, -1, -1, 2, -1, 0, 1, -1, 1, 0, -1, 2, -1, 0, -2, 2, 0, -1, 1, 0, 0, 0, 0, 1, -1, 0, 2, -2, 1, -2, 1, 1, -1, 0, 1, 0, -1, 1, 1, -2, 2, -2, 0, 2, -1, -1, 2, 0, -2], ctildes: [-0.00010838816572219434, 0.00013274785157647178, -0.00010838816572219434, 0.00013274785157647178, -5.419408286109717e-05, -5.419408286109717e-05, 0.00013274785157647178, -0.00010838816572219434, -5.419408286109717e-05, 0.00010838816572219434, -5.419408286109717e-05, -0.00010838816572219434, 0.00013274785157647178, -5.419408286109717e-05, -5.419408286109717e-05, 0.00013274785157647178, -0.00010838816572219434, 0.00013274785157647178, -0.00010838816572219434]}
    - {mu0: 0, rank: 3, ndensity: 1, num_ms_combs: 19, mus: [1, 1, 1], ns: [1, 1, 2], ls: [2, 2, 2], ms_combs: [-2, 0, 2, -2, 1, 1, -2, 2, 0, -1, -1, 2, -1, 0, 1, -1, 1, 0, -1, 2, -1, 0, -2, 2, 0, -1, 1, 0, 0, 0, 0, 1, -1, 0, 2, -2, 1, -2, 1, 1, -1, 0, 1, 0, -1, 1, 1, -2, 2, -2, 0, 2, -1, -1, 2, 0, -2], ctildes: [0.00015251579053309996, -0.00018679293435639778, 0.00015251579053309996, -0.00018679293435639778, 7.625789526654998e-05, 7.625789526654998e-05, -0.00018679293435639778, 0.00015251579053309996, 7.625789526654998e-05, -0.00015251579053309996, 7.625789526654998e-05, 0.00015251579053309996, -0.00018679293435639778, 7.625789526654998e-05, 7.625789526654998e-05, -0.00018679293435639778, 0.00015251579053309996, -0.00018679293435639778, 0.00015251579053309996]}
    - {mu0: 0, rank: 3, ndensity: 1, num_ms_combs: 19, mus: [0, 0, 1], ns: [1, 2, 1], ls: [2, 2, 2], ms_combs: [-2, 0, 2, -2, 1, 1, -2, 2, 0, -1, -1, 2, -1, 0, 1, -1, 1, 0, -1, 2, -1, 0, -2, 2, 0, -1, 1, 0, 0, 0, 0, 1, -1, 0, 2, -2, 1, -2, 1, 1, -1, 0, 1, 0, -1, 1, 1, -2, 2, -2, 0, 2, -1, -1, 2, 0, -2], ctildes: [-0.00044834742907409996, 0.0005491112205179995, -0.00044834742907409996, 0.0005491112205179995, -0.00022417371453704998, -0.00022417371453704998, 0.0005491112205179995, -0.00044834742907409996, -0.00022417371453704998, 0.00044834742907409996, -0.00022417371453704998, -0.00044834742907409996, 0.0005491112205179995, -0.00022417371453704998, -0.00022417371453704998, 0.0005491112205179995, -0.00044834742907409996, 0.0005491112205179995, -0.00044834742907409996]}
    - {mu0: 0, rank: 3, ndensity: 1, num_ms_combs: 19, mus: [0, 0, 0], ns: [1, 2, 2], ls: [2, 2, 2], ms_combs: [-2, 0, 2, -2, 1, 1, -2, 2, 0, -1, -1, 2, -1, 0, 1, -1, 1, 0, -1, 2, -1, 0, -2, 2, 0, -1, 1, 0, 0, 0, 0, 1, -1, 0, 2, -2, 1, -2, 1, 1, -1, 0, 1, 0, -1, 1, 1, -2, 2, -2, 0, 2, -1, -1, 2, 0, -2], ctildes: [4.0130751459970506e-05, -4.9149932586870893e-05, 4.0130751459970506e-05, -4.9149932586870893e-05, 2.0065375729985253e-05, 2.0065375729985253e-05, -4.9149932586870893e-05, 4.0130751459970506e-05, 2.0065375729985253e-05, -4.0130751459970506e-05, 2.0065375729985253e-05, 4.0130751459970506e-05, -4.9149932586870893e-05, 2.0065375729985253e-05, 2.0065375729985253e-05, -4.9149932586870893e-05, 4.0130751459970506e-05, -4.9149932586870893e-05, 4.0130751459970506e-05]}
    - {mu0: 0, rank: 3, ndensity: 1, num_ms_combs: 19, mus: [0, 0, 1], ns: [1, 2, 2], ls: [2, 2, 2], ms_combs: [-2, 0, 2, -2, 1, 1, -2, 2, 0, -1, -1, 2, -1, 0, 1, -1, 1, 0, -1, 2, -1, 0, -2, 2, 0, -1, 1, 0, 0, 0, 0, 1, -1, 0, 2, -2, 1, -2, 1, 1, -1, 0, 1, 0, -1, 1, 1, -2, 2, -2, 0, 2, -1, -1, 2, 0, -2], ctildes: [3.721082192235955, -4.5573763820752875, 3.721082192235955, -4.5573763820752875, 1.8605410961179776, 1.8605410961179776, -4.5573763820752875, 3.721082192235955, 1.8605410961179776, -3.721082192235955, 1.8605410961179776, 3.721082192235955, -4.5573763820752875, 1.8605410961179776, 1.8605410961179776, -4.5573763820752875, 3.721082192235955, -4.5573763820752875, 3.721082192235955]}
    - {mu0: 0, rank: 3, ndensity: 1, num_ms_combs: 19, mus: [0, 1, 1], ns: [1, 2, 2], ls: [2, 2, 2], ms_combs: [-2, 0, 2, -2, 1, 1, -2, 2, 0, -1, -1, 2, -1, 0, 1, -1, 1, 0, -1, 2, -1, 0, -2, 2, 0, -1, 1, 0, 0, 0, 0, 1, -1, 0, 2, -2, 1, -2, 1, 1, -1, 0, 1, 0, -1, 1, 1, -2, 2, -2, 0, 2, -1, -1, 2, 0, -2], ctildes: [-0.003729890418589421, 0.0045681642122487294, -0.003729890418589421, 0.0045681642122487294, -0.0018649452092947105, -0.0018649452092947105, 0.0045681642122487294, -0.003729890418589421, -0.0018649452092947105, 0.003729890418589421, -0.0018649452092947105, -0.003729890418589421, 0.0045681642122487294, -0.0018649452092947105, -0.0018649452092947105, 0.0045681642122487294, -0.003729890418589421, 0.0045681642122487294, -0.003729890418589421]}
    - {mu0: 0, rank: 3, ndensity: 1, num_ms_combs: 19, mus: [1, 1, 1], ns: [1, 2, 2], ls: [2, 2, 2], ms_combs: [-2, 0, 2, -2, 1, 1, -2, 2, 0, -1, -1, 2, -1, 0, 1, -1, 1, 0, -1, 2, -1, 0, -2, 2, 0, -1, 1, 0, 0, 0, 0, 1, -1, 0, 2, -2, 1, -2, 1, 1, -1, 0, 1, 0, -1, 1, 1, -2, 2, -2, 0, 2, -1, -1, 2, 0, -2], ctildes: [-0.8947711255801966, 1.095866359412986, -0.8947711255801966, 1.095866359412986, -0.4473855627900983, -0.4473855627900983, 1.095866359412986, -0.8947711255801966, -0.4473855627900983, 0.8947711255801966, -0.4473855627900983, -0.8947711255801966, 1.095866359412986, -0.4473855627900983, -0.4473855627900983, 1.095866359412986, -0.8947711255801966, 1.095866359412986, -0.8947711255801966]}
    - {mu0: 0, rank: 3, ndensity: 1, num_ms_combs: 19, mus: [0, 1, 1], ns: [2, 1, 1], ls: [2, 2, 2], ms_combs: [-2, 0, 2, -2, 1, 1, -2, 2, 0, -1, -1, 2, -1, 0, 1, -1, 1, 0, -1, 2, -1, 0, -2, 2, 0, -1, 1, 0, 0, 0, 0, 1, -1, 0, 2, -2, 1, -2, 1, 1, -1, 0, 1, 0, -1, 1, 1, -2, 2, -2, 0, 2, -1, -1, 2, 0, -2], ctildes: [6.644577374150861e-05, -8.137912152816747e-05, 6.644577374150861e-05, -8.137912152816747e-05, 3.3222886870754307e-05, 3.3222886870754307e-05, -8.137912152816747e-05, 6.644577374150861e-05, 3.3222886870754307e-05, -6.644577374150861e-05, 3.3222886870754307e-05, 6.644577374150861e-05, -8.137912152816747e-05, 3.3222886870754307e-05, 3.3222886870754307e-05, -8.137912152816747e-05, 6.644577374150861e-05, -8.137912152816747e-05, 6.644577374150861e-05]}
    - {mu0: 0, rank: 3, ndensity: 1, num_ms_combs: 19, mus: [0, 1, 1], ns: [2, 1, 2], ls: [2, 2, 2], ms_combs: [-2, 0, 2, -2, 1, 1, -2, 2, 0, -1, -1, 2, -1, 0, 1, -1, 1, 0, -1, 2, -1, 0, -2, 2, 0, -1, 1, 0, 0, 0, 0, 1, -1, 0, 2, -2, 1, -2, 1, 1, -1, 0, 1, 0, -1, 1, 1, -2, 2, -2, 0, 2, -1, -1, 2, 0, -2], ctildes: [0.08284146259000202, -0.10145965758348097, 0.08284146259000202, -0.10145965758348097, 0.04142073129500101, 0.04142073129500101, -0.10145965758348097, 0.08284146259000202, 0.04142073129500101, -0.08284146259000202, 0.04142073129500101, 0.08284146259000202, -0.10145965758348097, 0.04142073129500101, 0.04142073129500101, -0.10145965758348097, 0.08284146259000202, -0.10145965758348097, 0.08284146259000202]}
    - {mu0: 0, rank: 3, ndensity: 1, num_ms_combs: 19, mus: [0, 0, 1], ns: [2, 2, 1], ls: [2, 2, 2], ms_combs: [-2, 0, 2, -2, 1, 1, -2, 2, 0, -1, -1, 2, -1, 0, 1, -1, 1, 0, -1, 2, -1, 0, -2, 2, 0, -1, 1, 0, 0, 0, 0, 1, -1, 0, 2, -2, 1, -2, 1, 1, -1, 0, 1, 0, -1, 1, 1, -2, 2, -2, 0, 2, -1, -1, 2, 0, -2], ctildes: [1.268027656668478, -1.5530103867033187, 1.268027656668478, -1.5530103867033187, 0.634013828334239, 0.634013828334239, -1.5530103867033187, 1.268027656668478, 0.634013828334239, -1.268027656668478, 0.634013828334239, 1.268027656668478, -1.5530103867033187, 0.634013828334239, 0.634013828334239, -1.5530103867033187, 1.268027656668478, -1.5530103867033187, 1.268027656668478]}
    - {mu0: 0, rank: 3, ndensity: 1, num_ms_combs: 19, mus: [0, 0, 0], ns: [2, 2, 2], ls: [2, 2, 2], ms_combs: [-2, 0, 2, -2, 1, 1, -2, 2, 0, -1, -1, 2, -1, 0, 1, -1, 1, 0, -1, 2, -1, 0, -2, 2, 0, -1, 1, 0, 0, 0, 0, 1, -1, 0, 2, -2, 1, -2, 1, 1, -1, 0, 1, 0, -1, 1, 1, -2, 2, -2, 0, 2, -1, -1, 2, 0, -2], ctildes: [-3.934983804946936e-05, 4.819351288163314e-05, -3.934983804946936e-05, 4.819351288163314e-05, -1.967491902473468e-05, -1.967491902473468e-05, 4.819351288163314e-05, -3.934983804946936e-05, -1.967491902473468e-05, 3.934983804946936e-05, -1.967491902473468e-05, -3.934983804946936e-05, 4.819351288163314e-05, -1.967491902473468e-05, -1.967491902473468e-05, 4.819351288163314e-05, -3.934983804946936e-05, 4.819351288163314e-05, -3.934983804946936e-05]}
    - {mu0: 0, rank: 3, ndensity: 1, num_ms_combs: 19, mus: [0, 0, 1], ns: [2, 2, 2], ls: [2, 2, 2], ms_combs: [-2, 0, 2, -2, 1, 1, -2, 2, 0, -1, -1, 2, -1, 0, 1, -1, 1, 0, -1, 2, -1, 0, -2, 2, 0, -1, 1, 0, 0, 0, 0, 1, -1, 0, 2, -2, 1, -2, 1, 1, -1, 0, 1, 0, -1, 1, 1, -2, 2, -2, 0, 2, -1, -1, 2, 0, -2], ctildes: [-22.1300730133781, 27.103693730604864, -22.1300730133781, 27.103693730604864, -11.06503650668905, -11.06503650668905, 27.103693730604864, -22.1300730133781, -11.06503650668905, 22.1300730133781, -11.06503650668905, -22.1300730133781, 27.103693730604864, -11.06503650668905, -11.06503650668905, 27.103693730604864, -22.1300730133781, 27.103693730604864, -22.1300730133781]}
    - {mu0: 0, rank: 3, ndensity: 1, num_ms_combs: 19, mus: [0, 1, 1], ns: [2, 2, 2], ls: [2, 2, 2], ms_combs: [-2, 0, 2, -2, 1, 1, -2, 2, 0, -1, -1, 2, -1, 0, 1, -1, 1, 0, -1, 2, -1, 0, -2, 2, 0, -1, 1, 0, 0, 0, 0, 1, -1, 0, 2, -2, 1, -2, 1, 1, -1, 0, 1, 0, -1, 1, 1, -2, 2, -2, 0, 2, -1, -1, 2, 0, -2], ctildes: [9.643318631898287, -11.81060517005991, 9.643318631898287, -11.81060517005991, 4.821659315949144, 4.821659315949144, -11.81060517005991, 9.643318631898287, 4.821659315949144, -9.643318631898287, 4.821659315949144, 9.643318631898287, -11.81060517005991, 4.821659315949144, 4.821659315949144, -11.81060517005991, 9.643318631898287, -11.81060517005991, 9.643318631898287]}
    - {mu0: 0, rank: 3, ndensity: 1, num_ms_combs: 19, mus: [1, 1, 1], ns: [2, 2, 2], ls: [2, 2, 2], ms_combs: [-2, 0, 2, -2, 1, 1, -2, 2, 0, -1, -1, 2, -1, 0, 1, -1, 1, 0, -1, 2, -1, 0, -2, 2, 0, -1, 1, 0, 0, 0, 0, 1, -1, 0, 2, -2, 1, -2, 1, 1, -1, 0, 1, 0, -1, 1, 1, -2, 2, -2, 0, 2, -1, -1, 2, 0, -2], ctildes: [2.9711310992830772e-05, -3.6388776168864245e-05, 2.9711310992830772e-05, -3.6388776168864245e-05, 1.4855655496415386e-05, 1.4855655496415386e-05, -3.6388776168864245e-05, 2.9711310992830772e-05, 1.4855655496415386e-05, -2.9711310992830772e-05, 1.4855655496415386e-05, 2.9711310992830772e-05, -3.6388776168864245e-05, 1.4855655496415386e-05, 1.4855655496415386e-05, -3.6388776168864245e-05, 2.9711310992830772e-05, -3.6388776168864245e-05, 2.9711310992830772e-05]}
    - {mu0: 0, rank: 4, ndensity: 1, num_ms_combs: 19, mus: [0, 0, 0, 0], ns: [1, 1, 1, 1], ls: [1, 1, 1, 1], ms_combs: [-1, -1, 1, 1, -1, 0, 0, 1, -1, 0, 1, 0, -1, 1, -1, 1, -1, 1, 0, 0, -1, 1, 1, -1, 0, -1, 0, 1, 0, -1, 1, 0, 0, 0, -1, 1, 0, 0, 0, 0, 0, 0, 1, -1, 0, 1, -1, 0, 0, 1, 0, -1, 1, -1, -1, 1, 1, -1, 0, 0, 1, -1, 1, -1, 1, 0, -1, 0, 1, 0, 0, -1, 1, 1, -1, -1], ctildes: [0.17548141543381005, -0.0877407086385348, -0.0877407086385348, 0.02924690705799739, 0.05849381411599478, 0.02924690705799739, -0.0877407086385348, -0.0877407086385348, 0.05849381411599478, 0.11698762823198956, 0.05849381411599478, -0.0877407086385348, -0.0877407086385348, 0.02924690705799739, 0.05849381411599478, 0.02924690705799739, -0.0877407086385348, -0.0877407086385348, 0.17548141543381005]}
    - {mu0: 0, rank: 4, ndensity: 1, num_ms_combs: 19, mus: [0, 0, 0, 1], ns: [1, 1, 1, 1], ls: [1, 1, 1, 1], ms_combs: [-1, -1, 1, 1, -1, 0, 0, 1, -1, 0, 1, 0, -1, 1, -1, 1, -1, 1, 0, 0, -1, 1, 1, -1, 0, -1, 0, 1, 0, -1, 1, 0, 0, 0, -1, 1, 0, 0, 0, 0, 0, 0, 1, -1, 0, 1, -1, 0, 0, 1, 0, -1, 1, -1, -1, 1, 1, -1, 0, 0, 1, -1, 1, -1, 1, 0, -1, 0, 1, 0, 0, -1, 1, 1, -1, -1], ctildes: [0.0002604304741586425, -0.00013021523844710414, -0.00013021523844710414, 4.3405085683623224e-05, 8.681017136724645e-05, 4.3405085683623224e-05, -0.00013021523844710414, -0.00013021523844710414, 8.681017136724645e-05, 0.0001736203427344929, 8.681017136724645e-05, -0.00013021523844710414, -0.00013021523844710414, 4.3405085683623224e-05, 8.681017136724645e-05, 4.3405085683623224e-05, -0.00013021523844710414, -0.00013021523844710414, 0.0002604304741586425]}
    - {mu0: 0, rank: 4, ndensity: 1, num_ms_combs: 19, mus: [0, 0, 1, 1], ns: [1, 1, 1, 1], ls: [1, 1, 1, 1], ms_combs: [-1, -1, 1, 1, -1, 0, 0, 1, -1, 0, 1, 0, -1, 1, -1, 1, -1, 1, 0, 0, -1, 1, 1, -1, 0, -1, 0, 1, 0, -1, 1, 0, 0, 0, -1, 1, 0, 0, 0, 0, 0, 0, 1, -1, 0, 1, -1, 0, 0, 1, 0, -1, 1, -1, -1, 1, 1, -1, 0, 0, 1, -1, 1, -1, 1, 0, -1, 0, 1, 0, 0, -1, 1, 1, -1, -1], ctildes: [0.5579327236052984, -0.2789663647329163, -0.2789663647329163, 0.09298880152955248, 0.18597760305910496, 0.09298880152955248, -0.2789663647329163, -0.2789663647329163, 0.18597760305910496, 0.3719552061182099, 0.18597760305910496, -0.2789663647329163, -0.2789663647329163, 0.09298880152955248, 0.18597760305910496, 0.09298880152955248, -0.2789663647329163, -0.2789663647329163, 0.5579327236052984]}
    - {mu0: 0, rank: 4, ndensity: 1, num_ms_combs: 19, mus: [0, 1, 1, 1], ns: [1, 1, 1, 1], ls: [1, 1, 1, 1], ms_combs: [-1, -1, 1, 1, -1, 0, 0, 1, -1, 0, 1, 0, -1, 1, -1, 1, -1, 1, 0, 0, -1, 1, 1, -1, 0, -1, 0, 1, 0, -1, 1, 0, 0, 0, -1, 1, 0, 0, 0, 0, 0, 0, 1, -1, 0, 1, -1, 0, 0, 1, 0, -1, 1, -1, -1, 1, 1, -1, 0, 0, 1, -1, 1, -1, 1, 0, -1, 0, 1, 0, 0, -1, 1, 1, -1, -1], ctildes: [9.790474530705699e-05, -4.895237316772498e-05, -4.895237316772498e-05, 1.6317460053839455e-05, 3.263492010767891e-05, 1.6317460053839455e-05, -4.895237316772498e-05, -4.895237316772498e-05, 3.263492010767891e-05, 6.526984021535782e-05, 3.263492010767891e-05, -4.895237316772498e-05, -4.895237316772498e-05, 1.6317460053839455e-05, 3.263492010767891e-05, 1.6317460053839455e-05, -4.895237316772498e-05, -4.895237316772498e-05, 9.790474530705699e-05]}
    - {mu0: 0, rank: 4, ndensity: 1, num_ms_combs: 19, mus: [1, 1, 1, 1], ns: [1, 1, 1, 1], ls: [1, 1, 1, 1], ms_combs: [-1, -1, 1, 1, -1, 0, 0, 1, -1, 0, 1, 0, -1, 1, -1, 1, -1, 1, 0, 0, -1, 1, 1, -1, 0, -1, 0, 1, 0, -1, 1, 0, 0, 0, -1, 1, 0, 0, 0, 0, 0, 0, 1, -1, 0, 1, -1, 0, 0, 1, 0, -1, 1, -1, -1, 1, 1, -1, 0, 0, 1, -1, 1, -1, 1, 0, -1, 0, 1, 0, 0, -1, 1, 1, -1, -1], ctildes: [-5.39881798552682e-05, 2.6994090211180447e-05, 2.6994090211180447e-05, -8.998031355936125e-06, -1.799606271187225e-05, -8.998031355936125e-06, 2.6994090211180447e-05, 2.6994090211180447e-05, -1.799606271187225e-05, -3.59921254237445e-05, -1.799606271187225e-05, 2.6994090211180447e-05, 2.6994090211180447e-05, -8.998031355936125e-06, -1.799606271187225e-05, -8.998031355936125e-06, 2.6994090211180447e-05, 2.6994090211180447e-05, -5.39881798552682e-05]}
  1:
    - {mu0: 1, rank: 1, ndensity: 1, num_ms_combs: 1, mus: [0], ns: [1], ls: [0], ms_combs: [0], ctildes: [11.52857347351811]}
    - {mu0: 1, rank: 1, ndensity: 1, num_ms_combs: 1, mus: [1], ns: [1], ls: [0], ms_combs: [0], ctildes: [0.0009317575155682762]}
    - {mu0: 1, rank: 1, ndensity: 1, num_ms_combs: 1, mus: [0], ns: [2], ls: [0], ms_combs: [0], ctildes: [4787.276614080781]}
    - {mu0: 1, rank: 1, ndensity: 1, num_ms_combs: 1, mus: [1], ns: [2], ls: [0], ms_combs: [0], ctildes: [-3599.367867320922]}
    - {mu0: 1, rank: 1, ndensity: 1, num_ms_combs: 1, mus: [0], ns: [3], ls: [0], ms_combs: [0], ctildes: [4.305591346084976]}
    - {mu0: 1, rank: 1, ndensity: 1, num_ms_combs: 1, mus: [1], ns: [3], ls: [0], ms_combs: [0], ctildes: [-768.4215239362566]}
    - {mu0: 1, rank: 1, ndensity: 1, num_ms_combs: 1, mus: [0], ns: [4], ls: [0], ms_combs: [0], ctildes: [3444.9505518097335]}
    - {mu0: 1, rank: 1, ndensity: 1, num_ms_combs: 1, mus: [1], ns: [4], ls: [0], ms_combs: [0], ctildes: [-1234.1107191369986]}
    - {mu0: 1, rank: 1, ndensity: 1, num_ms_combs: 1, mus: [0], ns: [5], ls: [0], ms_combs: [0], ctildes: [-4834.495925951698]}
    - {mu0: 1, rank: 1, ndensity: 1, num_ms_combs: 1, mus: [1], ns: [5], ls: [0], ms_combs: [0], ctildes: [7105.810420474287]}
    - {mu0: 1, rank: 1, ndensity: 1, num_ms_combs: 1, mus: [0], ns: [6], ls: [0], ms_combs: [0], ctildes: [-2704.4975097386]}
    - {mu0: 1, rank: 1, ndensity: 1, num_ms_combs: 1, mus: [1], ns: [6], ls: [0], ms_combs: [0], ctildes: [-3242.2589390278713]}
    - {mu0: 1, rank: 1, ndensity: 1, num_ms_combs: 1, mus: [0], ns: [7], ls: [0], ms_combs: [0], ctildes: [5289.745761356187]}
    - {mu0: 1, rank: 1, ndensity: 1, num_ms_combs: 1, mus: [1], ns: [7], ls: [0], ms_combs: [0], ctildes: [-3574.7551707367984]}
    - {mu0: 1, rank: 1, ndensity: 1, num_ms_combs: 1, mus: [0], ns: [8], ls: [0], ms_combs: [0], ctildes: [1299.4914463485409]}
    - {mu0: 1, rank: 1, ndensity: 1, num_ms_combs: 1, mus: [1], ns: [8], ls: [0], ms_combs: [0], ctildes: [-214.92667362752232]}
    - {mu0: 1, rank: 1, ndensity: 1, num_ms_combs: 1, mus: [0], ns: [9], ls: [0], ms_combs: [0], ctildes: [-1525.9424692110142]}
    - {mu0: 1, rank: 1, ndensity: 1, num_ms_combs: 1, mus: [1], ns: [9], ls: [0], ms_combs: [0], ctildes: [2069.043254271992]}
    - {mu0: 1, rank: 1, ndensity: 1, num_ms_combs: 1, mus: [0], ns: [10], ls: [0], ms_combs: [0], ctildes: [685.197277892238]}
    - {mu0: 1, rank: 1, ndensity: 1, num_ms_combs: 1, mus: [1], ns: [10], ls: [0], ms_combs: [0], ctildes: [1385.1185860871974]}
    - {mu0: 1, rank: 1, ndensity: 1, num_ms_combs: 1, mus: [0], ns: [11], ls: [0], ms_combs: [0], ctildes: [0.00016646354374397334]}
    - {mu0: 1, rank: 1, ndensity: 1, num_ms_combs: 1, mus: [1], ns: [11], ls: [0], ms_combs: [0], ctildes: [-976.3206334922568]}
    - {mu0: 1, rank: 1, ndensity: 1, num_ms_combs: 1, mus: [0], ns: [12], ls: [0], ms_combs: [0], ctildes: [-0.0012177255005938875]}
    - {mu0: 1, rank: 1, ndensity: 1, num_ms_combs: 1, mus: [1], ns: [12], ls: [0], ms_combs: [0], ctildes: [-0.00014108159204435127]}
    - {mu0: 1, rank: 1, ndensity: 1, num_ms_combs: 1, mus: [0], ns: [13], ls: [0], ms_combs: [0], ctildes: [-96.51139702128366]}
    - {mu0: 1, rank: 1, ndensity: 1, num_ms_combs: 1, mus: [1], ns: [13], ls: [0], ms_combs: [0], ctildes: [0.0003593798071480544]}
    - {mu0: 1, rank: 1, ndensity: 1, num_ms_combs: 1, mus: [0], ns: [14], ls: [0], ms_combs: [0], ctildes: [0.00016422321197330427]}
    - {mu0: 1, rank: 1, ndensity: 1, num_ms_combs: 1, mus: [1], ns: [14], ls: [0], ms_combs: [0], ctildes: [0.0008257543192346721]}
    - {mu0: 1, rank: 1, ndensity: 1, num_ms_combs: 1, mus: [0], ns: [15], ls: [0], ms_combs: [0], ctildes: [43.0294952662553]}
    - {mu0: 1, rank: 1, ndensity: 1, num_ms_combs: 1, mus: [1], ns: [15], ls: [0], ms_combs: [0], ctildes: [0.0013767463726984275]}
    - {mu0: 1, rank: 1, ndensity: 1, num_ms_combs: 1, mus: [0], ns: [16], ls: [0], ms_combs: [0], ctildes: [0.0012492958525272028]}
    - {mu0: 1, rank: 1, ndensity: 1, num_ms_combs: 1, mus: [1], ns: [16], ls: [0], ms_combs: [0], ctildes: [547.2210077990794]}
    - {mu0: 1, rank: 2, ndensity: 1, num_ms_combs: 3, mus: [0, 0], ns: [1, 1], ls: [1, 1], ms_combs: [-1, 1, 0, 0, 1, -1], ctildes: [0.0004550118737951442, -0.0004550118737951442, 0.0004550118737951442]}
    - {mu0: 1, rank: 2, ndensity: 1, num_ms_combs: 3, mus: [0, 1], ns: [1, 1], ls: [1, 1], ms_combs: [-1, 1, 0, 0, 1, -1], ctildes: [0.9857182393464865, -0.9857182393464865, 0.9857182393464865]}
    - {mu0: 1, rank: 2, ndensity: 1, num_ms_combs: 3, mus: [1, 1], ns: [1, 1], ls: [1, 1], ms_combs: [-1, 1, 0, 0, 1, -1], ctildes: [1.0601953773830106, -1.0601953773830106, 1.0601953773830106]}
    - {mu0: 1, rank: 2, ndensity: 1, num_ms_combs: 3, mus: [0, 0], ns: [1, 2], ls: [1, 1], ms_combs: [-1, 1, 0, 0, 1, -1], ctildes: [-2.3586532167786967, 2.3586532167786967, -2.3586532167786967]}
    - {mu0: 1, rank: 2, ndensity: 1, num_ms_combs: 3, mus: [0, 1], ns: [1, 2], ls: [1, 1], ms_combs: [-1, 1, 0, 0, 1, -1], ctildes: [1.4698066323512837, -1.4698066323512837, 1.4698066323512837]}
    - {mu0: 1, rank: 2, ndensity: 1, num_ms_combs: 3, mus: [1, 1], ns: [1, 2], ls: [1, 1], ms_combs: [-1, 1, 0, 0, 1, -1], ctildes: [0.569219430901303, -0.569219430901303, 0.569219430901303]}
    - {mu0: 1, rank: 2, ndensity: 1, num_ms_combs: 3, mus: [0, 1], ns: [2, 1], ls: [1, 1], ms_combs: [-1, 1, 0, 0, 1, -1], ctildes: [0.00018693946816743086, -0.00018693946816743086, 0.00018693946816743086]}
    - {mu0: 1, rank: 2, ndensity: 1, num_ms_combs: 3, mus: [0, 0], ns: [2, 2], ls: [1, 1], ms_combs: [-1, 1, 0, 0, 1, -1], ctildes: [1.9178231044685452, -1.9178231044685452, 1.9178231044685452]}
    - {mu0: 1, rank: 2, ndensity: 1, num_ms_combs: 3, mus: [0, 1], ns: [2, 2], ls: [1, 1], ms_combs: [-1, 1, 0, 0, 1, -1], ctildes: [0.0013723944087616262, -0.0013723944087616262, 0.0013723944087616262]}
    - {mu0: 1, rank: 2, ndensity: 1, num_ms_combs: 3, mus: [1, 1], ns: [2, 2], ls: [1, 1], ms_combs: [-1, 1, 0, 0, 1, -1], ctildes: [-15.798554489628033, 15.798554489628033, -15.798554489628033]}
    - {mu0: 1, rank: 2, ndensity: 1, num_ms_combs: 5, mus: [0, 0], ns: [1, 1], ls: [2, 2], ms_combs: [-2, 2, -1, 1, 0, 0, 1, -1, 2, -2], ctildes: [-0.0008919641277247398, 0.0008919641277247398, -0.0008919641277247398, 0.0008919641277247398, -0.0008919641277247398]}
    - {mu0: 1, rank: 2, ndensity: 1, num_ms_combs: 5, mus: [0, 1], ns: [1, 1], ls: [2, 2], ms_combs: [-2, 2, -1, 1, 0, 0, 1, -1, 2, -2], ctildes: [-0.29539087910168504, 0.29539087910168504, -0.29539087910168504, 0.29539087910168504, -0.29539087910168504]}
    - {mu0: 1, rank: 2, ndensity: 1, num_ms_combs: 5, mus: [1, 1], ns: [1, 1], ls: [2, 2], ms_combs: [-2, 2, -1, 1, 0, 0, 1, -1, 2, -2], ctildes: [-0.8976825989601638, 0.8976825989601638, -0.8976825989601638, 0.8976825989601638, -0.8976825989601638]}
    - {mu0: 1, rank: 2, ndensity: 1, num_ms_combs: 5, mus: [0, 0], ns: [1, 2], ls: [2, 2], ms_combs: [-2, 2, -1, 1, 0, 0, 1, -1, 2, -2], ctildes: [4.5554152242338447e-07, -4.5554152242338447e-07, 4.5554152242338447e-07, -4.5554152242338447e-07, 4.5554152242338447e-07]}
    - {mu0: 1, rank: 2, ndensity: 1, num_ms_combs: 5, mus: [0, 1], ns: [1, 2], ls: [2, 2], ms_combs: [-2, 2, -1, 1, 0, 0, 1, -1, 2, -2], ctildes: [-0.36930853991816315, 0.36930853991816315, -0.36930853991816315, 0.36930853991816315, -0.36930853991816315]}
    - {mu0: 1, rank: 2, ndensity: 1, num_ms_combs: 5, mus: [1, 1], ns: [1, 2], ls: [2, 2], ms_combs: [-2, 2, -1, 1, 0, 0, 1, -1, 2, -2], ctildes: [-0.4267524403980998, 0.4267524403980998, -0.4267524403980998, 0.4267524403980998, -0.4267524403980998]}
    - {mu0: 1, rank: 2, ndensity: 1, num_ms_combs: 5, mus: [0, 1], ns: [2, 1], ls: [2, 2], ms_combs: [-2, 2, -1, 1, 0, 0, 1, -1, 2, -2], ctildes: [1.6954938859395332, -1.6954938859395332, 1.6954938859395332, -1.6954938859395332, 1.6954938859395332]}
    - {mu0: 1, rank: 2, ndensity: 1, num_ms_combs: 5, mus: [0, 0], ns: [2, 2], ls: [2, 2], ms_combs: [-2, 2, -1, 1, 0, 0, 1, -1, 2, -2], ctildes: [-1.333256272309454, 1.333256272309454, -1.333256272309454, 1.333256272309454, -1.333256272309454]}
    - {mu0: 1, rank: 2, ndensity: 1, num_ms_combs: 5, mus: [0, 1], ns: [2, 2], ls: [2, 2], ms_combs: [-2, 2, -1, 1, 0, 0, 1, -1, 2, -2], ctildes: [-0.0015620395592610737, 0.0015620395592610737, -0.0015620395592610737, 0.0015620395592610737, -0.0015620395592610737]}
    - {mu0: 1, rank: 2, ndensity: 1, num_ms_combs: 5, mus: [1, 1], ns: [2, 2], ls: [2, 2], ms_combs: [-2, 2, -1, 1, 0, 0, 1, -1, 2, -2], ctildes: [16.801053252485758, -16.801053252485758, 16.801053252485758, -16.801053252485758, 16.801053252485758]}
    - {mu0: 1, rank: 3, ndensity: 1, num_ms_combs: 9, mus: [0, 0, 0], ns: [1, 1, 1], ls: [1, 1, 2], ms_combs: [-1, -1, 2, -1, 0, 1, -1, 1, 0, 0, -1, 1, 0, 0, 0, 0, 1, -1, 1, -1, 0, 1, 0, -1, 1, 1, -2], ctildes: [-3.947018113385676e-05, 2.7909632880993058e-05, -1.6113635207897085e-05, 2.7909632880993058e-05, -3.222727041579417e-05, 2.7909632880993058e-05, -1.6113635207897085e-05, 2.7909632880993058e-05, -3.947018113385676e-05]}
    - {mu0: 1, rank: 3, ndensity: 1, num_ms_combs: 9, mus: [0, 0, 1], ns: [1, 1, 1], ls: [1, 1, 2], ms_combs: [-1, -1, 2, -1, 0, 1, -1, 1, 0, 0, -1, 1, 0, 0, 0, 0, 1, -1, 1, -1, 0, 1, 0, -1, 1, 1, -2], ctildes: [0.4537232782507384, -0.3208308085182938, 0.18523176689433118, -0.3208308085182938, 0.37046353378866237, -0.3208308085182938, 0.18523176689433118, -0.3208308085182938, 0.4537232782507384]}
    - {mu0: 1, rank: 3, ndensity: 1, num_ms_combs: 9, mus: [0, 1, 1], ns: [1, 1, 1], ls: [1, 1, 2], ms_combs: [-1, -1, 2, -1, 0, 1, -1, 1, 0, 0, -1, 1, 0, 0, 0, 0, 1, -1, 1, -1, 0, 1, 0, -1, 1, 1, -2], ctildes: [1.5631892547567e-05, -1.1053417281216715e-05, 6.381693898649889e-06, -1.1053417281216715e-05, 1.2763387797299779e-05, -1.1053417281216715e-05, 6.381693898649889e-06, -1.1053417281216715e-05, 1.5631892547567e-05]}
    - {mu0: 1, rank: 3, ndensity: 1, num_ms_combs: 9, mus: [1, 1, 1], ns: [1, 1, 1], ls: [1, 1, 2], ms_combs: [-1, -1, 2, -1, 0, 1, -1, 1, 0, 0, -1, 1, 0, 0, 0, 0, 1, -1, 1, -1, 0, 1, 0, -1, 1, 1, -2], ctildes: [0.6319587845072652, -0.4468623443024198, 0.2579961132035749, -0.4468623443024198, 0.5159922264071498, -0.4468623443024198, 0.2579961132035749, -0.4468623443024198, 0.6319587845072652]}
    - {mu0: 1, rank: 3, ndensity: 1, num_ms_combs: 9, mus: [0, 0, 0], ns: [1, 1, 2], ls: [1, 1, 2], ms_combs: [-1, -1, 2, -1, 0, 1, -1, 1, 0, 0, -1, 1, 0, 0, 0, 0, 1, -1, 1, -1, 0, 1, 0, -1, 1, 1, -2], ctildes: [-0.00018630380151370048, 0.0001317366821030523, -7.605821430753835e-05, 0.0001317366821030523, -0.0001521164286150767, 0.0001317366821030523, -7.605821430753835e-05, 0.0001317366821030523, -0.00018630380151370048]}
    - {mu0: 1, rank: 3, ndensity: 1, num_ms_combs: 9, mus: [0, 0, 1], ns: [1, 1, 2], ls: [1, 1, 2], ms_combs: [-1, -1, 2, -1, 0, 1, -1, 1, 0, 0, -1, 1, 0, 0, 0, 0, 1, -1, 1, -1, 0, 1, 0, -1, 1, 1, -2], ctildes: [0.00010679827114984142, -7.551778214567246e-05, 4.360021496497421e-05, -7.551778214567246e-05, 8.720042992994842e-05, -7.551778214567246e-05, 4.360021496497421e-05, -7.551778214567246e-05, 0.00010679827114984142]}
    - {mu0: 1, rank: 3, ndensity: 1, num_ms_combs: 9, mus: [0, 1, 1], ns: [1, 1, 2], ls: [1, 1, 2], ms_combs: [-1, -1, 2, -1, 0, 1, -1, 1, 0, 0, -1, 1, 0, 0, 0, 0, 1, -1, 1, -1, 0, 1, 0, -1, 1, 1, -2], ctildes: [0.0001609807162712226, -0.00011383055671348807, 6.572010725523105e-05, -0.00011383055671348807, 0.0001314402145104621, -0.00011383055671348807, 6.572010725523105e-05, -0.00011383055671348807, 0.0001609807162712226]}
    - {mu0: 1, rank: 3, ndensity: 1, num_ms_combs: 9, mus: [1, 1, 1], ns: [1, 1, 2], ls: [1, 1, 2], ms_combs: [-1, -1, 2, -1, 0, 1, -1, 1, 0, 0, -1, 1, 0, 0, 0, 0, 1, -1, 1, -1, 0, 1, 0, -1, 1, 1, -2], ctildes: [6.21787798338354e-05, -4.396703709732559e-05, 2.538438251693602e-05, -4.396703709732559e-05, 5.076876503387204e-05, -4.396703709732559e-05, 2.538438251693602e-05, -4.396703709732559e-05, 6.21787798338354e-05]}
    - {mu0: 1, rank: 3, ndensity: 1, num_ms_combs: 9, mus: [0, 0, 0], ns: [1, 2, 1], ls: [1, 1, 2], ms_combs: [-1, -1, 2, -1, 0, 1, -1, 1, 0, 0, -1, 1, 0, 0, 0, 0, 1, -1, 1, -1, 0, 1, 0, -1, 1, 1, -2], ctildes: [-1.751731863851394e-05, 1.2386614862553306e-05, -7.151415936102362e-06, 1.2386614862553306e-05, -1.4302831872204725e-05, 1.2386614862553306e-05, -7.151415936102362e-06, 1.2386614862553306e-05, -1.751731863851394e-05]}
    - {mu0: 1, rank: 3, ndensity: 1, num_ms_combs: 9, mus: [0, 0, 1], ns: [1, 2, 1], ls: [1, 1, 2], ms_combs: [-1, -1, 2, -1, 0, 1, -1, 1, 0, 0, -1, 1, 0, 0, 0, 0, 1, -1, 1, -1, 0, 1, 0, -1, 1, 1, -2], ctildes: [-3.6792833859673046, 2.601646245788349, -1.502061267641324, 2.601646245788349, -3.004122535282648, 2.601646245788349, -1.502061267641324, 2.601646245788349, -3.6792833859673046]}
    - {mu0: 1, rank: 3, ndensity: 1, num_ms_combs: 9, mus: [0, 1, 1], ns: [1, 2, 1], ls: [1, 1, 2], ms_combs: [-1, -1, 2, -1, 0, 1, -1, 1, 0, 0, -1, 1, 0, 0, 0, 0, 1, -1, 1, -1, 0, 1, 0, -1, 1, 1, -2], ctildes: [-0.0001419289300609467, 0.00010035890941973242, -5.7942247508144746e-05, 0.00010035890941973242, -0.00011588449501628949, 0.00010035890941973242, -5.7942247508144746e-05, 0.00010035890941973242, -0.0001419289300609467]}
    - {mu0: 1, rank: 3, ndensity: 1, num_ms_combs: 9, mus: [1, 1, 1], ns: [1, 2, 1], ls: [1, 1, 2], ms_combs: [-1, -1, 2, -1, 0, 1, -1, 1, 0, 0, -1, 1, 0, 0, 0, 0, 1, -1, 1, -1, 0, 1, 0, -1, 1, 1, -2], ctildes: [-0.000178102518864162, 0.00012593749949667868, -7.271005442949409e-05, 0.00012593749949667868, -0.00014542010885898818, 0.00012593749949667868, -7.271005442949409e-05, 0.00012593749949667868, -0.000178102518864162]}
    - {mu0: 1, rank: 3, ndensity: 1, num_ms_combs: 9, mus: [0, 0, 0], ns: [1, 2, 2], ls: [1, 1, 2], ms_combs: [-1, -1, 2, -1, 0, 1, -1, 1, 0, 0, -1, 1, 0, 0, 0, 0, 1, -1, 1, -1, 0, 1, 0, -1, 1, 1, -2], ctildes: [-3.2961632614627104e-05, 2.3307394063193113e-05, -1.345653119775601e-05, 2.3307394063193113e-05, -2.691306239551202e-05, 2.3307394063193113e-05, -1.345653119775601e-05, 2.3307394063193113e-05, -3.2961632614627104e-05]}
    - {mu0: 1, rank: 3, ndensity: 1, num_ms_combs: 9, mus: [0, 0, 1], ns: [1, 2, 2], ls: [1, 1, 2], ms_combs: [-1, -1, 2, -1, 0, 1, -1, 1, 0, 0, -1, 1, 0, 0, 0, 0, 1, -1, 1, -1, 0, 1, 0, -1, 1, 1, -2], ctildes: [-1.2768767089191926e-05, 9.028881843578983e-06, -5.2128277352482465e-06, 9.028881843578983e-06, -1.0425655470496493e-05, 9.028881843578983e-06, -5.2128277352482465e-06, 9.028881843578983e-06, -1.2768767089191926e-05]}
    - {mu0: 1, rank: 3, ndensity: 1, num_ms_combs: 9, mus: [0, 1, 1], ns: [1, 2, 2], ls: [1, 1, 2], ms_combs: [-1, -1, 2, -1, 0, 1, -1, 1, 0, 0, -1, 1, 0, 0, 0, 0, 1, -1, 1, -1, 0, 1, 0, -1, 1, 1, -2], ctildes: [11.128771980958058, -7.869230175343549, 4.5433024845990095, -7.869230175343549, 9.086604969198019, -7.869230175343549, 4.5433024845990095, -7.869230175343549, 11.128771980958058]}
    - {mu0: 1, rank: 3, ndensity: 1, num_ms_combs: 9, mus: [1, 1, 1], ns: [1, 2, 2], ls: [1, 1, 2], ms_combs: [-1, -1, 2, -1, 0, 1, -1, 1, 0, 0, -1, 1, 0, 0, 0, 0, 1, -1, 1, -1, 0, 1, 0, -1, 1, 1, -2], ctildes: [-7.769300997391548e-05, 5.49372544918806e-05, -3.171804093519383e-05, 5.49372544918806e-05, -6.343608187038766e-05, 5.49372544918806e-05, -3.171804093519383e-05, 5.49372544918806e-05, -7.769300997391548e-05]}
    - {mu0: 1, rank: 3, ndensity: 1, num_ms_combs: 9, mus: [0, 1, 1], ns: [2, 1, 1], ls: [1, 1, 2], ms_combs: [-1, -1, 2, -1, 0, 1, -1, 1, 0, 0, -1, 1, 0, 0, 0, 0, 1, -1, 1, -1, 0, 1, 0, -1, 1, 1, -2], ctildes: [-0.8539958781614182, 0.6038662797248098, -0.34864238405880826, 0.6038662797248098, -0.6972847681176165, 0.6038662797248098, -0.34864238405880826, 0.6038662797248098, -0.8539958781614182]}
    - {mu0: 1, rank: 3, ndensity: 1, num_ms_combs: 9, mus: [0, 1, 1], ns: [2, 1, 2], ls: [1, 1, 2], ms_combs: [-1, -1, 2, -1, 0, 1, -1, 1, 0, 0, -1, 1, 0, 0, 0, 0, 1, -1, 1, -1, 0, 1, 0, -1, 1, 1, -2], ctildes: [9.014898339026262e-05, -6.374495780711715e-05, 3.680317117844258e-05, -6.374495780711715e-05, 7.360634235688516e-05, -6.374495780711715e-05, 3.680317117844258e-05, -6.374495780711715e-05, 9.014898339026262e-05]}
    - {mu0: 1, rank: 3, ndensity: 1, num_ms_combs: 9, mus: [0, 0, 0], ns: [2, 2, 1], ls: [1, 1, 2], ms_combs: [-1, -1, 2, -1, 0, 1, -1, 1, 0, 0, -1, 1, 0, 0, 0, 0, 1, -1, 1, -1, 0, 1, 0, -1, 1, 1, -2], ctildes: [0.00011681897516702288, -8.260348994569894e-05, 4.769115056295313e-05, -8.260348994569894e-05, 9.538230112590626e-05, -8.260348994569894e-05, 4.769115056295313e-05, -8.260348994569894e-05, 0.00011681897516702288]}
    - {mu0: 1, rank: 3, ndensity: 1, num_ms_combs: 9, mus: [0, 0, 1], ns: [2, 2, 1], ls: [1, 1, 2], ms_combs: [-1, -1, 2, -1, 0, 1, -1, 1, 0, 0, -1, 1, 0, 0, 0, 0, 1, -1, 1, -1, 0, 1, 0, -1, 1, 1, -2], ctildes: [8.247780277235236, -5.83206139439973, 3.367142456517797, -5.83206139439973, 6.734284913035594, -5.83206139439973, 3.367142456517797, -5.83206139439973, 8.247780277235236]}
    - {mu0: 1, rank: 3, ndensity: 1, num_ms_combs: 9, mus: [0, 1, 1], ns: [2, 2, 1], ls: [1, 1, 2], ms_combs: [-1, -1, 2, -1, 0, 1, -1, 1, 0, 0, -1, 1, 0, 0, 0, 0, 1, -1, 1, -1, 0, 1, 0, -1, 1, 1, -2], ctildes: [-15.48706846952394, 10.95101119301554, -6.322569711836768, 10.95101119301554, -12.645139423673536, 10.95101119301554, -6.322569711836768, 10.95101119301554, -15.48706846952394]}
    - {mu0: 1, rank: 3, ndensity: 1, num_ms_combs: 9, mus: [1, 1, 1], ns: [2, 2, 1], ls: [1, 1, 2], ms_combs: [-1, -1, 2, -1, 0, 1, -1, 1, 0, 0, -1, 1, 0, 0, 0, 0, 1, -1, 1, -1, 0, 1, 0, -1, 1, 1, -2], ctildes: [-2.4418260064718447, 1.726631736722191, -0.9968713691990791, 1.726631736722191, -1.9937427383981583, 1.726631736722191, -0.9968713691990791, 1.726631736722191, -2.4418260064718447]}
    - {mu0: 1, rank: 3, ndensity: 1, num_ms_combs: 9, mus: [0, 0, 0], ns: [2, 2, 2], ls: [1, 1, 2], ms_combs: [-1, -1, 2, -1, 0, 1, -1, 1, 0, 0, -1, 1, 0, 0, 0, 0, 1, -1, 1, -1, 0, 1, 0, -1, 1, 1, -2], ctildes: [0.00011153758458517045, -7.886898283156267e-05, 4.553503172129436e-05, -7.886898283156267e-05, 9.107006344258871e-05, -7.886898283156267e-05, 4.553503172129436e-05, -7.886898283156267e-05, 0.00011153758458517045]}
    - {mu0: 1, rank: 3, ndensity: 1, num_ms_combs: 9, mus: [0, 0, 1], ns: [2, 2, 2], ls: [1, 1, 2], ms_combs: [-1, -1, 2, -1, 0, 1, -1, 1, 0, 0, -1, 1, 0, 0, 0, 0, 1, -1, 1, -1, 0, 1, 0, -1, 1, 1, -2], ctildes: [-1.4412385147220175, 1.0191095324195376, -0.5883832049070901, 1.0191095324195376, -1.1767664098141801, 1.0191095324195376, -0.5883832049070901, 1.0191095324195376, -1.4412385147220175]}
    - {mu0: 1, rank: 3, ndensity: 1, num_ms_combs: 9, mus: [0, 1, 1], ns: [2, 2, 2], ls: [1, 1, 2], ms_combs: [-1, -1, 2, -1, 0, 1, -1, 1, 0, 0, -1, 1, 0, 0, 0, 0, 1, -1, 1, -1, 0, 1, 0, -1, 1, 1, -2], ctildes: [35.29524082835339, -24.957504264417988, 14.409222834680946, -24.957504264417988, 28.818445669361893, -24.957504264417988, 14.409222834680946, -24.957504264417988, 35.29524082835339]}
    - {mu0: 1, rank: 3, ndensity: 1, num_ms_combs: 9, mus: [1, 1, 1], ns: [2, 2, 2], ls: [1, 1, 2], ms_combs: [-1, -1, 2, -1, 0, 1, -1, 1, 0, 0, -1, 1, 0, 0, 0, 0, 1, -1, 1, -1, 0, 1, 0, -1, 1, 1, -2], ctildes: [-0.00020991350163221872, 0.00014843126124631741, -8.56968347584416e-05, 0.00014843126124631741, -0.0001713936695168832, 0.00014843126124631741, -8.56968347584416e-05, 0.00014843126124631741, -0.00020991350163221872]}
    - {mu0: 1, rank: 3, ndensity: 1, num_ms_combs: 9, mus: [0, 0, 1], ns: [1, 1, 1], ls: [1, 2, 1], ms_combs: [-1, 0, 1, -1, 1, 0, -1, 2, -1, 0, -1, 1, 0, 0, 0, 0, 1, -1, 1, -2, 1, 1, -1, 0, 1, 0, -1], ctildes: [1.6304719807191823e-05, -2.824060339678666e-05, 3.9938246785064785e-05, -2.824060339678666e-05, 3.2609439614383646e-05, -2.824060339678666e-05, 3.9938246785064785e-05, -2.824060339678666e-05, 1.6304719807191823e-05]}
    - {mu0: 1, rank: 3, ndensity: 1, num_ms_combs: 9, mus: [0, 0, 1], ns: [1, 1, 2], ls: [1, 2, 1], ms_combs: [-1, 0, 1, -1, 1, 0, -1, 2, -1, 0, -1, 1, 0, 0, 0, 0, 1, -1, 1, -2, 1, 1, -1, 0, 1, 0, -1], ctildes: [-2.607548494445482e-05, 4.5164065215669524e-05, -6.387163748085535e-05, 4.5164065215669524e-05, -5.215096988890964e-05, 4.5164065215669524e-05, -6.387163748085535e-05, 4.5164065215669524e-05, -2.607548494445482e-05]}
    - {mu0: 1, rank: 3, ndensity: 1, num_ms_combs: 9, mus: [0, 0, 1], ns: [1, 2, 1], ls: [1, 2, 1], ms_combs: [-1, 0, 1, -1, 1, 0, -1, 2, -1, 0, -1, 1, 0, 0, 0, 0, 1, -1, 1, -2, 1, 1, -1, 0, 1, 0, -1], ctildes: [-6.531410364465595e-05, 0.00011312734711526626, -0.0001599862383869348, 0.00011312734711526626, -0.0001306282072893119, 0.00011312734711526626, -0.0001599862383869348, 0.00011312734711526626, -6.531410364465595e-05]}
    - {mu0: 1, rank: 3, ndensity: 1, num_ms_combs: 9, mus: [0, 0, 1], ns: [1, 2, 2], ls: [1, 2, 1], ms_combs: [-1, 0, 1, -1, 1, 0, -1, 2, -1, 0, -1, 1, 0, 0, 0, 0, 1, -1, 1, -2, 1, 1, -1, 0, 1, 0, -1], ctildes: [-4.6274125015462966e-05, 8.01491364186826e-05, -0.00011334800269400036, 8.01491364186826e-05, -9.254825003092593e-05, 8.01491364186826e-05, -0.00011334800269400036, 8.01491364186826e-05, -4.6274125015462966e-05]}
    - {mu0: 1, rank: 3, ndensity: 1, num_ms_combs: 9, mus: [0, 0, 1], ns: [2, 1, 1], ls: [1, 2, 1], ms_combs: [-1, 0, 1, -1, 1, 0, -1, 2, -1, 0, -1, 1, 0, 0, 0, 0, 1, -1, 1, -2, 1, 1, -1, 0, 1, 0, -1], ctildes: [-1.3778372249706277e-05, 2.38648410250886e-05, -3.3749983913402404e-05, 2.38648410250886e-05, -2.7556744499412554e-05, 2.38648410250886e-05, -3.3749983913402404e-05, 2.38648410250886e-05, -1.3778372249706277e-05]}
    - {mu0: 1, rank: 3, ndensity: 1, num_ms_combs: 9, mus: [0, 0, 1], ns: [2, 1, 2], ls: [1, 2, 1], ms_combs: [-1, 0, 1, -1, 1, 0, -1, 2, -1, 0, -1, 1, 0, 0, 0, 0, 1, -1, 1, -2, 1, 1, -1, 0, 1, 0, -1], ctildes: [2.5788539183140496e-05, -4.4667060572995903e-05, 6.31687667314761e-05, -4.4667060572995903e-05, 5.157707836628099e-05, -4.4667060572995903e-05, 6.31687667314761e-05, -4.4667060572995903e-05, 2.5788539183140496e-05]}
    - {mu0: 1, rank: 3, ndensity: 1, num_ms_combs: 9, mus: [0, 0, 1], ns: [2, 2, 1], ls: [1, 2, 1], ms_combs: [-1, 0, 1, -1, 1, 0, -1, 2, -1, 0, -1, 1, 0, 0, 0, 0, 1, -1, 1, -2, 1, 1, -1, 0, 1, 0, -1], ctildes: [9.723271581805097e-05, -0.00016841200566960083, 0.00023817055710522003, -0.00016841200566960083, 0.00019446543163610194, -0.00016841200566960083, 0.00023817055710522003, -0.00016841200566960083, 9.723271581805097e-05]}
    - {mu0: 1, rank: 3, ndensity: 1, num_ms_combs: 9, mus: [0, 0, 1], ns: [2, 2, 2], ls: [1, 2, 1], ms_combs: [-1, 0, 1, -1, 1, 0, -1, 2, -1, 0, -1, 1, 0, 0, 0, 0, 1, -1, 1, -2, 1, 1, -1, 0, 1, 0, -1], ctildes: [1.1075344806691811, -1.918306011186301, 2.712894544340692, -1.918306011186301, 2.2150689613383623, -1.918306011186301, 2.712894544340692, -1.918306011186301, 1.1075344806691811]}
    - {mu0: 1, rank: 3, ndensity: 1, num_ms_combs: 9, mus: [0, 1, 1], ns: [1, 1, 1], ls: [2, 1, 1], ms_combs: [-2, 1, 1, -1, 0, 1, -1, 1, 0, 0, -1, 1, 0, 0, 0, 0, 1, -1, 1, -1, 0, 1, 0, -1, 2, -1, -1], ctildes: [0.02867207715234773, -0.020274218940534973, -0.020274218940534973, 0.011705325643739517, 0.023410651287479035, 0.011705325643739517, -0.020274218940534973, -0.020274218940534973, 0.02867207715234773]}
    - {mu0: 1, rank: 3, ndensity: 1, num_ms_combs: 9, mus: [0, 1, 1], ns: [1, 1, 2], ls: [2, 1, 1], ms_combs: [-2, 1, 1, -1, 0, 1, -1, 1, 0, 0, -1, 1, 0, 0, 0, 0, 1, -1, 1, -1, 0, 1, 0, -1, 2, -1, -1], ctildes: [-1.104637813148603e-05, 7.81096840482474e-06, 7.81096840482474e-06, -4.509664665238227e-06, -9.019329330476455e-06, -4.509664665238227e-06, 7.81096840482474e-06, 7.81096840482474e-06, -1.104637813148603e-05]}
    - {mu0: 1, rank: 3, ndensity: 1, num_ms_combs: 9, mus: [0, 1, 1], ns: [1, 2, 2], ls: [2, 1, 1], ms_combs: [-2, 1, 1, -1, 0, 1, -1, 1, 0, 0, -1, 1, 0, 0, 0, 0, 1, -1, 1, -1, 0, 1, 0, -1, 2, -1, -1], ctildes: [-0.000361337092080851, 0.0002555038924197218, 0.0002555038924197218, -0.00014751523956547133, -0.00029503047913094266, -0.00014751523956547133, 0.0002555038924197218, 0.0002555038924197218, -0.000361337092080851]}
    - {mu0: 1, rank: 3, ndensity: 1, num_ms_combs: 9, mus: [0, 1, 1], ns: [2, 1, 1], ls: [2, 1, 1], ms_combs: [-2, 1, 1, -1, 0, 1, -1, 1, 0, 0, -1, 1, 0, 0, 0, 0, 1, -1, 1, -1, 0, 1, 0, -1, 2, -1, -1], ctildes: [0.00018643111893159074, -0.00013182670032814458, -0.00013182670032814458, 7.611018014585368e-05, 0.00015222036029170736, 7.611018014585368e-05, -0.00013182670032814458, -0.00013182670032814458, 0.00018643111893159074]}
    - {mu0: 1, rank: 3, ndensity: 1, num_ms_combs: 9, mus: [0, 1, 1], ns: [2, 1, 2], ls: [2, 1, 1], ms_combs: [-2, 1, 1, -1, 0, 1, -1, 1, 0, 0, -1, 1, 0, 0, 0, 0, 1, -1, 1, -1, 0, 1, 0, -1, 2, -1, -1], ctildes: [2.9272754626166955, -2.0698962029504417, -2.0698962029504417, 1.1950551177995485, 2.390110235599097, 1.1950551177995485, -2.0698962029504417, -2.0698962029504417, 2.9272754626166955]}
    - {mu0: 1, rank: 3, ndensity: 1, num_ms_combs: 9, mus: [0, 1, 1], ns: [2, 2, 2], ls: [2, 1, 1], ms_combs: [-2, 1, 1, -1, 0, 1, -1, 1, 0, 0, -1, 1, 0, 0, 0, 0, 1, -1, 1, -1, 0, 1, 0, -1, 2, -1, -1], ctildes: [30.51265632307918, -21.57570487357426, -21.57570487357426, 12.456738889875107, 24.913477779750213, 12.456738889875107, -21.57570487357426, -21.57570487357426, 30.51265632307918]}
    - {mu0: 1, rank: 3, ndensity: 1, num_ms_combs: 19, mus: [0, 0, 0], ns: [1, 1, 1], ls: [2, 2, 2], ms_combs: [-2, 0, 2, -2, 1, 1, -2, 2, 0, -1, -1, 2, -1, 0, 1, -1, 1, 0, -1, 2, -1, 0, -2, 2, 0, -1, 1, 0, 0, 0, 0, 1, -1, 0, 2, -2, 1, -2, 1, 1, -1, 0, 1, 0, -1, 1, 1, -2, 2, -2, 0, 2, -1, -1, 2, 0, -2], ctildes: [-6.731624847473209e-05, 8.244523100531454e-05, -6.731624847473209e-05, 8.244523100531454e-05, -3.365812423736604e-05, -3.365812423736604e-05, 8.244523100531454e-05, -6.731624847473209e-05, -3.365812423736604e-05, 6.731624847473209e-05, -3.365812423736604e-05, -6.731624847473209e-05, 8.244523100531454e-05, -3.365812423736604e-05, -3.365812423736604e-05, 8.244523100531454e-05, -6.731624847473209e-05, 8.244523100531454e-05, -6.731624847473209e-05]}
    - {mu0: 1, rank: 3, ndensity: 1, num_ms_combs: 19, mus: [0, 0, 1], ns: [1, 1, 1], ls: [2, 2, 2], ms_combs: [-2, 0, 2, -2, 1, 1, -2, 2, 0, -1, -1, 2, -1, 0, 1, -1, 1, 0, -1, 2, -1, 0, -2, 2, 0, -1, 1, 0, 0, 0, 0, 1, -1, 0, 2, -2, 1, -2, 1, 1, -1, 0, 1, 0, -1, 1, 1, -2, 2, -2, 0, 2, -1, -1, 2, 0, -2], ctildes: [-0.16507402604849997, 0.2021735690700945, -0.16507402604849997, 0.2021735690700945, -0.08253701302424998, -0.08253701302424998, 0.2021735690700945, -0.16507402604849997, -0.08253701302424998, 0.16507402604849997, -0.08253701302424998, -0.16507402604849997, 0.2021735690700945, -0.08253701302424998, -0.08253701302424998, 0.2021735690700945, -0.16507402604849997, 0.2021735690700945, -0.16507402604849997]}
    - {mu0: 1, rank: 3, ndensity: 1, num_ms_combs: 19, mus: [0, 1, 1], ns: [1, 1, 1], ls: [2, 2, 2], ms_combs: [-2, 0, 2, -2, 1, 1, -2, 2, 0, -1, -1, 2, -1, 0, 1, -1, 1, 0, -1, 2, -1, 0, -2, 2, 0, -1, 1, 0, 0, 0, 0, 1, -1, 0, 2, -2, 1, -2, 1, 1, -1, 0, 1, 0, -1, 1, 1, -2, 2, -2, 0, 2, -1, -1, 2, 0, -2], ctildes: [1.324485158646641e-05, -1.6221564234780778e-05, 1.324485158646641e-05, -1.6221564234780778e-05, 6.622425793233205e-06, 6.622425793233205e-06, -1.6221564234780778e-05, 1.324485158646641e-05, 6.622425793233205e-06, -1.324485158646641e-05, 6.622425793233205e-06, 1.324485158646641e-05, -1.6221564234780778e-05, 6.622425793233205e-06, 6.622425793233205e-06, -1.6221564234780778e-05, 1.324485158646641e-05, -1.6221564234780778e-05, 1.324485158646641e-05]}
    - {mu0: 1, rank: 3, ndensity: 1, num_ms_combs: 19, mus: [1, 1, 1], ns: [1, 1, 1], ls: [2, 2, 2], ms_combs: [-2, 0, 2, -2, 1, 1, -2, 2, 0, -1, -1, 2, -1, 0, 1, -1, 1, 0, -1, 2, -1, 0, -2, 2, 0, -1, 1, 0, 0, 0, 0, 1, -1, 0, 2, -2, 1, -2, 1, 1, -1, 0, 1, 0, -1, 1, 1, -2, 2, -2, 0, 2, -1, -1, 2, 0, -2], ctildes: [-0.3200441985271709, 0.3919724951604765, -0.3200441985271709, 0.3919724951604765, -0.16002209926358546, -0.16002209926358546, 0.3919724951604765, -0.3200441985271709, -0.16002209926358546, 0.3200441985271709, -0.16002209926358546, -0.3200441985271709, 0.3919724951604765, -0.16002209926358546, -0.16002209926358546, 0.3919724951604765, -0.3200441985271709, 0.3919724951604765, -0.3200441985271709]}
    - {mu0: 1, rank: 3, ndensity: 1, num_ms_combs: 19, mus: [0, 0, 0], ns: [1, 1, 2], ls: [2, 2, 2], ms_combs: [-2, 0, 2, -2, 1, 1, -2, 2, 0, -1, -1, 2, -1, 0, 1, -1, 1, 0, -1, 2, -1, 0, -2, 2, 0, -1, 1, 0, 0, 0, 0, 1, -1, 0, 2, -2, 1, -2, 1, 1, -1, 0, 1, 0, -1, 1, 1, -2, 2, -2, 0, 2, -1, -1, 2, 0, -2], ctildes: [3.771877464215056e-05, -4.619587631620288e-05, 3.771877464215056e-05, -4.619587631620288e-05, 1.885938732107528e-05, 1.885938732107528e-05, -4.619587631620288e-05, 3.771877464215056e-05, 1.885938732107528e-05, -3.771877464215056e-05, 1.885938732107528e-05, 3.771877464215056e-05, -4.619587631620288e-05, 1.885938732107528e-05, 1.885938732107528e-05, -4.619587631620288e-05, 3.771877464215056e-05, -4.619587631620288e-05, 3.771877464215056e-05]}
    - {mu0: 1, rank: 3, ndensity: 1, num_ms_combs: 19, mus: [0, 0, 1], ns: [1, 1, 2], ls: [2, 2, 2], ms_combs: [-2, 0, 2, -2, 1, 1, -2, 2, 0, -1, -1, 2, -1, 0, 1, -1, 1, 0, -1, 2, -1, 0, -2, 2, 0, -1, 1, 0, 0, 0, 0, 1, -1, 0, 2, -2, 1, -2, 1, 1, -1, 0, 1, 0, -1, 1, 1, -2, 2, -2, 0, 2, -1, -1, 2, 0, -2], ctildes: [0.0005855945100913914, -0.0007172038809924326, 0.0005855945100913914, -0.0007172038809924326, 0.0002927972550456957, 0.0002927972550456957, -0.0007172038809924326, 0.0005855945100913914, 0.0002927972550456957, -0.0005855945100913914, 0.0002927972550456957, 0.0005855945100913914, -0.0007172038809924326, 0.0002927972550456957, 0.0002927972550456957, -0.0007172038809924326, 0.0005855945100913914, -0.0007172038809924326, 0.0005855945100913914]}
    - {mu0: 1, rank: 3, ndensity: 1, num_ms_combs: 19, mus: [0, 1, 1], ns: [1, 1, 2], ls: [2, 2, 2], ms_combs: [-2, 0, 2, -2, 1, 1, -2, 2, 0, -1, -1, 2, -1, 0, 1, -1, 1, 0, -1, 2, -1, 0, -2, 2, 0, -1, 1, 0, 0, 0, 0, 1, -1, 0, 2, -2, 1, -2, 1, 1, -1, 0, 1, 0, -1, 1, 1, -2, 2, -2, 0, 2, -1, -1, 2, 0, -2], ctildes: [-2.2291753620075253e-05, 2.7301711226681307e-05, -2.2291753620075253e-05, 2.7301711226681307e-05, -1.1145876810037627e-05, -1.1145876810037627e-05, 2.7301711226681307e-05, -2.2291753620075253e-05, -1.1145876810037627e-05, 2.2291753620075253e-05, -1.1145876810037627e-05, -2.2291753620075253e-05, 2.7301711226681307e-05, -1.1145876810037627e-05, -1.1145876810037627e-05, 2.7301711226681307e-05, -2.2291753620075253e-05, 2.7301711226681307e-05, -2.2291753620075253e-05]}
    - {mu0: 1, rank: 3, ndensity: 1, num_ms_combs: 19, mus: [1, 1, 1], ns: [1, 1, 2], ls: [2, 2, 2], ms_combs: [-2, 0, 2, -2, 1, 1, -2, 2, 0, -1, -1, 2, -1, 0, 1, -1, 1, 0, -1, 2, -1, 0, -2, 2, 0, -1, 1, 0, 0, 0, 0, 1, -1, 0, 2, -2, 1, -2, 1, 1, -1, 0, 1, 0, -1, 1, 1, -2, 2, -2, 0, 2, -1, -1, 2, 0, -2], ctildes: [1.3638273977065871, -1.6703406295361602, 1.3638273977065871, -1.6703406295361602, 0.6819136988532936, 0.6819136988532936, -1.6703406295361602, 1.3638273977065871, 0.6819136988532936, -1.3638273977065871, 0.6819136988532936, 1.3638273977065871, -1.6703406295361602, 0.6819136988532936, 0.6819136988532936, -1.6703406295361602, 1.3638273977065871, -1.6703406295361602, 1.3638273977065871]}
    - {mu0: 1, rank: 3, ndensity: 1, num_ms_combs: 19, mus: [0, 0, 1], ns: [1, 2, 1], ls: [2, 2, 2], ms_combs: [-2, 0, 2, -2, 1, 1, -2, 2, 0, -1, -1, 2, -1, 0, 1, -1, 1, 0, -1, 2, -1, 0, -2, 2, 0, -1, 1, 0, 0, 0, 0, 1, -1, 0, 2, -2, 1, -2, 1, 1, -1, 0, 1, 0, -1, 1, 1, -2, 2, -2, 0, 2, -1, -1, 2, 0, -2], ctildes: [2.163521668293807, -2.64976209710261, 2.163521668293807, -2.64976209710261, 1.0817608341469036, 1.0817608341469036, -2.64976209710261, 2.163521668293807, 1.0817608341469036, -2.163521668293807, 1.0817608341469036, 2.163521668293807, -2.64976209710261, 1.0817608341469036, 1.0817608341469036, -2.64976209710261, 2.163521668293807, -2.64976209710261, 2.163521668293807]}
    - {mu0: 1, rank: 3, ndensity: 1, num_ms_combs: 19, mus: [0, 0, 0], ns: [1, 2, 2], ls: [2, 2, 2], ms_combs: [-2, 0, 2, -2, 1, 1, -2, 2, 0, -1, -1, 2, -1, 0, 1, -1, 1, 0, -1, 2, -1, 0, -2, 2, 0, -1, 1, 0, 0, 0, 0, 1, -1, 0, 2, -2, 1, -2, 1, 1, -1, 0, 1, 0, -1, 1, 1, -2, 2, -2, 0, 2, -1, -1, 2, 0, -2], ctildes: [7.005622253771236e-05, -8.580100022432819e-05, 7.005622253771236e-05, -8.580100022432819e-05, 3.502811126885618e-05, 3.502811126885618e-05, -8.580100022432819e-05, 7.005622253771236e-05, 3.502811126885618e-05, -7.005622253771236e-05, 3.502811126885618e-05, 7.005622253771236e-05, -8.580100022432819e-05, 3.502811126885618e-05, 3.502811126885618e-05, -8.580100022432819e-05, 7.005622253771236e-05, -8.580100022432819e-05, 7.005622253771236e-05]}
    - {mu0: 1, rank: 3, ndensity: 1, num_ms_combs: 19, mus: [0, 0, 1], ns: [1, 2, 2], ls: [2, 2, 2], ms_combs: [-2, 0, 2, -2, 1, 1, -2, 2, 0, -1, -1, 2, -1, 0, 1, -1, 1, 0, -1, 2, -1, 0, -2, 2, 0, -1, 1, 0, 0, 0, 0, 1, -1, 0, 2, -2, 1, -2, 1, 1, -1, 0, 1, 0, -1, 1, 1, -2, 2, -2, 0, 2, -1, -1, 2, 0, -2], ctildes: [-4.405019292365544, 5.395024847207067, -4.405019292365544, 5.395024847207067, -2.202509646182772, -2.202509646182772, 5.395024847207067, -4.405019292365544, -2.202509646182772, 4.405019292365544, -2.202509646182772, -4.405019292365544, 5.395024847207067, -2.202509646182772, -2.202509646182772, 5.395024847207067, -4.405019292365544, 5.395024847207067, -4.405019292365544]}
    - {mu0: 1, rank: 3, ndensity: 1, num_ms_combs: 19, mus: [0, 1, 1], ns: [1, 2, 2], ls: [2, 2, 2], ms_combs: [-2, 0, 2, -2, 1, 1, -2, 2, 0, -1, -1, 2, -1, 0, 1, -1, 1, 0, -1, 2, -1, 0, -2, 2, 0, -1, 1, 0, 0, 0, 0, 1, -1, 0, 2, -2, 1, -2, 1, 1, -1, 0, 1, 0, -1, 1, 1, -2, 2, -2, 0, 2, -1, -1, 2, 0, -2], ctildes: [-0.0002484982562343241, 0.00030434696828577593, -0.0002484982562343241, 0.00030434696828577593, -0.00012424912811716206, -0.00012424912811716206, 0.00030434696828577593, -0.0002484982562343241, -0.00012424912811716206, 0.0002484982562343241, -0.00012424912811716206, -0.0002484982562343241, 0.00030434696828577593, -0.00012424912811716206, -0.00012424912811716206, 0.00030434696828577593, -0.0002484982562343241, 0.00030434696828577593, -0.0002484982562343241]}
    - {mu0: 1, rank: 3, ndensity: 1, num_ms_combs: 19, mus: [1, 1, 1], ns: [1, 2, 2], ls: [2, 2, 2], ms_combs: [-2, 0, 2, -2, 1, 1, -2, 2, 0, -1, -1, 2, -1, 0, 1, -1, 1, 0, -1, 2, -1, 0, -2, 2, 0, -1, 1, 0, 0, 0, 0, 1, -1, 0, 2, -2, 1, -2, 1, 1, -1, 0, 1, 0, -1, 1, 1, -2, 2, -2, 0, 2, -1, -1, 2, 0, -2], ctildes: [-3.77495890222969e-06, 4.623361607067544e-06, -3.77495890222969e-06, 4.623361607067544e-06, -1.887479451114845e-06, -1.887479451114845e-06, 4.623361607067544e-06, -3.77495890222969e-06, -1.887479451114845e-06, 3.77495890222969e-06, -1.887479451114845e-06, -3.77495890222969e-06, 4.623361607067544e-06, -1.887479451114845e-06, -1.887479451114845e-06, 4.623361607067544e-06, -3.77495890222969e-06, 4.623361607067544e-06, -3.77495890222969e-06]}
    - {mu0: 1, rank: 3, ndensity: 1, num_ms_combs: 19, mus: [0, 1, 1], ns: [2, 1, 1], ls: [2, 2, 2], ms_combs: [-2, 0, 2, -2, 1, 1, -2, 2, 0, -1, -1, 2, -1, 0, 1, -1, 1, 0, -1, 2, -1, 0, -2, 2, 0, -1, 1, 0, 0, 0, 0, 1, -1, 0, 2, -2, 1, -2, 1, 1, -1, 0, 1, 0, -1, 1, 1, -2, 2, -2, 0, 2, -1, -1, 2, 0, -2], ctildes: [0.31568201100632665, -0.38662992830636106, 0.31568201100632665, -0.38662992830636106, 0.15784100550316332, 0.15784100550316332, -0.38662992830636106, 0.31568201100632665, 0.15784100550316332, -0.31568201100632665, 0.15784100550316332, 0.31568201100632665, -0.38662992830636106, 0.15784100550316332, 0.15784100550316332, -0.38662992830636106, 0.31568201100632665, -0.38662992830636106, 0.31568201100632665]}
    - {mu0: 1, rank: 3, ndensity: 1, num_ms_combs: 19, mus: [0, 1, 1], ns: [2, 1, 2], ls: [2, 2, 2], ms_combs: [-2, 0, 2, -2, 1, 1, -2, 2, 0, -1, -1, 2, -1, 0, 1, -1, 1, 0, -1, 2, -1, 0, -2, 2, 0, -1, 1, 0, 0, 0, 0, 1, -1, 0, 2, -2, 1, -2, 1, 1, -1, 0, 1, 0, -1, 1, 1, -2, 2, -2, 0, 2, -1, -1, 2, 0, -2], ctildes: [-5.901015585098974e-05, 7.22723865490014e-05, -5.901015585098974e-05, 7.22723865490014e-05, -2.950507792549487e-05, -2.950507792549487e-05, 7.22723865490014e-05, -5.901015585098974e-05, -2.950507792549487e-05, 5.901015585098974e-05, -2.950507792549487e-05, -5.901015585098974e-05, 7.22723865490014e-05, -2.950507792549487e-05, -2.950507792549487e-05, 7.22723865490014e-05, -5.901015585098974e-05, 7.22723865490014e-05, -5.901015585098974e-05]}
    - {mu0: 1, rank: 3, ndensity: 1, num_ms_combs: 19, mus: [0, 0, 1], ns: [2, 2, 1], ls: [2, 2, 2], ms_combs: [-2, 0, 2, -2, 1, 1, -2, 2, 0, -1, -1, 2, -1, 0, 1, -1, 1, 0, -1, 2, -1, 0, -2, 2, 0, -1, 1, 0, 0, 0, 0, 1, -1, 0, 2, -2, 1, -2, 1, 1, -1, 0, 1, 0, -1, 1, 1, -2, 2, -2, 0, 2, -1, -1, 2, 0, -2], ctildes: [-5.3674794600261375, 6.573793014687115, -5.3674794600261375, 6.573793014687115, -2.6837397300130688, -2.6837397300130688, 6.573793014687115, -5.3674794600261375, -2.6837397300130688, 5.3674794600261375, -2.6837397300130688, -5.3674794600261375, 6.573793014687115, -2.6837397300130688, -2.6837397300130688, 6.573793014687115, -5.3674794600261375, 6.573793014687115, -5.3674794600261375]}
    - {mu0: 1, rank: 3, ndensity: 1, num_ms_combs: 19, mus: [0, 0, 0], ns: [2, 2, 2], ls: [2, 2, 2], ms_combs: [-2, 0, 2, -2, 1, 1, -2, 2, 0, -1, -1, 2, -1, 0, 1, -1, 1, 0, -1, 2, -1, 0, -2, 2, 0, -1, 1, 0, 0, 0, 0, 1, -1, 0, 2, -2, 1, -2, 1, 1, -1, 0, 1, 0, -1, 1, 1, -2, 2, -2, 0, 2, -1, -1, 2, 0, -2], ctildes: [0.00011337442118191893, -0.0001388547424467022, 0.00011337442118191893, -0.0001388547424467022, 5.668721059095947e-05, 5.668721059095947e-05, -0.0001388547424467022, 0.00011337442118191893, 5.668721059095947e-05, -0.00011337442118191893, 5.668721059095947e-05, 0.00011337442118191893, -0.0001388547424467022, 5.668721059095947e-05, 5.668721059095947e-05, -0.0001388547424467022, 0.00011337442118191893, -0.0001388547424467022, 0.00011337442118191893]}
    - {mu0: 1, rank: 3, ndensity: 1, num_ms_combs: 19, mus: [0, 0, 1], ns: [2, 2, 2], ls: [2, 2, 2], ms_combs: [-2, 0, 2, -2, 1, 1, -2, 2, 0, -1, -1, 2, -1, 0, 1, -1, 1, 0, -1, 2, -1, 0, -2, 2, 0, -1, 1, 0, 0, 0, 0, 1, -1, 0, 2, -2, 1, -2, 1, 1, -1, 0, 1, 0, -1, 1, 1, -2, 2, -2, 0, 2, -1, -1, 2, 0, -2], ctildes: [11.928076717478252, -14.60885094912477, 11.928076717478252, -14.60885094912477, 5.964038358739126, 5.964038358739126, -14.60885094912477, 11.928076717478252, 5.964038358739126, -11.928076717478252, 5.964038358739126, 11.928076717478252, -14.60885094912477, 5.964038358739126, 5.964038358739126, -14.60885094912477, 11.928076717478252, -14.60885094912477, 11.928076717478252]}
    - {mu0: 1, rank: 3, ndensity: 1, num_ms_combs: 19, mus: [0, 1, 1], ns: [2, 2, 2], ls: [2, 2, 2], ms_combs: [-2, 0, 2, -2, 1, 1, -2, 2, 0, -1, -1, 2, -1, 0, 1, -1, 1, 0, -1, 2, -1, 0, -2, 2, 0, -1, 1, 0, 0, 0, 0, 1, -1, 0, 2, -2, 1, -2, 1, 1, -1, 0, 1, 0, -1, 1, 1, -2, 2, -2, 0, 2, -1, -1, 2, 0, -2], ctildes: [-5.771195414555537e-05, 7.06824206504085e-05, -5.771195414555537e-05, 7.06824206504085e-05, -2.8855977072777684e-05, -2.8855977072777684e-05, 7.06824206504085e-05, -5.771195414555537e-05, -2.8855977072777684e-05, 5.771195414555537e-05, -2.8855977072777684e-05, -5.771195414555537e-05, 7.06824206504085e-05, -2.8855977072777684e-05, -2.8855977072777684e-05, 7.06824206504085e-05, -5.771195414555537e-05, 7.06824206504085e-05, -5.771195414555537e-05]}
    - {mu0: 1, rank: 3, ndensity: 1, num_ms_combs: 19, mus: [1, 1, 1], ns: [2, 2, 2], ls: [2, 2, 2], ms_combs: [-2, 0, 2, -2, 1, 1, -2, 2, 0, -1, -1, 2, -1, 0, 1, -1, 1, 0, -1, 2, -1, 0, -2, 2, 0, -1, 1, 0, 0, 0, 0, 1, -1, 0, 2, -2, 1, -2, 1, 1, -1, 0, 1, 0, -1, 1, 1, -2, 2, -2, 0, 2, -1, -1, 2, 0, -2], ctildes: [2.872323074991931e-05, -3.5178629945264146e-05, 2.872323074991931e-05, -3.5178629945264146e-05, 1.4361615374959655e-05, 1.4361615374959655e-05, -3.5178629945264146e-05, 2.872323074991931e-05, 1.4361615374959655e-05, -2.872323074991931e-05, 1.4361615374959655e-05, 2.872323074991931e-05, -3.5178629945264146e-05, 1.4361615374959655e-05, 1.4361615374959655e-05, -3.5178629945264146e-05, 2.872323074991931e-05, -3.5178629945264146e-05, 2.872323074991931e-05]}
    - {mu0: 1, rank: 4, ndensity: 1, num_ms_combs: 19, mus: [0, 0, 0, 0], ns: [1, 1, 1, 1], ls: [1, 1, 1, 1], ms_combs: [-1, -1, 1, 1, -1, 0, 0, 1, -1, 0, 1, 0, -1, 1, -1, 1, -1, 1, 0, 0, -1, 1, 1, -1, 0, -1, 0, 1, 0, -1, 1, 0, 0, 0, -1, 1, 0, 0, 0, 0, 0, 0, 1, -1, 0, 1, -1, 0, 0, 1, 0, -1, 1, -1, -1, 1, 1, -1, 0, 0, 1, -1, 1, -1, 1, 0, -1, 0, 1, 0, 0, -1, 1, 1, -1, -1], ctildes: [-0.00020377253639884595, 0.00010188626926963794, 0.00010188626926963794, -3.396209460868742e-05, -6.792418921737484e-05, -3.396209460868742e-05, 0.00010188626926963794, 0.00010188626926963794, -6.792418921737484e-05, -0.00013584837843474967, -6.792418921737484e-05, 0.00010188626926963794, 0.00010188626926963794, -3.396209460868742e-05, -6.792418921737484e-05, -3.396209460868742e-05, 0.00010188626926963794, 0.00010188626926963794, -0.00020377253639884595]}
    - {mu0: 1, rank: 4, ndensity: 1, num_ms_combs: 19, mus: [0, 0, 0, 1], ns: [1, 1, 1, 1], ls: [1, 1, 1, 1], ms_combs: [-1, -1, 1, 1, -1, 0, 0, 1, -1, 0, 1, 0, -1, 1, -1, 1, -1, 1, 0, 0, -1, 1, 1, -1, 0, -1, 0, 1, 0, -1, 1, 0, 0, 0, -1, 1, 0, 0, 0, 0, 0, 0, 1, -1, 0, 1, -1, 0, 0, 1, 0, -1, 1, -1, -1, 1, 1, -1, 0, 0, 1, -1, 1, -1, 1, 0, -1, 0, 1, 0, 0, -1, 1, 1, -1, -1], ctildes: [3.4834282734175215e-06, -1.7417141550037534e-06, -1.7417141550037534e-06, 5.805714679471033e-07, 1.1611429358942065e-06, 5.805714679471033e-07, -1.7417141550037534e-06, -1.7417141550037534e-06, 1.1611429358942065e-06, 2.322285871788413e-06, 1.1611429358942065e-06, -1.7417141550037534e-06, -1.7417141550037534e-06, 5.805714679471033e-07, 1.1611429358942065e-06, 5.805714679471033e-07, -1.7417141550037534e-06, -1.7417141550037534e-06, 3.4834282734175215e-06]}
    - {mu0: 1, rank: 4, ndensity: 1, num_ms_combs: 19, mus: [0, 0, 1, 1], ns: [1, 1, 1, 1], ls: [1, 1, 1, 1], ms_combs: [-1, -1, 1, 1, -1, 0, 0, 1, -1, 0, 1, 0, -1, 1, -1, 1, -1, 1, 0, 0, -1, 1, 1, -1, 0, -1, 0, 1, 0, -1, 1, 0, 0, 0, -1, 1, 0, 0, 0, 0, 0, 0, 1, -1, 0, 1, -1, 0, 0, 1, 0, -1, 1, -1, -1, 1, 1, -1, 0, 0, 1, -1, 1, -1, 1, 0, -1, 0, 1, 0, 0, -1, 1, 1, -1, -1], ctildes: [7.856635461493912e-05, -3.928317772010067e-05, -3.928317772010067e-05, 1.309439444415415e-05, 2.61887888883083e-05, 1.309439444415415e-05, -3.928317772010067e-05, -3.928317772010067e-05, 2.61887888883083e-05, 5.23775777766166e-05, 2.61887888883083e-05, -3.928317772010067e-05, -3.928317772010067e-05, 1.309439444415415e-05, 2.61887888883083e-05, 1.309439444415415e-05, -3.928317772010067e-05, -3.928317772010067e-05, 7.856635461493912e-05]}
    - {mu0: 1, rank: 4, ndensity: 1, num_ms_combs: 19, mus: [0, 1, 1, 1], ns: [1, 1, 1, 1], ls: [1, 1, 1, 1], ms_combs: [-1, -1, 1, 1, -1, 0, 0, 1, -1, 0, 1, 0, -1, 1, -1, 1, -1, 1, 0, 0, -1, 1, 1, -1, 0, -1, 0, 1, 0, -1, 1, 0, 0, 0, -1, 1, 0, 0, 0, 0, 0, 0, 1, -1, 0, 1, -1, 0, 0, 1, 0, -1, 1, -1, -1, 1, 1, -1, 0, 0, 1, -1, 1, -1, 1, 0, -1, 0, 1, 0, 0, -1, 1, 1, -1, -1], ctildes: [0.8290530259886745, -0.41452651734853024, -0.41452651734853024, 0.13817552552388712, 0.27635105104777424, 0.13817552552388712, -0.41452651734853024, -0.41452651734853024, 0.27635105104777424, 0.5527021020955485, 0.27635105104777424, -0.41452651734853024, -0.41452651734853024, 0.13817552552388712, 0.27635105104777424, 0.13817552552388712, -0.41452651734853024, -0.41452651734853024, 0.8290530259886745]}
    - {mu0: 1, rank: 4, ndensity: 1, num_ms_combs: 19, mus: [1, 1, 1, 1], ns: [1, 1, 1, 1], ls: [1, 1, 1, 1], ms_combs: [-1, -1, 1, 1, -1, 0, 0, 1, -1, 0, 1, 0, -1, 1, -1, 1, -1, 1, 0, 0, -1, 1, 1, -1, 0, -1, 0, 1, 0, -1, 1, 0, 0, 0, -1, 1, 0, 0, 0, 0, 0, 0, 1, -1, 0, 1, -1, 0, 0, 1, 0, -1, 1, -1, -1, 1, 1, -1, 0, 0, 1, -1, 1, -1, 1, 0, -1, 0, 1, 0, 0, -1, 1, 1, -1, -1], ctildes: [1.2799515021266803, -0.6399757577856555, -0.6399757577856555, 0.2133252830728571, 0.4266505661457142, 0.2133252830728571, -0.6399757577856555, -0.6399757577856555, 0.4266505661457142, 0.8533011322914285, 0.4266505661457142, -0.6399757577856555, -0.6399757577856555, 0.2133252830728571, 0.4266505661457142, 0.2133252830728571, -0.6399757577856555, -0.6399757577856555, 1.2799515021266803]}
