# DATE: 21-12-20 UNITS: metal CONTRIBUTOR: James Goff <jmgoff@sandia.gov> CITATION: py_PACE

nelements=1
elements: Ta

lmax=3

2 FS parameters:  1.000000 1.000000
core energy-cutoff parameters: 100000.000000000000000000 250.000000000000000000
E0:0.00000000000000000000000000000000

radbasename=ChebExpCos
nradbase=16
nradmax=16
cutoffmax=7.5000100000
deltaSplineBins=0.001000
core repulsion parameters: 0.000000000000000000 1.000000000000000000
radparameter= 5.0000000000
cutoff= 7.5000000000
dcut= 0.010000000000000000
crad= 1.0 1.0 1.0 1.0
0.0 0.0 0.0 0.0
0.0 0.0 0.0 0.0
0.0 0.0 0.0 0.0
0.0 0.0 0.0 0.0
0.0 0.0 0.0 0.0
0.0 0.0 0.0 0.0
0.0 0.0 0.0 0.0
0.0 0.0 0.0 0.0
0.0 0.0 0.0 0.0
0.0 0.0 0.0 0.0
0.0 0.0 0.0 0.0
0.0 0.0 0.0 0.0
0.0 0.0 0.0 0.0
0.0 0.0 0.0 0.0
0.0 0.0 0.0 0.0
0.0 0.0 0.0 0.0
1.0 1.0 1.0 1.0
0.0 0.0 0.0 0.0
0.0 0.0 0.0 0.0
0.0 0.0 0.0 0.0
0.0 0.0 0.0 0.0
0.0 0.0 0.0 0.0
0.0 0.0 0.0 0.0
0.0 0.0 0.0 0.0
0.0 0.0 0.0 0.0
0.0 0.0 0.0 0.0
0.0 0.0 0.0 0.0
0.0 0.0 0.0 0.0
0.0 0.0 0.0 0.0
0.0 0.0 0.0 0.0
0.0 0.0 0.0 0.0
0.0 0.0 0.0 0.0
0.0 0.0 0.0 0.0
1.0 1.0 1.0 1.0
0.0 0.0 0.0 0.0
0.0 0.0 0.0 0.0
0.0 0.0 0.0 0.0
0.0 0.0 0.0 0.0
0.0 0.0 0.0 0.0
0.0 0.0 0.0 0.0
0.0 0.0 0.0 0.0
0.0 0.0 0.0 0.0
0.0 0.0 0.0 0.0
0.0 0.0 0.0 0.0
0.0 0.0 0.0 0.0
0.0 0.0 0.0 0.0
0.0 0.0 0.0 0.0
0.0 0.0 0.0 0.0
0.0 0.0 0.0 0.0
0.0 0.0 0.0 0.0
1.0 1.0 1.0 1.0
0.0 0.0 0.0 0.0
0.0 0.0 0.0 0.0
0.0 0.0 0.0 0.0
0.0 0.0 0.0 0.0
0.0 0.0 0.0 0.0
0.0 0.0 0.0 0.0
0.0 0.0 0.0 0.0
0.0 0.0 0.0 0.0
0.0 0.0 0.0 0.0
0.0 0.0 0.0 0.0
0.0 0.0 0.0 0.0
0.0 0.0 0.0 0.0
0.0 0.0 0.0 0.0
0.0 0.0 0.0 0.0
0.0 0.0 0.0 0.0
0.0 0.0 0.0 0.0
1.0 1.0 1.0 1.0
0.0 0.0 0.0 0.0
0.0 0.0 0.0 0.0
0.0 0.0 0.0 0.0
0.0 0.0 0.0 0.0
0.0 0.0 0.0 0.0
0.0 0.0 0.0 0.0
0.0 0.0 0.0 0.0
0.0 0.0 0.0 0.0
0.0 0.0 0.0 0.0
0.0 0.0 0.0 0.0
0.0 0.0 0.0 0.0
0.0 0.0 0.0 0.0
0.0 0.0 0.0 0.0
0.0 0.0 0.0 0.0
0.0 0.0 0.0 0.0
0.0 0.0 0.0 0.0
1.0 1.0 1.0 1.0
0.0 0.0 0.0 0.0
0.0 0.0 0.0 0.0
0.0 0.0 0.0 0.0
0.0 0.0 0.0 0.0
0.0 0.0 0.0 0.0
0.0 0.0 0.0 0.0
0.0 0.0 0.0 0.0
0.0 0.0 0.0 0.0
0.0 0.0 0.0 0.0
0.0 0.0 0.0 0.0
0.0 0.0 0.0 0.0
0.0 0.0 0.0 0.0
0.0 0.0 0.0 0.0
0.0 0.0 0.0 0.0
0.0 0.0 0.0 0.0
0.0 0.0 0.0 0.0
1.0 1.0 1.0 1.0
0.0 0.0 0.0 0.0
0.0 0.0 0.0 0.0
0.0 0.0 0.0 0.0
0.0 0.0 0.0 0.0
0.0 0.0 0.0 0.0
0.0 0.0 0.0 0.0
0.0 0.0 0.0 0.0
0.0 0.0 0.0 0.0
0.0 0.0 0.0 0.0
0.0 0.0 0.0 0.0
0.0 0.0 0.0 0.0
0.0 0.0 0.0 0.0
0.0 0.0 0.0 0.0
0.0 0.0 0.0 0.0
0.0 0.0 0.0 0.0
0.0 0.0 0.0 0.0
1.0 1.0 1.0 1.0
0.0 0.0 0.0 0.0
0.0 0.0 0.0 0.0
0.0 0.0 0.0 0.0
0.0 0.0 0.0 0.0
0.0 0.0 0.0 0.0
0.0 0.0 0.0 0.0
0.0 0.0 0.0 0.0
0.0 0.0 0.0 0.0
0.0 0.0 0.0 0.0
0.0 0.0 0.0 0.0
0.0 0.0 0.0 0.0
0.0 0.0 0.0 0.0
0.0 0.0 0.0 0.0
0.0 0.0 0.0 0.0
0.0 0.0 0.0 0.0
0.0 0.0 0.0 0.0
1.0 1.0 1.0 1.0
0.0 0.0 0.0 0.0
0.0 0.0 0.0 0.0
0.0 0.0 0.0 0.0
0.0 0.0 0.0 0.0
0.0 0.0 0.0 0.0
0.0 0.0 0.0 0.0
0.0 0.0 0.0 0.0
0.0 0.0 0.0 0.0
0.0 0.0 0.0 0.0
0.0 0.0 0.0 0.0
0.0 0.0 0.0 0.0
0.0 0.0 0.0 0.0
0.0 0.0 0.0 0.0
0.0 0.0 0.0 0.0
0.0 0.0 0.0 0.0
0.0 0.0 0.0 0.0
1.0 1.0 1.0 1.0
0.0 0.0 0.0 0.0
0.0 0.0 0.0 0.0
0.0 0.0 0.0 0.0
0.0 0.0 0.0 0.0
0.0 0.0 0.0 0.0
0.0 0.0 0.0 0.0
0.0 0.0 0.0 0.0
0.0 0.0 0.0 0.0
0.0 0.0 0.0 0.0
0.0 0.0 0.0 0.0
0.0 0.0 0.0 0.0
0.0 0.0 0.0 0.0
0.0 0.0 0.0 0.0
0.0 0.0 0.0 0.0
0.0 0.0 0.0 0.0
0.0 0.0 0.0 0.0
1.0 1.0 1.0 1.0
0.0 0.0 0.0 0.0
0.0 0.0 0.0 0.0
0.0 0.0 0.0 0.0
0.0 0.0 0.0 0.0
0.0 0.0 0.0 0.0
0.0 0.0 0.0 0.0
0.0 0.0 0.0 0.0
0.0 0.0 0.0 0.0
0.0 0.0 0.0 0.0
0.0 0.0 0.0 0.0
0.0 0.0 0.0 0.0
0.0 0.0 0.0 0.0
0.0 0.0 0.0 0.0
0.0 0.0 0.0 0.0
0.0 0.0 0.0 0.0
0.0 0.0 0.0 0.0
1.0 1.0 1.0 1.0
0.0 0.0 0.0 0.0
0.0 0.0 0.0 0.0
0.0 0.0 0.0 0.0
0.0 0.0 0.0 0.0
0.0 0.0 0.0 0.0
0.0 0.0 0.0 0.0
0.0 0.0 0.0 0.0
0.0 0.0 0.0 0.0
0.0 0.0 0.0 0.0
0.0 0.0 0.0 0.0
0.0 0.0 0.0 0.0
0.0 0.0 0.0 0.0
0.0 0.0 0.0 0.0
0.0 0.0 0.0 0.0
0.0 0.0 0.0 0.0
0.0 0.0 0.0 0.0
1.0 1.0 1.0 1.0
0.0 0.0 0.0 0.0
0.0 0.0 0.0 0.0
0.0 0.0 0.0 0.0
0.0 0.0 0.0 0.0
0.0 0.0 0.0 0.0
0.0 0.0 0.0 0.0
0.0 0.0 0.0 0.0
0.0 0.0 0.0 0.0
0.0 0.0 0.0 0.0
0.0 0.0 0.0 0.0
0.0 0.0 0.0 0.0
0.0 0.0 0.0 0.0
0.0 0.0 0.0 0.0
0.0 0.0 0.0 0.0
0.0 0.0 0.0 0.0
0.0 0.0 0.0 0.0
1.0 1.0 1.0 1.0
0.0 0.0 0.0 0.0
0.0 0.0 0.0 0.0
0.0 0.0 0.0 0.0
0.0 0.0 0.0 0.0
0.0 0.0 0.0 0.0
0.0 0.0 0.0 0.0
0.0 0.0 0.0 0.0
0.0 0.0 0.0 0.0
0.0 0.0 0.0 0.0
0.0 0.0 0.0 0.0
0.0 0.0 0.0 0.0
0.0 0.0 0.0 0.0
0.0 0.0 0.0 0.0
0.0 0.0 0.0 0.0
0.0 0.0 0.0 0.0
0.0 0.0 0.0 0.0
1.0 1.0 1.0 1.0
0.0 0.0 0.0 0.0
0.0 0.0 0.0 0.0
0.0 0.0 0.0 0.0
0.0 0.0 0.0 0.0
0.0 0.0 0.0 0.0
0.0 0.0 0.0 0.0
0.0 0.0 0.0 0.0
0.0 0.0 0.0 0.0
0.0 0.0 0.0 0.0
0.0 0.0 0.0 0.0
0.0 0.0 0.0 0.0
0.0 0.0 0.0 0.0
0.0 0.0 0.0 0.0
0.0 0.0 0.0 0.0
0.0 0.0 0.0 0.0
0.0 0.0 0.0 0.0
1.0 1.0 1.0 1.0

rankmax=6
ndensitymax=1

num_c_tilde_max=76
num_ms_combinations_max=141
total_basis_size_rank1: 16
ctilde_basis_func: rank=1 ndens=1 mu0=0 mu=( 0 )
n=( 1 )
l=( 0 )
num_ms=1
< 0 >:  1.000000000000000000000000
ctilde_basis_func: rank=1 ndens=1 mu0=0 mu=( 0 )
n=( 2 )
l=( 0 )
num_ms=1
< 0 >:  1.000000000000000000000000
ctilde_basis_func: rank=1 ndens=1 mu0=0 mu=( 0 )
n=( 3 )
l=( 0 )
num_ms=1
< 0 >:  1.000000000000000000000000
ctilde_basis_func: rank=1 ndens=1 mu0=0 mu=( 0 )
n=( 4 )
l=( 0 )
num_ms=1
< 0 >:  1.000000000000000000000000
ctilde_basis_func: rank=1 ndens=1 mu0=0 mu=( 0 )
n=( 5 )
l=( 0 )
num_ms=1
< 0 >:  1.000000000000000000000000
ctilde_basis_func: rank=1 ndens=1 mu0=0 mu=( 0 )
n=( 6 )
l=( 0 )
num_ms=1
< 0 >:  1.000000000000000000000000
ctilde_basis_func: rank=1 ndens=1 mu0=0 mu=( 0 )
n=( 7 )
l=( 0 )
num_ms=1
< 0 >:  1.000000000000000000000000
ctilde_basis_func: rank=1 ndens=1 mu0=0 mu=( 0 )
n=( 8 )
l=( 0 )
num_ms=1
< 0 >:  1.000000000000000000000000
ctilde_basis_func: rank=1 ndens=1 mu0=0 mu=( 0 )
n=( 9 )
l=( 0 )
num_ms=1
< 0 >:  1.000000000000000000000000
ctilde_basis_func: rank=1 ndens=1 mu0=0 mu=( 0 )
n=( 10 )
l=( 0 )
num_ms=1
< 0 >:  1.000000000000000000000000
ctilde_basis_func: rank=1 ndens=1 mu0=0 mu=( 0 )
n=( 11 )
l=( 0 )
num_ms=1
< 0 >:  1.000000000000000000000000
ctilde_basis_func: rank=1 ndens=1 mu0=0 mu=( 0 )
n=( 12 )
l=( 0 )
num_ms=1
< 0 >:  1.000000000000000000000000
ctilde_basis_func: rank=1 ndens=1 mu0=0 mu=( 0 )
n=( 13 )
l=( 0 )
num_ms=1
< 0 >:  1.000000000000000000000000
ctilde_basis_func: rank=1 ndens=1 mu0=0 mu=( 0 )
n=( 14 )
l=( 0 )
num_ms=1
< 0 >:  1.000000000000000000000000
ctilde_basis_func: rank=1 ndens=1 mu0=0 mu=( 0 )
n=( 15 )
l=( 0 )
num_ms=1
< 0 >:  1.000000000000000000000000
ctilde_basis_func: rank=1 ndens=1 mu0=0 mu=( 0 )
n=( 16 )
l=( 0 )
num_ms=1
< 0 >:  1.000000000000000000000000
total_basis_size: 60
ctilde_basis_func: rank=2 ndens=1 mu0=0 mu=(  0  0  )
n=( 1  1 )
l=( 0  0 )
num_ms=1
< 0  0 >:  1.000000000000000000000000
ctilde_basis_func: rank=2 ndens=1 mu0=0 mu=(  0  0  )
n=( 1  1 )
l=( 1  1 )
num_ms=3
< -1  1 >:  -1.000000000000000000000000
< 0  0 >:  1.000000000000000000000000
< 1  -1 >:  -1.000000000000000000000000
ctilde_basis_func: rank=2 ndens=1 mu0=0 mu=(  0  0  )
n=( 1  1 )
l=( 2  2 )
num_ms=5
< -2  2 >:  1.000000000000000000000000
< -1  1 >:  -1.000000000000000000000000
< 0  0 >:  1.000000000000000000000000
< 1  -1 >:  -1.000000000000000000000000
< 2  -2 >:  1.000000000000000000000000
ctilde_basis_func: rank=2 ndens=1 mu0=0 mu=(  0  0  )
n=( 1  1 )
l=( 3  3 )
num_ms=7
< -3  3 >:  -1.000000000000000000000000
< -2  2 >:  1.000000000000000000000000
< -1  1 >:  -1.000000000000000000000000
< 0  0 >:  1.000000000000000000000000
< 1  -1 >:  -1.000000000000000000000000
< 2  -2 >:  1.000000000000000000000000
< 3  -3 >:  -1.000000000000000000000000
ctilde_basis_func: rank=2 ndens=1 mu0=0 mu=(  0  0  )
n=( 1  2 )
l=( 0  0 )
num_ms=1
< 0  0 >:  1.000000000000000000000000
ctilde_basis_func: rank=2 ndens=1 mu0=0 mu=(  0  0  )
n=( 1  2 )
l=( 1  1 )
num_ms=3
< -1  1 >:  -1.000000000000000000000000
< 0  0 >:  1.000000000000000000000000
< 1  -1 >:  -1.000000000000000000000000
ctilde_basis_func: rank=2 ndens=1 mu0=0 mu=(  0  0  )
n=( 1  2 )
l=( 2  2 )
num_ms=5
< -2  2 >:  1.000000000000000000000000
< -1  1 >:  -1.000000000000000000000000
< 0  0 >:  1.000000000000000000000000
< 1  -1 >:  -1.000000000000000000000000
< 2  -2 >:  1.000000000000000000000000
ctilde_basis_func: rank=2 ndens=1 mu0=0 mu=(  0  0  )
n=( 1  2 )
l=( 3  3 )
num_ms=7
< -3  3 >:  -1.000000000000000000000000
< -2  2 >:  1.000000000000000000000000
< -1  1 >:  -1.000000000000000000000000
< 0  0 >:  1.000000000000000000000000
< 1  -1 >:  -1.000000000000000000000000
< 2  -2 >:  1.000000000000000000000000
< 3  -3 >:  -1.000000000000000000000000
ctilde_basis_func: rank=2 ndens=1 mu0=0 mu=(  0  0  )
n=( 1  3 )
l=( 0  0 )
num_ms=1
< 0  0 >:  1.000000000000000000000000
ctilde_basis_func: rank=2 ndens=1 mu0=0 mu=(  0  0  )
n=( 1  3 )
l=( 1  1 )
num_ms=3
< -1  1 >:  -1.000000000000000000000000
< 0  0 >:  1.000000000000000000000000
< 1  -1 >:  -1.000000000000000000000000
ctilde_basis_func: rank=2 ndens=1 mu0=0 mu=(  0  0  )
n=( 1  3 )
l=( 2  2 )
num_ms=5
< -2  2 >:  1.000000000000000000000000
< -1  1 >:  -1.000000000000000000000000
< 0  0 >:  1.000000000000000000000000
< 1  -1 >:  -1.000000000000000000000000
< 2  -2 >:  1.000000000000000000000000
ctilde_basis_func: rank=2 ndens=1 mu0=0 mu=(  0  0  )
n=( 1  3 )
l=( 3  3 )
num_ms=7
< -3  3 >:  -1.000000000000000000000000
< -2  2 >:  1.000000000000000000000000
< -1  1 >:  -1.000000000000000000000000
< 0  0 >:  1.000000000000000000000000
< 1  -1 >:  -1.000000000000000000000000
< 2  -2 >:  1.000000000000000000000000
< 3  -3 >:  -1.000000000000000000000000
ctilde_basis_func: rank=2 ndens=1 mu0=0 mu=(  0  0  )
n=( 2  2 )
l=( 0  0 )
num_ms=1
< 0  0 >:  1.000000000000000000000000
ctilde_basis_func: rank=2 ndens=1 mu0=0 mu=(  0  0  )
n=( 2  2 )
l=( 1  1 )
num_ms=3
< -1  1 >:  -1.000000000000000000000000
< 0  0 >:  1.000000000000000000000000
< 1  -1 >:  -1.000000000000000000000000
ctilde_basis_func: rank=2 ndens=1 mu0=0 mu=(  0  0  )
n=( 2  2 )
l=( 2  2 )
num_ms=5
< -2  2 >:  1.000000000000000000000000
< -1  1 >:  -1.000000000000000000000000
< 0  0 >:  1.000000000000000000000000
< 1  -1 >:  -1.000000000000000000000000
< 2  -2 >:  1.000000000000000000000000
ctilde_basis_func: rank=2 ndens=1 mu0=0 mu=(  0  0  )
n=( 2  2 )
l=( 3  3 )
num_ms=7
< -3  3 >:  -1.000000000000000000000000
< -2  2 >:  1.000000000000000000000000
< -1  1 >:  -1.000000000000000000000000
< 0  0 >:  1.000000000000000000000000
< 1  -1 >:  -1.000000000000000000000000
< 2  -2 >:  1.000000000000000000000000
< 3  -3 >:  -1.000000000000000000000000
ctilde_basis_func: rank=2 ndens=1 mu0=0 mu=(  0  0  )
n=( 2  3 )
l=( 0  0 )
num_ms=1
< 0  0 >:  1.000000000000000000000000
ctilde_basis_func: rank=2 ndens=1 mu0=0 mu=(  0  0  )
n=( 2  3 )
l=( 1  1 )
num_ms=3
< -1  1 >:  -1.000000000000000000000000
< 0  0 >:  1.000000000000000000000000
< 1  -1 >:  -1.000000000000000000000000
ctilde_basis_func: rank=2 ndens=1 mu0=0 mu=(  0  0  )
n=( 2  3 )
l=( 2  2 )
num_ms=5
< -2  2 >:  1.000000000000000000000000
< -1  1 >:  -1.000000000000000000000000
< 0  0 >:  1.000000000000000000000000
< 1  -1 >:  -1.000000000000000000000000
< 2  -2 >:  1.000000000000000000000000
ctilde_basis_func: rank=2 ndens=1 mu0=0 mu=(  0  0  )
n=( 2  3 )
l=( 3  3 )
num_ms=7
< -3  3 >:  -1.000000000000000000000000
< -2  2 >:  1.000000000000000000000000
< -1  1 >:  -1.000000000000000000000000
< 0  0 >:  1.000000000000000000000000
< 1  -1 >:  -1.000000000000000000000000
< 2  -2 >:  1.000000000000000000000000
< 3  -3 >:  -1.000000000000000000000000
ctilde_basis_func: rank=2 ndens=1 mu0=0 mu=(  0  0  )
n=( 3  3 )
l=( 0  0 )
num_ms=1
< 0  0 >:  1.000000000000000000000000
ctilde_basis_func: rank=2 ndens=1 mu0=0 mu=(  0  0  )
n=( 3  3 )
l=( 1  1 )
num_ms=3
< -1  1 >:  -1.000000000000000000000000
< 0  0 >:  1.000000000000000000000000
< 1  -1 >:  -1.000000000000000000000000
ctilde_basis_func: rank=2 ndens=1 mu0=0 mu=(  0  0  )
n=( 3  3 )
l=( 2  2 )
num_ms=5
< -2  2 >:  1.000000000000000000000000
< -1  1 >:  -1.000000000000000000000000
< 0  0 >:  1.000000000000000000000000
< 1  -1 >:  -1.000000000000000000000000
< 2  -2 >:  1.000000000000000000000000
ctilde_basis_func: rank=2 ndens=1 mu0=0 mu=(  0  0  )
n=( 3  3 )
l=( 3  3 )
num_ms=7
< -3  3 >:  -1.000000000000000000000000
< -2  2 >:  1.000000000000000000000000
< -1  1 >:  -1.000000000000000000000000
< 0  0 >:  1.000000000000000000000000
< 1  -1 >:  -1.000000000000000000000000
< 2  -2 >:  1.000000000000000000000000
< 3  -3 >:  -1.000000000000000000000000
ctilde_basis_func: rank=3 ndens=1 mu0=0 mu=(  0  0  0  )
n=( 1  1  1 )
l=( 0  0  0 )
num_ms=1
< 0  0  0 >:  1.000000000000000000000000
ctilde_basis_func: rank=3 ndens=1 mu0=0 mu=(  0  0  0  )
n=( 1  1  1 )
l=( 1  1  0 )
num_ms=3
< -1  1  0 >:  0.577350269189625731058868
< 0  0  0 >:  -0.577350269189625731058868
< 1  -1  0 >:  0.577350269189625731058868
ctilde_basis_func: rank=3 ndens=1 mu0=0 mu=(  0  0  0  )
n=( 1  1  1 )
l=( 2  2  0 )
num_ms=5
< -2  2  0 >:  0.447213595499957927703605
< -1  1  0 >:  -0.447213595499957927703605
< 0  0  0 >:  0.447213595499957983214756
< 1  -1  0 >:  -0.447213595499957927703605
< 2  -2  0 >:  0.447213595499957927703605
ctilde_basis_func: rank=3 ndens=1 mu0=0 mu=(  0  0  0  )
n=( 1  1  1 )
l=( 2  1  1 )
num_ms=9
< -2  1  1 >:  0.447213595499958038725907
< -1  0  1 >:  -0.316227766016837941176476
< -1  1  0 >:  -0.316227766016837941176476
< 0  -1  1 >:  0.182574185835055413651418
< 0  0  0 >:  0.365148371670110827302835
< 0  1  -1 >:  0.182574185835055413651418
< 1  -1  0 >:  -0.316227766016837941176476
< 1  0  -1 >:  -0.316227766016837941176476
< 2  -1  -1 >:  0.447213595499958038725907
ctilde_basis_func: rank=3 ndens=1 mu0=0 mu=(  0  0  0  )
n=( 1  1  1 )
l=( 2  2  2 )
num_ms=19
< -2  0  2 >:  0.239045721866878724259919
< -2  1  1 >:  -0.292770021884559916713897
< -2  2  0 >:  0.239045721866878724259919
< -1  -1  2 >:  -0.292770021884559916713897
< -1  0  1 >:  0.119522860933439362129960
< -1  1  0 >:  0.119522860933439362129960
< -1  2  -1 >:  -0.292770021884559916713897
< 0  -2  2 >:  0.239045721866878724259919
< 0  -1  1 >:  0.119522860933439362129960
< 0  0  0 >:  -0.239045721866878724259919
< 0  1  -1 >:  0.119522860933439362129960
< 0  2  -2 >:  0.239045721866878724259919
< 1  -2  1 >:  -0.292770021884559916713897
< 1  -1  0 >:  0.119522860933439362129960
< 1  0  -1 >:  0.119522860933439362129960
< 1  1  -2 >:  -0.292770021884559916713897
< 2  -2  0 >:  0.239045721866878724259919
< 2  -1  -1 >:  -0.292770021884559916713897
< 2  0  -2 >:  0.239045721866878724259919
ctilde_basis_func: rank=3 ndens=1 mu0=0 mu=(  0  0  0  )
n=( 2  1  1 )
l=( 0  0  0 )
num_ms=1
< 0  0  0 >:  1.000000000000000000000000
ctilde_basis_func: rank=3 ndens=1 mu0=0 mu=(  0  0  0  )
n=( 2  1  1 )
l=( 1  1  0 )
num_ms=3
< -1  1  0 >:  0.577350269189625731058868
< 0  0  0 >:  -0.577350269189625731058868
< 1  -1  0 >:  0.577350269189625731058868
ctilde_basis_func: rank=3 ndens=1 mu0=0 mu=(  0  0  0  )
n=( 2  1  1 )
l=( 2  2  0 )
num_ms=5
< -2  2  0 >:  0.447213595499957927703605
< -1  1  0 >:  -0.447213595499957927703605
< 0  0  0 >:  0.447213595499957983214756
< 1  -1  0 >:  -0.447213595499957927703605
< 2  -2  0 >:  0.447213595499957927703605
ctilde_basis_func: rank=3 ndens=1 mu0=0 mu=(  0  0  0  )
n=( 2  1  1 )
l=( 2  1  1 )
num_ms=9
< -2  1  1 >:  0.447213595499958038725907
< -1  0  1 >:  -0.316227766016837941176476
< -1  1  0 >:  -0.316227766016837941176476
< 0  -1  1 >:  0.182574185835055413651418
< 0  0  0 >:  0.365148371670110827302835
< 0  1  -1 >:  0.182574185835055413651418
< 1  -1  0 >:  -0.316227766016837941176476
< 1  0  -1 >:  -0.316227766016837941176476
< 2  -1  -1 >:  0.447213595499958038725907
ctilde_basis_func: rank=3 ndens=1 mu0=0 mu=(  0  0  0  )
n=( 2  1  1 )
l=( 2  2  2 )
num_ms=19
< -2  0  2 >:  0.239045721866878724259919
< -2  1  1 >:  -0.292770021884559916713897
< -2  2  0 >:  0.239045721866878724259919
< -1  -1  2 >:  -0.292770021884559916713897
< -1  0  1 >:  0.119522860933439362129960
< -1  1  0 >:  0.119522860933439362129960
< -1  2  -1 >:  -0.292770021884559916713897
< 0  -2  2 >:  0.239045721866878724259919
< 0  -1  1 >:  0.119522860933439362129960
< 0  0  0 >:  -0.239045721866878724259919
< 0  1  -1 >:  0.119522860933439362129960
< 0  2  -2 >:  0.239045721866878724259919
< 1  -2  1 >:  -0.292770021884559916713897
< 1  -1  0 >:  0.119522860933439362129960
< 1  0  -1 >:  0.119522860933439362129960
< 1  1  -2 >:  -0.292770021884559916713897
< 2  -2  0 >:  0.239045721866878724259919
< 2  -1  -1 >:  -0.292770021884559916713897
< 2  0  -2 >:  0.239045721866878724259919
ctilde_basis_func: rank=3 ndens=1 mu0=0 mu=(  0  0  0  )
n=( 1  2  1 )
l=( 2  1  1 )
num_ms=9
< -2  1  1 >:  0.447213595499958038725907
< -1  0  1 >:  -0.316227766016837941176476
< -1  1  0 >:  -0.316227766016837941176476
< 0  -1  1 >:  0.182574185835055413651418
< 0  0  0 >:  0.365148371670110827302835
< 0  1  -1 >:  0.182574185835055413651418
< 1  -1  0 >:  -0.316227766016837941176476
< 1  0  -1 >:  -0.316227766016837941176476
< 2  -1  -1 >:  0.447213595499958038725907
ctilde_basis_func: rank=3 ndens=1 mu0=0 mu=(  0  0  0  )
n=( 2  2  1 )
l=( 0  0  0 )
num_ms=1
< 0  0  0 >:  1.000000000000000000000000
ctilde_basis_func: rank=3 ndens=1 mu0=0 mu=(  0  0  0  )
n=( 2  2  1 )
l=( 1  1  0 )
num_ms=3
< -1  1  0 >:  0.577350269189625731058868
< 0  0  0 >:  -0.577350269189625731058868
< 1  -1  0 >:  0.577350269189625731058868
ctilde_basis_func: rank=3 ndens=1 mu0=0 mu=(  0  0  0  )
n=( 2  2  1 )
l=( 2  2  0 )
num_ms=5
< -2  2  0 >:  0.447213595499957927703605
< -1  1  0 >:  -0.447213595499957927703605
< 0  0  0 >:  0.447213595499957983214756
< 1  -1  0 >:  -0.447213595499957927703605
< 2  -2  0 >:  0.447213595499957927703605
ctilde_basis_func: rank=3 ndens=1 mu0=0 mu=(  0  0  0  )
n=( 2  2  1 )
l=( 2  1  1 )
num_ms=9
< -2  1  1 >:  0.447213595499958038725907
< -1  0  1 >:  -0.316227766016837941176476
< -1  1  0 >:  -0.316227766016837941176476
< 0  -1  1 >:  0.182574185835055413651418
< 0  0  0 >:  0.365148371670110827302835
< 0  1  -1 >:  0.182574185835055413651418
< 1  -1  0 >:  -0.316227766016837941176476
< 1  0  -1 >:  -0.316227766016837941176476
< 2  -1  -1 >:  0.447213595499958038725907
ctilde_basis_func: rank=3 ndens=1 mu0=0 mu=(  0  0  0  )
n=( 2  2  1 )
l=( 2  2  2 )
num_ms=19
< -2  0  2 >:  0.239045721866878724259919
< -2  1  1 >:  -0.292770021884559916713897
< -2  2  0 >:  0.239045721866878724259919
< -1  -1  2 >:  -0.292770021884559916713897
< -1  0  1 >:  0.119522860933439362129960
< -1  1  0 >:  0.119522860933439362129960
< -1  2  -1 >:  -0.292770021884559916713897
< 0  -2  2 >:  0.239045721866878724259919
< 0  -1  1 >:  0.119522860933439362129960
< 0  0  0 >:  -0.239045721866878724259919
< 0  1  -1 >:  0.119522860933439362129960
< 0  2  -2 >:  0.239045721866878724259919
< 1  -2  1 >:  -0.292770021884559916713897
< 1  -1  0 >:  0.119522860933439362129960
< 1  0  -1 >:  0.119522860933439362129960
< 1  1  -2 >:  -0.292770021884559916713897
< 2  -2  0 >:  0.239045721866878724259919
< 2  -1  -1 >:  -0.292770021884559916713897
< 2  0  -2 >:  0.239045721866878724259919
ctilde_basis_func: rank=3 ndens=1 mu0=0 mu=(  0  0  0  )
n=( 1  1  2 )
l=( 1  1  0 )
num_ms=3
< -1  1  0 >:  0.577350269189625731058868
< 0  0  0 >:  -0.577350269189625731058868
< 1  -1  0 >:  0.577350269189625731058868
ctilde_basis_func: rank=3 ndens=1 mu0=0 mu=(  0  0  0  )
n=( 1  1  2 )
l=( 2  2  0 )
num_ms=5
< -2  2  0 >:  0.447213595499957927703605
< -1  1  0 >:  -0.447213595499957927703605
< 0  0  0 >:  0.447213595499957983214756
< 1  -1  0 >:  -0.447213595499957927703605
< 2  -2  0 >:  0.447213595499957927703605
ctilde_basis_func: rank=3 ndens=1 mu0=0 mu=(  0  0  0  )
n=( 2  1  2 )
l=( 1  1  0 )
num_ms=3
< -1  1  0 >:  0.577350269189625731058868
< 0  0  0 >:  -0.577350269189625731058868
< 1  -1  0 >:  0.577350269189625731058868
ctilde_basis_func: rank=3 ndens=1 mu0=0 mu=(  0  0  0  )
n=( 2  1  2 )
l=( 2  2  0 )
num_ms=5
< -2  2  0 >:  0.447213595499957927703605
< -1  1  0 >:  -0.447213595499957927703605
< 0  0  0 >:  0.447213595499957983214756
< 1  -1  0 >:  -0.447213595499957927703605
< 2  -2  0 >:  0.447213595499957927703605
ctilde_basis_func: rank=3 ndens=1 mu0=0 mu=(  0  0  0  )
n=( 1  2  2 )
l=( 2  1  1 )
num_ms=9
< -2  1  1 >:  0.447213595499958038725907
< -1  0  1 >:  -0.316227766016837941176476
< -1  1  0 >:  -0.316227766016837941176476
< 0  -1  1 >:  0.182574185835055413651418
< 0  0  0 >:  0.365148371670110827302835
< 0  1  -1 >:  0.182574185835055413651418
< 1  -1  0 >:  -0.316227766016837941176476
< 1  0  -1 >:  -0.316227766016837941176476
< 2  -1  -1 >:  0.447213595499958038725907
ctilde_basis_func: rank=3 ndens=1 mu0=0 mu=(  0  0  0  )
n=( 2  2  2 )
l=( 0  0  0 )
num_ms=1
< 0  0  0 >:  1.000000000000000000000000
ctilde_basis_func: rank=3 ndens=1 mu0=0 mu=(  0  0  0  )
n=( 2  2  2 )
l=( 1  1  0 )
num_ms=3
< -1  1  0 >:  0.577350269189625731058868
< 0  0  0 >:  -0.577350269189625731058868
< 1  -1  0 >:  0.577350269189625731058868
ctilde_basis_func: rank=3 ndens=1 mu0=0 mu=(  0  0  0  )
n=( 2  2  2 )
l=( 2  2  0 )
num_ms=5
< -2  2  0 >:  0.447213595499957927703605
< -1  1  0 >:  -0.447213595499957927703605
< 0  0  0 >:  0.447213595499957983214756
< 1  -1  0 >:  -0.447213595499957927703605
< 2  -2  0 >:  0.447213595499957927703605
ctilde_basis_func: rank=3 ndens=1 mu0=0 mu=(  0  0  0  )
n=( 2  2  2 )
l=( 2  1  1 )
num_ms=9
< -2  1  1 >:  0.447213595499958038725907
< -1  0  1 >:  -0.316227766016837941176476
< -1  1  0 >:  -0.316227766016837941176476
< 0  -1  1 >:  0.182574185835055413651418
< 0  0  0 >:  0.365148371670110827302835
< 0  1  -1 >:  0.182574185835055413651418
< 1  -1  0 >:  -0.316227766016837941176476
< 1  0  -1 >:  -0.316227766016837941176476
< 2  -1  -1 >:  0.447213595499958038725907
ctilde_basis_func: rank=3 ndens=1 mu0=0 mu=(  0  0  0  )
n=( 2  2  2 )
l=( 2  2  2 )
num_ms=19
< -2  0  2 >:  0.239045721866878724259919
< -2  1  1 >:  -0.292770021884559916713897
< -2  2  0 >:  0.239045721866878724259919
< -1  -1  2 >:  -0.292770021884559916713897
< -1  0  1 >:  0.119522860933439362129960
< -1  1  0 >:  0.119522860933439362129960
< -1  2  -1 >:  -0.292770021884559916713897
< 0  -2  2 >:  0.239045721866878724259919
< 0  -1  1 >:  0.119522860933439362129960
< 0  0  0 >:  -0.239045721866878724259919
< 0  1  -1 >:  0.119522860933439362129960
< 0  2  -2 >:  0.239045721866878724259919
< 1  -2  1 >:  -0.292770021884559916713897
< 1  -1  0 >:  0.119522860933439362129960
< 1  0  -1 >:  0.119522860933439362129960
< 1  1  -2 >:  -0.292770021884559916713897
< 2  -2  0 >:  0.239045721866878724259919
< 2  -1  -1 >:  -0.292770021884559916713897
< 2  0  -2 >:  0.239045721866878724259919
ctilde_basis_func: rank=4 ndens=1 mu0=0 mu=(  0  0  0  0  )
n=( 1  1  1  1 )
l=( 0  0  0  0 )
num_ms=1
< 0  0  0  0 >:  1.000000000000000000000000
ctilde_basis_func: rank=4 ndens=1 mu0=0 mu=(  0  0  0  0  )
n=( 1  1  1  1 )
l=( 1  1  0  0 )
num_ms=3
< -1  1  0  0 >:  0.577350269189625731058868
< 0  0  0  0 >:  -0.577350269189625731058868
< 1  -1  0  0 >:  0.577350269189625731058868
ctilde_basis_func: rank=4 ndens=1 mu0=0 mu=(  0  0  0  0  )
n=( 1  1  1  1 )
l=( 1  1  1  1 )
num_ms=19
< -1  -1  1  1 >:  0.199999999999999983346655
< -1  0  0  1 >:  -0.266666666666666718477074
< -1  0  1  0 >:  0.066666666666666707374844
< -1  1  -1  1 >:  0.533333333333333325931847
< -1  1  0  0 >:  -0.266666666666666662965923
< -1  1  1  -1 >:  0.199999999999999927835503
< 0  -1  0  1 >:  0.066666666666666707374844
< 0  -1  1  0 >:  -0.266666666666666718477074
< 0  0  -1  1 >:  -0.266666666666666662965923
< 0  0  0  0 >:  0.466666666666666618557002
< 0  0  1  -1 >:  -0.266666666666666662965923
< 0  1  -1  0 >:  -0.266666666666666718477074
< 0  1  0  -1 >:  0.066666666666666707374844
< 1  -1  -1  1 >:  0.199999999999999927835503
< 1  -1  0  0 >:  -0.266666666666666662965923
< 1  -1  1  -1 >:  0.533333333333333325931847
< 1  0  -1  0 >:  0.066666666666666707374844
< 1  0  0  -1 >:  -0.266666666666666718477074
< 1  1  -1  -1 >:  0.199999999999999983346655
ctilde_basis_func: rank=5 ndens=1 mu0=0 mu=(  0  0  0  0  0  )
n=( 1  1  1  1  1 )
l=( 0  0  0  0  0 )
num_ms=1
< 0  0  0  0  0 >:  1.000000000000000000000000
ctilde_basis_func: rank=5 ndens=1 mu0=0 mu=(  0  0  0  0  0  )
n=( 1  1  1  1  1 )
l=( 1  1  0  0  0 )
num_ms=3
< -1  1  0  0  0 >:  0.577350269189625731058868
< 0  0  0  0  0 >:  -0.577350269189625731058868
< 1  -1  0  0  0 >:  0.577350269189625731058868
ctilde_basis_func: rank=5 ndens=1 mu0=0 mu=(  0  0  0  0  0  )
n=( 1  1  1  1  1 )
l=( 1  1  1  1  0 )
num_ms=19
< -1  1  -1  1  0 >:  -0.307920143567800508321852
< -1  1  0  0  0 >:  0.153960071783900226405351
< -1  1  1  -1  0 >:  -0.115470053837925148987331
< 0  0  -1  1  0 >:  0.153960071783900226405351
< 0  0  0  0  0 >:  -0.269430125621825444781621
< 0  0  1  -1  0 >:  0.153960071783900226405351
< 1  -1  -1  1  0 >:  -0.115470053837925148987331
< 1  -1  0  0  0 >:  0.153960071783900226405351
< 1  -1  1  -1  0 >:  -0.307920143567800508321852
< -1  0  1  0  0 >:  -0.038490017945975084356913
< 0  -1  1  0  0 >:  0.153960071783900254160926
< 0  1  -1  0  0 >:  0.153960071783900254160926
< 1  0  -1  0  0 >:  -0.038490017945975084356913
< -1  0  0  1  0 >:  0.153960071783900254160926
< 0  -1  0  1  0 >:  -0.038490017945975084356913
< 0  1  0  -1  0 >:  -0.038490017945975084356913
< 1  0  0  -1  0 >:  0.153960071783900254160926
< -1  -1  1  1  0 >:  -0.115470053837925190620695
< 1  1  -1  -1  0 >:  -0.115470053837925190620695
ctilde_basis_func: rank=6 ndens=1 mu0=0 mu=(  0  0  0  0  0  0  )
n=( 1  1  1  1  1  1 )
l=( 0  0  0  0  0  0 )
num_ms=1
< 0  0  0  0  0  0 >:  1.000000000000000000000000
ctilde_basis_func: rank=6 ndens=1 mu0=0 mu=(  0  0  0  0  0  0  )
n=( 1  1  1  1  1  1 )
l=( 1  1  0  0  0  0 )
num_ms=3
< -1  1  0  0  0  0 >:  0.577350269189625731058868
< 0  0  0  0  0  0 >:  -0.577350269189625731058868
< 1  -1  0  0  0  0 >:  0.577350269189625731058868
ctilde_basis_func: rank=6 ndens=1 mu0=0 mu=(  0  0  0  0  0  0  )
n=( 1  1  1  1  1  1 )
l=( 1  1  1  1  0  0 )
num_ms=19
< -1  1  -1  1  0  0 >:  -0.307920143567800452810701
< -1  1  0  0  0  0 >:  0.153960071783900198649775
< -1  1  1  -1  0  0 >:  -0.115470053837925148987331
< 0  0  -1  1  0  0 >:  0.153960071783900198649775
< 0  0  0  0  0  0 >:  -0.269430125621825389270469
< 0  0  1  -1  0  0 >:  0.153960071783900198649775
< 1  -1  -1  1  0  0 >:  -0.115470053837925148987331
< 1  -1  0  0  0  0 >:  0.153960071783900198649775
< 1  -1  1  -1  0  0 >:  -0.307920143567800452810701
< -1  0  1  0  0  0 >:  -0.038490017945975070479125
< 0  -1  1  0  0  0 >:  0.153960071783900226405351
< 0  1  -1  0  0  0 >:  0.153960071783900226405351
< 1  0  -1  0  0  0 >:  -0.038490017945975070479125
< -1  0  0  1  0  0 >:  0.153960071783900226405351
< 0  -1  0  1  0  0 >:  -0.038490017945975070479125
< 0  1  0  -1  0  0 >:  -0.038490017945975070479125
< 1  0  0  -1  0  0 >:  0.153960071783900226405351
< -1  -1  1  1  0  0 >:  -0.115470053837925162865119
< 1  1  -1  -1  0  0 >:  -0.115470053837925162865119
ctilde_basis_func: rank=6 ndens=1 mu0=0 mu=(  0  0  0  0  0  0  )
n=( 1  1  1  1  1  1 )
l=( 1  1  1  1  1  1 )
num_ms=141
< -1  1  -1  1  -1  1 >:  -0.321256326199204966798106
< -1  1  -1  1  0  0 >:  0.116838911896033126325278
< -1  1  -1  1  1  -1 >:  -0.095238095238095205052886
< -1  1  0  0  -1  1 >:  0.151746031746031767584171
< -1  1  0  0  0  0 >:  -0.118730158730158727453663
< -1  1  0  0  1  -1 >:  -0.003809523809523847684422
< -1  1  1  -1  -1  1 >:  -0.046997642054763297259079
< -1  1  1  -1  0  0 >:  0.057764262707141439401326
< -1  1  1  -1  1  -1 >:  -0.095238095238095232808462
< 0  0  -1  1  -1  1 >:  0.116838911896033154080854
< 0  0  -1  1  0  0 >:  -0.092063492063492041728168
< 0  0  -1  1  1  -1 >:  0.057764262707141425523538
< 0  0  0  0  -1  1 >:  -0.118730158730158727453663
< 0  0  0  0  0  0 >:  0.229206349206349219160828
< 0  0  0  0  1  -1 >:  -0.118730158730158727453663
< 0  0  1  -1  -1  1 >:  0.057764262707141425523538
< 0  0  1  -1  0  0 >:  -0.092063492063492041728168
< 0  0  1  -1  1  -1 >:  0.116838911896033154080854
< 1  -1  -1  1  -1  1 >:  -0.095238095238095232808462
< 1  -1  -1  1  0  0 >:  0.057764262707141439401326
< 1  -1  -1  1  1  -1 >:  -0.046997642054763297259079
< 1  -1  0  0  -1  1 >:  -0.003809523809523847684422
< 1  -1  0  0  0  0 >:  -0.118730158730158727453663
< 1  -1  0  0  1  -1 >:  0.151746031746031767584171
< 1  -1  1  -1  -1  1 >:  -0.095238095238095205052886
< 1  -1  1  -1  0  0 >:  0.116838911896033126325278
< 1  -1  1  -1  1  -1 >:  -0.321256326199204966798106
< -1  1  -1  0  0  1 >:  0.125079365079365095736463
< -1  1  -1  0  1  0 >:  -0.004457959515080793175268
< -1  1  0  -1  0  1 >:  -0.074272199215077994161049
< -1  1  0  -1  1  0 >:  0.103505578562699832034788
< -1  1  0  1  -1  0 >:  0.044430929373808117355260
< -1  1  0  1  0  -1 >:  0.044430929373808124294154
< -1  1  1  0  -1  0 >:  -0.030476190476190479633489
< -1  1  1  0  0  -1 >:  0.054616689673810933647324
< 0  0  -1  0  0  1 >:  -0.086970611913490675215499
< 0  0  -1  0  1  0 >:  0.031732516675395436300811
< 0  0  0  -1  0  1 >:  0.036825396825396844446843
< 0  0  0  -1  1  0 >:  -0.118730158730158755209239
< 0  0  0  1  -1  0 >:  -0.118730158730158755209239
< 0  0  0  1  0  -1 >:  0.036825396825396844446843
< 0  0  1  0  -1  0 >:  0.031732516675395436300811
< 0  0  1  0  0  -1 >:  -0.086970611913490675215499
< 1  -1  -1  0  0  1 >:  0.054616689673810933647324
< 1  -1  -1  0  1  0 >:  -0.030476190476190479633489
< 1  -1  0  -1  0  1 >:  0.044430929373808124294154
< 1  -1  0  -1  1  0 >:  0.044430929373808117355260
< 1  -1  0  1  -1  0 >:  0.103505578562699832034788
< 1  -1  0  1  0  -1 >:  -0.074272199215077994161049
< 1  -1  1  0  -1  0 >:  -0.004457959515080793175268
< 1  -1  1  0  0  -1 >:  0.125079365079365095736463
< -1  1  -1  -1  1  1 >:  -0.086997642054763318908428
< -1  1  1  1  -1  -1 >:  -0.050145215088093830768656
< 0  0  -1  -1  1  1 >:  0.062857142857142847547358
< 0  0  1  1  -1  -1 >:  0.062857142857142847547358
< 1  -1  -1  -1  1  1 >:  -0.050145215088093830768656
< 1  -1  1  1  -1  -1 >:  -0.086997642054763318908428
< -1  0  1  -1  0  1 >:  0.063505578562699852018802
< -1  0  1  -1  1  0 >:  -0.066031746031746066383228
< -1  0  1  0  -1  1 >:  -0.074272199215077994161049
< -1  0  1  0  0  0 >:  0.036825396825396830569055
< -1  0  1  0  1  -1 >:  0.044430929373808138171942
< -1  0  1  1  -1  0 >:  0.036190476190476196516332
< -1  0  1  1  0  -1 >:  -0.048902403959525213295034
< 0  -1  1  -1  0  1 >:  -0.066031746031746094138803
< 0  -1  1  -1  1  0 >:  0.159986484929363736995356
< 0  -1  1  0  -1  1 >:  0.103505578562699818157000
< 0  -1  1  0  0  0 >:  -0.118730158730158727453663
< 0  -1  1  0  1  -1 >:  0.044430929373808110416366
< 0  -1  1  1  -1  0 >:  -0.012049976992855730359433
< 0  -1  1  1  0  -1 >:  0.036190476190476196516332
< 0  1  -1  -1  0  1 >:  0.036190476190476196516332
< 0  1  -1  -1  1  0 >:  -0.012049976992855730359433
< 0  1  -1  0  -1  1 >:  0.044430929373808110416366
< 0  1  -1  0  0  0 >:  -0.118730158730158727453663
< 0  1  -1  0  1  -1 >:  0.103505578562699818157000
< 0  1  -1  1  -1  0 >:  0.159986484929363736995356
< 0  1  -1  1  0  -1 >:  -0.066031746031746094138803
< 1  0  -1  -1  0  1 >:  -0.048902403959525213295034
< 1  0  -1  -1  1  0 >:  0.036190476190476196516332
< 1  0  -1  0  -1  1 >:  0.044430929373808138171942
< 1  0  -1  0  0  0 >:  0.036825396825396830569055
< 1  0  -1  0  1  -1 >:  -0.074272199215077994161049
< 1  0  -1  1  -1  0 >:  -0.066031746031746066383228
< 1  0  -1  1  0  -1 >:  0.063505578562699852018802
< -1  0  0  1  -1  1 >:  0.125079365079365095736463
< -1  0  0  1  0  0 >:  -0.086970611913490661337711
< -1  0  0  1  1  -1 >:  0.054616689673810905891749
< 0  -1  0  1  -1  1 >:  -0.004457959515080781899565
< 0  -1  0  1  0  0 >:  0.031732516675395429361917
< 0  -1  0  1  1  -1 >:  -0.030476190476190479633489
< 0  1  0  -1  -1  1 >:  -0.030476190476190479633489
< 0  1  0  -1  0  0 >:  0.031732516675395429361917
< 0  1  0  -1  1  -1 >:  -0.004457959515080781899565
< 1  0  0  -1  -1  1 >:  0.054616689673810905891749
< 1  0  0  -1  0  0 >:  -0.086970611913490661337711
< 1  0  0  -1  1  -1 >:  0.125079365079365095736463
< -1  0  0  0  0  1 >:  -0.083823038880160169461497
< -1  0  0  0  1  0 >:  0.023492063492063511992436
< 0  -1  0  0  0  1 >:  0.023492063492063511992436
< 0  -1  0  0  1  0 >:  -0.046970611913490674382832
< 0  1  0  0  -1  0 >:  -0.046970611913490674382832
< 0  1  0  0  0  -1 >:  0.023492063492063511992436
< 1  0  0  0  -1  0 >:  0.023492063492063511992436
< 1  0  0  0  0  -1 >:  -0.083823038880160169461497
< -1  0  0  -1  1  1 >:  0.057764262707141460218008
< 0  -1  0  -1  1  1 >:  -0.038716643659522410880758
< 0  1  0  1  -1  -1 >:  -0.038716643659522410880758
< 1  0  0  1  -1  -1 >:  0.057764262707141460218008
< -1  0  -1  1  0  1 >:  0.079338049223806730858577
< -1  0  -1  1  1  0 >:  -0.017142857142857167995764
< 0  -1  -1  1  0  1 >:  -0.017142857142857154117976
< 0  -1  -1  1  1  0 >:  0.019709569823812334021795
< 0  1  1  -1  -1  0 >:  0.019709569823812334021795
< 0  1  1  -1  0  -1 >:  -0.017142857142857154117976
< 1  0  1  -1  -1  0 >:  -0.017142857142857167995764
< 1  0  1  -1  0  -1 >:  0.079338049223806730858577
< -1  0  -1  0  1  1 >:  -0.033623763509521002734726
< 0  -1  -1  0  1  1 >:  0.026004715890473387163162
< 0  1  1  0  -1  -1 >:  0.026004715890473387163162
< 1  0  1  0  -1  -1 >:  -0.033623763509521002734726
< -1  -1  1  1  -1  1 >:  -0.086997642054763332786216
< -1  -1  1  1  0  0 >:  0.062857142857142847547358
< -1  -1  1  1  1  -1 >:  -0.050145215088093809951975
< 1  1  -1  -1  -1  1 >:  -0.050145215088093809951975
< 1  1  -1  -1  0  0 >:  0.062857142857142847547358
< 1  1  -1  -1  1  -1 >:  -0.086997642054763332786216
< -1  -1  1  0  0  1 >:  0.057764262707141474095796
< -1  -1  1  0  1  0 >:  -0.038716643659522424758546
< 1  1  -1  0  -1  0 >:  -0.038716643659522424758546
< 1  1  -1  0  0  -1 >:  0.057764262707141474095796
< -1  -1  1  -1  1  1 >:  -0.055238095238095238914688
< 1  1  -1  1  -1  -1 >:  -0.055238095238095238914688
< -1  -1  0  1  0  1 >:  -0.033623763509521009673620
< -1  -1  0  1  1  0 >:  0.026004715890473397571503
< 1  1  0  -1  -1  0 >:  0.026004715890473397571503
< 1  1  0  -1  0  -1 >:  -0.033623763509521009673620
< -1  -1  0  0  1  1 >:  0.036190476190476182638545
< 1  1  0  0  -1  -1 >:  0.036190476190476182638545
< -1  -1  -1  1  1  1 >:  -0.028571428571428563597534
< 1  1  1  -1  -1  -1 >:  -0.028571428571428563597534
