elements: [Ta] 
E0: [15.781695] 
deltaSplineBins: 0.001000 
embeddings:
  0: {ndensity: 1, FS_parameters: [1.0, 1.0], npoti: FinnisSinclair, rho_core_cutoff: 100000, drho_core_cutoff: 250}
bonds:
  [0, 0]: {nradmax: 12, lmax: 5, nradbasemax: 12, radbasename: ChebExpCos, radparameters: [1.808], radcoefficients: [[[1, 0, 0, 0, 0, 0, 0, 0, 0, 0, 0, 0], [1, 0, 0, 0, 0, 0, 0, 0, 0, 0, 0, 0], [1, 0, 0, 0, 0, 0, 0, 0, 0, 0, 0, 0], [1, 0, 0, 0, 0, 0, 0, 0, 0, 0, 0, 0], [1, 0, 0, 0, 0, 0, 0, 0, 0, 0, 0, 0], [1, 0, 0, 0, 0, 0, 0, 0, 0, 0, 0, 0]], [[0, 1, 0, 0, 0, 0, 0, 0, 0, 0, 0, 0], [0, 1, 0, 0, 0, 0, 0, 0, 0, 0, 0, 0], [0, 1, 0, 0, 0, 0, 0, 0, 0, 0, 0, 0], [0, 1, 0, 0, 0, 0, 0, 0, 0, 0, 0, 0], [0, 1, 0, 0, 0, 0, 0, 0, 0, 0, 0, 0], [0, 1, 0, 0, 0, 0, 0, 0, 0, 0, 0, 0]], [[0, 0, 1, 0, 0, 0, 0, 0, 0, 0, 0, 0], [0, 0, 1, 0, 0, 0, 0, 0, 0, 0, 0, 0], [0, 0, 1, 0, 0, 0, 0, 0, 0, 0, 0, 0], [0, 0, 1, 0, 0, 0, 0, 0, 0, 0, 0, 0], [0, 0, 1, 0, 0, 0, 0, 0, 0, 0, 0, 0], [0, 0, 1, 0, 0, 0, 0, 0, 0, 0, 0, 0]], [[0, 0, 0, 1, 0, 0, 0, 0, 0, 0, 0, 0], [0, 0, 0, 1, 0, 0, 0, 0, 0, 0, 0, 0], [0, 0, 0, 1, 0, 0, 0, 0, 0, 0, 0, 0], [0, 0, 0, 1, 0, 0, 0, 0, 0, 0, 0, 0], [0, 0, 0, 1, 0, 0, 0, 0, 0, 0, 0, 0], [0, 0, 0, 1, 0, 0, 0, 0, 0, 0, 0, 0]], [[0, 0, 0, 0, 1, 0, 0, 0, 0, 0, 0, 0], [0, 0, 0, 0, 1, 0, 0, 0, 0, 0, 0, 0], [0, 0, 0, 0, 1, 0, 0, 0, 0, 0, 0, 0], [0, 0, 0, 0, 1, 0, 0, 0, 0, 0, 0, 0], [0, 0, 0, 0, 1, 0, 0, 0, 0, 0, 0, 0], [0, 0, 0, 0, 1, 0, 0, 0, 0, 0, 0, 0]], [[0, 0, 0, 0, 0, 1, 0, 0, 0, 0, 0, 0], [0, 0, 0, 0, 0, 1, 0, 0, 0, 0, 0, 0], [0, 0, 0, 0, 0, 1, 0, 0, 0, 0, 0, 0], [0, 0, 0, 0, 0, 1, 0, 0, 0, 0, 0, 0], [0, 0, 0, 0, 0, 1, 0, 0, 0, 0, 0, 0], [0, 0, 0, 0, 0, 1, 0, 0, 0, 0, 0, 0]], [[0, 0, 0, 0, 0, 0, 1, 0, 0, 0, 0, 0], [0, 0, 0, 0, 0, 0, 1, 0, 0, 0, 0, 0], [0, 0, 0, 0, 0, 0, 1, 0, 0, 0, 0, 0], [0, 0, 0, 0, 0, 0, 1, 0, 0, 0, 0, 0], [0, 0, 0, 0, 0, 0, 1, 0, 0, 0, 0, 0], [0, 0, 0, 0, 0, 0, 1, 0, 0, 0, 0, 0]], [[0, 0, 0, 0, 0, 0, 0, 1, 0, 0, 0, 0], [0, 0, 0, 0, 0, 0, 0, 1, 0, 0, 0, 0], [0, 0, 0, 0, 0, 0, 0, 1, 0, 0, 0, 0], [0, 0, 0, 0, 0, 0, 0, 1, 0, 0, 0, 0], [0, 0, 0, 0, 0, 0, 0, 1, 0, 0, 0, 0], [0, 0, 0, 0, 0, 0, 0, 1, 0, 0, 0, 0]], [[0, 0, 0, 0, 0, 0, 0, 0, 1, 0, 0, 0], [0, 0, 0, 0, 0, 0, 0, 0, 1, 0, 0, 0], [0, 0, 0, 0, 0, 0, 0, 0, 1, 0, 0, 0], [0, 0, 0, 0, 0, 0, 0, 0, 1, 0, 0, 0], [0, 0, 0, 0, 0, 0, 0, 0, 1, 0, 0, 0], [0, 0, 0, 0, 0, 0, 0, 0, 1, 0, 0, 0]], [[0, 0, 0, 0, 0, 0, 0, 0, 0, 1, 0, 0], [0, 0, 0, 0, 0, 0, 0, 0, 0, 1, 0, 0], [0, 0, 0, 0, 0, 0, 0, 0, 0, 1, 0, 0], [0, 0, 0, 0, 0, 0, 0, 0, 0, 1, 0, 0], [0, 0, 0, 0, 0, 0, 0, 0, 0, 1, 0, 0], [0, 0, 0, 0, 0, 0, 0, 0, 0, 1, 0, 0]], [[0, 0, 0, 0, 0, 0, 0, 0, 0, 0, 1, 0], [0, 0, 0, 0, 0, 0, 0, 0, 0, 0, 1, 0], [0, 0, 0, 0, 0, 0, 0, 0, 0, 0, 1, 0], [0, 0, 0, 0, 0, 0, 0, 0, 0, 0, 1, 0], [0, 0, 0, 0, 0, 0, 0, 0, 0, 0, 1, 0], [0, 0, 0, 0, 0, 0, 0, 0, 0, 0, 1, 0]], [[0, 0, 0, 0, 0, 0, 0, 0, 0, 0, 0, 1], [0, 0, 0, 0, 0, 0, 0, 0, 0, 0, 0, 1], [0, 0, 0, 0, 0, 0, 0, 0, 0, 0, 0, 1], [0, 0, 0, 0, 0, 0, 0, 0, 0, 0, 0, 1], [0, 0, 0, 0, 0, 0, 0, 0, 0, 0, 0, 1], [0, 0, 0, 0, 0, 0, 0, 0, 0, 0, 0, 1]]], prehc: 0, lambdahc: 1.808, rcut: 6.026, dcut: 0.01, rcut_in: 0.580, dcut_in: 0.01, inner_cutoff_type: distance}
functions:
  0:
    - {mu0: 0, rank: 1, ndensity: 1, num_ms_combs: 1, mus: [0], ns: [1], ls: [0], ms_combs: [0], ctildes: [1.2294253302206926]}
    - {mu0: 0, rank: 1, ndensity: 1, num_ms_combs: 1, mus: [0], ns: [2], ls: [0], ms_combs: [0], ctildes: [-17974013.761483293]}
    - {mu0: 0, rank: 1, ndensity: 1, num_ms_combs: 1, mus: [0], ns: [3], ls: [0], ms_combs: [0], ctildes: [14863095.638924358]}
    - {mu0: 0, rank: 1, ndensity: 1, num_ms_combs: 1, mus: [0], ns: [4], ls: [0], ms_combs: [0], ctildes: [-10787874.637502464]}
    - {mu0: 0, rank: 1, ndensity: 1, num_ms_combs: 1, mus: [0], ns: [5], ls: [0], ms_combs: [0], ctildes: [6831075.16930162]}
    - {mu0: 0, rank: 1, ndensity: 1, num_ms_combs: 1, mus: [0], ns: [6], ls: [0], ms_combs: [0], ctildes: [-3737805.7730059805]}
    - {mu0: 0, rank: 1, ndensity: 1, num_ms_combs: 1, mus: [0], ns: [7], ls: [0], ms_combs: [0], ctildes: [1742039.9739588299]}
    - {mu0: 0, rank: 1, ndensity: 1, num_ms_combs: 1, mus: [0], ns: [8], ls: [0], ms_combs: [0], ctildes: [-676705.4778948426]}
    - {mu0: 0, rank: 1, ndensity: 1, num_ms_combs: 1, mus: [0], ns: [9], ls: [0], ms_combs: [0], ctildes: [211841.6687076697]}
    - {mu0: 0, rank: 1, ndensity: 1, num_ms_combs: 1, mus: [0], ns: [10], ls: [0], ms_combs: [0], ctildes: [-50534.194432882476]}
    - {mu0: 0, rank: 1, ndensity: 1, num_ms_combs: 1, mus: [0], ns: [11], ls: [0], ms_combs: [0], ctildes: [8257.090607750077]}
    - {mu0: 0, rank: 1, ndensity: 1, num_ms_combs: 1, mus: [0], ns: [12], ls: [0], ms_combs: [0], ctildes: [-706.4434165266848]}
    - {mu0: 0, rank: 2, ndensity: 1, num_ms_combs: 1, mus: [0, 0], ns: [1, 1], ls: [0, 0], ms_combs: [0, 0], ctildes: [-27.749370702934357]}
    - {mu0: 0, rank: 2, ndensity: 1, num_ms_combs: 1, mus: [0, 0], ns: [1, 2], ls: [0, 0], ms_combs: [0, 0], ctildes: [-65889.77685950723]}
    - {mu0: 0, rank: 2, ndensity: 1, num_ms_combs: 1, mus: [0, 0], ns: [1, 3], ls: [0, 0], ms_combs: [0, 0], ctildes: [48418.67129263337]}
    - {mu0: 0, rank: 2, ndensity: 1, num_ms_combs: 1, mus: [0, 0], ns: [1, 4], ls: [0, 0], ms_combs: [0, 0], ctildes: [-28289.022101577168]}
    - {mu0: 0, rank: 2, ndensity: 1, num_ms_combs: 1, mus: [0, 0], ns: [1, 5], ls: [0, 0], ms_combs: [0, 0], ctildes: [12649.0814498861]}
    - {mu0: 0, rank: 2, ndensity: 1, num_ms_combs: 1, mus: [0, 0], ns: [1, 6], ls: [0, 0], ms_combs: [0, 0], ctildes: [-3944.378837576216]}
    - {mu0: 0, rank: 2, ndensity: 1, num_ms_combs: 1, mus: [0, 0], ns: [1, 7], ls: [0, 0], ms_combs: [0, 0], ctildes: [706.4080543092205]}
    - {mu0: 0, rank: 2, ndensity: 1, num_ms_combs: 1, mus: [0, 0], ns: [2, 2], ls: [0, 0], ms_combs: [0, 0], ctildes: [-2976579.9141638344]}
    - {mu0: 0, rank: 2, ndensity: 1, num_ms_combs: 1, mus: [0, 0], ns: [2, 3], ls: [0, 0], ms_combs: [0, 0], ctildes: [4692350.763445798]}
    - {mu0: 0, rank: 2, ndensity: 1, num_ms_combs: 1, mus: [0, 0], ns: [2, 4], ls: [0, 0], ms_combs: [0, 0], ctildes: [-2911998.188879011]}
    - {mu0: 0, rank: 2, ndensity: 1, num_ms_combs: 1, mus: [0, 0], ns: [2, 5], ls: [0, 0], ms_combs: [0, 0], ctildes: [1440604.3440956604]}
    - {mu0: 0, rank: 2, ndensity: 1, num_ms_combs: 1, mus: [0, 0], ns: [2, 6], ls: [0, 0], ms_combs: [0, 0], ctildes: [-513786.2371749863]}
    - {mu0: 0, rank: 2, ndensity: 1, num_ms_combs: 1, mus: [0, 0], ns: [2, 7], ls: [0, 0], ms_combs: [0, 0], ctildes: [100052.44335627112]}
    - {mu0: 0, rank: 2, ndensity: 1, num_ms_combs: 1, mus: [0, 0], ns: [3, 3], ls: [0, 0], ms_combs: [0, 0], ctildes: [-1838634.5832243387]}
    - {mu0: 0, rank: 2, ndensity: 1, num_ms_combs: 1, mus: [0, 0], ns: [3, 4], ls: [0, 0], ms_combs: [0, 0], ctildes: [2271458.7170859883]}
    - {mu0: 0, rank: 2, ndensity: 1, num_ms_combs: 1, mus: [0, 0], ns: [3, 5], ls: [0, 0], ms_combs: [0, 0], ctildes: [-1116305.8510550284]}
    - {mu0: 0, rank: 2, ndensity: 1, num_ms_combs: 1, mus: [0, 0], ns: [3, 6], ls: [0, 0], ms_combs: [0, 0], ctildes: [394541.0381303701]}
    - {mu0: 0, rank: 2, ndensity: 1, num_ms_combs: 1, mus: [0, 0], ns: [3, 7], ls: [0, 0], ms_combs: [0, 0], ctildes: [-76731.75039387443]}
    - {mu0: 0, rank: 2, ndensity: 1, num_ms_combs: 1, mus: [0, 0], ns: [4, 4], ls: [0, 0], ms_combs: [0, 0], ctildes: [-699241.8227273478]}
    - {mu0: 0, rank: 2, ndensity: 1, num_ms_combs: 1, mus: [0, 0], ns: [4, 5], ls: [0, 0], ms_combs: [0, 0], ctildes: [684215.338568299]}
    - {mu0: 0, rank: 2, ndensity: 1, num_ms_combs: 1, mus: [0, 0], ns: [4, 6], ls: [0, 0], ms_combs: [0, 0], ctildes: [-240042.95236586186]}
    - {mu0: 0, rank: 2, ndensity: 1, num_ms_combs: 1, mus: [0, 0], ns: [4, 7], ls: [0, 0], ms_combs: [0, 0], ctildes: [46818.42625138209]}
    - {mu0: 0, rank: 2, ndensity: 1, num_ms_combs: 1, mus: [0, 0], ns: [5, 5], ls: [0, 0], ms_combs: [0, 0], ctildes: [-166328.4453273057]}
    - {mu0: 0, rank: 2, ndensity: 1, num_ms_combs: 1, mus: [0, 0], ns: [5, 6], ls: [0, 0], ms_combs: [0, 0], ctildes: [115554.07973804486]}
    - {mu0: 0, rank: 2, ndensity: 1, num_ms_combs: 1, mus: [0, 0], ns: [5, 7], ls: [0, 0], ms_combs: [0, 0], ctildes: [-22624.109590318745]}
    - {mu0: 0, rank: 2, ndensity: 1, num_ms_combs: 1, mus: [0, 0], ns: [6, 6], ls: [0, 0], ms_combs: [0, 0], ctildes: [-19800.54162014416]}
    - {mu0: 0, rank: 2, ndensity: 1, num_ms_combs: 1, mus: [0, 0], ns: [6, 7], ls: [0, 0], ms_combs: [0, 0], ctildes: [7762.741841289435]}
    - {mu0: 0, rank: 2, ndensity: 1, num_ms_combs: 1, mus: [0, 0], ns: [7, 7], ls: [0, 0], ms_combs: [0, 0], ctildes: [-778.7396912345926]}
    - {mu0: 0, rank: 2, ndensity: 1, num_ms_combs: 3, mus: [0, 0], ns: [1, 1], ls: [1, 1], ms_combs: [-1, 1, 0, 0, 1, -1], ctildes: [8.918996512979612, -8.918996512979612, 8.918996512979612]}
    - {mu0: 0, rank: 2, ndensity: 1, num_ms_combs: 3, mus: [0, 0], ns: [1, 2], ls: [1, 1], ms_combs: [-1, 1, 0, 0, 1, -1], ctildes: [73811.2850523262, -73811.2850523262, 73811.2850523262]}
    - {mu0: 0, rank: 2, ndensity: 1, num_ms_combs: 3, mus: [0, 0], ns: [1, 3], ls: [1, 1], ms_combs: [-1, 1, 0, 0, 1, -1], ctildes: [-52528.37923135713, 52528.37923135713, -52528.37923135713]}
    - {mu0: 0, rank: 2, ndensity: 1, num_ms_combs: 3, mus: [0, 0], ns: [1, 4], ls: [1, 1], ms_combs: [-1, 1, 0, 0, 1, -1], ctildes: [29081.201346874357, -29081.201346874357, 29081.201346874357]}
    - {mu0: 0, rank: 2, ndensity: 1, num_ms_combs: 3, mus: [0, 0], ns: [1, 5], ls: [1, 1], ms_combs: [-1, 1, 0, 0, 1, -1], ctildes: [-11987.717843258977, 11987.717843258977, -11987.717843258977]}
    - {mu0: 0, rank: 2, ndensity: 1, num_ms_combs: 3, mus: [0, 0], ns: [1, 6], ls: [1, 1], ms_combs: [-1, 1, 0, 0, 1, -1], ctildes: [3332.651938612366, -3332.651938612366, 3332.651938612366]}
    - {mu0: 0, rank: 2, ndensity: 1, num_ms_combs: 3, mus: [0, 0], ns: [1, 7], ls: [1, 1], ms_combs: [-1, 1, 0, 0, 1, -1], ctildes: [-490.5780392599338, 490.5780392599338, -490.5780392599338]}
    - {mu0: 0, rank: 2, ndensity: 1, num_ms_combs: 3, mus: [0, 0], ns: [2, 2], ls: [1, 1], ms_combs: [-1, 1, 0, 0, 1, -1], ctildes: [-134641.7632605505, 134641.7632605505, -134641.7632605505]}
    - {mu0: 0, rank: 2, ndensity: 1, num_ms_combs: 3, mus: [0, 0], ns: [2, 3], ls: [1, 1], ms_combs: [-1, 1, 0, 0, 1, -1], ctildes: [-1435526.8222575549, 1435526.8222575549, -1435526.8222575549]}
    - {mu0: 0, rank: 2, ndensity: 1, num_ms_combs: 3, mus: [0, 0], ns: [2, 4], ls: [1, 1], ms_combs: [-1, 1, 0, 0, 1, -1], ctildes: [2364572.8401190047, -2364572.8401190047, 2364572.8401190047]}
    - {mu0: 0, rank: 2, ndensity: 1, num_ms_combs: 3, mus: [0, 0], ns: [2, 5], ls: [1, 1], ms_combs: [-1, 1, 0, 0, 1, -1], ctildes: [-2063810.0272698202, 2063810.0272698202, -2063810.0272698202]}
    - {mu0: 0, rank: 2, ndensity: 1, num_ms_combs: 3, mus: [0, 0], ns: [2, 6], ls: [1, 1], ms_combs: [-1, 1, 0, 0, 1, -1], ctildes: [1027611.2073174246, -1027611.2073174246, 1027611.2073174246]}
    - {mu0: 0, rank: 2, ndensity: 1, num_ms_combs: 3, mus: [0, 0], ns: [2, 7], ls: [1, 1], ms_combs: [-1, 1, 0, 0, 1, -1], ctildes: [-299724.52602743136, 299724.52602743136, -299724.52602743136]}
    - {mu0: 0, rank: 2, ndensity: 1, num_ms_combs: 3, mus: [0, 0], ns: [3, 3], ls: [1, 1], ms_combs: [-1, 1, 0, 0, 1, -1], ctildes: [1096438.464818773, -1096438.464818773, 1096438.464818773]}
    - {mu0: 0, rank: 2, ndensity: 1, num_ms_combs: 3, mus: [0, 0], ns: [3, 4], ls: [1, 1], ms_combs: [-1, 1, 0, 0, 1, -1], ctildes: [-2345251.8473366876, 2345251.8473366876, -2345251.8473366876]}
    - {mu0: 0, rank: 2, ndensity: 1, num_ms_combs: 3, mus: [0, 0], ns: [3, 5], ls: [1, 1], ms_combs: [-1, 1, 0, 0, 1, -1], ctildes: [1750501.0076322893, -1750501.0076322893, 1750501.0076322893]}
    - {mu0: 0, rank: 2, ndensity: 1, num_ms_combs: 3, mus: [0, 0], ns: [3, 6], ls: [1, 1], ms_combs: [-1, 1, 0, 0, 1, -1], ctildes: [-813314.6427389472, 813314.6427389472, -813314.6427389472]}
    - {mu0: 0, rank: 2, ndensity: 1, num_ms_combs: 3, mus: [0, 0], ns: [3, 7], ls: [1, 1], ms_combs: [-1, 1, 0, 0, 1, -1], ctildes: [226142.01195909787, -226142.01195909787, 226142.01195909787]}
    - {mu0: 0, rank: 2, ndensity: 1, num_ms_combs: 3, mus: [0, 0], ns: [4, 4], ls: [1, 1], ms_combs: [-1, 1, 0, 0, 1, -1], ctildes: [969654.4851767257, -969654.4851767257, 969654.4851767257]}
    - {mu0: 0, rank: 2, ndensity: 1, num_ms_combs: 3, mus: [0, 0], ns: [4, 5], ls: [1, 1], ms_combs: [-1, 1, 0, 0, 1, -1], ctildes: [-1242375.2430266363, 1242375.2430266363, -1242375.2430266363]}
    - {mu0: 0, rank: 2, ndensity: 1, num_ms_combs: 3, mus: [0, 0], ns: [4, 6], ls: [1, 1], ms_combs: [-1, 1, 0, 0, 1, -1], ctildes: [530060.9580833093, -530060.9580833093, 530060.9580833093]}
    - {mu0: 0, rank: 2, ndensity: 1, num_ms_combs: 3, mus: [0, 0], ns: [4, 7], ls: [1, 1], ms_combs: [-1, 1, 0, 0, 1, -1], ctildes: [-137755.27134247552, 137755.27134247552, -137755.27134247552]}
    - {mu0: 0, rank: 2, ndensity: 1, num_ms_combs: 3, mus: [0, 0], ns: [5, 5], ls: [1, 1], ms_combs: [-1, 1, 0, 0, 1, -1], ctildes: [350148.66666985105, -350148.66666985105, 350148.66666985105]}
    - {mu0: 0, rank: 2, ndensity: 1, num_ms_combs: 3, mus: [0, 0], ns: [5, 6], ls: [1, 1], ms_combs: [-1, 1, 0, 0, 1, -1], ctildes: [-273178.53878516797, 273178.53878516797, -273178.53878516797]}
    - {mu0: 0, rank: 2, ndensity: 1, num_ms_combs: 3, mus: [0, 0], ns: [5, 7], ls: [1, 1], ms_combs: [-1, 1, 0, 0, 1, -1], ctildes: [65325.81927443358, -65325.81927443358, 65325.81927443358]}
    - {mu0: 0, rank: 2, ndensity: 1, num_ms_combs: 3, mus: [0, 0], ns: [6, 6], ls: [1, 1], ms_combs: [-1, 1, 0, 0, 1, -1], ctildes: [49392.08394797084, -49392.08394797084, 49392.08394797084]}
    - {mu0: 0, rank: 2, ndensity: 1, num_ms_combs: 3, mus: [0, 0], ns: [6, 7], ls: [1, 1], ms_combs: [-1, 1, 0, 0, 1, -1], ctildes: [-21742.293543353222, 21742.293543353222, -21742.293543353222]}
    - {mu0: 0, rank: 2, ndensity: 1, num_ms_combs: 3, mus: [0, 0], ns: [7, 7], ls: [1, 1], ms_combs: [-1, 1, 0, 0, 1, -1], ctildes: [2153.414342797262, -2153.414342797262, 2153.414342797262]}
    - {mu0: 0, rank: 2, ndensity: 1, num_ms_combs: 5, mus: [0, 0], ns: [1, 1], ls: [2, 2], ms_combs: [-2, 2, -1, 1, 0, 0, 1, -1, 2, -2], ctildes: [-7.450814575717193, 7.450814575717193, -7.450814575717193, 7.450814575717193, -7.450814575717193]}
    - {mu0: 0, rank: 2, ndensity: 1, num_ms_combs: 5, mus: [0, 0], ns: [1, 2], ls: [2, 2], ms_combs: [-2, 2, -1, 1, 0, 0, 1, -1, 2, -2], ctildes: [-2070.538979408405, 2070.538979408405, -2070.538979408405, 2070.538979408405, -2070.538979408405]}
    - {mu0: 0, rank: 2, ndensity: 1, num_ms_combs: 5, mus: [0, 0], ns: [1, 3], ls: [2, 2], ms_combs: [-2, 2, -1, 1, 0, 0, 1, -1, 2, -2], ctildes: [1735.5823600916617, -1735.5823600916617, 1735.5823600916617, -1735.5823600916617, 1735.5823600916617]}
    - {mu0: 0, rank: 2, ndensity: 1, num_ms_combs: 5, mus: [0, 0], ns: [1, 4], ls: [2, 2], ms_combs: [-2, 2, -1, 1, 0, 0, 1, -1, 2, -2], ctildes: [-1207.361223313634, 1207.361223313634, -1207.361223313634, 1207.361223313634, -1207.361223313634]}
    - {mu0: 0, rank: 2, ndensity: 1, num_ms_combs: 5, mus: [0, 0], ns: [1, 5], ls: [2, 2], ms_combs: [-2, 2, -1, 1, 0, 0, 1, -1, 2, -2], ctildes: [661.5410454551305, -661.5410454551305, 661.5410454551305, -661.5410454551305, 661.5410454551305]}
    - {mu0: 0, rank: 2, ndensity: 1, num_ms_combs: 5, mus: [0, 0], ns: [1, 6], ls: [2, 2], ms_combs: [-2, 2, -1, 1, 0, 0, 1, -1, 2, -2], ctildes: [-254.18356117386952, 254.18356117386952, -254.18356117386952, 254.18356117386952, -254.18356117386952]}
    - {mu0: 0, rank: 2, ndensity: 1, num_ms_combs: 5, mus: [0, 0], ns: [1, 7], ls: [2, 2], ms_combs: [-2, 2, -1, 1, 0, 0, 1, -1, 2, -2], ctildes: [59.666657407846884, -59.666657407846884, 59.666657407846884, -59.666657407846884, 59.666657407846884]}
    - {mu0: 0, rank: 2, ndensity: 1, num_ms_combs: 5, mus: [0, 0], ns: [2, 2], ls: [2, 2], ms_combs: [-2, 2, -1, 1, 0, 0, 1, -1, 2, -2], ctildes: [-243361.0588255058, 243361.0588255058, -243361.0588255058, 243361.0588255058, -243361.0588255058]}
    - {mu0: 0, rank: 2, ndensity: 1, num_ms_combs: 5, mus: [0, 0], ns: [2, 3], ls: [2, 2], ms_combs: [-2, 2, -1, 1, 0, 0, 1, -1, 2, -2], ctildes: [511757.5012656787, -511757.5012656787, 511757.5012656787, -511757.5012656787, 511757.5012656787]}
    - {mu0: 0, rank: 2, ndensity: 1, num_ms_combs: 5, mus: [0, 0], ns: [2, 4], ls: [2, 2], ms_combs: [-2, 2, -1, 1, 0, 0, 1, -1, 2, -2], ctildes: [-472377.47271950316, 472377.47271950316, -472377.47271950316, 472377.47271950316, -472377.47271950316]}
    - {mu0: 0, rank: 2, ndensity: 1, num_ms_combs: 5, mus: [0, 0], ns: [2, 5], ls: [2, 2], ms_combs: [-2, 2, -1, 1, 0, 0, 1, -1, 2, -2], ctildes: [307148.7108899463, -307148.7108899463, 307148.7108899463, -307148.7108899463, 307148.7108899463]}
    - {mu0: 0, rank: 2, ndensity: 1, num_ms_combs: 5, mus: [0, 0], ns: [2, 6], ls: [2, 2], ms_combs: [-2, 2, -1, 1, 0, 0, 1, -1, 2, -2], ctildes: [-148080.63949416621, 148080.63949416621, -148080.63949416621, 148080.63949416621, -148080.63949416621]}
    - {mu0: 0, rank: 2, ndensity: 1, num_ms_combs: 5, mus: [0, 0], ns: [2, 7], ls: [2, 2], ms_combs: [-2, 2, -1, 1, 0, 0, 1, -1, 2, -2], ctildes: [42276.41348136136, -42276.41348136136, 42276.41348136136, -42276.41348136136, 42276.41348136136]}
    - {mu0: 0, rank: 2, ndensity: 1, num_ms_combs: 5, mus: [0, 0], ns: [3, 3], ls: [2, 2], ms_combs: [-2, 2, -1, 1, 0, 0, 1, -1, 2, -2], ctildes: [-241952.35526757722, 241952.35526757722, -241952.35526757722, 241952.35526757722, -241952.35526757722]}
    - {mu0: 0, rank: 2, ndensity: 1, num_ms_combs: 5, mus: [0, 0], ns: [3, 4], ls: [2, 2], ms_combs: [-2, 2, -1, 1, 0, 0, 1, -1, 2, -2], ctildes: [404523.3929800877, -404523.3929800877, 404523.3929800877, -404523.3929800877, 404523.3929800877]}
    - {mu0: 0, rank: 2, ndensity: 1, num_ms_combs: 5, mus: [0, 0], ns: [3, 5], ls: [2, 2], ms_combs: [-2, 2, -1, 1, 0, 0, 1, -1, 2, -2], ctildes: [-248419.30209437804, 248419.30209437804, -248419.30209437804, 248419.30209437804, -248419.30209437804]}
    - {mu0: 0, rank: 2, ndensity: 1, num_ms_combs: 5, mus: [0, 0], ns: [3, 6], ls: [2, 2], ms_combs: [-2, 2, -1, 1, 0, 0, 1, -1, 2, -2], ctildes: [114382.4598636019, -114382.4598636019, 114382.4598636019, -114382.4598636019, 114382.4598636019]}
    - {mu0: 0, rank: 2, ndensity: 1, num_ms_combs: 5, mus: [0, 0], ns: [3, 7], ls: [2, 2], ms_combs: [-2, 2, -1, 1, 0, 0, 1, -1, 2, -2], ctildes: [-31641.43751442664, 31641.43751442664, -31641.43751442664, 31641.43751442664, -31641.43751442664]}
    - {mu0: 0, rank: 2, ndensity: 1, num_ms_combs: 5, mus: [0, 0], ns: [4, 4], ls: [2, 2], ms_combs: [-2, 2, -1, 1, 0, 0, 1, -1, 2, -2], ctildes: [-150837.52335890685, 150837.52335890685, -150837.52335890685, 150837.52335890685, -150837.52335890685]}
    - {mu0: 0, rank: 2, ndensity: 1, num_ms_combs: 5, mus: [0, 0], ns: [4, 5], ls: [2, 2], ms_combs: [-2, 2, -1, 1, 0, 0, 1, -1, 2, -2], ctildes: [171194.12614494446, -171194.12614494446, 171194.12614494446, -171194.12614494446, 171194.12614494446]}
    - {mu0: 0, rank: 2, ndensity: 1, num_ms_combs: 5, mus: [0, 0], ns: [4, 6], ls: [2, 2], ms_combs: [-2, 2, -1, 1, 0, 0, 1, -1, 2, -2], ctildes: [-73383.62556658365, 73383.62556658365, -73383.62556658365, 73383.62556658365, -73383.62556658365]}
    - {mu0: 0, rank: 2, ndensity: 1, num_ms_combs: 5, mus: [0, 0], ns: [4, 7], ls: [2, 2], ms_combs: [-2, 2, -1, 1, 0, 0, 1, -1, 2, -2], ctildes: [19220.56405737604, -19220.56405737604, 19220.56405737604, -19220.56405737604, 19220.56405737604]}
    - {mu0: 0, rank: 2, ndensity: 1, num_ms_combs: 5, mus: [0, 0], ns: [5, 5], ls: [2, 2], ms_combs: [-2, 2, -1, 1, 0, 0, 1, -1, 2, -2], ctildes: [-45554.99983368818, 45554.99983368818, -45554.99983368818, 45554.99983368818, -45554.99983368818]}
    - {mu0: 0, rank: 2, ndensity: 1, num_ms_combs: 5, mus: [0, 0], ns: [5, 6], ls: [2, 2], ms_combs: [-2, 2, -1, 1, 0, 0, 1, -1, 2, -2], ctildes: [36496.26551652101, -36496.26551652101, 36496.26551652101, -36496.26551652101, 36496.26551652101]}
    - {mu0: 0, rank: 2, ndensity: 1, num_ms_combs: 5, mus: [0, 0], ns: [5, 7], ls: [2, 2], ms_combs: [-2, 2, -1, 1, 0, 0, 1, -1, 2, -2], ctildes: [-9008.832889276297, 9008.832889276297, -9008.832889276297, 9008.832889276297, -9008.832889276297]}
    - {mu0: 0, rank: 2, ndensity: 1, num_ms_combs: 5, mus: [0, 0], ns: [6, 6], ls: [2, 2], ms_combs: [-2, 2, -1, 1, 0, 0, 1, -1, 2, -2], ctildes: [-6748.03352600009, 6748.03352600009, -6748.03352600009, 6748.03352600009, -6748.03352600009]}
    - {mu0: 0, rank: 2, ndensity: 1, num_ms_combs: 5, mus: [0, 0], ns: [6, 7], ls: [2, 2], ms_combs: [-2, 2, -1, 1, 0, 0, 1, -1, 2, -2], ctildes: [3074.922970616403, -3074.922970616403, 3074.922970616403, -3074.922970616403, 3074.922970616403]}
    - {mu0: 0, rank: 2, ndensity: 1, num_ms_combs: 5, mus: [0, 0], ns: [7, 7], ls: [2, 2], ms_combs: [-2, 2, -1, 1, 0, 0, 1, -1, 2, -2], ctildes: [-319.3569435318157, 319.3569435318157, -319.3569435318157, 319.3569435318157, -319.3569435318157]}
    - {mu0: 0, rank: 2, ndensity: 1, num_ms_combs: 7, mus: [0, 0], ns: [1, 1], ls: [3, 3], ms_combs: [-3, 3, -2, 2, -1, 1, 0, 0, 1, -1, 2, -2, 3, -3], ctildes: [-0.7203678487850366, 0.7203678487850366, -0.7203678487850366, 0.7203678487850366, -0.7203678487850366, 0.7203678487850366, -0.7203678487850366]}
    - {mu0: 0, rank: 2, ndensity: 1, num_ms_combs: 7, mus: [0, 0], ns: [1, 2], ls: [3, 3], ms_combs: [-3, 3, -2, 2, -1, 1, 0, 0, 1, -1, 2, -2, 3, -3], ctildes: [-878.9101225244948, 878.9101225244948, -878.9101225244948, 878.9101225244948, -878.9101225244948, 878.9101225244948, -878.9101225244948]}
    - {mu0: 0, rank: 2, ndensity: 1, num_ms_combs: 7, mus: [0, 0], ns: [1, 3], ls: [3, 3], ms_combs: [-3, 3, -2, 2, -1, 1, 0, 0, 1, -1, 2, -2, 3, -3], ctildes: [611.9451332270407, -611.9451332270407, 611.9451332270407, -611.9451332270407, 611.9451332270407, -611.9451332270407, 611.9451332270407]}
    - {mu0: 0, rank: 2, ndensity: 1, num_ms_combs: 7, mus: [0, 0], ns: [1, 4], ls: [3, 3], ms_combs: [-3, 3, -2, 2, -1, 1, 0, 0, 1, -1, 2, -2, 3, -3], ctildes: [-327.076203136562, 327.076203136562, -327.076203136562, 327.076203136562, -327.076203136562, 327.076203136562, -327.076203136562]}
    - {mu0: 0, rank: 2, ndensity: 1, num_ms_combs: 7, mus: [0, 0], ns: [1, 5], ls: [3, 3], ms_combs: [-3, 3, -2, 2, -1, 1, 0, 0, 1, -1, 2, -2, 3, -3], ctildes: [130.6008163531286, -130.6008163531286, 130.6008163531286, -130.6008163531286, 130.6008163531286, -130.6008163531286, 130.6008163531286]}
    - {mu0: 0, rank: 2, ndensity: 1, num_ms_combs: 7, mus: [0, 0], ns: [1, 6], ls: [3, 3], ms_combs: [-3, 3, -2, 2, -1, 1, 0, 0, 1, -1, 2, -2, 3, -3], ctildes: [-36.11841874556108, 36.11841874556108, -36.11841874556108, 36.11841874556108, -36.11841874556108, 36.11841874556108, -36.11841874556108]}
    - {mu0: 0, rank: 2, ndensity: 1, num_ms_combs: 7, mus: [0, 0], ns: [1, 7], ls: [3, 3], ms_combs: [-3, 3, -2, 2, -1, 1, 0, 0, 1, -1, 2, -2, 3, -3], ctildes: [5.675949186307637, -5.675949186307637, 5.675949186307637, -5.675949186307637, 5.675949186307637, -5.675949186307637, 5.675949186307637]}
    - {mu0: 0, rank: 2, ndensity: 1, num_ms_combs: 7, mus: [0, 0], ns: [2, 2], ls: [3, 3], ms_combs: [-3, 3, -2, 2, -1, 1, 0, 0, 1, -1, 2, -2, 3, -3], ctildes: [-13502.112451886773, 13502.112451886773, -13502.112451886773, 13502.112451886773, -13502.112451886773, 13502.112451886773, -13502.112451886773]}
    - {mu0: 0, rank: 2, ndensity: 1, num_ms_combs: 7, mus: [0, 0], ns: [2, 3], ls: [3, 3], ms_combs: [-3, 3, -2, 2, -1, 1, 0, 0, 1, -1, 2, -2, 3, -3], ctildes: [6785.264431552702, -6785.264431552702, 6785.264431552702, -6785.264431552702, 6785.264431552702, -6785.264431552702, 6785.264431552702]}
    - {mu0: 0, rank: 2, ndensity: 1, num_ms_combs: 7, mus: [0, 0], ns: [2, 4], ls: [3, 3], ms_combs: [-3, 3, -2, 2, -1, 1, 0, 0, 1, -1, 2, -2, 3, -3], ctildes: [9075.037056654623, -9075.037056654623, 9075.037056654623, -9075.037056654623, 9075.037056654623, -9075.037056654623, 9075.037056654623]}
    - {mu0: 0, rank: 2, ndensity: 1, num_ms_combs: 7, mus: [0, 0], ns: [2, 5], ls: [3, 3], ms_combs: [-3, 3, -2, 2, -1, 1, 0, 0, 1, -1, 2, -2, 3, -3], ctildes: [-10041.983805632613, 10041.983805632613, -10041.983805632613, 10041.983805632613, -10041.983805632613, 10041.983805632613, -10041.983805632613]}
    - {mu0: 0, rank: 2, ndensity: 1, num_ms_combs: 7, mus: [0, 0], ns: [2, 6], ls: [3, 3], ms_combs: [-3, 3, -2, 2, -1, 1, 0, 0, 1, -1, 2, -2, 3, -3], ctildes: [5496.199733846858, -5496.199733846858, 5496.199733846858, -5496.199733846858, 5496.199733846858, -5496.199733846858, 5496.199733846858]}
    - {mu0: 0, rank: 2, ndensity: 1, num_ms_combs: 7, mus: [0, 0], ns: [2, 7], ls: [3, 3], ms_combs: [-3, 3, -2, 2, -1, 1, 0, 0, 1, -1, 2, -2, 3, -3], ctildes: [-476.1627186630563, 476.1627186630563, -476.1627186630563, 476.1627186630563, -476.1627186630563, 476.1627186630563, -476.1627186630563]}
    - {mu0: 0, rank: 2, ndensity: 1, num_ms_combs: 7, mus: [0, 0], ns: [3, 3], ls: [3, 3], ms_combs: [-3, 3, -2, 2, -1, 1, 0, 0, 1, -1, 2, -2, 3, -3], ctildes: [2257.3767311106103, -2257.3767311106103, 2257.3767311106103, -2257.3767311106103, 2257.3767311106103, -2257.3767311106103, 2257.3767311106103]}
    - {mu0: 0, rank: 2, ndensity: 1, num_ms_combs: 7, mus: [0, 0], ns: [3, 4], ls: [3, 3], ms_combs: [-3, 3, -2, 2, -1, 1, 0, 0, 1, -1, 2, -2, 3, -3], ctildes: [-12262.659112228073, 12262.659112228073, -12262.659112228073, 12262.659112228073, -12262.659112228073, 12262.659112228073, -12262.659112228073]}
    - {mu0: 0, rank: 2, ndensity: 1, num_ms_combs: 7, mus: [0, 0], ns: [3, 5], ls: [3, 3], ms_combs: [-3, 3, -2, 2, -1, 1, 0, 0, 1, -1, 2, -2, 3, -3], ctildes: [10026.44547419904, -10026.44547419904, 10026.44547419904, -10026.44547419904, 10026.44547419904, -10026.44547419904, 10026.44547419904]}
    - {mu0: 0, rank: 2, ndensity: 1, num_ms_combs: 7, mus: [0, 0], ns: [3, 6], ls: [3, 3], ms_combs: [-3, 3, -2, 2, -1, 1, 0, 0, 1, -1, 2, -2, 3, -3], ctildes: [-4942.923200391738, 4942.923200391738, -4942.923200391738, 4942.923200391738, -4942.923200391738, 4942.923200391738, -4942.923200391738]}
    - {mu0: 0, rank: 2, ndensity: 1, num_ms_combs: 7, mus: [0, 0], ns: [3, 7], ls: [3, 3], ms_combs: [-3, 3, -2, 2, -1, 1, 0, 0, 1, -1, 2, -2, 3, -3], ctildes: [553.459311235296, -553.459311235296, 553.459311235296, -553.459311235296, 553.459311235296, -553.459311235296, 553.459311235296]}
    - {mu0: 0, rank: 2, ndensity: 1, num_ms_combs: 7, mus: [0, 0], ns: [4, 4], ls: [3, 3], ms_combs: [-3, 3, -2, 2, -1, 1, 0, 0, 1, -1, 2, -2, 3, -3], ctildes: [6466.055894370641, -6466.055894370641, 6466.055894370641, -6466.055894370641, 6466.055894370641, -6466.055894370641, 6466.055894370641]}
    - {mu0: 0, rank: 2, ndensity: 1, num_ms_combs: 7, mus: [0, 0], ns: [4, 5], ls: [3, 3], ms_combs: [-3, 3, -2, 2, -1, 1, 0, 0, 1, -1, 2, -2, 3, -3], ctildes: [-8632.14304137407, 8632.14304137407, -8632.14304137407, 8632.14304137407, -8632.14304137407, 8632.14304137407, -8632.14304137407]}
    - {mu0: 0, rank: 2, ndensity: 1, num_ms_combs: 7, mus: [0, 0], ns: [4, 6], ls: [3, 3], ms_combs: [-3, 3, -2, 2, -1, 1, 0, 0, 1, -1, 2, -2, 3, -3], ctildes: [3849.638317473078, -3849.638317473078, 3849.638317473078, -3849.638317473078, 3849.638317473078, -3849.638317473078, 3849.638317473078]}
    - {mu0: 0, rank: 2, ndensity: 1, num_ms_combs: 7, mus: [0, 0], ns: [4, 7], ls: [3, 3], ms_combs: [-3, 3, -2, 2, -1, 1, 0, 0, 1, -1, 2, -2, 3, -3], ctildes: [-536.5534705168009, 536.5534705168009, -536.5534705168009, 536.5534705168009, -536.5534705168009, 536.5534705168009, -536.5534705168009]}
    - {mu0: 0, rank: 2, ndensity: 1, num_ms_combs: 7, mus: [0, 0], ns: [5, 5], ls: [3, 3], ms_combs: [-3, 3, -2, 2, -1, 1, 0, 0, 1, -1, 2, -2, 3, -3], ctildes: [2658.3325037949853, -2658.3325037949853, 2658.3325037949853, -2658.3325037949853, 2658.3325037949853, -2658.3325037949853, 2658.3325037949853]}
    - {mu0: 0, rank: 2, ndensity: 1, num_ms_combs: 7, mus: [0, 0], ns: [5, 6], ls: [3, 3], ms_combs: [-3, 3, -2, 2, -1, 1, 0, 0, 1, -1, 2, -2, 3, -3], ctildes: [-2258.3901803933563, 2258.3901803933563, -2258.3901803933563, 2258.3901803933563, -2258.3901803933563, 2258.3901803933563, -2258.3901803933563]}
    - {mu0: 0, rank: 2, ndensity: 1, num_ms_combs: 7, mus: [0, 0], ns: [5, 7], ls: [3, 3], ms_combs: [-3, 3, -2, 2, -1, 1, 0, 0, 1, -1, 2, -2, 3, -3], ctildes: [365.5504256230806, -365.5504256230806, 365.5504256230806, -365.5504256230806, 365.5504256230806, -365.5504256230806, 365.5504256230806]}
    - {mu0: 0, rank: 2, ndensity: 1, num_ms_combs: 7, mus: [0, 0], ns: [6, 6], ls: [3, 3], ms_combs: [-3, 3, -2, 2, -1, 1, 0, 0, 1, -1, 2, -2, 3, -3], ctildes: [464.99804319579766, -464.99804319579766, 464.99804319579766, -464.99804319579766, 464.99804319579766, -464.99804319579766, 464.99804319579766]}
    - {mu0: 0, rank: 2, ndensity: 1, num_ms_combs: 7, mus: [0, 0], ns: [6, 7], ls: [3, 3], ms_combs: [-3, 3, -2, 2, -1, 1, 0, 0, 1, -1, 2, -2, 3, -3], ctildes: [-167.20735778214532, 167.20735778214532, -167.20735778214532, 167.20735778214532, -167.20735778214532, 167.20735778214532, -167.20735778214532]}
    - {mu0: 0, rank: 2, ndensity: 1, num_ms_combs: 7, mus: [0, 0], ns: [7, 7], ls: [3, 3], ms_combs: [-3, 3, -2, 2, -1, 1, 0, 0, 1, -1, 2, -2, 3, -3], ctildes: [17.500582107866634, -17.500582107866634, 17.500582107866634, -17.500582107866634, 17.500582107866634, -17.500582107866634, 17.500582107866634]}
    - {mu0: 0, rank: 2, ndensity: 1, num_ms_combs: 9, mus: [0, 0], ns: [1, 1], ls: [4, 4], ms_combs: [-4, 4, -3, 3, -2, 2, -1, 1, 0, 0, 1, -1, 2, -2, 3, -3, 4, -4], ctildes: [2.724815041873083, -2.724815041873083, 2.724815041873083, -2.724815041873083, 2.724815041873083, -2.724815041873083, 2.724815041873083, -2.724815041873083, 2.724815041873083]}
    - {mu0: 0, rank: 2, ndensity: 1, num_ms_combs: 9, mus: [0, 0], ns: [1, 2], ls: [4, 4], ms_combs: [-4, 4, -3, 3, -2, 2, -1, 1, 0, 0, 1, -1, 2, -2, 3, -3, 4, -4], ctildes: [-365.22518922981055, 365.22518922981055, -365.22518922981055, 365.22518922981055, -365.22518922981055, 365.22518922981055, -365.22518922981055, 365.22518922981055, -365.22518922981055]}
    - {mu0: 0, rank: 2, ndensity: 1, num_ms_combs: 9, mus: [0, 0], ns: [1, 3], ls: [4, 4], ms_combs: [-4, 4, -3, 3, -2, 2, -1, 1, 0, 0, 1, -1, 2, -2, 3, -3, 4, -4], ctildes: [211.2726531895418, -211.2726531895418, 211.2726531895418, -211.2726531895418, 211.2726531895418, -211.2726531895418, 211.2726531895418, -211.2726531895418, 211.2726531895418]}
    - {mu0: 0, rank: 2, ndensity: 1, num_ms_combs: 9, mus: [0, 0], ns: [1, 4], ls: [4, 4], ms_combs: [-4, 4, -3, 3, -2, 2, -1, 1, 0, 0, 1, -1, 2, -2, 3, -3, 4, -4], ctildes: [-74.64605318631868, 74.64605318631868, -74.64605318631868, 74.64605318631868, -74.64605318631868, 74.64605318631868, -74.64605318631868, 74.64605318631868, -74.64605318631868]}
    - {mu0: 0, rank: 2, ndensity: 1, num_ms_combs: 9, mus: [0, 0], ns: [1, 5], ls: [4, 4], ms_combs: [-4, 4, -3, 3, -2, 2, -1, 1, 0, 0, 1, -1, 2, -2, 3, -3, 4, -4], ctildes: [-1.725545249810237, 1.725545249810237, -1.725545249810237, 1.725545249810237, -1.725545249810237, 1.725545249810237, -1.725545249810237, 1.725545249810237, -1.725545249810237]}
    - {mu0: 0, rank: 2, ndensity: 1, num_ms_combs: 9, mus: [0, 0], ns: [1, 6], ls: [4, 4], ms_combs: [-4, 4, -3, 3, -2, 2, -1, 1, 0, 0, 1, -1, 2, -2, 3, -3, 4, -4], ctildes: [13.47274643076793, -13.47274643076793, 13.47274643076793, -13.47274643076793, 13.47274643076793, -13.47274643076793, 13.47274643076793, -13.47274643076793, 13.47274643076793]}
    - {mu0: 0, rank: 2, ndensity: 1, num_ms_combs: 9, mus: [0, 0], ns: [1, 7], ls: [4, 4], ms_combs: [-4, 4, -3, 3, -2, 2, -1, 1, 0, 0, 1, -1, 2, -2, 3, -3, 4, -4], ctildes: [-6.404528859129879, 6.404528859129879, -6.404528859129879, 6.404528859129879, -6.404528859129879, 6.404528859129879, -6.404528859129879, 6.404528859129879, -6.404528859129879]}
    - {mu0: 0, rank: 2, ndensity: 1, num_ms_combs: 9, mus: [0, 0], ns: [2, 2], ls: [4, 4], ms_combs: [-4, 4, -3, 3, -2, 2, -1, 1, 0, 0, 1, -1, 2, -2, 3, -3, 4, -4], ctildes: [-1949.7621342621192, 1949.7621342621192, -1949.7621342621192, 1949.7621342621192, -1949.7621342621192, 1949.7621342621192, -1949.7621342621192, 1949.7621342621192, -1949.7621342621192]}
    - {mu0: 0, rank: 2, ndensity: 1, num_ms_combs: 9, mus: [0, 0], ns: [2, 3], ls: [4, 4], ms_combs: [-4, 4, -3, 3, -2, 2, -1, 1, 0, 0, 1, -1, 2, -2, 3, -3, 4, -4], ctildes: [2594.7242443674054, -2594.7242443674054, 2594.7242443674054, -2594.7242443674054, 2594.7242443674054, -2594.7242443674054, 2594.7242443674054, -2594.7242443674054, 2594.7242443674054]}
    - {mu0: 0, rank: 2, ndensity: 1, num_ms_combs: 9, mus: [0, 0], ns: [2, 4], ls: [4, 4], ms_combs: [-4, 4, -3, 3, -2, 2, -1, 1, 0, 0, 1, -1, 2, -2, 3, -3, 4, -4], ctildes: [-2038.021654956628, 2038.021654956628, -2038.021654956628, 2038.021654956628, -2038.021654956628, 2038.021654956628, -2038.021654956628, 2038.021654956628, -2038.021654956628]}
    - {mu0: 0, rank: 2, ndensity: 1, num_ms_combs: 9, mus: [0, 0], ns: [2, 5], ls: [4, 4], ms_combs: [-4, 4, -3, 3, -2, 2, -1, 1, 0, 0, 1, -1, 2, -2, 3, -3, 4, -4], ctildes: [1058.370107763921, -1058.370107763921, 1058.370107763921, -1058.370107763921, 1058.370107763921, -1058.370107763921, 1058.370107763921, -1058.370107763921, 1058.370107763921]}
    - {mu0: 0, rank: 2, ndensity: 1, num_ms_combs: 9, mus: [0, 0], ns: [2, 6], ls: [4, 4], ms_combs: [-4, 4, -3, 3, -2, 2, -1, 1, 0, 0, 1, -1, 2, -2, 3, -3, 4, -4], ctildes: [178.57413415473007, -178.57413415473007, 178.57413415473007, -178.57413415473007, 178.57413415473007, -178.57413415473007, 178.57413415473007, -178.57413415473007, 178.57413415473007]}
    - {mu0: 0, rank: 2, ndensity: 1, num_ms_combs: 9, mus: [0, 0], ns: [2, 7], ls: [4, 4], ms_combs: [-4, 4, -3, 3, -2, 2, -1, 1, 0, 0, 1, -1, 2, -2, 3, -3, 4, -4], ctildes: [-187.5541520497678, 187.5541520497678, -187.5541520497678, 187.5541520497678, -187.5541520497678, 187.5541520497678, -187.5541520497678, 187.5541520497678, -187.5541520497678]}
    - {mu0: 0, rank: 2, ndensity: 1, num_ms_combs: 9, mus: [0, 0], ns: [3, 3], ls: [4, 4], ms_combs: [-4, 4, -3, 3, -2, 2, -1, 1, 0, 0, 1, -1, 2, -2, 3, -3, 4, -4], ctildes: [-664.9328868207111, 664.9328868207111, -664.9328868207111, 664.9328868207111, -664.9328868207111, 664.9328868207111, -664.9328868207111, 664.9328868207111, -664.9328868207111]}
    - {mu0: 0, rank: 2, ndensity: 1, num_ms_combs: 9, mus: [0, 0], ns: [3, 4], ls: [4, 4], ms_combs: [-4, 4, -3, 3, -2, 2, -1, 1, 0, 0, 1, -1, 2, -2, 3, -3, 4, -4], ctildes: [864.7154611184069, -864.7154611184069, 864.7154611184069, -864.7154611184069, 864.7154611184069, -864.7154611184069, 864.7154611184069, -864.7154611184069, 864.7154611184069]}
    - {mu0: 0, rank: 2, ndensity: 1, num_ms_combs: 9, mus: [0, 0], ns: [3, 5], ls: [4, 4], ms_combs: [-4, 4, -3, 3, -2, 2, -1, 1, 0, 0, 1, -1, 2, -2, 3, -3, 4, -4], ctildes: [-291.7685563278693, 291.7685563278693, -291.7685563278693, 291.7685563278693, -291.7685563278693, 291.7685563278693, -291.7685563278693, 291.7685563278693, -291.7685563278693]}
    - {mu0: 0, rank: 2, ndensity: 1, num_ms_combs: 9, mus: [0, 0], ns: [3, 6], ls: [4, 4], ms_combs: [-4, 4, -3, 3, -2, 2, -1, 1, 0, 0, 1, -1, 2, -2, 3, -3, 4, -4], ctildes: [-334.9400155932885, 334.9400155932885, -334.9400155932885, 334.9400155932885, -334.9400155932885, 334.9400155932885, -334.9400155932885, 334.9400155932885, -334.9400155932885]}
    - {mu0: 0, rank: 2, ndensity: 1, num_ms_combs: 9, mus: [0, 0], ns: [3, 7], ls: [4, 4], ms_combs: [-4, 4, -3, 3, -2, 2, -1, 1, 0, 0, 1, -1, 2, -2, 3, -3, 4, -4], ctildes: [201.5023889359758, -201.5023889359758, 201.5023889359758, -201.5023889359758, 201.5023889359758, -201.5023889359758, 201.5023889359758, -201.5023889359758, 201.5023889359758]}
    - {mu0: 0, rank: 2, ndensity: 1, num_ms_combs: 9, mus: [0, 0], ns: [4, 4], ls: [4, 4], ms_combs: [-4, 4, -3, 3, -2, 2, -1, 1, 0, 0, 1, -1, 2, -2, 3, -3, 4, -4], ctildes: [-160.55799521572914, 160.55799521572914, -160.55799521572914, 160.55799521572914, -160.55799521572914, 160.55799521572914, -160.55799521572914, 160.55799521572914, -160.55799521572914]}
    - {mu0: 0, rank: 2, ndensity: 1, num_ms_combs: 9, mus: [0, 0], ns: [4, 5], ls: [4, 4], ms_combs: [-4, 4, -3, 3, -2, 2, -1, 1, 0, 0, 1, -1, 2, -2, 3, -3, 4, -4], ctildes: [-77.3100990121274, 77.3100990121274, -77.3100990121274, 77.3100990121274, -77.3100990121274, 77.3100990121274, -77.3100990121274, 77.3100990121274, -77.3100990121274]}
    - {mu0: 0, rank: 2, ndensity: 1, num_ms_combs: 9, mus: [0, 0], ns: [4, 6], ls: [4, 4], ms_combs: [-4, 4, -3, 3, -2, 2, -1, 1, 0, 0, 1, -1, 2, -2, 3, -3, 4, -4], ctildes: [315.6999727064131, -315.6999727064131, 315.6999727064131, -315.6999727064131, 315.6999727064131, -315.6999727064131, 315.6999727064131, -315.6999727064131, 315.6999727064131]}
    - {mu0: 0, rank: 2, ndensity: 1, num_ms_combs: 9, mus: [0, 0], ns: [4, 7], ls: [4, 4], ms_combs: [-4, 4, -3, 3, -2, 2, -1, 1, 0, 0, 1, -1, 2, -2, 3, -3, 4, -4], ctildes: [-163.67786465645753, 163.67786465645753, -163.67786465645753, 163.67786465645753, -163.67786465645753, 163.67786465645753, -163.67786465645753, 163.67786465645753, -163.67786465645753]}
    - {mu0: 0, rank: 2, ndensity: 1, num_ms_combs: 9, mus: [0, 0], ns: [5, 5], ls: [4, 4], ms_combs: [-4, 4, -3, 3, -2, 2, -1, 1, 0, 0, 1, -1, 2, -2, 3, -3, 4, -4], ctildes: [128.00229313147946, -128.00229313147946, 128.00229313147946, -128.00229313147946, 128.00229313147946, -128.00229313147946, 128.00229313147946, -128.00229313147946, 128.00229313147946]}
    - {mu0: 0, rank: 2, ndensity: 1, num_ms_combs: 9, mus: [0, 0], ns: [5, 6], ls: [4, 4], ms_combs: [-4, 4, -3, 3, -2, 2, -1, 1, 0, 0, 1, -1, 2, -2, 3, -3, 4, -4], ctildes: [-245.46765484770114, 245.46765484770114, -245.46765484770114, 245.46765484770114, -245.46765484770114, 245.46765484770114, -245.46765484770114, 245.46765484770114, -245.46765484770114]}
    - {mu0: 0, rank: 2, ndensity: 1, num_ms_combs: 9, mus: [0, 0], ns: [5, 7], ls: [4, 4], ms_combs: [-4, 4, -3, 3, -2, 2, -1, 1, 0, 0, 1, -1, 2, -2, 3, -3, 4, -4], ctildes: [109.8520802088468, -109.8520802088468, 109.8520802088468, -109.8520802088468, 109.8520802088468, -109.8520802088468, 109.8520802088468, -109.8520802088468, 109.8520802088468]}
    - {mu0: 0, rank: 2, ndensity: 1, num_ms_combs: 9, mus: [0, 0], ns: [6, 6], ls: [4, 4], ms_combs: [-4, 4, -3, 3, -2, 2, -1, 1, 0, 0, 1, -1, 2, -2, 3, -3, 4, -4], ctildes: [68.59814473111322, -68.59814473111322, 68.59814473111322, -68.59814473111322, 68.59814473111322, -68.59814473111322, 68.59814473111322, -68.59814473111322, 68.59814473111322]}
    - {mu0: 0, rank: 2, ndensity: 1, num_ms_combs: 9, mus: [0, 0], ns: [6, 7], ls: [4, 4], ms_combs: [-4, 4, -3, 3, -2, 2, -1, 1, 0, 0, 1, -1, 2, -2, 3, -3, 4, -4], ctildes: [-50.44313728093979, 50.44313728093979, -50.44313728093979, 50.44313728093979, -50.44313728093979, 50.44313728093979, -50.44313728093979, 50.44313728093979, -50.44313728093979]}
    - {mu0: 0, rank: 2, ndensity: 1, num_ms_combs: 9, mus: [0, 0], ns: [7, 7], ls: [4, 4], ms_combs: [-4, 4, -3, 3, -2, 2, -1, 1, 0, 0, 1, -1, 2, -2, 3, -3, 4, -4], ctildes: [7.612346992080389, -7.612346992080389, 7.612346992080389, -7.612346992080389, 7.612346992080389, -7.612346992080389, 7.612346992080389, -7.612346992080389, 7.612346992080389]}
    - {mu0: 0, rank: 2, ndensity: 1, num_ms_combs: 11, mus: [0, 0], ns: [1, 1], ls: [5, 5], ms_combs: [-5, 5, -4, 4, -3, 3, -2, 2, -1, 1, 0, 0, 1, -1, 2, -2, 3, -3, 4, -4, 5, -5], ctildes: [-1.5895077023108477, 1.5895077023108477, -1.5895077023108477, 1.5895077023108477, -1.5895077023108477, 1.5895077023108477, -1.5895077023108477, 1.5895077023108477, -1.5895077023108477, 1.5895077023108477, -1.5895077023108477]}
    - {mu0: 0, rank: 2, ndensity: 1, num_ms_combs: 11, mus: [0, 0], ns: [1, 2], ls: [5, 5], ms_combs: [-5, 5, -4, 4, -3, 3, -2, 2, -1, 1, 0, 0, 1, -1, 2, -2, 3, -3, 4, -4, 5, -5], ctildes: [-12.037456489806672, 12.037456489806672, -12.037456489806672, 12.037456489806672, -12.037456489806672, 12.037456489806672, -12.037456489806672, 12.037456489806672, -12.037456489806672, 12.037456489806672, -12.037456489806672]}
    - {mu0: 0, rank: 2, ndensity: 1, num_ms_combs: 11, mus: [0, 0], ns: [1, 3], ls: [5, 5], ms_combs: [-5, 5, -4, 4, -3, 3, -2, 2, -1, 1, 0, 0, 1, -1, 2, -2, 3, -3, 4, -4, 5, -5], ctildes: [19.02054895366014, -19.02054895366014, 19.02054895366014, -19.02054895366014, 19.02054895366014, -19.02054895366014, 19.02054895366014, -19.02054895366014, 19.02054895366014, -19.02054895366014, 19.02054895366014]}
    - {mu0: 0, rank: 2, ndensity: 1, num_ms_combs: 11, mus: [0, 0], ns: [1, 4], ls: [5, 5], ms_combs: [-5, 5, -4, 4, -3, 3, -2, 2, -1, 1, 0, 0, 1, -1, 2, -2, 3, -3, 4, -4, 5, -5], ctildes: [-17.56272016211737, 17.56272016211737, -17.56272016211737, 17.56272016211737, -17.56272016211737, 17.56272016211737, -17.56272016211737, 17.56272016211737, -17.56272016211737, 17.56272016211737, -17.56272016211737]}
    - {mu0: 0, rank: 2, ndensity: 1, num_ms_combs: 11, mus: [0, 0], ns: [1, 5], ls: [5, 5], ms_combs: [-5, 5, -4, 4, -3, 3, -2, 2, -1, 1, 0, 0, 1, -1, 2, -2, 3, -3, 4, -4, 5, -5], ctildes: [14.908702515099412, -14.908702515099412, 14.908702515099412, -14.908702515099412, 14.908702515099412, -14.908702515099412, 14.908702515099412, -14.908702515099412, 14.908702515099412, -14.908702515099412, 14.908702515099412]}
    - {mu0: 0, rank: 2, ndensity: 1, num_ms_combs: 11, mus: [0, 0], ns: [1, 6], ls: [5, 5], ms_combs: [-5, 5, -4, 4, -3, 3, -2, 2, -1, 1, 0, 0, 1, -1, 2, -2, 3, -3, 4, -4, 5, -5], ctildes: [-6.9671112381974565, 6.9671112381974565, -6.9671112381974565, 6.9671112381974565, -6.9671112381974565, 6.9671112381974565, -6.9671112381974565, 6.9671112381974565, -6.9671112381974565, 6.9671112381974565, -6.9671112381974565]}
    - {mu0: 0, rank: 2, ndensity: 1, num_ms_combs: 11, mus: [0, 0], ns: [1, 7], ls: [5, 5], ms_combs: [-5, 5, -4, 4, -3, 3, -2, 2, -1, 1, 0, 0, 1, -1, 2, -2, 3, -3, 4, -4, 5, -5], ctildes: [2.6957899520330586, -2.6957899520330586, 2.6957899520330586, -2.6957899520330586, 2.6957899520330586, -2.6957899520330586, 2.6957899520330586, -2.6957899520330586, 2.6957899520330586, -2.6957899520330586, 2.6957899520330586]}
    - {mu0: 0, rank: 2, ndensity: 1, num_ms_combs: 11, mus: [0, 0], ns: [2, 2], ls: [5, 5], ms_combs: [-5, 5, -4, 4, -3, 3, -2, 2, -1, 1, 0, 0, 1, -1, 2, -2, 3, -3, 4, -4, 5, -5], ctildes: [167.50583940469562, -167.50583940469562, 167.50583940469562, -167.50583940469562, 167.50583940469562, -167.50583940469562, 167.50583940469562, -167.50583940469562, 167.50583940469562, -167.50583940469562, 167.50583940469562]}
    - {mu0: 0, rank: 2, ndensity: 1, num_ms_combs: 11, mus: [0, 0], ns: [2, 3], ls: [5, 5], ms_combs: [-5, 5, -4, 4, -3, 3, -2, 2, -1, 1, 0, 0, 1, -1, 2, -2, 3, -3, 4, -4, 5, -5], ctildes: [-246.88766953657125, 246.88766953657125, -246.88766953657125, 246.88766953657125, -246.88766953657125, 246.88766953657125, -246.88766953657125, 246.88766953657125, -246.88766953657125, 246.88766953657125, -246.88766953657125]}
    - {mu0: 0, rank: 2, ndensity: 1, num_ms_combs: 11, mus: [0, 0], ns: [2, 4], ls: [5, 5], ms_combs: [-5, 5, -4, 4, -3, 3, -2, 2, -1, 1, 0, 0, 1, -1, 2, -2, 3, -3, 4, -4, 5, -5], ctildes: [303.2378068545346, -303.2378068545346, 303.2378068545346, -303.2378068545346, 303.2378068545346, -303.2378068545346, 303.2378068545346, -303.2378068545346, 303.2378068545346, -303.2378068545346, 303.2378068545346]}
    - {mu0: 0, rank: 2, ndensity: 1, num_ms_combs: 11, mus: [0, 0], ns: [2, 5], ls: [5, 5], ms_combs: [-5, 5, -4, 4, -3, 3, -2, 2, -1, 1, 0, 0, 1, -1, 2, -2, 3, -3, 4, -4, 5, -5], ctildes: [146.49490729834724, -146.49490729834724, 146.49490729834724, -146.49490729834724, 146.49490729834724, -146.49490729834724, 146.49490729834724, -146.49490729834724, 146.49490729834724, -146.49490729834724, 146.49490729834724]}
    - {mu0: 0, rank: 2, ndensity: 1, num_ms_combs: 11, mus: [0, 0], ns: [2, 6], ls: [5, 5], ms_combs: [-5, 5, -4, 4, -3, 3, -2, 2, -1, 1, 0, 0, 1, -1, 2, -2, 3, -3, 4, -4, 5, -5], ctildes: [-58.840515817416275, 58.840515817416275, -58.840515817416275, 58.840515817416275, -58.840515817416275, 58.840515817416275, -58.840515817416275, 58.840515817416275, -58.840515817416275, 58.840515817416275, -58.840515817416275]}
    - {mu0: 0, rank: 2, ndensity: 1, num_ms_combs: 11, mus: [0, 0], ns: [2, 7], ls: [5, 5], ms_combs: [-5, 5, -4, 4, -3, 3, -2, 2, -1, 1, 0, 0, 1, -1, 2, -2, 3, -3, 4, -4, 5, -5], ctildes: [-7.763398562568804, 7.763398562568804, -7.763398562568804, 7.763398562568804, -7.763398562568804, 7.763398562568804, -7.763398562568804, 7.763398562568804, -7.763398562568804, 7.763398562568804, -7.763398562568804]}
    - {mu0: 0, rank: 2, ndensity: 1, num_ms_combs: 11, mus: [0, 0], ns: [3, 3], ls: [5, 5], ms_combs: [-5, 5, -4, 4, -3, 3, -2, 2, -1, 1, 0, 0, 1, -1, 2, -2, 3, -3, 4, -4, 5, -5], ctildes: [131.24337432812587, -131.24337432812587, 131.24337432812587, -131.24337432812587, 131.24337432812587, -131.24337432812587, 131.24337432812587, -131.24337432812587, 131.24337432812587, -131.24337432812587, 131.24337432812587]}
    - {mu0: 0, rank: 2, ndensity: 1, num_ms_combs: 11, mus: [0, 0], ns: [3, 4], ls: [5, 5], ms_combs: [-5, 5, -4, 4, -3, 3, -2, 2, -1, 1, 0, 0, 1, -1, 2, -2, 3, -3, 4, -4, 5, -5], ctildes: [-350.90027273238053, 350.90027273238053, -350.90027273238053, 350.90027273238053, -350.90027273238053, 350.90027273238053, -350.90027273238053, 350.90027273238053, -350.90027273238053, 350.90027273238053, -350.90027273238053]}
    - {mu0: 0, rank: 2, ndensity: 1, num_ms_combs: 11, mus: [0, 0], ns: [3, 5], ls: [5, 5], ms_combs: [-5, 5, -4, 4, -3, 3, -2, 2, -1, 1, 0, 0, 1, -1, 2, -2, 3, -3, 4, -4, 5, -5], ctildes: [-5.4459619430394826, 5.4459619430394826, -5.4459619430394826, 5.4459619430394826, -5.4459619430394826, 5.4459619430394826, -5.4459619430394826, 5.4459619430394826, -5.4459619430394826, 5.4459619430394826, -5.4459619430394826]}
    - {mu0: 0, rank: 2, ndensity: 1, num_ms_combs: 11, mus: [0, 0], ns: [3, 6], ls: [5, 5], ms_combs: [-5, 5, -4, 4, -3, 3, -2, 2, -1, 1, 0, 0, 1, -1, 2, -2, 3, -3, 4, -4, 5, -5], ctildes: [-2.5101047253100206, 2.5101047253100206, -2.5101047253100206, 2.5101047253100206, -2.5101047253100206, 2.5101047253100206, -2.5101047253100206, 2.5101047253100206, -2.5101047253100206, 2.5101047253100206, -2.5101047253100206]}
    - {mu0: 0, rank: 2, ndensity: 1, num_ms_combs: 11, mus: [0, 0], ns: [3, 7], ls: [5, 5], ms_combs: [-5, 5, -4, 4, -3, 3, -2, 2, -1, 1, 0, 0, 1, -1, 2, -2, 3, -3, 4, -4, 5, -5], ctildes: [9.20112654327681, -9.20112654327681, 9.20112654327681, -9.20112654327681, 9.20112654327681, -9.20112654327681, 9.20112654327681, -9.20112654327681, 9.20112654327681, -9.20112654327681, 9.20112654327681]}
    - {mu0: 0, rank: 2, ndensity: 1, num_ms_combs: 11, mus: [0, 0], ns: [4, 4], ls: [5, 5], ms_combs: [-5, 5, -4, 4, -3, 3, -2, 2, -1, 1, 0, 0, 1, -1, 2, -2, 3, -3, 4, -4, 5, -5], ctildes: [198.75169415490416, -198.75169415490416, 198.75169415490416, -198.75169415490416, 198.75169415490416, -198.75169415490416, 198.75169415490416, -198.75169415490416, 198.75169415490416, -198.75169415490416, 198.75169415490416]}
    - {mu0: 0, rank: 2, ndensity: 1, num_ms_combs: 11, mus: [0, 0], ns: [4, 5], ls: [5, 5], ms_combs: [-5, 5, -4, 4, -3, 3, -2, 2, -1, 1, 0, 0, 1, -1, 2, -2, 3, -3, 4, -4, 5, -5], ctildes: [-128.7198343073648, 128.7198343073648, -128.7198343073648, 128.7198343073648, -128.7198343073648, 128.7198343073648, -128.7198343073648, 128.7198343073648, -128.7198343073648, 128.7198343073648, -128.7198343073648]}
    - {mu0: 0, rank: 2, ndensity: 1, num_ms_combs: 11, mus: [0, 0], ns: [4, 6], ls: [5, 5], ms_combs: [-5, 5, -4, 4, -3, 3, -2, 2, -1, 1, 0, 0, 1, -1, 2, -2, 3, -3, 4, -4, 5, -5], ctildes: [56.825675075029444, -56.825675075029444, 56.825675075029444, -56.825675075029444, 56.825675075029444, -56.825675075029444, 56.825675075029444, -56.825675075029444, 56.825675075029444, -56.825675075029444, 56.825675075029444]}
    - {mu0: 0, rank: 2, ndensity: 1, num_ms_combs: 11, mus: [0, 0], ns: [4, 7], ls: [5, 5], ms_combs: [-5, 5, -4, 4, -3, 3, -2, 2, -1, 1, 0, 0, 1, -1, 2, -2, 3, -3, 4, -4, 5, -5], ctildes: [-12.427498469600359, 12.427498469600359, -12.427498469600359, 12.427498469600359, -12.427498469600359, 12.427498469600359, -12.427498469600359, 12.427498469600359, -12.427498469600359, 12.427498469600359, -12.427498469600359]}
    - {mu0: 0, rank: 2, ndensity: 1, num_ms_combs: 11, mus: [0, 0], ns: [5, 5], ls: [5, 5], ms_combs: [-5, 5, -4, 4, -3, 3, -2, 2, -1, 1, 0, 0, 1, -1, 2, -2, 3, -3, 4, -4, 5, -5], ctildes: [30.19225059647732, -30.19225059647732, 30.19225059647732, -30.19225059647732, 30.19225059647732, -30.19225059647732, 30.19225059647732, -30.19225059647732, 30.19225059647732, -30.19225059647732, 30.19225059647732]}
    - {mu0: 0, rank: 2, ndensity: 1, num_ms_combs: 11, mus: [0, 0], ns: [5, 6], ls: [5, 5], ms_combs: [-5, 5, -4, 4, -3, 3, -2, 2, -1, 1, 0, 0, 1, -1, 2, -2, 3, -3, 4, -4, 5, -5], ctildes: [-34.52572276134329, 34.52572276134329, -34.52572276134329, 34.52572276134329, -34.52572276134329, 34.52572276134329, -34.52572276134329, 34.52572276134329, -34.52572276134329, 34.52572276134329, -34.52572276134329]}
    - {mu0: 0, rank: 2, ndensity: 1, num_ms_combs: 11, mus: [0, 0], ns: [5, 7], ls: [5, 5], ms_combs: [-5, 5, -4, 4, -3, 3, -2, 2, -1, 1, 0, 0, 1, -1, 2, -2, 3, -3, 4, -4, 5, -5], ctildes: [5.04844578596, -5.04844578596, 5.04844578596, -5.04844578596, 5.04844578596, -5.04844578596, 5.04844578596, -5.04844578596, 5.04844578596, -5.04844578596, 5.04844578596]}
    - {mu0: 0, rank: 2, ndensity: 1, num_ms_combs: 11, mus: [0, 0], ns: [6, 6], ls: [5, 5], ms_combs: [-5, 5, -4, 4, -3, 3, -2, 2, -1, 1, 0, 0, 1, -1, 2, -2, 3, -3, 4, -4, 5, -5], ctildes: [9.426341801759053, -9.426341801759053, 9.426341801759053, -9.426341801759053, 9.426341801759053, -9.426341801759053, 9.426341801759053, -9.426341801759053, 9.426341801759053, -9.426341801759053, 9.426341801759053]}
    - {mu0: 0, rank: 2, ndensity: 1, num_ms_combs: 11, mus: [0, 0], ns: [6, 7], ls: [5, 5], ms_combs: [-5, 5, -4, 4, -3, 3, -2, 2, -1, 1, 0, 0, 1, -1, 2, -2, 3, -3, 4, -4, 5, -5], ctildes: [-2.677440357489624, 2.677440357489624, -2.677440357489624, 2.677440357489624, -2.677440357489624, 2.677440357489624, -2.677440357489624, 2.677440357489624, -2.677440357489624, 2.677440357489624, -2.677440357489624]}
    - {mu0: 0, rank: 2, ndensity: 1, num_ms_combs: 11, mus: [0, 0], ns: [7, 7], ls: [5, 5], ms_combs: [-5, 5, -4, 4, -3, 3, -2, 2, -1, 1, 0, 0, 1, -1, 2, -2, 3, -3, 4, -4, 5, -5], ctildes: [0.005495528876107962, -0.005495528876107962, 0.005495528876107962, -0.005495528876107962, 0.005495528876107962, -0.005495528876107962, 0.005495528876107962, -0.005495528876107962, 0.005495528876107962, -0.005495528876107962, 0.005495528876107962]}
    - {mu0: 0, rank: 3, ndensity: 1, num_ms_combs: 9, mus: [0, 0, 0], ns: [1, 1, 1], ls: [1, 1, 2], ms_combs: [-1, -1, 2, -1, 0, 1, -1, 1, 0, 0, -1, 1, 0, 0, 0, 0, 1, -1, 1, -1, 0, 1, 0, -1, 1, 1, -2], ctildes: [-1.1813068267493476, 0.8353100722434808, -0.48226652951712673, 0.8353100722434808, -0.9645330590342535, 0.8353100722434808, -0.48226652951712673, 0.8353100722434808, -1.1813068267493476]}
    - {mu0: 0, rank: 3, ndensity: 1, num_ms_combs: 9, mus: [0, 0, 0], ns: [1, 1, 2], ls: [1, 1, 2], ms_combs: [-1, -1, 2, -1, 0, 1, -1, 1, 0, 0, -1, 1, 0, 0, 0, 0, 1, -1, 1, -1, 0, 1, 0, -1, 1, 1, -2], ctildes: [-5.369213388701084, 3.796607216727949, -2.1919723551679655, 3.796607216727949, -4.383944710335931, 3.796607216727949, -2.1919723551679655, 3.796607216727949, -5.369213388701084]}
    - {mu0: 0, rank: 3, ndensity: 1, num_ms_combs: 9, mus: [0, 0, 0], ns: [1, 1, 3], ls: [1, 1, 2], ms_combs: [-1, -1, 2, -1, 0, 1, -1, 1, 0, 0, -1, 1, 0, 0, 0, 0, 1, -1, 1, -1, 0, 1, 0, -1, 1, 1, -2], ctildes: [3.275899805012312, -2.3164109787777027, 1.3373805976864446, -2.3164109787777027, 2.674761195372889, -2.3164109787777027, 1.3373805976864446, -2.3164109787777027, 3.275899805012312]}
    - {mu0: 0, rank: 3, ndensity: 1, num_ms_combs: 9, mus: [0, 0, 0], ns: [1, 2, 1], ls: [1, 1, 2], ms_combs: [-1, -1, 2, -1, 0, 1, -1, 1, 0, 0, -1, 1, 0, 0, 0, 0, 1, -1, 1, -1, 0, 1, 0, -1, 1, 1, -2], ctildes: [-6.19268444775378, 4.378889189753128, -2.5281530330532727, 4.378889189753128, -5.056306066106545, 4.378889189753128, -2.5281530330532727, 4.378889189753128, -6.19268444775378]}
    - {mu0: 0, rank: 3, ndensity: 1, num_ms_combs: 9, mus: [0, 0, 0], ns: [1, 2, 2], ls: [1, 1, 2], ms_combs: [-1, -1, 2, -1, 0, 1, -1, 1, 0, 0, -1, 1, 0, 0, 0, 0, 1, -1, 1, -1, 0, 1, 0, -1, 1, 1, -2], ctildes: [23.079676475843634, -16.319795829372367, 9.422239188282356, -16.319795829372367, 18.844478376564712, -16.319795829372367, 9.422239188282356, -16.319795829372367, 23.079676475843634]}
    - {mu0: 0, rank: 3, ndensity: 1, num_ms_combs: 9, mus: [0, 0, 0], ns: [1, 2, 3], ls: [1, 1, 2], ms_combs: [-1, -1, 2, -1, 0, 1, -1, 1, 0, 0, -1, 1, 0, 0, 0, 0, 1, -1, 1, -1, 0, 1, 0, -1, 1, 1, -2], ctildes: [-2.540967104831577, 1.7967350800348236, -1.0373455562229803, 1.7967350800348236, -2.0746911124459606, 1.7967350800348236, -1.0373455562229803, 1.7967350800348236, -2.540967104831577]}
    - {mu0: 0, rank: 3, ndensity: 1, num_ms_combs: 9, mus: [0, 0, 0], ns: [1, 3, 1], ls: [1, 1, 2], ms_combs: [-1, -1, 2, -1, 0, 1, -1, 1, 0, 0, -1, 1, 0, 0, 0, 0, 1, -1, 1, -1, 0, 1, 0, -1, 1, 1, -2], ctildes: [5.172841509930754, -3.657751328885834, 2.1118038652169466, -3.657751328885834, 4.223607730433893, -3.657751328885834, 2.1118038652169466, -3.657751328885834, 5.172841509930754]}
    - {mu0: 0, rank: 3, ndensity: 1, num_ms_combs: 9, mus: [0, 0, 0], ns: [1, 3, 2], ls: [1, 1, 2], ms_combs: [-1, -1, 2, -1, 0, 1, -1, 1, 0, 0, -1, 1, 0, 0, 0, 0, 1, -1, 1, -1, 0, 1, 0, -1, 1, 1, -2], ctildes: [4.257139049778455, -3.0102519063622672, 1.7379698726181323, -3.0102519063622672, 3.4759397452362646, -3.0102519063622672, 1.7379698726181323, -3.0102519063622672, 4.257139049778455]}
    - {mu0: 0, rank: 3, ndensity: 1, num_ms_combs: 9, mus: [0, 0, 0], ns: [1, 3, 3], ls: [1, 1, 2], ms_combs: [-1, -1, 2, -1, 0, 1, -1, 1, 0, 0, -1, 1, 0, 0, 0, 0, 1, -1, 1, -1, 0, 1, 0, -1, 1, 1, -2], ctildes: [-6.919459099784959, 4.892796477297913, -2.824857565050753, 4.892796477297913, -5.649715130101506, 4.892796477297913, -2.824857565050753, 4.892796477297913, -6.919459099784959]}
    - {mu0: 0, rank: 3, ndensity: 1, num_ms_combs: 9, mus: [0, 0, 0], ns: [2, 2, 1], ls: [1, 1, 2], ms_combs: [-1, -1, 2, -1, 0, 1, -1, 1, 0, 0, -1, 1, 0, 0, 0, 0, 1, -1, 1, -1, 0, 1, 0, -1, 1, 1, -2], ctildes: [4.339471144914226, -3.0684694894478266, 1.7715818122852072, -3.0684694894478266, 3.5431636245704143, -3.0684694894478266, 1.7715818122852072, -3.0684694894478266, 4.339471144914226]}
    - {mu0: 0, rank: 3, ndensity: 1, num_ms_combs: 9, mus: [0, 0, 0], ns: [2, 2, 2], ls: [1, 1, 2], ms_combs: [-1, -1, 2, -1, 0, 1, -1, 1, 0, 0, -1, 1, 0, 0, 0, 0, 1, -1, 1, -1, 0, 1, 0, -1, 1, 1, -2], ctildes: [-18.679771445117083, 13.208593129228758, -7.625985343536163, 13.208593129228758, -15.251970687072326, 13.208593129228758, -7.625985343536163, 13.208593129228758, -18.679771445117083]}
    - {mu0: 0, rank: 3, ndensity: 1, num_ms_combs: 9, mus: [0, 0, 0], ns: [2, 2, 3], ls: [1, 1, 2], ms_combs: [-1, -1, 2, -1, 0, 1, -1, 1, 0, 0, -1, 1, 0, 0, 0, 0, 1, -1, 1, -1, 0, 1, 0, -1, 1, 1, -2], ctildes: [-4.153585079460506, 2.937028191347084, -1.6956941380230992, 2.937028191347084, -3.3913882760461984, 2.937028191347084, -1.6956941380230992, 2.937028191347084, -4.153585079460506]}
    - {mu0: 0, rank: 3, ndensity: 1, num_ms_combs: 9, mus: [0, 0, 0], ns: [2, 3, 1], ls: [1, 1, 2], ms_combs: [-1, -1, 2, -1, 0, 1, -1, 1, 0, 0, -1, 1, 0, 0, 0, 0, 1, -1, 1, -1, 0, 1, 0, -1, 1, 1, -2], ctildes: [6.301872318954237, -4.456096674307789, 2.5727287982286144, -4.456096674307789, 5.145457596457229, -4.456096674307789, 2.5727287982286144, -4.456096674307789, 6.301872318954237]}
    - {mu0: 0, rank: 3, ndensity: 1, num_ms_combs: 9, mus: [0, 0, 0], ns: [2, 3, 2], ls: [1, 1, 2], ms_combs: [-1, -1, 2, -1, 0, 1, -1, 1, 0, 0, -1, 1, 0, 0, 0, 0, 1, -1, 1, -1, 0, 1, 0, -1, 1, 1, -2], ctildes: [15.637342918893324, -11.057271275761785, 6.3839190035968905, -11.057271275761785, 12.767838007193781, -11.057271275761785, 6.3839190035968905, -11.057271275761785, 15.637342918893324]}
    - {mu0: 0, rank: 3, ndensity: 1, num_ms_combs: 9, mus: [0, 0, 0], ns: [2, 3, 3], ls: [1, 1, 2], ms_combs: [-1, -1, 2, -1, 0, 1, -1, 1, 0, 0, -1, 1, 0, 0, 0, 0, 1, -1, 1, -1, 0, 1, 0, -1, 1, 1, -2], ctildes: [-7.364842914090297, 5.207730394277983, -3.0066847597849042, 5.207730394277983, -6.0133695195698085, 5.207730394277983, -3.0066847597849042, 5.207730394277983, -7.364842914090297]}
    - {mu0: 0, rank: 3, ndensity: 1, num_ms_combs: 9, mus: [0, 0, 0], ns: [3, 3, 1], ls: [1, 1, 2], ms_combs: [-1, -1, 2, -1, 0, 1, -1, 1, 0, 0, -1, 1, 0, 0, 0, 0, 1, -1, 1, -1, 0, 1, 0, -1, 1, 1, -2], ctildes: [-4.717315815943148, 3.3356460199707905, -1.9258362651229057, 3.3356460199707905, -3.8516725302458115, 3.3356460199707905, -1.9258362651229057, 3.3356460199707905, -4.717315815943148]}
    - {mu0: 0, rank: 3, ndensity: 1, num_ms_combs: 9, mus: [0, 0, 0], ns: [3, 3, 2], ls: [1, 1, 2], ms_combs: [-1, -1, 2, -1, 0, 1, -1, 1, 0, 0, -1, 1, 0, 0, 0, 0, 1, -1, 1, -1, 0, 1, 0, -1, 1, 1, -2], ctildes: [-10.571874336342699, 7.475444072341045, -4.315949955786528, 7.475444072341045, -8.631899911573056, 7.475444072341045, -4.315949955786528, 7.475444072341045, -10.571874336342699]}
    - {mu0: 0, rank: 3, ndensity: 1, num_ms_combs: 9, mus: [0, 0, 0], ns: [3, 3, 3], ls: [1, 1, 2], ms_combs: [-1, -1, 2, -1, 0, 1, -1, 1, 0, 0, -1, 1, 0, 0, 0, 0, 1, -1, 1, -1, 0, 1, 0, -1, 1, 1, -2], ctildes: [7.91717856823761, -5.598290682867881, 3.2321748636448695, -5.598290682867881, 6.464349727289739, -5.598290682867881, 3.2321748636448695, -5.598290682867881, 7.91717856823761]}
    - {mu0: 0, rank: 3, ndensity: 1, num_ms_combs: 15, mus: [0, 0, 0], ns: [1, 1, 1], ls: [1, 2, 3], ms_combs: [-1, -2, 3, -1, -1, 2, -1, 0, 1, -1, 1, 0, -1, 2, -1, 0, -2, 2, 0, -1, 1, 0, 0, 0, 0, 1, -1, 0, 2, -2, 1, -2, 1, 1, -1, 0, 1, 0, -1, 1, 1, -2, 1, 2, -3], ctildes: [0.2625558787686098, -0.21437599061801266, 0.16605492238988098, -0.11741855647411077, 0.06779163722381257, -0.15158670233617003, 0.19174370315378614, -0.20337491684703993, 0.19174370315378614, -0.15158670233617003, 0.06779163722381257, -0.11741855647411077, 0.16605492238988098, -0.21437599061801266, 0.2625558787686098]}
    - {mu0: 0, rank: 3, ndensity: 1, num_ms_combs: 15, mus: [0, 0, 0], ns: [1, 1, 2], ls: [1, 2, 3], ms_combs: [-1, -2, 3, -1, -1, 2, -1, 0, 1, -1, 1, 0, -1, 2, -1, 0, -2, 2, 0, -1, 1, 0, 0, 0, 0, 1, -1, 0, 2, -2, 1, -2, 1, 1, -1, 0, 1, 0, -1, 1, 1, -2, 1, 2, -3], ctildes: [2.708192608108771, -2.2112301422104284, 1.712811442141347, -1.2111405320245565, 0.6992523331877887, -1.5635756802695562, 1.9777842414647506, -2.097757052948298, 1.9777842414647506, -1.5635756802695562, 0.6992523331877887, -1.2111405320245565, 1.712811442141347, -2.2112301422104284, 2.708192608108771]}
    - {mu0: 0, rank: 3, ndensity: 1, num_ms_combs: 15, mus: [0, 0, 0], ns: [1, 1, 3], ls: [1, 2, 3], ms_combs: [-1, -2, 3, -1, -1, 2, -1, 0, 1, -1, 1, 0, -1, 2, -1, 0, -2, 2, 0, -1, 1, 0, 0, 0, 0, 1, -1, 0, 2, -2, 1, -2, 1, 1, -1, 0, 1, 0, -1, 1, 1, -2, 1, 2, -3], ctildes: [-0.884641621863633, 0.7223069044135798, -0.5594965024221987, 0.3956237534017945, -0.22841348738306955, 0.5107480618470985, -0.6460508952823495, 0.6852404795876037, -0.6460508952823495, 0.5107480618470985, -0.22841348738306955, 0.3956237534017945, -0.5594965024221987, 0.7223069044135798, -0.884641621863633]}
    - {mu0: 0, rank: 3, ndensity: 1, num_ms_combs: 15, mus: [0, 0, 0], ns: [1, 2, 1], ls: [1, 2, 3], ms_combs: [-1, -2, 3, -1, -1, 2, -1, 0, 1, -1, 1, 0, -1, 2, -1, 0, -2, 2, 0, -1, 1, 0, 0, 0, 0, 1, -1, 0, 2, -2, 1, -2, 1, 1, -1, 0, 1, 0, -1, 1, 1, -2, 1, 2, -3], ctildes: [-0.981344600392772, 0.8012645606470805, -0.6206568377757194, 0.4388706393557188, -0.2533820893799306, 0.5665795507098427, -0.716672765552942, 0.7601462874844331, -0.716672765552942, 0.5665795507098427, -0.2533820893799306, 0.4388706393557188, -0.6206568377757194, 0.8012645606470805, -0.981344600392772]}
    - {mu0: 0, rank: 3, ndensity: 1, num_ms_combs: 15, mus: [0, 0, 0], ns: [1, 2, 2], ls: [1, 2, 3], ms_combs: [-1, -2, 3, -1, -1, 2, -1, 0, 1, -1, 1, 0, -1, 2, -1, 0, -2, 2, 0, -1, 1, 0, 0, 0, 0, 1, -1, 0, 2, -2, 1, -2, 1, 1, -1, 0, 1, 0, -1, 1, 1, -2, 1, 2, -3], ctildes: [9.306978374379694, -7.599116492936839, 5.886250115176211, -4.162207187973589, 2.403051512557674, -5.373386294388081, 6.796855995170815, -7.209154721135751, 6.796855995170815, -5.373386294388081, 2.403051512557674, -4.162207187973589, 5.886250115176211, -7.599116492936839, 9.306978374379694]}
    - {mu0: 0, rank: 3, ndensity: 1, num_ms_combs: 15, mus: [0, 0, 0], ns: [1, 2, 3], ls: [1, 2, 3], ms_combs: [-1, -2, 3, -1, -1, 2, -1, 0, 1, -1, 1, 0, -1, 2, -1, 0, -2, 2, 0, -1, 1, 0, 0, 0, 0, 1, -1, 0, 2, -2, 1, -2, 1, 1, -1, 0, 1, 0, -1, 1, 1, -2, 1, 2, -3], ctildes: [-1.7753743421239043, 1.4495871701506815, -1.1228453538234666, 0.7939715287696153, -0.4583996896287278, 1.025012820878362, -1.296550099885835, 1.3751991038830438, -1.296550099885835, 1.025012820878362, -0.4583996896287278, 0.7939715287696153, -1.1228453538234666, 1.4495871701506815, -1.7753743421239043]}
    - {mu0: 0, rank: 3, ndensity: 1, num_ms_combs: 15, mus: [0, 0, 0], ns: [1, 3, 1], ls: [1, 2, 3], ms_combs: [-1, -2, 3, -1, -1, 2, -1, 0, 1, -1, 1, 0, -1, 2, -1, 0, -2, 2, 0, -1, 1, 0, 0, 0, 0, 1, -1, 0, 2, -2, 1, -2, 1, 1, -1, 0, 1, 0, -1, 1, 1, -2, 1, 2, -3], ctildes: [0.400924583360546, -0.3273535718344263, 0.2535669773854264, -0.17929892125808242, 0.10351828356218011, -0.23147390857200675, 0.2927939174680966, -0.31055485858971954, 0.2927939174680966, -0.23147390857200675, 0.10351828356218011, -0.17929892125808242, 0.2535669773854264, -0.3273535718344263, 0.400924583360546]}
    - {mu0: 0, rank: 3, ndensity: 1, num_ms_combs: 15, mus: [0, 0, 0], ns: [1, 3, 2], ls: [1, 2, 3], ms_combs: [-1, -2, 3, -1, -1, 2, -1, 0, 1, -1, 1, 0, -1, 2, -1, 0, -2, 2, 0, -1, 1, 0, 0, 0, 0, 1, -1, 0, 2, -2, 1, -2, 1, 1, -1, 0, 1, 0, -1, 1, 1, -2, 1, 2, -3], ctildes: [-6.2657673310961535, 5.115977920149738, -3.9628193158652554, 2.8021362868372064, -1.6178141880907304, 3.6175423372014266, -4.575869475096396, 4.8534426877854004, -4.575869475096396, 3.6175423372014266, -1.6178141880907304, 2.8021362868372064, -3.9628193158652554, 5.115977920149738, -6.2657673310961535]}
    - {mu0: 0, rank: 3, ndensity: 1, num_ms_combs: 15, mus: [0, 0, 0], ns: [1, 3, 3], ls: [1, 2, 3], ms_combs: [-1, -2, 3, -1, -1, 2, -1, 0, 1, -1, 1, 0, -1, 2, -1, 0, -2, 2, 0, -1, 1, 0, 0, 0, 0, 1, -1, 0, 2, -2, 1, -2, 1, 1, -1, 0, 1, 0, -1, 1, 1, -2, 1, 2, -3], ctildes: [1.1424524986703355, -0.9328086169128199, 0.722550421992338, -0.5109202805256312, 0.2949799703534845, -0.6595952361126818, 0.8343293389572193, -0.8849399335809155, 0.8343293389572193, -0.6595952361126818, 0.2949799703534845, -0.5109202805256312, 0.722550421992338, -0.9328086169128199, 1.1424524986703355]}
    - {mu0: 0, rank: 3, ndensity: 1, num_ms_combs: 15, mus: [0, 0, 0], ns: [2, 1, 1], ls: [1, 2, 3], ms_combs: [-1, -2, 3, -1, -1, 2, -1, 0, 1, -1, 1, 0, -1, 2, -1, 0, -2, 2, 0, -1, 1, 0, 0, 0, 0, 1, -1, 0, 2, -2, 1, -2, 1, 1, -1, 0, 1, 0, -1, 1, 1, -2, 1, 2, -3], ctildes: [0.22773826866554653, -0.18594752924894162, 0.14403433168522317, -0.1018476481503133, 0.05880176884159598, -0.13148474642680996, 0.1663165158920237, -0.17640531101405207, 0.1663165158920237, -0.13148474642680996, 0.05880176884159598, -0.1018476481503133, 0.14403433168522317, -0.18594752924894162, 0.22773826866554653]}
    - {mu0: 0, rank: 3, ndensity: 1, num_ms_combs: 15, mus: [0, 0, 0], ns: [2, 1, 2], ls: [1, 2, 3], ms_combs: [-1, -2, 3, -1, -1, 2, -1, 0, 1, -1, 1, 0, -1, 2, -1, 0, -2, 2, 0, -1, 1, 0, 0, 0, 0, 1, -1, 0, 2, -2, 1, -2, 1, 1, -1, 0, 1, 0, -1, 1, 1, -2, 1, 2, -3], ctildes: [-11.059456895141258, 9.030009302067745, -6.994614879735375, 4.9459393943320515, -2.8555395264584895, 6.385180207071079, -8.076685351284494, 8.566618797383727, -8.076685351284494, 6.385180207071079, -2.8555395264584895, 4.9459393943320515, -6.994614879735375, 9.030009302067745, -11.059456895141258]}
    - {mu0: 0, rank: 3, ndensity: 1, num_ms_combs: 15, mus: [0, 0, 0], ns: [2, 1, 3], ls: [1, 2, 3], ms_combs: [-1, -2, 3, -1, -1, 2, -1, 0, 1, -1, 1, 0, -1, 2, -1, 0, -2, 2, 0, -1, 1, 0, 0, 0, 0, 1, -1, 0, 2, -2, 1, -2, 1, 1, -1, 0, 1, 0, -1, 1, 1, -2, 1, 2, -3], ctildes: [5.7320855712825844, -4.680228560922378, 3.625289325592829, -2.5634665524257434, 1.4800181485431567, -3.3094210395693935, 4.186123424037808, -4.44005455862254, 4.186123424037808, -3.3094210395693935, 1.4800181485431567, -2.5634665524257434, 3.625289325592829, -4.680228560922378, 5.7320855712825844]}
    - {mu0: 0, rank: 3, ndensity: 1, num_ms_combs: 15, mus: [0, 0, 0], ns: [2, 2, 1], ls: [1, 2, 3], ms_combs: [-1, -2, 3, -1, -1, 2, -1, 0, 1, -1, 1, 0, -1, 2, -1, 0, -2, 2, 0, -1, 1, 0, 0, 0, 0, 1, -1, 0, 2, -2, 1, -2, 1, 1, -1, 0, 1, 0, -1, 1, 1, -2, 1, 2, -3], ctildes: [-12.261864627907775, 10.011771165666126, -7.755084322209759, 5.483672470189702, -3.1659998718794817, 7.079390612598584, -8.954799802435623, 9.497999857349026, -8.954799802435623, 7.079390612598584, -3.1659998718794817, 5.483672470189702, -7.755084322209759, 10.011771165666126, -12.261864627907775]}
    - {mu0: 0, rank: 3, ndensity: 1, num_ms_combs: 15, mus: [0, 0, 0], ns: [2, 2, 2], ls: [1, 2, 3], ms_combs: [-1, -2, 3, -1, -1, 2, -1, 0, 1, -1, 1, 0, -1, 2, -1, 0, -2, 2, 0, -1, 1, 0, 0, 0, 0, 1, -1, 0, 2, -2, 1, -2, 1, 1, -1, 0, 1, 0, -1, 1, 1, -2, 1, 2, -3], ctildes: [-11.142472481104114, 9.097791248375662, -7.047118547712132, 4.983065092352326, -2.8769740588479773, 6.433109276409132, -8.137311363342018, 8.630922396188625, -8.137311363342018, 6.433109276409132, -2.8769740588479773, 4.983065092352326, -7.047118547712132, 9.097791248375662, -11.142472481104114]}
    - {mu0: 0, rank: 3, ndensity: 1, num_ms_combs: 15, mus: [0, 0, 0], ns: [2, 2, 3], ls: [1, 2, 3], ms_combs: [-1, -2, 3, -1, -1, 2, -1, 0, 1, -1, 1, 0, -1, 2, -1, 0, -2, 2, 0, -1, 1, 0, 0, 0, 0, 1, -1, 0, 2, -2, 1, -2, 1, 1, -1, 0, 1, 0, -1, 1, 1, -2, 1, 2, -3], ctildes: [20.897015370866487, -17.06234266054046, 13.21643332407551, -9.345429212906287, 5.395586233781121, -12.064897055798195, 15.261022266436397, -16.18675911327335, 15.261022266436397, -12.064897055798195, 5.395586233781121, -9.345429212906287, 13.21643332407551, -17.06234266054046, 20.897015370866487]}
    - {mu0: 0, rank: 3, ndensity: 1, num_ms_combs: 15, mus: [0, 0, 0], ns: [2, 3, 1], ls: [1, 2, 3], ms_combs: [-1, -2, 3, -1, -1, 2, -1, 0, 1, -1, 1, 0, -1, 2, -1, 0, -2, 2, 0, -1, 1, 0, 0, 0, 0, 1, -1, 0, 2, -2, 1, -2, 1, 1, -1, 0, 1, 0, -1, 1, 1, -2, 1, 2, -3], ctildes: [5.244748894748406, -4.282319806083273, 3.3170705403987477, -2.345522968972547, 1.354188358189922, -3.028057087370899, 3.8302230363581473, -4.062565177956269, 3.8302230363581473, -3.028057087370899, 1.354188358189922, -2.345522968972547, 3.3170705403987477, -4.282319806083273, 5.244748894748406]}
    - {mu0: 0, rank: 3, ndensity: 1, num_ms_combs: 15, mus: [0, 0, 0], ns: [2, 3, 2], ls: [1, 2, 3], ms_combs: [-1, -2, 3, -1, -1, 2, -1, 0, 1, -1, 1, 0, -1, 2, -1, 0, -2, 2, 0, -1, 1, 0, 0, 0, 0, 1, -1, 0, 2, -2, 1, -2, 1, 1, -1, 0, 1, 0, -1, 1, 1, -2, 1, 2, -3], ctildes: [23.094767135028302, -18.85679957304362, 14.606413622142808, -10.328293663881828, 5.963043306168198, -13.333769587029513, 16.866033222007253, -17.889130373757506, 16.866033222007253, -13.333769587029513, 5.963043306168198, -10.328293663881828, 14.606413622142808, -18.85679957304362, 23.094767135028302]}
    - {mu0: 0, rank: 3, ndensity: 1, num_ms_combs: 15, mus: [0, 0, 0], ns: [2, 3, 3], ls: [1, 2, 3], ms_combs: [-1, -2, 3, -1, -1, 2, -1, 0, 1, -1, 1, 0, -1, 2, -1, 0, -2, 2, 0, -1, 1, 0, 0, 0, 0, 1, -1, 0, 2, -2, 1, -2, 1, 1, -1, 0, 1, 0, -1, 1, 1, -2, 1, 2, -3], ctildes: [-17.311946987422537, 14.135146401448358, -10.949036932239794, 7.742137919566218, -4.469925546186381, 9.99505692711887, -12.642858502116658, 13.409776979818886, -12.642858502116658, 9.99505692711887, -4.469925546186381, 7.742137919566218, -10.949036932239794, 14.135146401448358, -17.311946987422537]}
    - {mu0: 0, rank: 3, ndensity: 1, num_ms_combs: 15, mus: [0, 0, 0], ns: [3, 1, 1], ls: [1, 2, 3], ms_combs: [-1, -2, 3, -1, -1, 2, -1, 0, 1, -1, 1, 0, -1, 2, -1, 0, -2, 2, 0, -1, 1, 0, 0, 0, 0, 1, -1, 0, 2, -2, 1, -2, 1, 1, -1, 0, 1, 0, -1, 1, 1, -2, 1, 2, -3], ctildes: [-0.27890162018717135, 0.2277222334270651, -0.17639287724884034, 0.12472859413492449, -0.07201208956180018, 0.16102392023622386, -0.2036809448757716, 0.21603627418321628, -0.2036809448757716, 0.16102392023622386, -0.07201208956180018, 0.12472859413492449, -0.17639287724884034, 0.2277222334270651, -0.27890162018717135]}
    - {mu0: 0, rank: 3, ndensity: 1, num_ms_combs: 15, mus: [0, 0, 0], ns: [3, 1, 2], ls: [1, 2, 3], ms_combs: [-1, -2, 3, -1, -1, 2, -1, 0, 1, -1, 1, 0, -1, 2, -1, 0, -2, 2, 0, -1, 1, 0, 0, 0, 0, 1, -1, 0, 2, -2, 1, -2, 1, 1, -1, 0, 1, 0, -1, 1, 1, -2, 1, 2, -3], ctildes: [0.7002125683676488, -0.5717212034672752, 0.44285332418391987, -0.3131445747410497, 0.18079410995084852, -0.4042679016406085, 0.5113629581760802, -0.5423823436554044, 0.5113629581760802, -0.4042679016406085, 0.18079410995084852, -0.3131445747410497, 0.44285332418391987, -0.5717212034672752, 0.7002125683676488]}
    - {mu0: 0, rank: 3, ndensity: 1, num_ms_combs: 15, mus: [0, 0, 0], ns: [3, 1, 3], ls: [1, 2, 3], ms_combs: [-1, -2, 3, -1, -1, 2, -1, 0, 1, -1, 1, 0, -1, 2, -1, 0, -2, 2, 0, -1, 1, 0, 0, 0, 0, 1, -1, 0, 2, -2, 1, -2, 1, 1, -1, 0, 1, 0, -1, 1, 1, -2, 1, 2, -3], ctildes: [-1.1417032340408455, 0.932196844866674, -0.7220765454199185, 0.5105851992026594, -0.2947865110556572, 0.6591626479912723, -0.833782153438562, 0.8843595556726637, -0.833782153438562, 0.6591626479912723, -0.2947865110556572, 0.5105851992026594, -0.7220765454199185, 0.932196844866674, -1.1417032340408455]}
    - {mu0: 0, rank: 3, ndensity: 1, num_ms_combs: 15, mus: [0, 0, 0], ns: [3, 2, 1], ls: [1, 2, 3], ms_combs: [-1, -2, 3, -1, -1, 2, -1, 0, 1, -1, 1, 0, -1, 2, -1, 0, -2, 2, 0, -1, 1, 0, 0, 0, 0, 1, -1, 0, 2, -2, 1, -2, 1, 1, -1, 0, 1, 0, -1, 1, 1, -2, 1, 2, -3], ctildes: [6.109865798957142, -4.988684844298937, 3.8642185268019023, -2.7324150033461683, 1.57756058509021, -3.5275325485920597, 4.4620150939266345, -4.732681875710648, 4.4620150939266345, -3.5275325485920597, 1.57756058509021, -2.7324150033461683, 3.8642185268019023, -4.988684844298937, 6.109865798957142]}
    - {mu0: 0, rank: 3, ndensity: 1, num_ms_combs: 15, mus: [0, 0, 0], ns: [3, 2, 2], ls: [1, 2, 3], ms_combs: [-1, -2, 3, -1, -1, 2, -1, 0, 1, -1, 1, 0, -1, 2, -1, 0, -2, 2, 0, -1, 1, 0, 0, 0, 0, 1, -1, 0, 2, -2, 1, -2, 1, 1, -1, 0, 1, 0, -1, 1, 1, -2, 1, 2, -3], ctildes: [-11.019325674042527, 8.997242295219145, -6.969233666272491, 4.927992166972084, -2.8451776895998626, 6.362010436523143, -8.047377651218348, 8.535533286016763, -8.047377651218348, 6.362010436523143, -2.8451776895998626, 4.927992166972084, -6.969233666272491, 8.997242295219145, -11.019325674042527]}
    - {mu0: 0, rank: 3, ndensity: 1, num_ms_combs: 15, mus: [0, 0, 0], ns: [3, 2, 3], ls: [1, 2, 3], ms_combs: [-1, -2, 3, -1, -1, 2, -1, 0, 1, -1, 1, 0, -1, 2, -1, 0, -2, 2, 0, -1, 1, 0, 0, 0, 0, 1, -1, 0, 2, -2, 1, -2, 1, 1, -1, 0, 1, 0, -1, 1, 1, -2, 1, 2, -3], ctildes: [-5.057773276661581, 4.129654843726428, -3.1988167732546855, 2.261904932025227, -1.305911460599634, 2.9201066674603715, -3.6936753514250222, 3.9177344814996697, -3.6936753514250222, 2.9201066674603715, -1.305911460599634, 2.261904932025227, -3.1988167732546855, 4.129654843726428, -5.057773276661581]}
    - {mu0: 0, rank: 3, ndensity: 1, num_ms_combs: 15, mus: [0, 0, 0], ns: [3, 3, 1], ls: [1, 2, 3], ms_combs: [-1, -2, 3, -1, -1, 2, -1, 0, 1, -1, 1, 0, -1, 2, -1, 0, -2, 2, 0, -1, 1, 0, 0, 0, 0, 1, -1, 0, 2, -2, 1, -2, 1, 1, -1, 0, 1, 0, -1, 1, 1, -2, 1, 2, -3], ctildes: [-2.5947036485039146, 2.1185667889707163, -1.6410347199149093, 1.1603867272533641, -0.6699496094608494, 1.4980528010304883, -1.8949036238843562, 2.009848879530342, -1.8949036238843562, 1.4980528010304883, -0.6699496094608494, 1.1603867272533641, -1.6410347199149093, 2.1185667889707163, -2.5947036485039146]}
    - {mu0: 0, rank: 3, ndensity: 1, num_ms_combs: 15, mus: [0, 0, 0], ns: [3, 3, 2], ls: [1, 2, 3], ms_combs: [-1, -2, 3, -1, -1, 2, -1, 0, 1, -1, 1, 0, -1, 2, -1, 0, -2, 2, 0, -1, 1, 0, 0, 0, 0, 1, -1, 0, 2, -2, 1, -2, 1, 1, -1, 0, 1, 0, -1, 1, 1, -2, 1, 2, -3], ctildes: [1.0456728292553488, -0.8537883428293511, 0.6613415830625226, -0.4676390973655153, 0.2699915668548016, -0.6037194697477943, 0.7636514615824646, -0.8099747211771089, 0.7636514615824646, -0.6037194697477943, 0.2699915668548016, -0.4676390973655153, 0.6613415830625226, -0.8537883428293511, 1.0456728292553488]}
    - {mu0: 0, rank: 3, ndensity: 1, num_ms_combs: 15, mus: [0, 0, 0], ns: [3, 3, 3], ls: [1, 2, 3], ms_combs: [-1, -2, 3, -1, -1, 2, -1, 0, 1, -1, 1, 0, -1, 2, -1, 0, -2, 2, 0, -1, 1, 0, 0, 0, 0, 1, -1, 0, 2, -2, 1, -2, 1, 1, -1, 0, 1, 0, -1, 1, 1, -2, 1, 2, -3], ctildes: [4.647258084022203, -3.7944705717209657, 2.9391841618147594, -2.078316959984854, 1.1999168923393733, -2.6830956182202863, 3.3938774432359833, -3.599750768626654, 3.3938774432359833, -2.6830956182202863, 1.1999168923393733, -2.078316959984854, 2.9391841618147594, -3.7944705717209657, 4.647258084022203]}
    - {mu0: 0, rank: 3, ndensity: 1, num_ms_combs: 19, mus: [0, 0, 0], ns: [1, 1, 1], ls: [2, 2, 2], ms_combs: [-2, 0, 2, -2, 1, 1, -2, 2, 0, -1, -1, 2, -1, 0, 1, -1, 1, 0, -1, 2, -1, 0, -2, 2, 0, -1, 1, 0, 0, 0, 0, 1, -1, 0, 2, -2, 1, -2, 1, 1, -1, 0, 1, 0, -1, 1, 1, -2, 2, -2, 0, 2, -1, -1, 2, 0, -2], ctildes: [0.3398387413133458, -0.41621576019125656, 0.3398387413133458, -0.41621576019125656, 0.1699193706566729, 0.1699193706566729, -0.41621576019125656, 0.3398387413133458, 0.1699193706566729, -0.3398387413133458, 0.1699193706566729, 0.3398387413133458, -0.41621576019125656, 0.1699193706566729, 0.1699193706566729, -0.41621576019125656, 0.3398387413133458, -0.41621576019125656, 0.3398387413133458]}
    - {mu0: 0, rank: 3, ndensity: 1, num_ms_combs: 19, mus: [0, 0, 0], ns: [1, 1, 2], ls: [2, 2, 2], ms_combs: [-2, 0, 2, -2, 1, 1, -2, 2, 0, -1, -1, 2, -1, 0, 1, -1, 1, 0, -1, 2, -1, 0, -2, 2, 0, -1, 1, 0, 0, 0, 0, 1, -1, 0, 2, -2, 1, -2, 1, 1, -1, 0, 1, 0, -1, 1, 1, -2, 2, -2, 0, 2, -1, -1, 2, 0, -2], ctildes: [-0.1780636411214336, 0.21808253369042857, -0.1780636411214336, 0.21808253369042857, -0.0890318205607168, -0.0890318205607168, 0.21808253369042857, -0.1780636411214336, -0.0890318205607168, 0.1780636411214336, -0.0890318205607168, -0.1780636411214336, 0.21808253369042857, -0.0890318205607168, -0.0890318205607168, 0.21808253369042857, -0.1780636411214336, 0.21808253369042857, -0.1780636411214336]}
    - {mu0: 0, rank: 3, ndensity: 1, num_ms_combs: 19, mus: [0, 0, 0], ns: [1, 1, 3], ls: [2, 2, 2], ms_combs: [-2, 0, 2, -2, 1, 1, -2, 2, 0, -1, -1, 2, -1, 0, 1, -1, 1, 0, -1, 2, -1, 0, -2, 2, 0, -1, 1, 0, 0, 0, 0, 1, -1, 0, 2, -2, 1, -2, 1, 1, -1, 0, 1, 0, -1, 1, 1, -2, 2, -2, 0, 2, -1, -1, 2, 0, -2], ctildes: [-1.1201583622094229, 1.3719082246473666, -1.1201583622094229, 1.3719082246473666, -0.5600791811047114, -0.5600791811047114, 1.3719082246473666, -1.1201583622094229, -0.5600791811047114, 1.1201583622094229, -0.5600791811047114, -1.1201583622094229, 1.3719082246473666, -0.5600791811047114, -0.5600791811047114, 1.3719082246473666, -1.1201583622094229, 1.3719082246473666, -1.1201583622094229]}
    - {mu0: 0, rank: 3, ndensity: 1, num_ms_combs: 19, mus: [0, 0, 0], ns: [1, 2, 2], ls: [2, 2, 2], ms_combs: [-2, 0, 2, -2, 1, 1, -2, 2, 0, -1, -1, 2, -1, 0, 1, -1, 1, 0, -1, 2, -1, 0, -2, 2, 0, -1, 1, 0, 0, 0, 0, 1, -1, 0, 2, -2, 1, -2, 1, 1, -1, 0, 1, 0, -1, 1, 1, -2, 2, -2, 0, 2, -1, -1, 2, 0, -2], ctildes: [-12.553083091272054, 15.374324308600023, -12.553083091272054, 15.374324308600023, -6.276541545636027, -6.276541545636027, 15.374324308600023, -12.553083091272054, -6.276541545636027, 12.553083091272054, -6.276541545636027, -12.553083091272054, 15.374324308600023, -6.276541545636027, -6.276541545636027, 15.374324308600023, -12.553083091272054, 15.374324308600023, -12.553083091272054]}
    - {mu0: 0, rank: 3, ndensity: 1, num_ms_combs: 19, mus: [0, 0, 0], ns: [1, 2, 3], ls: [2, 2, 2], ms_combs: [-2, 0, 2, -2, 1, 1, -2, 2, 0, -1, -1, 2, -1, 0, 1, -1, 1, 0, -1, 2, -1, 0, -2, 2, 0, -1, 1, 0, 0, 0, 0, 1, -1, 0, 2, -2, 1, -2, 1, 1, -1, 0, 1, 0, -1, 1, 1, -2, 2, -2, 0, 2, -1, -1, 2, 0, -2], ctildes: [9.679879827115107, -11.855383306895812, 9.679879827115107, -11.855383306895812, 4.839939913557553, 4.839939913557553, -11.855383306895812, 9.679879827115107, 4.839939913557553, -9.679879827115107, 4.839939913557553, 9.679879827115107, -11.855383306895812, 4.839939913557553, 4.839939913557553, -11.855383306895812, 9.679879827115107, -11.855383306895812, 9.679879827115107]}
    - {mu0: 0, rank: 3, ndensity: 1, num_ms_combs: 19, mus: [0, 0, 0], ns: [1, 3, 3], ls: [2, 2, 2], ms_combs: [-2, 0, 2, -2, 1, 1, -2, 2, 0, -1, -1, 2, -1, 0, 1, -1, 1, 0, -1, 2, -1, 0, -2, 2, 0, -1, 1, 0, 0, 0, 0, 1, -1, 0, 2, -2, 1, -2, 1, 1, -1, 0, 1, 0, -1, 1, 1, -2, 2, -2, 0, 2, -1, -1, 2, 0, -2], ctildes: [-0.5106459929832485, 0.6254110680164388, -0.5106459929832485, 0.6254110680164388, -0.25532299649162427, -0.25532299649162427, 0.6254110680164388, -0.5106459929832485, -0.25532299649162427, 0.5106459929832485, -0.25532299649162427, -0.5106459929832485, 0.6254110680164388, -0.25532299649162427, -0.25532299649162427, 0.6254110680164388, -0.5106459929832485, 0.6254110680164388, -0.5106459929832485]}
    - {mu0: 0, rank: 3, ndensity: 1, num_ms_combs: 19, mus: [0, 0, 0], ns: [2, 2, 2], ls: [2, 2, 2], ms_combs: [-2, 0, 2, -2, 1, 1, -2, 2, 0, -1, -1, 2, -1, 0, 1, -1, 1, 0, -1, 2, -1, 0, -2, 2, 0, -1, 1, 0, 0, 0, 0, 1, -1, 0, 2, -2, 1, -2, 1, 1, -1, 0, 1, 0, -1, 1, 1, -2, 2, -2, 0, 2, -1, -1, 2, 0, -2], ctildes: [-5.624123174459361, 6.888116091239002, -5.624123174459361, 6.888116091239002, -2.8120615872296804, -2.8120615872296804, 6.888116091239002, -5.624123174459361, -2.8120615872296804, 5.624123174459361, -2.8120615872296804, -5.624123174459361, 6.888116091239002, -2.8120615872296804, -2.8120615872296804, 6.888116091239002, -5.624123174459361, 6.888116091239002, -5.624123174459361]}
    - {mu0: 0, rank: 3, ndensity: 1, num_ms_combs: 19, mus: [0, 0, 0], ns: [2, 2, 3], ls: [2, 2, 2], ms_combs: [-2, 0, 2, -2, 1, 1, -2, 2, 0, -1, -1, 2, -1, 0, 1, -1, 1, 0, -1, 2, -1, 0, -2, 2, 0, -1, 1, 0, 0, 0, 0, 1, -1, 0, 2, -2, 1, -2, 1, 1, -1, 0, 1, 0, -1, 1, 1, -2, 2, -2, 0, 2, -1, -1, 2, 0, -2], ctildes: [18.951928568006316, -23.211277576943427, 18.951928568006316, -23.211277576943427, 9.475964284003158, 9.475964284003158, -23.211277576943427, 18.951928568006316, 9.475964284003158, -18.951928568006316, 9.475964284003158, 18.951928568006316, -23.211277576943427, 9.475964284003158, 9.475964284003158, -23.211277576943427, 18.951928568006316, -23.211277576943427, 18.951928568006316]}
    - {mu0: 0, rank: 3, ndensity: 1, num_ms_combs: 19, mus: [0, 0, 0], ns: [2, 3, 3], ls: [2, 2, 2], ms_combs: [-2, 0, 2, -2, 1, 1, -2, 2, 0, -1, -1, 2, -1, 0, 1, -1, 1, 0, -1, 2, -1, 0, -2, 2, 0, -1, 1, 0, 0, 0, 0, 1, -1, 0, 2, -2, 1, -2, 1, 1, -1, 0, 1, 0, -1, 1, 1, -2, 2, -2, 0, 2, -1, -1, 2, 0, -2], ctildes: [-12.043174694652741, 14.7498166079576, -12.043174694652741, 14.7498166079576, -6.021587347326371, -6.021587347326371, 14.7498166079576, -12.043174694652741, -6.021587347326371, 12.043174694652741, -6.021587347326371, -12.043174694652741, 14.7498166079576, -6.021587347326371, -6.021587347326371, 14.7498166079576, -12.043174694652741, 14.7498166079576, -12.043174694652741]}
    - {mu0: 0, rank: 3, ndensity: 1, num_ms_combs: 19, mus: [0, 0, 0], ns: [3, 3, 3], ls: [2, 2, 2], ms_combs: [-2, 0, 2, -2, 1, 1, -2, 2, 0, -1, -1, 2, -1, 0, 1, -1, 1, 0, -1, 2, -1, 0, -2, 2, 0, -1, 1, 0, 0, 0, 0, 1, -1, 0, 2, -2, 1, -2, 1, 1, -1, 0, 1, 0, -1, 1, 1, -2, 2, -2, 0, 2, -1, -1, 2, 0, -2], ctildes: [1.642237043182258, -2.011321418802295, 1.642237043182258, -2.011321418802295, 0.821118521591129, 0.821118521591129, -2.011321418802295, 1.642237043182258, 0.821118521591129, -1.642237043182258, 0.821118521591129, 1.642237043182258, -2.011321418802295, 0.821118521591129, 0.821118521591129, -2.011321418802295, 1.642237043182258, -2.011321418802295, 1.642237043182258]}
    - {mu0: 0, rank: 3, ndensity: 1, num_ms_combs: 29, mus: [0, 0, 0], ns: [1, 1, 1], ls: [2, 3, 3], ms_combs: [-2, -1, 3, -2, 0, 2, -2, 1, 1, -2, 2, 0, -2, 3, -1, -1, -2, 3, -1, -1, 2, -1, 0, 1, -1, 1, 0, -1, 2, -1, -1, 3, -2, 0, -3, 3, 0, -2, 2, 0, -1, 1, 0, 0, 0, 0, 1, -1, 0, 2, -2, 0, 3, -3, 1, -3, 2, 1, -2, 1, 1, -1, 0, 1, 0, -1, 1, 1, -2, 1, 2, -3, 2, -3, 1, 2, -2, 0, 2, -1, -1, 2, 0, -2, 2, 1, -3], ctildes: [0.6635197690284407, -0.9383585674115819, 1.0279203695575756, -0.9383585674115819, 0.6635197690284407, -1.0491168030596054, 0.8126423837640773, -0.29673504309527865, -0.29673504309527865, 0.8126423837640773, -1.0491168030596054, 1.0491168030596054, -0.0, -0.6294701074663528, 0.8392934552629792, -0.6294701074663528, -0.0, 1.0491168030596054, -1.0491168030596054, 0.8126423837640773, -0.29673504309527865, -0.29673504309527865, 0.8126423837640773, -1.0491168030596054, 0.6635197690284407, -0.9383585674115819, 1.0279203695575756, -0.9383585674115819, 0.6635197690284407]}
    - {mu0: 0, rank: 3, ndensity: 1, num_ms_combs: 29, mus: [0, 0, 0], ns: [1, 1, 2], ls: [2, 3, 3], ms_combs: [-2, -1, 3, -2, 0, 2, -2, 1, 1, -2, 2, 0, -2, 3, -1, -1, -2, 3, -1, -1, 2, -1, 0, 1, -1, 1, 0, -1, 2, -1, -1, 3, -2, 0, -3, 3, 0, -2, 2, 0, -1, 1, 0, 0, 0, 0, 1, -1, 0, 2, -2, 0, 3, -3, 1, -3, 2, 1, -2, 1, 1, -1, 0, 1, 0, -1, 1, 1, -2, 1, 2, -3, 2, -3, 1, 2, -2, 0, 2, -1, -1, 2, 0, -2, 2, 1, -3], ctildes: [2.915285884895956, -4.122836446232423, 4.516341311964417, -4.122836446232423, 2.915285884895956, -4.6094714134067365, 3.5704812146359273, -1.303755401223892, -1.303755401223892, 3.5704812146359273, -4.6094714134067365, 4.6094714134067365, -0.0, -2.765682960656355, 3.687577187031546, -2.765682960656355, -0.0, 4.6094714134067365, -4.6094714134067365, 3.5704812146359273, -1.303755401223892, -1.303755401223892, 3.5704812146359273, -4.6094714134067365, 2.915285884895956, -4.122836446232423, 4.516341311964417, -4.122836446232423, 2.915285884895956]}
    - {mu0: 0, rank: 3, ndensity: 1, num_ms_combs: 29, mus: [0, 0, 0], ns: [1, 1, 3], ls: [2, 3, 3], ms_combs: [-2, -1, 3, -2, 0, 2, -2, 1, 1, -2, 2, 0, -2, 3, -1, -1, -2, 3, -1, -1, 2, -1, 0, 1, -1, 1, 0, -1, 2, -1, -1, 3, -2, 0, -3, 3, 0, -2, 2, 0, -1, 1, 0, 0, 0, 0, 1, -1, 0, 2, -2, 0, 3, -3, 1, -3, 2, 1, -2, 1, 1, -1, 0, 1, 0, -1, 1, 1, -2, 1, 2, -3, 2, -3, 1, 2, -2, 0, 2, -1, -1, 2, 0, -2, 2, 1, -3], ctildes: [-2.6414648654945716, 3.7355950835991893, -4.092139627864122, 3.7355950835991893, -2.6414648654945716, 4.176522395315628, -3.2351203462523466, 1.181298926247364, 1.181298926247364, -3.2351203462523466, 4.176522395315628, -4.176522395315628, 0.0, 2.5059135392244705, -3.3412179672700493, 2.5059135392244705, 0.0, -4.176522395315628, 4.176522395315628, -3.2351203462523466, 1.181298926247364, 1.181298926247364, -3.2351203462523466, 4.176522395315628, -2.6414648654945716, 3.7355950835991893, -4.092139627864122, 3.7355950835991893, -2.6414648654945716]}
    - {mu0: 0, rank: 3, ndensity: 1, num_ms_combs: 29, mus: [0, 0, 0], ns: [1, 2, 2], ls: [2, 3, 3], ms_combs: [-2, -1, 3, -2, 0, 2, -2, 1, 1, -2, 2, 0, -2, 3, -1, -1, -2, 3, -1, -1, 2, -1, 0, 1, -1, 1, 0, -1, 2, -1, -1, 3, -2, 0, -3, 3, 0, -2, 2, 0, -1, 1, 0, 0, 0, 0, 1, -1, 0, 2, -2, 0, 3, -3, 1, -3, 2, 1, -2, 1, 1, -1, 0, 1, 0, -1, 1, 1, -2, 1, 2, -3, 2, -3, 1, 2, -2, 0, 2, -1, -1, 2, 0, -2, 2, 1, -3], ctildes: [-0.8557742449037903, 1.2102474288768759, -1.3257597122801834, 1.2102474288768759, -0.8557742449037903, 1.3530978003395844, -1.0481050524851965, 0.3827138531428912, 0.3827138531428912, -1.0481050524851965, 1.3530978003395844, -1.3530978003395844, 0.0, 0.811858713260789, -1.0824782568001867, 0.811858713260789, 0.0, -1.3530978003395844, 1.3530978003395844, -1.0481050524851965, 0.3827138531428912, 0.3827138531428912, -1.0481050524851965, 1.3530978003395844, -0.8557742449037903, 1.2102474288768759, -1.3257597122801834, 1.2102474288768759, -0.8557742449037903]}
    - {mu0: 0, rank: 3, ndensity: 1, num_ms_combs: 29, mus: [0, 0, 0], ns: [1, 2, 3], ls: [2, 3, 3], ms_combs: [-2, -1, 3, -2, 0, 2, -2, 1, 1, -2, 2, 0, -2, 3, -1, -1, -2, 3, -1, -1, 2, -1, 0, 1, -1, 1, 0, -1, 2, -1, -1, 3, -2, 0, -3, 3, 0, -2, 2, 0, -1, 1, 0, 0, 0, 0, 1, -1, 0, 2, -2, 0, 3, -3, 1, -3, 2, 1, -2, 1, 1, -1, 0, 1, 0, -1, 1, 1, -2, 1, 2, -3, 2, -3, 1, 2, -2, 0, 2, -1, -1, 2, 0, -2, 2, 1, -3], ctildes: [-2.9852720718140167, 4.221811851578961, -4.6247634426660795, 4.221811851578961, -2.9852720718140167, 4.720129283910457, -3.6561964328138705, 1.3350541735598145, 1.3350541735598145, -3.6561964328138705, 4.720129283910457, -4.720129283910457, 0.0, 2.8320776856620298, -3.7761034847862436, 2.8320776856620298, 0.0, -4.720129283910457, 4.720129283910457, -3.6561964328138705, 1.3350541735598145, 1.3350541735598145, -3.6561964328138705, 4.720129283910457, -2.9852720718140167, 4.221811851578961, -4.6247634426660795, 4.221811851578961, -2.9852720718140167]}
    - {mu0: 0, rank: 3, ndensity: 1, num_ms_combs: 29, mus: [0, 0, 0], ns: [1, 3, 3], ls: [2, 3, 3], ms_combs: [-2, -1, 3, -2, 0, 2, -2, 1, 1, -2, 2, 0, -2, 3, -1, -1, -2, 3, -1, -1, 2, -1, 0, 1, -1, 1, 0, -1, 2, -1, -1, 3, -2, 0, -3, 3, 0, -2, 2, 0, -1, 1, 0, 0, 0, 0, 1, -1, 0, 2, -2, 0, 3, -3, 1, -3, 2, 1, -2, 1, 1, -1, 0, 1, 0, -1, 1, 1, -2, 1, 2, -3, 2, -3, 1, 2, -2, 0, 2, -1, -1, 2, 0, -2, 2, 1, -3], ctildes: [2.156376307875789, -3.049576331420307, 3.3406436925647522, -3.049576331420307, 2.156376307875789, -3.4095300907532624, 2.641010659999565, -0.9643607417818066, -0.9643607417818066, 2.641010659999565, -3.4095300907532624, 3.4095300907532624, -0.0, -2.0457181377489424, 2.7276241142511024, -2.0457181377489424, -0.0, 3.4095300907532624, -3.4095300907532624, 2.641010659999565, -0.9643607417818066, -0.9643607417818066, 2.641010659999565, -3.4095300907532624, 2.156376307875789, -3.049576331420307, 3.3406436925647522, -3.049576331420307, 2.156376307875789]}
    - {mu0: 0, rank: 3, ndensity: 1, num_ms_combs: 29, mus: [0, 0, 0], ns: [2, 1, 1], ls: [2, 3, 3], ms_combs: [-2, -1, 3, -2, 0, 2, -2, 1, 1, -2, 2, 0, -2, 3, -1, -1, -2, 3, -1, -1, 2, -1, 0, 1, -1, 1, 0, -1, 2, -1, -1, 3, -2, 0, -3, 3, 0, -2, 2, 0, -1, 1, 0, 0, 0, 0, 1, -1, 0, 2, -2, 0, 3, -3, 1, -3, 2, 1, -2, 1, 1, -1, 0, 1, 0, -1, 1, 1, -2, 1, 2, -3, 2, -3, 1, 2, -2, 0, 2, -1, -1, 2, 0, -2, 2, 1, -3], ctildes: [3.326424327495397, -4.704273952714471, 5.153274225771886, -4.704273952714471, 3.326424327495397, -5.259538327232694, 4.074020882399374, -1.4876220909255544, -1.4876220909255544, 4.074020882399374, -5.259538327232694, 5.259538327232694, -0.0, -3.1557231248334774, 4.207630726033086, -3.1557231248334774, -0.0, 5.259538327232694, -5.259538327232694, 4.074020882399374, -1.4876220909255544, -1.4876220909255544, 4.074020882399374, -5.259538327232694, 3.326424327495397, -4.704273952714471, 5.153274225771886, -4.704273952714471, 3.326424327495397]}
    - {mu0: 0, rank: 3, ndensity: 1, num_ms_combs: 29, mus: [0, 0, 0], ns: [2, 1, 2], ls: [2, 3, 3], ms_combs: [-2, -1, 3, -2, 0, 2, -2, 1, 1, -2, 2, 0, -2, 3, -1, -1, -2, 3, -1, -1, 2, -1, 0, 1, -1, 1, 0, -1, 2, -1, -1, 3, -2, 0, -3, 3, 0, -2, 2, 0, -1, 1, 0, 0, 0, 0, 1, -1, 0, 2, -2, 0, 3, -3, 1, -3, 2, 1, -2, 1, 1, -1, 0, 1, 0, -1, 1, 1, -2, 1, 2, -3, 2, -3, 1, 2, -2, 0, 2, -1, -1, 2, 0, -2, 2, 1, -3], ctildes: [14.784067698975226, -20.907827067216743, 22.903378380039563, -20.907827067216743, 14.784067698975226, -23.37566198408302, 18.106709969194238, -6.611635659631554, -6.611635659631554, 18.106709969194238, -23.37566198408302, 23.37566198408302, -0.0, -14.025397761532075, 18.700529872807547, -14.025397761532075, -0.0, 23.37566198408302, -23.37566198408302, 18.106709969194238, -6.611635659631554, -6.611635659631554, 18.106709969194238, -23.37566198408302, 14.784067698975226, -20.907827067216743, 22.903378380039563, -20.907827067216743, 14.784067698975226]}
    - {mu0: 0, rank: 3, ndensity: 1, num_ms_combs: 29, mus: [0, 0, 0], ns: [2, 1, 3], ls: [2, 3, 3], ms_combs: [-2, -1, 3, -2, 0, 2, -2, 1, 1, -2, 2, 0, -2, 3, -1, -1, -2, 3, -1, -1, 2, -1, 0, 1, -1, 1, 0, -1, 2, -1, -1, 3, -2, 0, -3, 3, 0, -2, 2, 0, -1, 1, 0, 0, 0, 0, 1, -1, 0, 2, -2, 0, 3, -3, 1, -3, 2, 1, -2, 1, 1, -1, 0, 1, 0, -1, 1, 1, -2, 1, 2, -3, 2, -3, 1, 2, -2, 0, 2, -1, -1, 2, 0, -2, 2, 1, -3], ctildes: [-13.217367548192714, 18.692178675603, -20.476257029403147, 18.692178675603, -13.217367548192714, 20.89849170180391, -16.187902113567453, 5.9109860958053675, 5.9109860958053675, -16.187902113567453, 20.89849170180391, -20.89849170180391, 0.0, 12.539095531645765, -16.718793616724838, 12.539095531645765, 0.0, -20.89849170180391, 20.89849170180391, -16.187902113567453, 5.9109860958053675, 5.9109860958053675, -16.187902113567453, 20.89849170180391, -13.217367548192714, 18.692178675603, -20.476257029403147, 18.692178675603, -13.217367548192714]}
    - {mu0: 0, rank: 3, ndensity: 1, num_ms_combs: 29, mus: [0, 0, 0], ns: [2, 2, 2], ls: [2, 3, 3], ms_combs: [-2, -1, 3, -2, 0, 2, -2, 1, 1, -2, 2, 0, -2, 3, -1, -1, -2, 3, -1, -1, 2, -1, 0, 1, -1, 1, 0, -1, 2, -1, -1, 3, -2, 0, -3, 3, 0, -2, 2, 0, -1, 1, 0, 0, 0, 0, 1, -1, 0, 2, -2, 0, 3, -3, 1, -3, 2, 1, -2, 1, 1, -1, 0, 1, 0, -1, 1, 1, -2, 1, 2, -3, 2, -3, 1, 2, -2, 0, 2, -1, -1, 2, 0, -2, 2, 1, -3], ctildes: [10.350873584576416, -14.638344419644843, 16.035503834167564, -14.638344419644843, 10.350873584576416, -16.3661670847059, 12.677178550576464, -4.629051103768109, -4.629051103768109, 12.677178550576464, -16.3661670847059, 16.3661670847059, -0.0, -9.819700650659392, 13.092933867682646, -9.819700650659392, -0.0, 16.3661670847059, -16.3661670847059, 12.677178550576464, -4.629051103768109, -4.629051103768109, 12.677178550576464, -16.3661670847059, 10.350873584576416, -14.638344419644843, 16.035503834167564, -14.638344419644843, 10.350873584576416]}
    - {mu0: 0, rank: 3, ndensity: 1, num_ms_combs: 29, mus: [0, 0, 0], ns: [2, 2, 3], ls: [2, 3, 3], ms_combs: [-2, -1, 3, -2, 0, 2, -2, 1, 1, -2, 2, 0, -2, 3, -1, -1, -2, 3, -1, -1, 2, -1, 0, 1, -1, 1, 0, -1, 2, -1, -1, 3, -2, 0, -3, 3, 0, -2, 2, 0, -1, 1, 0, 0, 0, 0, 1, -1, 0, 2, -2, 0, 3, -3, 1, -3, 2, 1, -2, 1, 1, -1, 0, 1, 0, -1, 1, 1, -2, 1, 2, -3, 2, -3, 1, 2, -2, 0, 2, -1, -1, 2, 0, -2, 2, 1, -3], ctildes: [-26.246537008541218, 37.1182050881654, -40.660958845176246, 37.1182050881654, -26.246537008541218, 41.49941611853634, -32.14530959854306, 11.737807453326191, 11.737807453326191, -32.14530959854306, 41.49941611853634, -41.49941611853634, 0.0, 24.899650684978887, -33.19953340175761, 24.899650684978887, 0.0, -41.49941611853634, 41.49941611853634, -32.14530959854306, 11.737807453326191, 11.737807453326191, -32.14530959854306, 41.49941611853634, -26.246537008541218, 37.1182050881654, -40.660958845176246, 37.1182050881654, -26.246537008541218]}
    - {mu0: 0, rank: 3, ndensity: 1, num_ms_combs: 29, mus: [0, 0, 0], ns: [2, 3, 3], ls: [2, 3, 3], ms_combs: [-2, -1, 3, -2, 0, 2, -2, 1, 1, -2, 2, 0, -2, 3, -1, -1, -2, 3, -1, -1, 2, -1, 0, 1, -1, 1, 0, -1, 2, -1, -1, 3, -2, 0, -3, 3, 0, -2, 2, 0, -1, 1, 0, 0, 0, 0, 1, -1, 0, 2, -2, 0, 3, -3, 1, -3, 2, 1, -2, 1, 1, -1, 0, 1, 0, -1, 1, 1, -2, 1, 2, -3, 2, -3, 1, 2, -2, 0, 2, -1, -1, 2, 0, -2, 2, 1, -3], ctildes: [12.953743562736799, -18.319358095305954, 20.0678525218014, -18.319358095305954, 12.953743562736799, -20.48166560898634, 15.865030009437127, -5.793089872758761, -5.793089872758761, 15.865030009437127, -20.48166560898634, 20.48166560898634, -0.0, -12.288999865771899, 16.38533273737912, -12.288999865771899, -0.0, 20.48166560898634, -20.48166560898634, 15.865030009437127, -5.793089872758761, -5.793089872758761, 15.865030009437127, -20.48166560898634, 12.953743562736799, -18.319358095305954, 20.0678525218014, -18.319358095305954, 12.953743562736799]}
    - {mu0: 0, rank: 3, ndensity: 1, num_ms_combs: 29, mus: [0, 0, 0], ns: [3, 1, 1], ls: [2, 3, 3], ms_combs: [-2, -1, 3, -2, 0, 2, -2, 1, 1, -2, 2, 0, -2, 3, -1, -1, -2, 3, -1, -1, 2, -1, 0, 1, -1, 1, 0, -1, 2, -1, -1, 3, -2, 0, -3, 3, 0, -2, 2, 0, -1, 1, 0, 0, 0, 0, 1, -1, 0, 2, -2, 0, 3, -3, 1, -3, 2, 1, -2, 1, 1, -1, 0, 1, 0, -1, 1, 1, -2, 1, 2, -3, 2, -3, 1, 2, -2, 0, 2, -1, -1, 2, 0, -2, 2, 1, -3], ctildes: [-1.919202462979872, 2.7141618950879813, -2.973215565062567, 2.7141618950879813, -1.919202462979872, 3.034525339514428, -2.350533227857753, 0.8582933804591537, 0.8582933804591537, -2.350533227857753, 3.034525339514428, -3.034525339514428, 0.0, 1.8207152778440376, -2.427620308679233, 1.8207152778440376, 0.0, -3.034525339514428, 3.034525339514428, -2.350533227857753, 0.8582933804591537, 0.8582933804591537, -2.350533227857753, 3.034525339514428, -1.919202462979872, 2.7141618950879813, -2.973215565062567, 2.7141618950879813, -1.919202462979872]}
    - {mu0: 0, rank: 3, ndensity: 1, num_ms_combs: 29, mus: [0, 0, 0], ns: [3, 1, 2], ls: [2, 3, 3], ms_combs: [-2, -1, 3, -2, 0, 2, -2, 1, 1, -2, 2, 0, -2, 3, -1, -1, -2, 3, -1, -1, 2, -1, 0, 1, -1, 1, 0, -1, 2, -1, -1, 3, -2, 0, -3, 3, 0, -2, 2, 0, -1, 1, 0, 0, 0, 0, 1, -1, 0, 2, -2, 0, 3, -3, 1, -3, 2, 1, -2, 1, 1, -1, 0, 1, 0, -1, 1, 1, -2, 1, 2, -3, 2, -3, 1, 2, -2, 0, 2, -1, -1, 2, 0, -2, 2, 1, -3], ctildes: [-8.218721609646462, 11.623026465172128, -12.732388315496452, 11.623026465172128, -8.218721609646462, 12.99493902491337, -10.0658365162744, 3.6755238123462846, 3.6755238123462846, -10.0658365162744, 12.99493902491337, -12.99493902491337, 0.0, 7.796963732422633, -10.395951378668, 7.796963732422633, 0.0, -12.99493902491337, 12.99493902491337, -10.0658365162744, 3.6755238123462846, 3.6755238123462846, -10.0658365162744, 12.99493902491337, -8.218721609646462, 11.623026465172128, -12.732388315496452, 11.623026465172128, -8.218721609646462]}
    - {mu0: 0, rank: 3, ndensity: 1, num_ms_combs: 29, mus: [0, 0, 0], ns: [3, 1, 3], ls: [2, 3, 3], ms_combs: [-2, -1, 3, -2, 0, 2, -2, 1, 1, -2, 2, 0, -2, 3, -1, -1, -2, 3, -1, -1, 2, -1, 0, 1, -1, 1, 0, -1, 2, -1, -1, 3, -2, 0, -3, 3, 0, -2, 2, 0, -1, 1, 0, 0, 0, 0, 1, -1, 0, 2, -2, 0, 3, -3, 1, -3, 2, 1, -2, 1, 1, -1, 0, 1, 0, -1, 1, 1, -2, 1, 2, -3, 2, -3, 1, 2, -2, 0, 2, -1, -1, 2, 0, -2, 2, 1, -3], ctildes: [7.526386733358682, -10.643917186131748, 11.65982777531332, -10.643917186131748, 7.526386733358682, -11.900261539838214, 9.21790297986549, -3.3659022623321313, -3.3659022623321313, 9.21790297986549, -11.900261539838214, 11.900261539838214, -0.0, -7.140157214633873, 9.520209377236043, -7.140157214633873, -0.0, 11.900261539838214, -11.900261539838214, 9.21790297986549, -3.3659022623321313, -3.3659022623321313, 9.21790297986549, -11.900261539838214, 7.526386733358682, -10.643917186131748, 11.65982777531332, -10.643917186131748, 7.526386733358682]}
    - {mu0: 0, rank: 3, ndensity: 1, num_ms_combs: 29, mus: [0, 0, 0], ns: [3, 2, 2], ls: [2, 3, 3], ms_combs: [-2, -1, 3, -2, 0, 2, -2, 1, 1, -2, 2, 0, -2, 3, -1, -1, -2, 3, -1, -1, 2, -1, 0, 1, -1, 1, 0, -1, 2, -1, -1, 3, -2, 0, -3, 3, 0, -2, 2, 0, -1, 1, 0, 0, 0, 0, 1, -1, 0, 2, -2, 0, 3, -3, 1, -3, 2, 1, -2, 1, 1, -1, 0, 1, 0, -1, 1, 1, -2, 1, 2, -3, 2, -3, 1, 2, -2, 0, 2, -1, -1, 2, 0, -2, 2, 1, -3], ctildes: [-2.3077030451550935, 3.2635846353663953, -3.575078057551121, 3.2635846353663953, -2.3077030451550935, 3.648798655523184, -2.826347293887595, 1.0320361118371602, 1.0320361118371602, -2.826347293887595, 3.648798655523184, -3.648798655523184, 0.0, 2.1892792824563783, -2.919038968989781, 2.1892792824563783, 0.0, -3.648798655523184, 3.648798655523184, -2.826347293887595, 1.0320361118371602, 1.0320361118371602, -2.826347293887595, 3.648798655523184, -2.3077030451550935, 3.2635846353663953, -3.575078057551121, 3.2635846353663953, -2.3077030451550935]}
    - {mu0: 0, rank: 3, ndensity: 1, num_ms_combs: 29, mus: [0, 0, 0], ns: [3, 2, 3], ls: [2, 3, 3], ms_combs: [-2, -1, 3, -2, 0, 2, -2, 1, 1, -2, 2, 0, -2, 3, -1, -1, -2, 3, -1, -1, 2, -1, 0, 1, -1, 1, 0, -1, 2, -1, -1, 3, -2, 0, -3, 3, 0, -2, 2, 0, -1, 1, 0, 0, 0, 0, 1, -1, 0, 2, -2, 0, 3, -3, 1, -3, 2, 1, -2, 1, 1, -1, 0, 1, 0, -1, 1, 1, -2, 1, 2, -3, 2, -3, 1, 2, -2, 0, 2, -1, -1, 2, 0, -2, 2, 1, -3], ctildes: [11.927909789238344, -16.86861019745219, 18.478637730050448, -16.86861019745219, 11.927909789238344, -18.859680102059958, 14.608645434397056, -5.334323091124846, -5.334323091124846, 14.608645434397056, -18.859680102059958, 18.859680102059958, -0.0, -11.315808521989934, 15.087744312024945, -11.315808521989934, -0.0, 18.859680102059958, -18.859680102059958, 14.608645434397056, -5.334323091124846, -5.334323091124846, 14.608645434397056, -18.859680102059958, 11.927909789238344, -16.86861019745219, 18.478637730050448, -16.86861019745219, 11.927909789238344]}
    - {mu0: 0, rank: 3, ndensity: 1, num_ms_combs: 29, mus: [0, 0, 0], ns: [3, 3, 3], ls: [2, 3, 3], ms_combs: [-2, -1, 3, -2, 0, 2, -2, 1, 1, -2, 2, 0, -2, 3, -1, -1, -2, 3, -1, -1, 2, -1, 0, 1, -1, 1, 0, -1, 2, -1, -1, 3, -2, 0, -3, 3, 0, -2, 2, 0, -1, 1, 0, 0, 0, 0, 1, -1, 0, 2, -2, 0, 3, -3, 1, -3, 2, 1, -2, 1, 1, -1, 0, 1, 0, -1, 1, 1, -2, 1, 2, -3, 2, -3, 1, 2, -2, 0, 2, -1, -1, 2, 0, -2, 2, 1, -3], ctildes: [-6.795716286670745, 9.610593228643626, -10.527878026952362, 9.610593228643626, -6.795716286670745, 10.744970199774876, -8.323018153130212, 3.03913652511248, 3.03913652511248, -8.323018153130212, 10.744970199774876, -10.744970199774876, 0.0, 6.44698238237137, -8.595976291073123, 6.44698238237137, 0.0, -10.744970199774876, 10.744970199774876, -8.323018153130212, 3.03913652511248, 3.03913652511248, -8.323018153130212, 10.744970199774876, -6.795716286670745, 9.610593228643626, -10.527878026952362, 9.610593228643626, -6.795716286670745]}
    - {mu0: 0, rank: 4, ndensity: 1, num_ms_combs: 19, mus: [0, 0, 0, 0], ns: [1, 1, 1, 1], ls: [1, 1, 1, 1], ms_combs: [-1, -1, 1, 1, -1, 0, 0, 1, -1, 0, 1, 0, -1, 1, -1, 1, -1, 1, 0, 0, -1, 1, 1, -1, 0, -1, 0, 1, 0, -1, 1, 0, 0, 0, -1, 1, 0, 0, 0, 0, 0, 0, 1, -1, 0, 1, -1, 0, 0, 1, 0, -1, 1, -1, -1, 1, 1, -1, 0, 0, 1, -1, 1, -1, 1, 0, -1, 0, 1, 0, 0, -1, 1, 1, -1, -1], ctildes: [-0.0009565188463202482, 0.0004782594281837686, 0.0004782594281837686, -0.0001594198321707929, -0.0003188396643415858, -0.0001594198321707929, 0.0004782594281837686, 0.0004782594281837686, -0.0003188396643415858, -0.0006376793286831717, -0.0003188396643415858, 0.0004782594281837686, 0.0004782594281837686, -0.0001594198321707929, -0.0003188396643415858, -0.0001594198321707929, 0.0004782594281837686, 0.0004782594281837686, -0.0009565188463202482]}
# This file was generated by FitSNAP.
# Hash: 2ca62c84c4d632f3cd9c542c0847f6d7
# FitSNAP REFERENCE section settings:
# units metal
# atom_style atomic
# pair_style hybrid/overlay zero 6.035556 zbl 0.580000 2.320000
# pair_coeff * * zero
# pair_coeff 1 1 zbl 73 73
