elements: [Ta] 
E0: [-4.940551] 
deltaSplineBins: 0.001000 
embeddings:
  0: {ndensity: 1, FS_parameters: [1.0, 1.0], npoti: FinnisSinclair, rho_core_cutoff: 100000, drho_core_cutoff: 250}
bonds:
  [0, 0]: {nradmax: 12, lmax: 5, nradbasemax: 12, radbasename: ChebExpCos, radparameters: [1.808], radcoefficients: [[[1, 0, 0, 0, 0, 0, 0, 0, 0, 0, 0, 0], [1, 0, 0, 0, 0, 0, 0, 0, 0, 0, 0, 0], [1, 0, 0, 0, 0, 0, 0, 0, 0, 0, 0, 0], [1, 0, 0, 0, 0, 0, 0, 0, 0, 0, 0, 0], [1, 0, 0, 0, 0, 0, 0, 0, 0, 0, 0, 0], [1, 0, 0, 0, 0, 0, 0, 0, 0, 0, 0, 0]], [[0, 1, 0, 0, 0, 0, 0, 0, 0, 0, 0, 0], [0, 1, 0, 0, 0, 0, 0, 0, 0, 0, 0, 0], [0, 1, 0, 0, 0, 0, 0, 0, 0, 0, 0, 0], [0, 1, 0, 0, 0, 0, 0, 0, 0, 0, 0, 0], [0, 1, 0, 0, 0, 0, 0, 0, 0, 0, 0, 0], [0, 1, 0, 0, 0, 0, 0, 0, 0, 0, 0, 0]], [[0, 0, 1, 0, 0, 0, 0, 0, 0, 0, 0, 0], [0, 0, 1, 0, 0, 0, 0, 0, 0, 0, 0, 0], [0, 0, 1, 0, 0, 0, 0, 0, 0, 0, 0, 0], [0, 0, 1, 0, 0, 0, 0, 0, 0, 0, 0, 0], [0, 0, 1, 0, 0, 0, 0, 0, 0, 0, 0, 0], [0, 0, 1, 0, 0, 0, 0, 0, 0, 0, 0, 0]], [[0, 0, 0, 1, 0, 0, 0, 0, 0, 0, 0, 0], [0, 0, 0, 1, 0, 0, 0, 0, 0, 0, 0, 0], [0, 0, 0, 1, 0, 0, 0, 0, 0, 0, 0, 0], [0, 0, 0, 1, 0, 0, 0, 0, 0, 0, 0, 0], [0, 0, 0, 1, 0, 0, 0, 0, 0, 0, 0, 0], [0, 0, 0, 1, 0, 0, 0, 0, 0, 0, 0, 0]], [[0, 0, 0, 0, 1, 0, 0, 0, 0, 0, 0, 0], [0, 0, 0, 0, 1, 0, 0, 0, 0, 0, 0, 0], [0, 0, 0, 0, 1, 0, 0, 0, 0, 0, 0, 0], [0, 0, 0, 0, 1, 0, 0, 0, 0, 0, 0, 0], [0, 0, 0, 0, 1, 0, 0, 0, 0, 0, 0, 0], [0, 0, 0, 0, 1, 0, 0, 0, 0, 0, 0, 0]], [[0, 0, 0, 0, 0, 1, 0, 0, 0, 0, 0, 0], [0, 0, 0, 0, 0, 1, 0, 0, 0, 0, 0, 0], [0, 0, 0, 0, 0, 1, 0, 0, 0, 0, 0, 0], [0, 0, 0, 0, 0, 1, 0, 0, 0, 0, 0, 0], [0, 0, 0, 0, 0, 1, 0, 0, 0, 0, 0, 0], [0, 0, 0, 0, 0, 1, 0, 0, 0, 0, 0, 0]], [[0, 0, 0, 0, 0, 0, 1, 0, 0, 0, 0, 0], [0, 0, 0, 0, 0, 0, 1, 0, 0, 0, 0, 0], [0, 0, 0, 0, 0, 0, 1, 0, 0, 0, 0, 0], [0, 0, 0, 0, 0, 0, 1, 0, 0, 0, 0, 0], [0, 0, 0, 0, 0, 0, 1, 0, 0, 0, 0, 0], [0, 0, 0, 0, 0, 0, 1, 0, 0, 0, 0, 0]], [[0, 0, 0, 0, 0, 0, 0, 1, 0, 0, 0, 0], [0, 0, 0, 0, 0, 0, 0, 1, 0, 0, 0, 0], [0, 0, 0, 0, 0, 0, 0, 1, 0, 0, 0, 0], [0, 0, 0, 0, 0, 0, 0, 1, 0, 0, 0, 0], [0, 0, 0, 0, 0, 0, 0, 1, 0, 0, 0, 0], [0, 0, 0, 0, 0, 0, 0, 1, 0, 0, 0, 0]], [[0, 0, 0, 0, 0, 0, 0, 0, 1, 0, 0, 0], [0, 0, 0, 0, 0, 0, 0, 0, 1, 0, 0, 0], [0, 0, 0, 0, 0, 0, 0, 0, 1, 0, 0, 0], [0, 0, 0, 0, 0, 0, 0, 0, 1, 0, 0, 0], [0, 0, 0, 0, 0, 0, 0, 0, 1, 0, 0, 0], [0, 0, 0, 0, 0, 0, 0, 0, 1, 0, 0, 0]], [[0, 0, 0, 0, 0, 0, 0, 0, 0, 1, 0, 0], [0, 0, 0, 0, 0, 0, 0, 0, 0, 1, 0, 0], [0, 0, 0, 0, 0, 0, 0, 0, 0, 1, 0, 0], [0, 0, 0, 0, 0, 0, 0, 0, 0, 1, 0, 0], [0, 0, 0, 0, 0, 0, 0, 0, 0, 1, 0, 0], [0, 0, 0, 0, 0, 0, 0, 0, 0, 1, 0, 0]], [[0, 0, 0, 0, 0, 0, 0, 0, 0, 0, 1, 0], [0, 0, 0, 0, 0, 0, 0, 0, 0, 0, 1, 0], [0, 0, 0, 0, 0, 0, 0, 0, 0, 0, 1, 0], [0, 0, 0, 0, 0, 0, 0, 0, 0, 0, 1, 0], [0, 0, 0, 0, 0, 0, 0, 0, 0, 0, 1, 0], [0, 0, 0, 0, 0, 0, 0, 0, 0, 0, 1, 0]], [[0, 0, 0, 0, 0, 0, 0, 0, 0, 0, 0, 1], [0, 0, 0, 0, 0, 0, 0, 0, 0, 0, 0, 1], [0, 0, 0, 0, 0, 0, 0, 0, 0, 0, 0, 1], [0, 0, 0, 0, 0, 0, 0, 0, 0, 0, 0, 1], [0, 0, 0, 0, 0, 0, 0, 0, 0, 0, 0, 1], [0, 0, 0, 0, 0, 0, 0, 0, 0, 0, 0, 1]]], prehc: 0, lambdahc: 1.808, rcut: 6.026, dcut: 0.01, rcut_in: 0.580, dcut_in: 0.01, inner_cutoff_type: distance}
functions:
  0:
    - {mu0: 0, rank: 1, ndensity: 1, num_ms_combs: 1, mus: [0], ns: [1], ls: [0], ms_combs: [0], ctildes: [0.8618517242293819]}
    - {mu0: 0, rank: 1, ndensity: 1, num_ms_combs: 1, mus: [0], ns: [2], ls: [0], ms_combs: [0], ctildes: [33.65756613618666]}
    - {mu0: 0, rank: 1, ndensity: 1, num_ms_combs: 1, mus: [0], ns: [3], ls: [0], ms_combs: [0], ctildes: [-24.453184027479608]}
    - {mu0: 0, rank: 1, ndensity: 1, num_ms_combs: 1, mus: [0], ns: [4], ls: [0], ms_combs: [0], ctildes: [15.333599320612052]}
    - {mu0: 0, rank: 1, ndensity: 1, num_ms_combs: 1, mus: [0], ns: [5], ls: [0], ms_combs: [0], ctildes: [-6.3359982862393736]}
    - {mu0: 0, rank: 1, ndensity: 1, num_ms_combs: 1, mus: [0], ns: [6], ls: [0], ms_combs: [0], ctildes: [-0.9437674964101461]}
    - {mu0: 0, rank: 1, ndensity: 1, num_ms_combs: 1, mus: [0], ns: [7], ls: [0], ms_combs: [0], ctildes: [1.2128274412179394]}
    - {mu0: 0, rank: 1, ndensity: 1, num_ms_combs: 1, mus: [0], ns: [8], ls: [0], ms_combs: [0], ctildes: [0.5060045062675727]}
    - {mu0: 0, rank: 1, ndensity: 1, num_ms_combs: 1, mus: [0], ns: [9], ls: [0], ms_combs: [0], ctildes: [2.2044752929617744]}
    - {mu0: 0, rank: 1, ndensity: 1, num_ms_combs: 1, mus: [0], ns: [10], ls: [0], ms_combs: [0], ctildes: [-3.109798790999932]}
    - {mu0: 0, rank: 1, ndensity: 1, num_ms_combs: 1, mus: [0], ns: [11], ls: [0], ms_combs: [0], ctildes: [1.7283138033282057]}
    - {mu0: 0, rank: 1, ndensity: 1, num_ms_combs: 1, mus: [0], ns: [12], ls: [0], ms_combs: [0], ctildes: [-0.2571189081558458]}
    - {mu0: 0, rank: 2, ndensity: 1, num_ms_combs: 1, mus: [0, 0], ns: [1, 1], ls: [0, 0], ms_combs: [0, 0], ctildes: [-1.65263430196228]}
    - {mu0: 0, rank: 2, ndensity: 1, num_ms_combs: 1, mus: [0, 0], ns: [1, 2], ls: [0, 0], ms_combs: [0, 0], ctildes: [-0.5346025498973859]}
    - {mu0: 0, rank: 2, ndensity: 1, num_ms_combs: 1, mus: [0, 0], ns: [1, 3], ls: [0, 0], ms_combs: [0, 0], ctildes: [1.0872301982017234]}
    - {mu0: 0, rank: 2, ndensity: 1, num_ms_combs: 1, mus: [0, 0], ns: [1, 4], ls: [0, 0], ms_combs: [0, 0], ctildes: [3.054551563523944]}
    - {mu0: 0, rank: 2, ndensity: 1, num_ms_combs: 1, mus: [0, 0], ns: [1, 5], ls: [0, 0], ms_combs: [0, 0], ctildes: [-0.5917137932897276]}
    - {mu0: 0, rank: 2, ndensity: 1, num_ms_combs: 1, mus: [0, 0], ns: [1, 6], ls: [0, 0], ms_combs: [0, 0], ctildes: [-0.21452682009976343]}
    - {mu0: 0, rank: 2, ndensity: 1, num_ms_combs: 1, mus: [0, 0], ns: [1, 7], ls: [0, 0], ms_combs: [0, 0], ctildes: [1.028345760504294]}
    - {mu0: 0, rank: 2, ndensity: 1, num_ms_combs: 1, mus: [0, 0], ns: [2, 2], ls: [0, 0], ms_combs: [0, 0], ctildes: [1.5526106713418812]}
    - {mu0: 0, rank: 2, ndensity: 1, num_ms_combs: 1, mus: [0, 0], ns: [2, 3], ls: [0, 0], ms_combs: [0, 0], ctildes: [1.1992475823876703]}
    - {mu0: 0, rank: 2, ndensity: 1, num_ms_combs: 1, mus: [0, 0], ns: [2, 4], ls: [0, 0], ms_combs: [0, 0], ctildes: [-2.6074192597783394]}
    - {mu0: 0, rank: 2, ndensity: 1, num_ms_combs: 1, mus: [0, 0], ns: [2, 5], ls: [0, 0], ms_combs: [0, 0], ctildes: [-2.326000180762321]}
    - {mu0: 0, rank: 2, ndensity: 1, num_ms_combs: 1, mus: [0, 0], ns: [2, 6], ls: [0, 0], ms_combs: [0, 0], ctildes: [0.7306119731571243]}
    - {mu0: 0, rank: 2, ndensity: 1, num_ms_combs: 1, mus: [0, 0], ns: [2, 7], ls: [0, 0], ms_combs: [0, 0], ctildes: [-1.8710428081756163]}
    - {mu0: 0, rank: 2, ndensity: 1, num_ms_combs: 1, mus: [0, 0], ns: [3, 3], ls: [0, 0], ms_combs: [0, 0], ctildes: [0.5856995647632175]}
    - {mu0: 0, rank: 2, ndensity: 1, num_ms_combs: 1, mus: [0, 0], ns: [3, 4], ls: [0, 0], ms_combs: [0, 0], ctildes: [-2.709894106478714]}
    - {mu0: 0, rank: 2, ndensity: 1, num_ms_combs: 1, mus: [0, 0], ns: [3, 5], ls: [0, 0], ms_combs: [0, 0], ctildes: [-1.3448028806913044]}
    - {mu0: 0, rank: 2, ndensity: 1, num_ms_combs: 1, mus: [0, 0], ns: [3, 6], ls: [0, 0], ms_combs: [0, 0], ctildes: [3.1724248221762537]}
    - {mu0: 0, rank: 2, ndensity: 1, num_ms_combs: 1, mus: [0, 0], ns: [3, 7], ls: [0, 0], ms_combs: [0, 0], ctildes: [-3.047589281843557]}
    - {mu0: 0, rank: 2, ndensity: 1, num_ms_combs: 1, mus: [0, 0], ns: [4, 4], ls: [0, 0], ms_combs: [0, 0], ctildes: [1.0601724275823017]}
    - {mu0: 0, rank: 2, ndensity: 1, num_ms_combs: 1, mus: [0, 0], ns: [4, 5], ls: [0, 0], ms_combs: [0, 0], ctildes: [1.6453661803689101]}
    - {mu0: 0, rank: 2, ndensity: 1, num_ms_combs: 1, mus: [0, 0], ns: [4, 6], ls: [0, 0], ms_combs: [0, 0], ctildes: [2.4017866642964805]}
    - {mu0: 0, rank: 2, ndensity: 1, num_ms_combs: 1, mus: [0, 0], ns: [4, 7], ls: [0, 0], ms_combs: [0, 0], ctildes: [0.10044814099342148]}
    - {mu0: 0, rank: 2, ndensity: 1, num_ms_combs: 1, mus: [0, 0], ns: [5, 5], ls: [0, 0], ms_combs: [0, 0], ctildes: [-3.9126562971902104]}
    - {mu0: 0, rank: 2, ndensity: 1, num_ms_combs: 1, mus: [0, 0], ns: [5, 6], ls: [0, 0], ms_combs: [0, 0], ctildes: [-1.2933968968227418]}
    - {mu0: 0, rank: 2, ndensity: 1, num_ms_combs: 1, mus: [0, 0], ns: [5, 7], ls: [0, 0], ms_combs: [0, 0], ctildes: [0.890532655763792]}
    - {mu0: 0, rank: 2, ndensity: 1, num_ms_combs: 1, mus: [0, 0], ns: [6, 6], ls: [0, 0], ms_combs: [0, 0], ctildes: [2.259514263215806]}
    - {mu0: 0, rank: 2, ndensity: 1, num_ms_combs: 1, mus: [0, 0], ns: [6, 7], ls: [0, 0], ms_combs: [0, 0], ctildes: [-2.2348987497832127]}
    - {mu0: 0, rank: 2, ndensity: 1, num_ms_combs: 1, mus: [0, 0], ns: [7, 7], ls: [0, 0], ms_combs: [0, 0], ctildes: [0.5388011829166288]}
    - {mu0: 0, rank: 2, ndensity: 1, num_ms_combs: 3, mus: [0, 0], ns: [1, 1], ls: [1, 1], ms_combs: [-1, 1, 0, 0, 1, -1], ctildes: [-1.858190659354342, 1.858190659354342, -1.858190659354342]}
    - {mu0: 0, rank: 2, ndensity: 1, num_ms_combs: 3, mus: [0, 0], ns: [1, 2], ls: [1, 1], ms_combs: [-1, 1, 0, 0, 1, -1], ctildes: [0.15720209233661533, -0.15720209233661533, 0.15720209233661533]}
    - {mu0: 0, rank: 2, ndensity: 1, num_ms_combs: 3, mus: [0, 0], ns: [1, 3], ls: [1, 1], ms_combs: [-1, 1, 0, 0, 1, -1], ctildes: [1.721948630769332, -1.721948630769332, 1.721948630769332]}
    - {mu0: 0, rank: 2, ndensity: 1, num_ms_combs: 3, mus: [0, 0], ns: [1, 4], ls: [1, 1], ms_combs: [-1, 1, 0, 0, 1, -1], ctildes: [2.3438606444412935, -2.3438606444412935, 2.3438606444412935]}
    - {mu0: 0, rank: 2, ndensity: 1, num_ms_combs: 3, mus: [0, 0], ns: [1, 5], ls: [1, 1], ms_combs: [-1, 1, 0, 0, 1, -1], ctildes: [-0.14376008486048128, 0.14376008486048128, -0.14376008486048128]}
    - {mu0: 0, rank: 2, ndensity: 1, num_ms_combs: 3, mus: [0, 0], ns: [1, 6], ls: [1, 1], ms_combs: [-1, 1, 0, 0, 1, -1], ctildes: [1.5663531383239182, -1.5663531383239182, 1.5663531383239182]}
    - {mu0: 0, rank: 2, ndensity: 1, num_ms_combs: 3, mus: [0, 0], ns: [1, 7], ls: [1, 1], ms_combs: [-1, 1, 0, 0, 1, -1], ctildes: [0.41127439678716554, -0.41127439678716554, 0.41127439678716554]}
    - {mu0: 0, rank: 2, ndensity: 1, num_ms_combs: 3, mus: [0, 0], ns: [2, 2], ls: [1, 1], ms_combs: [-1, 1, 0, 0, 1, -1], ctildes: [-0.3625820545860655, 0.3625820545860655, -0.3625820545860655]}
    - {mu0: 0, rank: 2, ndensity: 1, num_ms_combs: 3, mus: [0, 0], ns: [2, 3], ls: [1, 1], ms_combs: [-1, 1, 0, 0, 1, -1], ctildes: [-1.088906509044747, 1.088906509044747, -1.088906509044747]}
    - {mu0: 0, rank: 2, ndensity: 1, num_ms_combs: 3, mus: [0, 0], ns: [2, 4], ls: [1, 1], ms_combs: [-1, 1, 0, 0, 1, -1], ctildes: [-1.6406359493719165, 1.6406359493719165, -1.6406359493719165]}
    - {mu0: 0, rank: 2, ndensity: 1, num_ms_combs: 3, mus: [0, 0], ns: [2, 5], ls: [1, 1], ms_combs: [-1, 1, 0, 0, 1, -1], ctildes: [-1.3012816477381541, 1.3012816477381541, -1.3012816477381541]}
    - {mu0: 0, rank: 2, ndensity: 1, num_ms_combs: 3, mus: [0, 0], ns: [2, 6], ls: [1, 1], ms_combs: [-1, 1, 0, 0, 1, -1], ctildes: [0.5932307844663289, -0.5932307844663289, 0.5932307844663289]}
    - {mu0: 0, rank: 2, ndensity: 1, num_ms_combs: 3, mus: [0, 0], ns: [2, 7], ls: [1, 1], ms_combs: [-1, 1, 0, 0, 1, -1], ctildes: [0.5511801598531625, -0.5511801598531625, 0.5511801598531625]}
    - {mu0: 0, rank: 2, ndensity: 1, num_ms_combs: 3, mus: [0, 0], ns: [3, 3], ls: [1, 1], ms_combs: [-1, 1, 0, 0, 1, -1], ctildes: [-1.622743627590686, 1.622743627590686, -1.622743627590686]}
    - {mu0: 0, rank: 2, ndensity: 1, num_ms_combs: 3, mus: [0, 0], ns: [3, 4], ls: [1, 1], ms_combs: [-1, 1, 0, 0, 1, -1], ctildes: [-1.0436621843771017, 1.0436621843771017, -1.0436621843771017]}
    - {mu0: 0, rank: 2, ndensity: 1, num_ms_combs: 3, mus: [0, 0], ns: [3, 5], ls: [1, 1], ms_combs: [-1, 1, 0, 0, 1, -1], ctildes: [-1.6126498854552853, 1.6126498854552853, -1.6126498854552853]}
    - {mu0: 0, rank: 2, ndensity: 1, num_ms_combs: 3, mus: [0, 0], ns: [3, 6], ls: [1, 1], ms_combs: [-1, 1, 0, 0, 1, -1], ctildes: [-0.5253679168511797, 0.5253679168511797, -0.5253679168511797]}
    - {mu0: 0, rank: 2, ndensity: 1, num_ms_combs: 3, mus: [0, 0], ns: [3, 7], ls: [1, 1], ms_combs: [-1, 1, 0, 0, 1, -1], ctildes: [0.26225563771752197, -0.26225563771752197, 0.26225563771752197]}
    - {mu0: 0, rank: 2, ndensity: 1, num_ms_combs: 3, mus: [0, 0], ns: [4, 4], ls: [1, 1], ms_combs: [-1, 1, 0, 0, 1, -1], ctildes: [2.6386331703774495, -2.6386331703774495, 2.6386331703774495]}
    - {mu0: 0, rank: 2, ndensity: 1, num_ms_combs: 3, mus: [0, 0], ns: [4, 5], ls: [1, 1], ms_combs: [-1, 1, 0, 0, 1, -1], ctildes: [0.1586422750335981, -0.1586422750335981, 0.1586422750335981]}
    - {mu0: 0, rank: 2, ndensity: 1, num_ms_combs: 3, mus: [0, 0], ns: [4, 6], ls: [1, 1], ms_combs: [-1, 1, 0, 0, 1, -1], ctildes: [-2.6274447981560596, 2.6274447981560596, -2.6274447981560596]}
    - {mu0: 0, rank: 2, ndensity: 1, num_ms_combs: 3, mus: [0, 0], ns: [4, 7], ls: [1, 1], ms_combs: [-1, 1, 0, 0, 1, -1], ctildes: [-0.3769752019836238, 0.3769752019836238, -0.3769752019836238]}
    - {mu0: 0, rank: 2, ndensity: 1, num_ms_combs: 3, mus: [0, 0], ns: [5, 5], ls: [1, 1], ms_combs: [-1, 1, 0, 0, 1, -1], ctildes: [-0.4662248064397602, 0.4662248064397602, -0.4662248064397602]}
    - {mu0: 0, rank: 2, ndensity: 1, num_ms_combs: 3, mus: [0, 0], ns: [5, 6], ls: [1, 1], ms_combs: [-1, 1, 0, 0, 1, -1], ctildes: [-0.2580075015114596, 0.2580075015114596, -0.2580075015114596]}
    - {mu0: 0, rank: 2, ndensity: 1, num_ms_combs: 3, mus: [0, 0], ns: [5, 7], ls: [1, 1], ms_combs: [-1, 1, 0, 0, 1, -1], ctildes: [0.9405254437901077, -0.9405254437901077, 0.9405254437901077]}
    - {mu0: 0, rank: 2, ndensity: 1, num_ms_combs: 3, mus: [0, 0], ns: [6, 6], ls: [1, 1], ms_combs: [-1, 1, 0, 0, 1, -1], ctildes: [1.5182128601376381, -1.5182128601376381, 1.5182128601376381]}
    - {mu0: 0, rank: 2, ndensity: 1, num_ms_combs: 3, mus: [0, 0], ns: [6, 7], ls: [1, 1], ms_combs: [-1, 1, 0, 0, 1, -1], ctildes: [-2.5439846905346206, 2.5439846905346206, -2.5439846905346206]}
    - {mu0: 0, rank: 2, ndensity: 1, num_ms_combs: 3, mus: [0, 0], ns: [7, 7], ls: [1, 1], ms_combs: [-1, 1, 0, 0, 1, -1], ctildes: [0.5715967686946426, -0.5715967686946426, 0.5715967686946426]}
    - {mu0: 0, rank: 2, ndensity: 1, num_ms_combs: 5, mus: [0, 0], ns: [1, 1], ls: [2, 2], ms_combs: [-2, 2, -1, 1, 0, 0, 1, -1, 2, -2], ctildes: [-0.012930784093332448, 0.012930784093332448, -0.012930784093332448, 0.012930784093332448, -0.012930784093332448]}
    - {mu0: 0, rank: 2, ndensity: 1, num_ms_combs: 5, mus: [0, 0], ns: [1, 2], ls: [2, 2], ms_combs: [-2, 2, -1, 1, 0, 0, 1, -1, 2, -2], ctildes: [1.010626850636592, -1.010626850636592, 1.010626850636592, -1.010626850636592, 1.010626850636592]}
    - {mu0: 0, rank: 2, ndensity: 1, num_ms_combs: 5, mus: [0, 0], ns: [1, 3], ls: [2, 2], ms_combs: [-2, 2, -1, 1, 0, 0, 1, -1, 2, -2], ctildes: [1.3442995874120867, -1.3442995874120867, 1.3442995874120867, -1.3442995874120867, 1.3442995874120867]}
    - {mu0: 0, rank: 2, ndensity: 1, num_ms_combs: 5, mus: [0, 0], ns: [1, 4], ls: [2, 2], ms_combs: [-2, 2, -1, 1, 0, 0, 1, -1, 2, -2], ctildes: [-0.9348204972867575, 0.9348204972867575, -0.9348204972867575, 0.9348204972867575, -0.9348204972867575]}
    - {mu0: 0, rank: 2, ndensity: 1, num_ms_combs: 5, mus: [0, 0], ns: [1, 5], ls: [2, 2], ms_combs: [-2, 2, -1, 1, 0, 0, 1, -1, 2, -2], ctildes: [-1.2264300037482618, 1.2264300037482618, -1.2264300037482618, 1.2264300037482618, -1.2264300037482618]}
    - {mu0: 0, rank: 2, ndensity: 1, num_ms_combs: 5, mus: [0, 0], ns: [1, 6], ls: [2, 2], ms_combs: [-2, 2, -1, 1, 0, 0, 1, -1, 2, -2], ctildes: [1.4894729212117828, -1.4894729212117828, 1.4894729212117828, -1.4894729212117828, 1.4894729212117828]}
    - {mu0: 0, rank: 2, ndensity: 1, num_ms_combs: 5, mus: [0, 0], ns: [1, 7], ls: [2, 2], ms_combs: [-2, 2, -1, 1, 0, 0, 1, -1, 2, -2], ctildes: [-0.5590615708848848, 0.5590615708848848, -0.5590615708848848, 0.5590615708848848, -0.5590615708848848]}
    - {mu0: 0, rank: 2, ndensity: 1, num_ms_combs: 5, mus: [0, 0], ns: [2, 2], ls: [2, 2], ms_combs: [-2, 2, -1, 1, 0, 0, 1, -1, 2, -2], ctildes: [0.1969658159818429, -0.1969658159818429, 0.1969658159818429, -0.1969658159818429, 0.1969658159818429]}
    - {mu0: 0, rank: 2, ndensity: 1, num_ms_combs: 5, mus: [0, 0], ns: [2, 3], ls: [2, 2], ms_combs: [-2, 2, -1, 1, 0, 0, 1, -1, 2, -2], ctildes: [0.005959725326581228, -0.005959725326581228, 0.005959725326581228, -0.005959725326581228, 0.005959725326581228]}
    - {mu0: 0, rank: 2, ndensity: 1, num_ms_combs: 5, mus: [0, 0], ns: [2, 4], ls: [2, 2], ms_combs: [-2, 2, -1, 1, 0, 0, 1, -1, 2, -2], ctildes: [-0.6571977538837248, 0.6571977538837248, -0.6571977538837248, 0.6571977538837248, -0.6571977538837248]}
    - {mu0: 0, rank: 2, ndensity: 1, num_ms_combs: 5, mus: [0, 0], ns: [2, 5], ls: [2, 2], ms_combs: [-2, 2, -1, 1, 0, 0, 1, -1, 2, -2], ctildes: [0.023136228830035337, -0.023136228830035337, 0.023136228830035337, -0.023136228830035337, 0.023136228830035337]}
    - {mu0: 0, rank: 2, ndensity: 1, num_ms_combs: 5, mus: [0, 0], ns: [2, 6], ls: [2, 2], ms_combs: [-2, 2, -1, 1, 0, 0, 1, -1, 2, -2], ctildes: [1.1795949315118364, -1.1795949315118364, 1.1795949315118364, -1.1795949315118364, 1.1795949315118364]}
    - {mu0: 0, rank: 2, ndensity: 1, num_ms_combs: 5, mus: [0, 0], ns: [2, 7], ls: [2, 2], ms_combs: [-2, 2, -1, 1, 0, 0, 1, -1, 2, -2], ctildes: [-0.41665022937827817, 0.41665022937827817, -0.41665022937827817, 0.41665022937827817, -0.41665022937827817]}
    - {mu0: 0, rank: 2, ndensity: 1, num_ms_combs: 5, mus: [0, 0], ns: [3, 3], ls: [2, 2], ms_combs: [-2, 2, -1, 1, 0, 0, 1, -1, 2, -2], ctildes: [-0.23487781276738862, 0.23487781276738862, -0.23487781276738862, 0.23487781276738862, -0.23487781276738862]}
    - {mu0: 0, rank: 2, ndensity: 1, num_ms_combs: 5, mus: [0, 0], ns: [3, 4], ls: [2, 2], ms_combs: [-2, 2, -1, 1, 0, 0, 1, -1, 2, -2], ctildes: [-0.7038806750255715, 0.7038806750255715, -0.7038806750255715, 0.7038806750255715, -0.7038806750255715]}
    - {mu0: 0, rank: 2, ndensity: 1, num_ms_combs: 5, mus: [0, 0], ns: [3, 5], ls: [2, 2], ms_combs: [-2, 2, -1, 1, 0, 0, 1, -1, 2, -2], ctildes: [0.020158522204589815, -0.020158522204589815, 0.020158522204589815, -0.020158522204589815, 0.020158522204589815]}
    - {mu0: 0, rank: 2, ndensity: 1, num_ms_combs: 5, mus: [0, 0], ns: [3, 6], ls: [2, 2], ms_combs: [-2, 2, -1, 1, 0, 0, 1, -1, 2, -2], ctildes: [1.1681920283173373, -1.1681920283173373, 1.1681920283173373, -1.1681920283173373, 1.1681920283173373]}
    - {mu0: 0, rank: 2, ndensity: 1, num_ms_combs: 5, mus: [0, 0], ns: [3, 7], ls: [2, 2], ms_combs: [-2, 2, -1, 1, 0, 0, 1, -1, 2, -2], ctildes: [-0.8170359037145738, 0.8170359037145738, -0.8170359037145738, 0.8170359037145738, -0.8170359037145738]}
    - {mu0: 0, rank: 2, ndensity: 1, num_ms_combs: 5, mus: [0, 0], ns: [4, 4], ls: [2, 2], ms_combs: [-2, 2, -1, 1, 0, 0, 1, -1, 2, -2], ctildes: [0.42845528054016613, -0.42845528054016613, 0.42845528054016613, -0.42845528054016613, 0.42845528054016613]}
    - {mu0: 0, rank: 2, ndensity: 1, num_ms_combs: 5, mus: [0, 0], ns: [4, 5], ls: [2, 2], ms_combs: [-2, 2, -1, 1, 0, 0, 1, -1, 2, -2], ctildes: [0.03642912013935913, -0.03642912013935913, 0.03642912013935913, -0.03642912013935913, 0.03642912013935913]}
    - {mu0: 0, rank: 2, ndensity: 1, num_ms_combs: 5, mus: [0, 0], ns: [4, 6], ls: [2, 2], ms_combs: [-2, 2, -1, 1, 0, 0, 1, -1, 2, -2], ctildes: [-0.7963672886476048, 0.7963672886476048, -0.7963672886476048, 0.7963672886476048, -0.7963672886476048]}
    - {mu0: 0, rank: 2, ndensity: 1, num_ms_combs: 5, mus: [0, 0], ns: [4, 7], ls: [2, 2], ms_combs: [-2, 2, -1, 1, 0, 0, 1, -1, 2, -2], ctildes: [0.0912738385639566, -0.0912738385639566, 0.0912738385639566, -0.0912738385639566, 0.0912738385639566]}
    - {mu0: 0, rank: 2, ndensity: 1, num_ms_combs: 5, mus: [0, 0], ns: [5, 5], ls: [2, 2], ms_combs: [-2, 2, -1, 1, 0, 0, 1, -1, 2, -2], ctildes: [0.09265610890255911, -0.09265610890255911, 0.09265610890255911, -0.09265610890255911, 0.09265610890255911]}
    - {mu0: 0, rank: 2, ndensity: 1, num_ms_combs: 5, mus: [0, 0], ns: [5, 6], ls: [2, 2], ms_combs: [-2, 2, -1, 1, 0, 0, 1, -1, 2, -2], ctildes: [0.002661057995543618, -0.002661057995543618, 0.002661057995543618, -0.002661057995543618, 0.002661057995543618]}
    - {mu0: 0, rank: 2, ndensity: 1, num_ms_combs: 5, mus: [0, 0], ns: [5, 7], ls: [2, 2], ms_combs: [-2, 2, -1, 1, 0, 0, 1, -1, 2, -2], ctildes: [1.3646647924279145, -1.3646647924279145, 1.3646647924279145, -1.3646647924279145, 1.3646647924279145]}
    - {mu0: 0, rank: 2, ndensity: 1, num_ms_combs: 5, mus: [0, 0], ns: [6, 6], ls: [2, 2], ms_combs: [-2, 2, -1, 1, 0, 0, 1, -1, 2, -2], ctildes: [-0.30558016520943504, 0.30558016520943504, -0.30558016520943504, 0.30558016520943504, -0.30558016520943504]}
    - {mu0: 0, rank: 2, ndensity: 1, num_ms_combs: 5, mus: [0, 0], ns: [6, 7], ls: [2, 2], ms_combs: [-2, 2, -1, 1, 0, 0, 1, -1, 2, -2], ctildes: [-0.6349435562681883, 0.6349435562681883, -0.6349435562681883, 0.6349435562681883, -0.6349435562681883]}
    - {mu0: 0, rank: 2, ndensity: 1, num_ms_combs: 5, mus: [0, 0], ns: [7, 7], ls: [2, 2], ms_combs: [-2, 2, -1, 1, 0, 0, 1, -1, 2, -2], ctildes: [0.15449719401012285, -0.15449719401012285, 0.15449719401012285, -0.15449719401012285, 0.15449719401012285]}
    - {mu0: 0, rank: 2, ndensity: 1, num_ms_combs: 7, mus: [0, 0], ns: [1, 1], ls: [3, 3], ms_combs: [-3, 3, -2, 2, -1, 1, 0, 0, 1, -1, 2, -2, 3, -3], ctildes: [0.7626790003031801, -0.7626790003031801, 0.7626790003031801, -0.7626790003031801, 0.7626790003031801, -0.7626790003031801, 0.7626790003031801]}
    - {mu0: 0, rank: 2, ndensity: 1, num_ms_combs: 7, mus: [0, 0], ns: [1, 2], ls: [3, 3], ms_combs: [-3, 3, -2, 2, -1, 1, 0, 0, 1, -1, 2, -2, 3, -3], ctildes: [0.08347142979237702, -0.08347142979237702, 0.08347142979237702, -0.08347142979237702, 0.08347142979237702, -0.08347142979237702, 0.08347142979237702]}
    - {mu0: 0, rank: 2, ndensity: 1, num_ms_combs: 7, mus: [0, 0], ns: [1, 3], ls: [3, 3], ms_combs: [-3, 3, -2, 2, -1, 1, 0, 0, 1, -1, 2, -2, 3, -3], ctildes: [-0.5446282082439471, 0.5446282082439471, -0.5446282082439471, 0.5446282082439471, -0.5446282082439471, 0.5446282082439471, -0.5446282082439471]}
    - {mu0: 0, rank: 2, ndensity: 1, num_ms_combs: 7, mus: [0, 0], ns: [1, 4], ls: [3, 3], ms_combs: [-3, 3, -2, 2, -1, 1, 0, 0, 1, -1, 2, -2, 3, -3], ctildes: [-1.1147192156410175, 1.1147192156410175, -1.1147192156410175, 1.1147192156410175, -1.1147192156410175, 1.1147192156410175, -1.1147192156410175]}
    - {mu0: 0, rank: 2, ndensity: 1, num_ms_combs: 7, mus: [0, 0], ns: [1, 5], ls: [3, 3], ms_combs: [-3, 3, -2, 2, -1, 1, 0, 0, 1, -1, 2, -2, 3, -3], ctildes: [-0.06694922615469118, 0.06694922615469118, -0.06694922615469118, 0.06694922615469118, -0.06694922615469118, 0.06694922615469118, -0.06694922615469118]}
    - {mu0: 0, rank: 2, ndensity: 1, num_ms_combs: 7, mus: [0, 0], ns: [1, 6], ls: [3, 3], ms_combs: [-3, 3, -2, 2, -1, 1, 0, 0, 1, -1, 2, -2, 3, -3], ctildes: [-0.17567834638549795, 0.17567834638549795, -0.17567834638549795, 0.17567834638549795, -0.17567834638549795, 0.17567834638549795, -0.17567834638549795]}
    - {mu0: 0, rank: 2, ndensity: 1, num_ms_combs: 7, mus: [0, 0], ns: [1, 7], ls: [3, 3], ms_combs: [-3, 3, -2, 2, -1, 1, 0, 0, 1, -1, 2, -2, 3, -3], ctildes: [-0.4061936957291584, 0.4061936957291584, -0.4061936957291584, 0.4061936957291584, -0.4061936957291584, 0.4061936957291584, -0.4061936957291584]}
    - {mu0: 0, rank: 2, ndensity: 1, num_ms_combs: 7, mus: [0, 0], ns: [2, 2], ls: [3, 3], ms_combs: [-3, 3, -2, 2, -1, 1, 0, 0, 1, -1, 2, -2, 3, -3], ctildes: [0.0746967437833295, -0.0746967437833295, 0.0746967437833295, -0.0746967437833295, 0.0746967437833295, -0.0746967437833295, 0.0746967437833295]}
    - {mu0: 0, rank: 2, ndensity: 1, num_ms_combs: 7, mus: [0, 0], ns: [2, 3], ls: [3, 3], ms_combs: [-3, 3, -2, 2, -1, 1, 0, 0, 1, -1, 2, -2, 3, -3], ctildes: [0.1830589183555337, -0.1830589183555337, 0.1830589183555337, -0.1830589183555337, 0.1830589183555337, -0.1830589183555337, 0.1830589183555337]}
    - {mu0: 0, rank: 2, ndensity: 1, num_ms_combs: 7, mus: [0, 0], ns: [2, 4], ls: [3, 3], ms_combs: [-3, 3, -2, 2, -1, 1, 0, 0, 1, -1, 2, -2, 3, -3], ctildes: [0.3127539523567618, -0.3127539523567618, 0.3127539523567618, -0.3127539523567618, 0.3127539523567618, -0.3127539523567618, 0.3127539523567618]}
    - {mu0: 0, rank: 2, ndensity: 1, num_ms_combs: 7, mus: [0, 0], ns: [2, 5], ls: [3, 3], ms_combs: [-3, 3, -2, 2, -1, 1, 0, 0, 1, -1, 2, -2, 3, -3], ctildes: [0.2791307470211718, -0.2791307470211718, 0.2791307470211718, -0.2791307470211718, 0.2791307470211718, -0.2791307470211718, 0.2791307470211718]}
    - {mu0: 0, rank: 2, ndensity: 1, num_ms_combs: 7, mus: [0, 0], ns: [2, 6], ls: [3, 3], ms_combs: [-3, 3, -2, 2, -1, 1, 0, 0, 1, -1, 2, -2, 3, -3], ctildes: [-0.17045622726761217, 0.17045622726761217, -0.17045622726761217, 0.17045622726761217, -0.17045622726761217, 0.17045622726761217, -0.17045622726761217]}
    - {mu0: 0, rank: 2, ndensity: 1, num_ms_combs: 7, mus: [0, 0], ns: [2, 7], ls: [3, 3], ms_combs: [-3, 3, -2, 2, -1, 1, 0, 0, 1, -1, 2, -2, 3, -3], ctildes: [-0.4206183617592806, 0.4206183617592806, -0.4206183617592806, 0.4206183617592806, -0.4206183617592806, 0.4206183617592806, -0.4206183617592806]}
    - {mu0: 0, rank: 2, ndensity: 1, num_ms_combs: 7, mus: [0, 0], ns: [3, 3], ls: [3, 3], ms_combs: [-3, 3, -2, 2, -1, 1, 0, 0, 1, -1, 2, -2, 3, -3], ctildes: [0.2691559067502369, -0.2691559067502369, 0.2691559067502369, -0.2691559067502369, 0.2691559067502369, -0.2691559067502369, 0.2691559067502369]}
    - {mu0: 0, rank: 2, ndensity: 1, num_ms_combs: 7, mus: [0, 0], ns: [3, 4], ls: [3, 3], ms_combs: [-3, 3, -2, 2, -1, 1, 0, 0, 1, -1, 2, -2, 3, -3], ctildes: [0.31456683763764864, -0.31456683763764864, 0.31456683763764864, -0.31456683763764864, 0.31456683763764864, -0.31456683763764864, 0.31456683763764864]}
    - {mu0: 0, rank: 2, ndensity: 1, num_ms_combs: 7, mus: [0, 0], ns: [3, 5], ls: [3, 3], ms_combs: [-3, 3, -2, 2, -1, 1, 0, 0, 1, -1, 2, -2, 3, -3], ctildes: [0.432368066947689, -0.432368066947689, 0.432368066947689, -0.432368066947689, 0.432368066947689, -0.432368066947689, 0.432368066947689]}
    - {mu0: 0, rank: 2, ndensity: 1, num_ms_combs: 7, mus: [0, 0], ns: [3, 6], ls: [3, 3], ms_combs: [-3, 3, -2, 2, -1, 1, 0, 0, 1, -1, 2, -2, 3, -3], ctildes: [-0.31730787120842785, 0.31730787120842785, -0.31730787120842785, 0.31730787120842785, -0.31730787120842785, 0.31730787120842785, -0.31730787120842785]}
    - {mu0: 0, rank: 2, ndensity: 1, num_ms_combs: 7, mus: [0, 0], ns: [3, 7], ls: [3, 3], ms_combs: [-3, 3, -2, 2, -1, 1, 0, 0, 1, -1, 2, -2, 3, -3], ctildes: [-0.039142797298839495, 0.039142797298839495, -0.039142797298839495, 0.039142797298839495, -0.039142797298839495, 0.039142797298839495, -0.039142797298839495]}
    - {mu0: 0, rank: 2, ndensity: 1, num_ms_combs: 7, mus: [0, 0], ns: [4, 4], ls: [3, 3], ms_combs: [-3, 3, -2, 2, -1, 1, 0, 0, 1, -1, 2, -2, 3, -3], ctildes: [0.017337055237540783, -0.017337055237540783, 0.017337055237540783, -0.017337055237540783, 0.017337055237540783, -0.017337055237540783, 0.017337055237540783]}
    - {mu0: 0, rank: 2, ndensity: 1, num_ms_combs: 7, mus: [0, 0], ns: [4, 5], ls: [3, 3], ms_combs: [-3, 3, -2, 2, -1, 1, 0, 0, 1, -1, 2, -2, 3, -3], ctildes: [0.3311752114984867, -0.3311752114984867, 0.3311752114984867, -0.3311752114984867, 0.3311752114984867, -0.3311752114984867, 0.3311752114984867]}
    - {mu0: 0, rank: 2, ndensity: 1, num_ms_combs: 7, mus: [0, 0], ns: [4, 6], ls: [3, 3], ms_combs: [-3, 3, -2, 2, -1, 1, 0, 0, 1, -1, 2, -2, 3, -3], ctildes: [-0.3970180839391549, 0.3970180839391549, -0.3970180839391549, 0.3970180839391549, -0.3970180839391549, 0.3970180839391549, -0.3970180839391549]}
    - {mu0: 0, rank: 2, ndensity: 1, num_ms_combs: 7, mus: [0, 0], ns: [4, 7], ls: [3, 3], ms_combs: [-3, 3, -2, 2, -1, 1, 0, 0, 1, -1, 2, -2, 3, -3], ctildes: [1.1038938109057723, -1.1038938109057723, 1.1038938109057723, -1.1038938109057723, 1.1038938109057723, -1.1038938109057723, 1.1038938109057723]}
    - {mu0: 0, rank: 2, ndensity: 1, num_ms_combs: 7, mus: [0, 0], ns: [5, 5], ls: [3, 3], ms_combs: [-3, 3, -2, 2, -1, 1, 0, 0, 1, -1, 2, -2, 3, -3], ctildes: [0.4778124247369865, -0.4778124247369865, 0.4778124247369865, -0.4778124247369865, 0.4778124247369865, -0.4778124247369865, 0.4778124247369865]}
    - {mu0: 0, rank: 2, ndensity: 1, num_ms_combs: 7, mus: [0, 0], ns: [5, 6], ls: [3, 3], ms_combs: [-3, 3, -2, 2, -1, 1, 0, 0, 1, -1, 2, -2, 3, -3], ctildes: [-0.5947956559126995, 0.5947956559126995, -0.5947956559126995, 0.5947956559126995, -0.5947956559126995, 0.5947956559126995, -0.5947956559126995]}
    - {mu0: 0, rank: 2, ndensity: 1, num_ms_combs: 7, mus: [0, 0], ns: [5, 7], ls: [3, 3], ms_combs: [-3, 3, -2, 2, -1, 1, 0, 0, 1, -1, 2, -2, 3, -3], ctildes: [-0.29976842300126677, 0.29976842300126677, -0.29976842300126677, 0.29976842300126677, -0.29976842300126677, 0.29976842300126677, -0.29976842300126677]}
    - {mu0: 0, rank: 2, ndensity: 1, num_ms_combs: 7, mus: [0, 0], ns: [6, 6], ls: [3, 3], ms_combs: [-3, 3, -2, 2, -1, 1, 0, 0, 1, -1, 2, -2, 3, -3], ctildes: [0.6766676248801202, -0.6766676248801202, 0.6766676248801202, -0.6766676248801202, 0.6766676248801202, -0.6766676248801202, 0.6766676248801202]}
    - {mu0: 0, rank: 2, ndensity: 1, num_ms_combs: 7, mus: [0, 0], ns: [6, 7], ls: [3, 3], ms_combs: [-3, 3, -2, 2, -1, 1, 0, 0, 1, -1, 2, -2, 3, -3], ctildes: [-0.40598038554215926, 0.40598038554215926, -0.40598038554215926, 0.40598038554215926, -0.40598038554215926, 0.40598038554215926, -0.40598038554215926]}
    - {mu0: 0, rank: 2, ndensity: 1, num_ms_combs: 7, mus: [0, 0], ns: [7, 7], ls: [3, 3], ms_combs: [-3, 3, -2, 2, -1, 1, 0, 0, 1, -1, 2, -2, 3, -3], ctildes: [0.18523741849736416, -0.18523741849736416, 0.18523741849736416, -0.18523741849736416, 0.18523741849736416, -0.18523741849736416, 0.18523741849736416]}
    - {mu0: 0, rank: 2, ndensity: 1, num_ms_combs: 9, mus: [0, 0], ns: [1, 1], ls: [4, 4], ms_combs: [-4, 4, -3, 3, -2, 2, -1, 1, 0, 0, 1, -1, 2, -2, 3, -3, 4, -4], ctildes: [-0.21434178225829636, 0.21434178225829636, -0.21434178225829636, 0.21434178225829636, -0.21434178225829636, 0.21434178225829636, -0.21434178225829636, 0.21434178225829636, -0.21434178225829636]}
    - {mu0: 0, rank: 2, ndensity: 1, num_ms_combs: 9, mus: [0, 0], ns: [1, 2], ls: [4, 4], ms_combs: [-4, 4, -3, 3, -2, 2, -1, 1, 0, 0, 1, -1, 2, -2, 3, -3, 4, -4], ctildes: [-0.6148368389006142, 0.6148368389006142, -0.6148368389006142, 0.6148368389006142, -0.6148368389006142, 0.6148368389006142, -0.6148368389006142, 0.6148368389006142, -0.6148368389006142]}
    - {mu0: 0, rank: 2, ndensity: 1, num_ms_combs: 9, mus: [0, 0], ns: [1, 3], ls: [4, 4], ms_combs: [-4, 4, -3, 3, -2, 2, -1, 1, 0, 0, 1, -1, 2, -2, 3, -3, 4, -4], ctildes: [-0.4448572253998368, 0.4448572253998368, -0.4448572253998368, 0.4448572253998368, -0.4448572253998368, 0.4448572253998368, -0.4448572253998368, 0.4448572253998368, -0.4448572253998368]}
    - {mu0: 0, rank: 2, ndensity: 1, num_ms_combs: 9, mus: [0, 0], ns: [1, 4], ls: [4, 4], ms_combs: [-4, 4, -3, 3, -2, 2, -1, 1, 0, 0, 1, -1, 2, -2, 3, -3, 4, -4], ctildes: [0.8368124132771315, -0.8368124132771315, 0.8368124132771315, -0.8368124132771315, 0.8368124132771315, -0.8368124132771315, 0.8368124132771315, -0.8368124132771315, 0.8368124132771315]}
    - {mu0: 0, rank: 2, ndensity: 1, num_ms_combs: 9, mus: [0, 0], ns: [1, 5], ls: [4, 4], ms_combs: [-4, 4, -3, 3, -2, 2, -1, 1, 0, 0, 1, -1, 2, -2, 3, -3, 4, -4], ctildes: [0.12256264032722884, -0.12256264032722884, 0.12256264032722884, -0.12256264032722884, 0.12256264032722884, -0.12256264032722884, 0.12256264032722884, -0.12256264032722884, 0.12256264032722884]}
    - {mu0: 0, rank: 2, ndensity: 1, num_ms_combs: 9, mus: [0, 0], ns: [1, 6], ls: [4, 4], ms_combs: [-4, 4, -3, 3, -2, 2, -1, 1, 0, 0, 1, -1, 2, -2, 3, -3, 4, -4], ctildes: [-0.9843707301346141, 0.9843707301346141, -0.9843707301346141, 0.9843707301346141, -0.9843707301346141, 0.9843707301346141, -0.9843707301346141, 0.9843707301346141, -0.9843707301346141]}
    - {mu0: 0, rank: 2, ndensity: 1, num_ms_combs: 9, mus: [0, 0], ns: [1, 7], ls: [4, 4], ms_combs: [-4, 4, -3, 3, -2, 2, -1, 1, 0, 0, 1, -1, 2, -2, 3, -3, 4, -4], ctildes: [0.5573378481592046, -0.5573378481592046, 0.5573378481592046, -0.5573378481592046, 0.5573378481592046, -0.5573378481592046, 0.5573378481592046, -0.5573378481592046, 0.5573378481592046]}
    - {mu0: 0, rank: 2, ndensity: 1, num_ms_combs: 9, mus: [0, 0], ns: [2, 2], ls: [4, 4], ms_combs: [-4, 4, -3, 3, -2, 2, -1, 1, 0, 0, 1, -1, 2, -2, 3, -3, 4, -4], ctildes: [-0.4489160462089192, 0.4489160462089192, -0.4489160462089192, 0.4489160462089192, -0.4489160462089192, 0.4489160462089192, -0.4489160462089192, 0.4489160462089192, -0.4489160462089192]}
    - {mu0: 0, rank: 2, ndensity: 1, num_ms_combs: 9, mus: [0, 0], ns: [2, 3], ls: [4, 4], ms_combs: [-4, 4, -3, 3, -2, 2, -1, 1, 0, 0, 1, -1, 2, -2, 3, -3, 4, -4], ctildes: [-0.30900639007992015, 0.30900639007992015, -0.30900639007992015, 0.30900639007992015, -0.30900639007992015, 0.30900639007992015, -0.30900639007992015, 0.30900639007992015, -0.30900639007992015]}
    - {mu0: 0, rank: 2, ndensity: 1, num_ms_combs: 9, mus: [0, 0], ns: [2, 4], ls: [4, 4], ms_combs: [-4, 4, -3, 3, -2, 2, -1, 1, 0, 0, 1, -1, 2, -2, 3, -3, 4, -4], ctildes: [0.3346393520876096, -0.3346393520876096, 0.3346393520876096, -0.3346393520876096, 0.3346393520876096, -0.3346393520876096, 0.3346393520876096, -0.3346393520876096, 0.3346393520876096]}
    - {mu0: 0, rank: 2, ndensity: 1, num_ms_combs: 9, mus: [0, 0], ns: [2, 5], ls: [4, 4], ms_combs: [-4, 4, -3, 3, -2, 2, -1, 1, 0, 0, 1, -1, 2, -2, 3, -3, 4, -4], ctildes: [-0.8348826733541861, 0.8348826733541861, -0.8348826733541861, 0.8348826733541861, -0.8348826733541861, 0.8348826733541861, -0.8348826733541861, 0.8348826733541861, -0.8348826733541861]}
    - {mu0: 0, rank: 2, ndensity: 1, num_ms_combs: 9, mus: [0, 0], ns: [2, 6], ls: [4, 4], ms_combs: [-4, 4, -3, 3, -2, 2, -1, 1, 0, 0, 1, -1, 2, -2, 3, -3, 4, -4], ctildes: [-1.03067341969532, 1.03067341969532, -1.03067341969532, 1.03067341969532, -1.03067341969532, 1.03067341969532, -1.03067341969532, 1.03067341969532, -1.03067341969532]}
    - {mu0: 0, rank: 2, ndensity: 1, num_ms_combs: 9, mus: [0, 0], ns: [2, 7], ls: [4, 4], ms_combs: [-4, 4, -3, 3, -2, 2, -1, 1, 0, 0, 1, -1, 2, -2, 3, -3, 4, -4], ctildes: [1.7044181992125298, -1.7044181992125298, 1.7044181992125298, -1.7044181992125298, 1.7044181992125298, -1.7044181992125298, 1.7044181992125298, -1.7044181992125298, 1.7044181992125298]}
    - {mu0: 0, rank: 2, ndensity: 1, num_ms_combs: 9, mus: [0, 0], ns: [3, 3], ls: [4, 4], ms_combs: [-4, 4, -3, 3, -2, 2, -1, 1, 0, 0, 1, -1, 2, -2, 3, -3, 4, -4], ctildes: [0.002793040764322979, -0.002793040764322979, 0.002793040764322979, -0.002793040764322979, 0.002793040764322979, -0.002793040764322979, 0.002793040764322979, -0.002793040764322979, 0.002793040764322979]}
    - {mu0: 0, rank: 2, ndensity: 1, num_ms_combs: 9, mus: [0, 0], ns: [3, 4], ls: [4, 4], ms_combs: [-4, 4, -3, 3, -2, 2, -1, 1, 0, 0, 1, -1, 2, -2, 3, -3, 4, -4], ctildes: [0.4635931251955093, -0.4635931251955093, 0.4635931251955093, -0.4635931251955093, 0.4635931251955093, -0.4635931251955093, 0.4635931251955093, -0.4635931251955093, 0.4635931251955093]}
    - {mu0: 0, rank: 2, ndensity: 1, num_ms_combs: 9, mus: [0, 0], ns: [3, 5], ls: [4, 4], ms_combs: [-4, 4, -3, 3, -2, 2, -1, 1, 0, 0, 1, -1, 2, -2, 3, -3, 4, -4], ctildes: [-0.6791717522713492, 0.6791717522713492, -0.6791717522713492, 0.6791717522713492, -0.6791717522713492, 0.6791717522713492, -0.6791717522713492, 0.6791717522713492, -0.6791717522713492]}
    - {mu0: 0, rank: 2, ndensity: 1, num_ms_combs: 9, mus: [0, 0], ns: [3, 6], ls: [4, 4], ms_combs: [-4, 4, -3, 3, -2, 2, -1, 1, 0, 0, 1, -1, 2, -2, 3, -3, 4, -4], ctildes: [-0.1635825376488844, 0.1635825376488844, -0.1635825376488844, 0.1635825376488844, -0.1635825376488844, 0.1635825376488844, -0.1635825376488844, 0.1635825376488844, -0.1635825376488844]}
    - {mu0: 0, rank: 2, ndensity: 1, num_ms_combs: 9, mus: [0, 0], ns: [3, 7], ls: [4, 4], ms_combs: [-4, 4, -3, 3, -2, 2, -1, 1, 0, 0, 1, -1, 2, -2, 3, -3, 4, -4], ctildes: [0.6103983475202798, -0.6103983475202798, 0.6103983475202798, -0.6103983475202798, 0.6103983475202798, -0.6103983475202798, 0.6103983475202798, -0.6103983475202798, 0.6103983475202798]}
    - {mu0: 0, rank: 2, ndensity: 1, num_ms_combs: 9, mus: [0, 0], ns: [4, 4], ls: [4, 4], ms_combs: [-4, 4, -3, 3, -2, 2, -1, 1, 0, 0, 1, -1, 2, -2, 3, -3, 4, -4], ctildes: [-0.12086546219658446, 0.12086546219658446, -0.12086546219658446, 0.12086546219658446, -0.12086546219658446, 0.12086546219658446, -0.12086546219658446, 0.12086546219658446, -0.12086546219658446]}
    - {mu0: 0, rank: 2, ndensity: 1, num_ms_combs: 9, mus: [0, 0], ns: [4, 5], ls: [4, 4], ms_combs: [-4, 4, -3, 3, -2, 2, -1, 1, 0, 0, 1, -1, 2, -2, 3, -3, 4, -4], ctildes: [0.45813245373983635, -0.45813245373983635, 0.45813245373983635, -0.45813245373983635, 0.45813245373983635, -0.45813245373983635, 0.45813245373983635, -0.45813245373983635, 0.45813245373983635]}
    - {mu0: 0, rank: 2, ndensity: 1, num_ms_combs: 9, mus: [0, 0], ns: [4, 6], ls: [4, 4], ms_combs: [-4, 4, -3, 3, -2, 2, -1, 1, 0, 0, 1, -1, 2, -2, 3, -3, 4, -4], ctildes: [2.2440682244339696, -2.2440682244339696, 2.2440682244339696, -2.2440682244339696, 2.2440682244339696, -2.2440682244339696, 2.2440682244339696, -2.2440682244339696, 2.2440682244339696]}
    - {mu0: 0, rank: 2, ndensity: 1, num_ms_combs: 9, mus: [0, 0], ns: [4, 7], ls: [4, 4], ms_combs: [-4, 4, -3, 3, -2, 2, -1, 1, 0, 0, 1, -1, 2, -2, 3, -3, 4, -4], ctildes: [-2.587423726404978, 2.587423726404978, -2.587423726404978, 2.587423726404978, -2.587423726404978, 2.587423726404978, -2.587423726404978, 2.587423726404978, -2.587423726404978]}
    - {mu0: 0, rank: 2, ndensity: 1, num_ms_combs: 9, mus: [0, 0], ns: [5, 5], ls: [4, 4], ms_combs: [-4, 4, -3, 3, -2, 2, -1, 1, 0, 0, 1, -1, 2, -2, 3, -3, 4, -4], ctildes: [-1.0417555181071843, 1.0417555181071843, -1.0417555181071843, 1.0417555181071843, -1.0417555181071843, 1.0417555181071843, -1.0417555181071843, 1.0417555181071843, -1.0417555181071843]}
    - {mu0: 0, rank: 2, ndensity: 1, num_ms_combs: 9, mus: [0, 0], ns: [5, 6], ls: [4, 4], ms_combs: [-4, 4, -3, 3, -2, 2, -1, 1, 0, 0, 1, -1, 2, -2, 3, -3, 4, -4], ctildes: [0.11825665571968844, -0.11825665571968844, 0.11825665571968844, -0.11825665571968844, 0.11825665571968844, -0.11825665571968844, 0.11825665571968844, -0.11825665571968844, 0.11825665571968844]}
    - {mu0: 0, rank: 2, ndensity: 1, num_ms_combs: 9, mus: [0, 0], ns: [5, 7], ls: [4, 4], ms_combs: [-4, 4, -3, 3, -2, 2, -1, 1, 0, 0, 1, -1, 2, -2, 3, -3, 4, -4], ctildes: [1.4259739450651336, -1.4259739450651336, 1.4259739450651336, -1.4259739450651336, 1.4259739450651336, -1.4259739450651336, 1.4259739450651336, -1.4259739450651336, 1.4259739450651336]}
    - {mu0: 0, rank: 2, ndensity: 1, num_ms_combs: 9, mus: [0, 0], ns: [6, 6], ls: [4, 4], ms_combs: [-4, 4, -3, 3, -2, 2, -1, 1, 0, 0, 1, -1, 2, -2, 3, -3, 4, -4], ctildes: [-0.16718701327932547, 0.16718701327932547, -0.16718701327932547, 0.16718701327932547, -0.16718701327932547, 0.16718701327932547, -0.16718701327932547, 0.16718701327932547, -0.16718701327932547]}
    - {mu0: 0, rank: 2, ndensity: 1, num_ms_combs: 9, mus: [0, 0], ns: [6, 7], ls: [4, 4], ms_combs: [-4, 4, -3, 3, -2, 2, -1, 1, 0, 0, 1, -1, 2, -2, 3, -3, 4, -4], ctildes: [-0.2764812173545075, 0.2764812173545075, -0.2764812173545075, 0.2764812173545075, -0.2764812173545075, 0.2764812173545075, -0.2764812173545075, 0.2764812173545075, -0.2764812173545075]}
    - {mu0: 0, rank: 2, ndensity: 1, num_ms_combs: 9, mus: [0, 0], ns: [7, 7], ls: [4, 4], ms_combs: [-4, 4, -3, 3, -2, 2, -1, 1, 0, 0, 1, -1, 2, -2, 3, -3, 4, -4], ctildes: [0.04591650178763322, -0.04591650178763322, 0.04591650178763322, -0.04591650178763322, 0.04591650178763322, -0.04591650178763322, 0.04591650178763322, -0.04591650178763322, 0.04591650178763322]}
    - {mu0: 0, rank: 2, ndensity: 1, num_ms_combs: 11, mus: [0, 0], ns: [1, 1], ls: [5, 5], ms_combs: [-5, 5, -4, 4, -3, 3, -2, 2, -1, 1, 0, 0, 1, -1, 2, -2, 3, -3, 4, -4, 5, -5], ctildes: [0.3314498010862152, -0.3314498010862152, 0.3314498010862152, -0.3314498010862152, 0.3314498010862152, -0.3314498010862152, 0.3314498010862152, -0.3314498010862152, 0.3314498010862152, -0.3314498010862152, 0.3314498010862152]}
    - {mu0: 0, rank: 2, ndensity: 1, num_ms_combs: 11, mus: [0, 0], ns: [1, 2], ls: [5, 5], ms_combs: [-5, 5, -4, 4, -3, 3, -2, 2, -1, 1, 0, 0, 1, -1, 2, -2, 3, -3, 4, -4, 5, -5], ctildes: [-0.9049017717560124, 0.9049017717560124, -0.9049017717560124, 0.9049017717560124, -0.9049017717560124, 0.9049017717560124, -0.9049017717560124, 0.9049017717560124, -0.9049017717560124, 0.9049017717560124, -0.9049017717560124]}
    - {mu0: 0, rank: 2, ndensity: 1, num_ms_combs: 11, mus: [0, 0], ns: [1, 3], ls: [5, 5], ms_combs: [-5, 5, -4, 4, -3, 3, -2, 2, -1, 1, 0, 0, 1, -1, 2, -2, 3, -3, 4, -4, 5, -5], ctildes: [-0.9743456248070934, 0.9743456248070934, -0.9743456248070934, 0.9743456248070934, -0.9743456248070934, 0.9743456248070934, -0.9743456248070934, 0.9743456248070934, -0.9743456248070934, 0.9743456248070934, -0.9743456248070934]}
    - {mu0: 0, rank: 2, ndensity: 1, num_ms_combs: 11, mus: [0, 0], ns: [1, 4], ls: [5, 5], ms_combs: [-5, 5, -4, 4, -3, 3, -2, 2, -1, 1, 0, 0, 1, -1, 2, -2, 3, -3, 4, -4, 5, -5], ctildes: [0.7006880851785715, -0.7006880851785715, 0.7006880851785715, -0.7006880851785715, 0.7006880851785715, -0.7006880851785715, 0.7006880851785715, -0.7006880851785715, 0.7006880851785715, -0.7006880851785715, 0.7006880851785715]}
    - {mu0: 0, rank: 2, ndensity: 1, num_ms_combs: 11, mus: [0, 0], ns: [1, 5], ls: [5, 5], ms_combs: [-5, 5, -4, 4, -3, 3, -2, 2, -1, 1, 0, 0, 1, -1, 2, -2, 3, -3, 4, -4, 5, -5], ctildes: [-0.2703979512233608, 0.2703979512233608, -0.2703979512233608, 0.2703979512233608, -0.2703979512233608, 0.2703979512233608, -0.2703979512233608, 0.2703979512233608, -0.2703979512233608, 0.2703979512233608, -0.2703979512233608]}
    - {mu0: 0, rank: 2, ndensity: 1, num_ms_combs: 11, mus: [0, 0], ns: [1, 6], ls: [5, 5], ms_combs: [-5, 5, -4, 4, -3, 3, -2, 2, -1, 1, 0, 0, 1, -1, 2, -2, 3, -3, 4, -4, 5, -5], ctildes: [-0.541297019388547, 0.541297019388547, -0.541297019388547, 0.541297019388547, -0.541297019388547, 0.541297019388547, -0.541297019388547, 0.541297019388547, -0.541297019388547, 0.541297019388547, -0.541297019388547]}
    - {mu0: 0, rank: 2, ndensity: 1, num_ms_combs: 11, mus: [0, 0], ns: [1, 7], ls: [5, 5], ms_combs: [-5, 5, -4, 4, -3, 3, -2, 2, -1, 1, 0, 0, 1, -1, 2, -2, 3, -3, 4, -4, 5, -5], ctildes: [0.21031506222218257, -0.21031506222218257, 0.21031506222218257, -0.21031506222218257, 0.21031506222218257, -0.21031506222218257, 0.21031506222218257, -0.21031506222218257, 0.21031506222218257, -0.21031506222218257, 0.21031506222218257]}
    - {mu0: 0, rank: 2, ndensity: 1, num_ms_combs: 11, mus: [0, 0], ns: [2, 2], ls: [5, 5], ms_combs: [-5, 5, -4, 4, -3, 3, -2, 2, -1, 1, 0, 0, 1, -1, 2, -2, 3, -3, 4, -4, 5, -5], ctildes: [-0.4361468295990233, 0.4361468295990233, -0.4361468295990233, 0.4361468295990233, -0.4361468295990233, 0.4361468295990233, -0.4361468295990233, 0.4361468295990233, -0.4361468295990233, 0.4361468295990233, -0.4361468295990233]}
    - {mu0: 0, rank: 2, ndensity: 1, num_ms_combs: 11, mus: [0, 0], ns: [2, 3], ls: [5, 5], ms_combs: [-5, 5, -4, 4, -3, 3, -2, 2, -1, 1, 0, 0, 1, -1, 2, -2, 3, -3, 4, -4, 5, -5], ctildes: [-0.45146037028469405, 0.45146037028469405, -0.45146037028469405, 0.45146037028469405, -0.45146037028469405, 0.45146037028469405, -0.45146037028469405, 0.45146037028469405, -0.45146037028469405, 0.45146037028469405, -0.45146037028469405]}
    - {mu0: 0, rank: 2, ndensity: 1, num_ms_combs: 11, mus: [0, 0], ns: [2, 4], ls: [5, 5], ms_combs: [-5, 5, -4, 4, -3, 3, -2, 2, -1, 1, 0, 0, 1, -1, 2, -2, 3, -3, 4, -4, 5, -5], ctildes: [0.30146157955860875, -0.30146157955860875, 0.30146157955860875, -0.30146157955860875, 0.30146157955860875, -0.30146157955860875, 0.30146157955860875, -0.30146157955860875, 0.30146157955860875, -0.30146157955860875, 0.30146157955860875]}
    - {mu0: 0, rank: 2, ndensity: 1, num_ms_combs: 11, mus: [0, 0], ns: [2, 5], ls: [5, 5], ms_combs: [-5, 5, -4, 4, -3, 3, -2, 2, -1, 1, 0, 0, 1, -1, 2, -2, 3, -3, 4, -4, 5, -5], ctildes: [0.12022326063917504, -0.12022326063917504, 0.12022326063917504, -0.12022326063917504, 0.12022326063917504, -0.12022326063917504, 0.12022326063917504, -0.12022326063917504, 0.12022326063917504, -0.12022326063917504, 0.12022326063917504]}
    - {mu0: 0, rank: 2, ndensity: 1, num_ms_combs: 11, mus: [0, 0], ns: [2, 6], ls: [5, 5], ms_combs: [-5, 5, -4, 4, -3, 3, -2, 2, -1, 1, 0, 0, 1, -1, 2, -2, 3, -3, 4, -4, 5, -5], ctildes: [0.7394585643323772, -0.7394585643323772, 0.7394585643323772, -0.7394585643323772, 0.7394585643323772, -0.7394585643323772, 0.7394585643323772, -0.7394585643323772, 0.7394585643323772, -0.7394585643323772, 0.7394585643323772]}
    - {mu0: 0, rank: 2, ndensity: 1, num_ms_combs: 11, mus: [0, 0], ns: [2, 7], ls: [5, 5], ms_combs: [-5, 5, -4, 4, -3, 3, -2, 2, -1, 1, 0, 0, 1, -1, 2, -2, 3, -3, 4, -4, 5, -5], ctildes: [-0.7782601532280125, 0.7782601532280125, -0.7782601532280125, 0.7782601532280125, -0.7782601532280125, 0.7782601532280125, -0.7782601532280125, 0.7782601532280125, -0.7782601532280125, 0.7782601532280125, -0.7782601532280125]}
    - {mu0: 0, rank: 2, ndensity: 1, num_ms_combs: 11, mus: [0, 0], ns: [3, 3], ls: [5, 5], ms_combs: [-5, 5, -4, 4, -3, 3, -2, 2, -1, 1, 0, 0, 1, -1, 2, -2, 3, -3, 4, -4, 5, -5], ctildes: [0.0011105392666111813, -0.0011105392666111813, 0.0011105392666111813, -0.0011105392666111813, 0.0011105392666111813, -0.0011105392666111813, 0.0011105392666111813, -0.0011105392666111813, 0.0011105392666111813, -0.0011105392666111813, 0.0011105392666111813]}
    - {mu0: 0, rank: 2, ndensity: 1, num_ms_combs: 11, mus: [0, 0], ns: [3, 4], ls: [5, 5], ms_combs: [-5, 5, -4, 4, -3, 3, -2, 2, -1, 1, 0, 0, 1, -1, 2, -2, 3, -3, 4, -4, 5, -5], ctildes: [0.8770099435730844, -0.8770099435730844, 0.8770099435730844, -0.8770099435730844, 0.8770099435730844, -0.8770099435730844, 0.8770099435730844, -0.8770099435730844, 0.8770099435730844, -0.8770099435730844, 0.8770099435730844]}
    - {mu0: 0, rank: 2, ndensity: 1, num_ms_combs: 11, mus: [0, 0], ns: [3, 5], ls: [5, 5], ms_combs: [-5, 5, -4, 4, -3, 3, -2, 2, -1, 1, 0, 0, 1, -1, 2, -2, 3, -3, 4, -4, 5, -5], ctildes: [-0.7371635786356817, 0.7371635786356817, -0.7371635786356817, 0.7371635786356817, -0.7371635786356817, 0.7371635786356817, -0.7371635786356817, 0.7371635786356817, -0.7371635786356817, 0.7371635786356817, -0.7371635786356817]}
    - {mu0: 0, rank: 2, ndensity: 1, num_ms_combs: 11, mus: [0, 0], ns: [3, 6], ls: [5, 5], ms_combs: [-5, 5, -4, 4, -3, 3, -2, 2, -1, 1, 0, 0, 1, -1, 2, -2, 3, -3, 4, -4, 5, -5], ctildes: [1.0490193144857558, -1.0490193144857558, 1.0490193144857558, -1.0490193144857558, 1.0490193144857558, -1.0490193144857558, 1.0490193144857558, -1.0490193144857558, 1.0490193144857558, -1.0490193144857558, 1.0490193144857558]}
    - {mu0: 0, rank: 2, ndensity: 1, num_ms_combs: 11, mus: [0, 0], ns: [3, 7], ls: [5, 5], ms_combs: [-5, 5, -4, 4, -3, 3, -2, 2, -1, 1, 0, 0, 1, -1, 2, -2, 3, -3, 4, -4, 5, -5], ctildes: [-0.3730425872097661, 0.3730425872097661, -0.3730425872097661, 0.3730425872097661, -0.3730425872097661, 0.3730425872097661, -0.3730425872097661, 0.3730425872097661, -0.3730425872097661, 0.3730425872097661, -0.3730425872097661]}
    - {mu0: 0, rank: 2, ndensity: 1, num_ms_combs: 11, mus: [0, 0], ns: [4, 4], ls: [5, 5], ms_combs: [-5, 5, -4, 4, -3, 3, -2, 2, -1, 1, 0, 0, 1, -1, 2, -2, 3, -3, 4, -4, 5, -5], ctildes: [0.4625846928313971, -0.4625846928313971, 0.4625846928313971, -0.4625846928313971, 0.4625846928313971, -0.4625846928313971, 0.4625846928313971, -0.4625846928313971, 0.4625846928313971, -0.4625846928313971, 0.4625846928313971]}
    - {mu0: 0, rank: 2, ndensity: 1, num_ms_combs: 11, mus: [0, 0], ns: [4, 5], ls: [5, 5], ms_combs: [-5, 5, -4, 4, -3, 3, -2, 2, -1, 1, 0, 0, 1, -1, 2, -2, 3, -3, 4, -4, 5, -5], ctildes: [-1.3212184687082533, 1.3212184687082533, -1.3212184687082533, 1.3212184687082533, -1.3212184687082533, 1.3212184687082533, -1.3212184687082533, 1.3212184687082533, -1.3212184687082533, 1.3212184687082533, -1.3212184687082533]}
    - {mu0: 0, rank: 2, ndensity: 1, num_ms_combs: 11, mus: [0, 0], ns: [4, 6], ls: [5, 5], ms_combs: [-5, 5, -4, 4, -3, 3, -2, 2, -1, 1, 0, 0, 1, -1, 2, -2, 3, -3, 4, -4, 5, -5], ctildes: [0.17672639727299658, -0.17672639727299658, 0.17672639727299658, -0.17672639727299658, 0.17672639727299658, -0.17672639727299658, 0.17672639727299658, -0.17672639727299658, 0.17672639727299658, -0.17672639727299658, 0.17672639727299658]}
    - {mu0: 0, rank: 2, ndensity: 1, num_ms_combs: 11, mus: [0, 0], ns: [4, 7], ls: [5, 5], ms_combs: [-5, 5, -4, 4, -3, 3, -2, 2, -1, 1, 0, 0, 1, -1, 2, -2, 3, -3, 4, -4, 5, -5], ctildes: [0.7257893257480317, -0.7257893257480317, 0.7257893257480317, -0.7257893257480317, 0.7257893257480317, -0.7257893257480317, 0.7257893257480317, -0.7257893257480317, 0.7257893257480317, -0.7257893257480317, 0.7257893257480317]}
    - {mu0: 0, rank: 2, ndensity: 1, num_ms_combs: 11, mus: [0, 0], ns: [5, 5], ls: [5, 5], ms_combs: [-5, 5, -4, 4, -3, 3, -2, 2, -1, 1, 0, 0, 1, -1, 2, -2, 3, -3, 4, -4, 5, -5], ctildes: [0.4711717988072542, -0.4711717988072542, 0.4711717988072542, -0.4711717988072542, 0.4711717988072542, -0.4711717988072542, 0.4711717988072542, -0.4711717988072542, 0.4711717988072542, -0.4711717988072542, 0.4711717988072542]}
    - {mu0: 0, rank: 2, ndensity: 1, num_ms_combs: 11, mus: [0, 0], ns: [5, 6], ls: [5, 5], ms_combs: [-5, 5, -4, 4, -3, 3, -2, 2, -1, 1, 0, 0, 1, -1, 2, -2, 3, -3, 4, -4, 5, -5], ctildes: [0.14526438129845404, -0.14526438129845404, 0.14526438129845404, -0.14526438129845404, 0.14526438129845404, -0.14526438129845404, 0.14526438129845404, -0.14526438129845404, 0.14526438129845404, -0.14526438129845404, 0.14526438129845404]}
    - {mu0: 0, rank: 2, ndensity: 1, num_ms_combs: 11, mus: [0, 0], ns: [5, 7], ls: [5, 5], ms_combs: [-5, 5, -4, 4, -3, 3, -2, 2, -1, 1, 0, 0, 1, -1, 2, -2, 3, -3, 4, -4, 5, -5], ctildes: [-1.1619339119942955, 1.1619339119942955, -1.1619339119942955, 1.1619339119942955, -1.1619339119942955, 1.1619339119942955, -1.1619339119942955, 1.1619339119942955, -1.1619339119942955, 1.1619339119942955, -1.1619339119942955]}
    - {mu0: 0, rank: 2, ndensity: 1, num_ms_combs: 11, mus: [0, 0], ns: [6, 6], ls: [5, 5], ms_combs: [-5, 5, -4, 4, -3, 3, -2, 2, -1, 1, 0, 0, 1, -1, 2, -2, 3, -3, 4, -4, 5, -5], ctildes: [-0.022478919371156002, 0.022478919371156002, -0.022478919371156002, 0.022478919371156002, -0.022478919371156002, 0.022478919371156002, -0.022478919371156002, 0.022478919371156002, -0.022478919371156002, 0.022478919371156002, -0.022478919371156002]}
    - {mu0: 0, rank: 2, ndensity: 1, num_ms_combs: 11, mus: [0, 0], ns: [6, 7], ls: [5, 5], ms_combs: [-5, 5, -4, 4, -3, 3, -2, 2, -1, 1, 0, 0, 1, -1, 2, -2, 3, -3, 4, -4, 5, -5], ctildes: [0.7927966788253814, -0.7927966788253814, 0.7927966788253814, -0.7927966788253814, 0.7927966788253814, -0.7927966788253814, 0.7927966788253814, -0.7927966788253814, 0.7927966788253814, -0.7927966788253814, 0.7927966788253814]}
    - {mu0: 0, rank: 2, ndensity: 1, num_ms_combs: 11, mus: [0, 0], ns: [7, 7], ls: [5, 5], ms_combs: [-5, 5, -4, 4, -3, 3, -2, 2, -1, 1, 0, 0, 1, -1, 2, -2, 3, -3, 4, -4, 5, -5], ctildes: [-0.30133326771783053, 0.30133326771783053, -0.30133326771783053, 0.30133326771783053, -0.30133326771783053, 0.30133326771783053, -0.30133326771783053, 0.30133326771783053, -0.30133326771783053, 0.30133326771783053, -0.30133326771783053]}
    - {mu0: 0, rank: 3, ndensity: 1, num_ms_combs: 9, mus: [0, 0, 0], ns: [1, 1, 1], ls: [1, 1, 2], ms_combs: [-1, -1, 2, -1, 0, 1, -1, 1, 0, 0, -1, 1, 0, 0, 0, 0, 1, -1, 1, -1, 0, 1, 0, -1, 1, 1, -2], ctildes: [0.24487950117969287, -0.17315595676715642, 0.09997164539274583, -0.17315595676715642, 0.19994329078549167, -0.17315595676715642, 0.09997164539274583, -0.17315595676715642, 0.24487950117969287]}
    - {mu0: 0, rank: 3, ndensity: 1, num_ms_combs: 9, mus: [0, 0, 0], ns: [1, 1, 2], ls: [1, 1, 2], ms_combs: [-1, -1, 2, -1, 0, 1, -1, 1, 0, 0, -1, 1, 0, 0, 0, 0, 1, -1, 1, -1, 0, 1, 0, -1, 1, 1, -2], ctildes: [-0.8777767344916826, 0.6206818845866785, -0.3583508787459176, 0.6206818845866785, -0.7167017574918352, 0.6206818845866785, -0.3583508787459176, 0.6206818845866785, -0.8777767344916826]}
    - {mu0: 0, rank: 3, ndensity: 1, num_ms_combs: 9, mus: [0, 0, 0], ns: [1, 1, 3], ls: [1, 1, 2], ms_combs: [-1, -1, 2, -1, 0, 1, -1, 1, 0, 0, -1, 1, 0, 0, 0, 0, 1, -1, 1, -1, 0, 1, 0, -1, 1, 1, -2], ctildes: [0.17152227532369926, -0.12128456464292126, 0.07002368104725526, -0.12128456464292126, 0.14004736209451052, -0.12128456464292126, 0.07002368104725526, -0.12128456464292126, 0.17152227532369926]}
    - {mu0: 0, rank: 3, ndensity: 1, num_ms_combs: 9, mus: [0, 0, 0], ns: [1, 2, 1], ls: [1, 1, 2], ms_combs: [-1, -1, 2, -1, 0, 1, -1, 1, 0, 0, -1, 1, 0, 0, 0, 0, 1, -1, 1, -1, 0, 1, 0, -1, 1, 1, -2], ctildes: [0.4377096745309351, -0.30950748067731654, 0.17869424005021456, -0.30950748067731654, 0.3573884801004291, -0.30950748067731654, 0.17869424005021456, -0.30950748067731654, 0.4377096745309351]}
    - {mu0: 0, rank: 3, ndensity: 1, num_ms_combs: 9, mus: [0, 0, 0], ns: [1, 2, 2], ls: [1, 1, 2], ms_combs: [-1, -1, 2, -1, 0, 1, -1, 1, 0, 0, -1, 1, 0, 0, 0, 0, 1, -1, 1, -1, 0, 1, 0, -1, 1, 1, -2], ctildes: [0.29979671208798403, -0.21198828920820864, 0.12239150458240347, -0.21198828920820864, 0.24478300916480694, -0.21198828920820864, 0.12239150458240347, -0.21198828920820864, 0.29979671208798403]}
    - {mu0: 0, rank: 3, ndensity: 1, num_ms_combs: 9, mus: [0, 0, 0], ns: [1, 2, 3], ls: [1, 1, 2], ms_combs: [-1, -1, 2, -1, 0, 1, -1, 1, 0, 0, -1, 1, 0, 0, 0, 0, 1, -1, 1, -1, 0, 1, 0, -1, 1, 1, -2], ctildes: [0.1311063454965572, -0.09270618644409559, 0.05352394552250728, -0.09270618644409559, 0.10704789104501455, -0.09270618644409559, 0.05352394552250728, -0.09270618644409559, 0.1311063454965572]}
    - {mu0: 0, rank: 3, ndensity: 1, num_ms_combs: 9, mus: [0, 0, 0], ns: [1, 3, 1], ls: [1, 1, 2], ms_combs: [-1, -1, 2, -1, 0, 1, -1, 1, 0, 0, -1, 1, 0, 0, 0, 0, 1, -1, 1, -1, 0, 1, 0, -1, 1, 1, -2], ctildes: [-0.8259447519848641, 0.5840311380812746, -0.33719055887344157, 0.5840311380812746, -0.6743811177468831, 0.5840311380812746, -0.33719055887344157, 0.5840311380812746, -0.8259447519848641]}
    - {mu0: 0, rank: 3, ndensity: 1, num_ms_combs: 9, mus: [0, 0, 0], ns: [1, 3, 2], ls: [1, 1, 2], ms_combs: [-1, -1, 2, -1, 0, 1, -1, 1, 0, 0, -1, 1, 0, 0, 0, 0, 1, -1, 1, -1, 0, 1, 0, -1, 1, 1, -2], ctildes: [0.4799894441351661, -0.33940379262848885, 0.19595488503600927, -0.33940379262848885, 0.39190977007201855, -0.33940379262848885, 0.19595488503600927, -0.33940379262848885, 0.4799894441351661]}
    - {mu0: 0, rank: 3, ndensity: 1, num_ms_combs: 9, mus: [0, 0, 0], ns: [1, 3, 3], ls: [1, 1, 2], ms_combs: [-1, -1, 2, -1, 0, 1, -1, 1, 0, 0, -1, 1, 0, 0, 0, 0, 1, -1, 1, -1, 0, 1, 0, -1, 1, 1, -2], ctildes: [0.08642301901511394, -0.0611103031171528, 0.03528205247530935, -0.0611103031171528, 0.0705641049506187, -0.0611103031171528, 0.03528205247530935, -0.0611103031171528, 0.08642301901511394]}
    - {mu0: 0, rank: 3, ndensity: 1, num_ms_combs: 9, mus: [0, 0, 0], ns: [2, 2, 1], ls: [1, 1, 2], ms_combs: [-1, -1, 2, -1, 0, 1, -1, 1, 0, 0, -1, 1, 0, 0, 0, 0, 1, -1, 1, -1, 0, 1, 0, -1, 1, 1, -2], ctildes: [-0.42478567831604697, 0.30036883526574365, -0.17341804028491084, 0.30036883526574365, -0.3468360805698217, 0.30036883526574365, -0.17341804028491084, 0.30036883526574365, -0.42478567831604697]}
    - {mu0: 0, rank: 3, ndensity: 1, num_ms_combs: 9, mus: [0, 0, 0], ns: [2, 2, 2], ls: [1, 1, 2], ms_combs: [-1, -1, 2, -1, 0, 1, -1, 1, 0, 0, -1, 1, 0, 0, 0, 0, 1, -1, 1, -1, 0, 1, 0, -1, 1, 1, -2], ctildes: [-0.23814472180446525, 0.16839374857612652, -0.09722218301531076, 0.16839374857612652, -0.1944443660306215, 0.16839374857612652, -0.09722218301531076, 0.16839374857612652, -0.23814472180446525]}
    - {mu0: 0, rank: 3, ndensity: 1, num_ms_combs: 9, mus: [0, 0, 0], ns: [2, 2, 3], ls: [1, 1, 2], ms_combs: [-1, -1, 2, -1, 0, 1, -1, 1, 0, 0, -1, 1, 0, 0, 0, 0, 1, -1, 1, -1, 0, 1, 0, -1, 1, 1, -2], ctildes: [-1.1690239088861916, 0.8266247376840703, -0.4772520489130414, 0.8266247376840703, -0.9545040978260828, 0.8266247376840703, -0.4772520489130414, 0.8266247376840703, -1.1690239088861916]}
    - {mu0: 0, rank: 3, ndensity: 1, num_ms_combs: 9, mus: [0, 0, 0], ns: [2, 3, 1], ls: [1, 1, 2], ms_combs: [-1, -1, 2, -1, 0, 1, -1, 1, 0, 0, -1, 1, 0, 0, 0, 0, 1, -1, 1, -1, 0, 1, 0, -1, 1, 1, -2], ctildes: [0.21061658300020514, -0.14892841485195757, 0.08598386654699056, -0.14892841485195757, 0.1719677330939811, -0.14892841485195757, 0.08598386654699056, -0.14892841485195757, 0.21061658300020514]}
    - {mu0: 0, rank: 3, ndensity: 1, num_ms_combs: 9, mus: [0, 0, 0], ns: [2, 3, 2], ls: [1, 1, 2], ms_combs: [-1, -1, 2, -1, 0, 1, -1, 1, 0, 0, -1, 1, 0, 0, 0, 0, 1, -1, 1, -1, 0, 1, 0, -1, 1, 1, -2], ctildes: [0.2367531151996738, -0.16740973410396645, 0.09665406195433911, -0.16740973410396645, 0.19330812390867821, -0.16740973410396645, 0.09665406195433911, -0.16740973410396645, 0.2367531151996738]}
    - {mu0: 0, rank: 3, ndensity: 1, num_ms_combs: 9, mus: [0, 0, 0], ns: [2, 3, 3], ls: [1, 1, 2], ms_combs: [-1, -1, 2, -1, 0, 1, -1, 1, 0, 0, -1, 1, 0, 0, 0, 0, 1, -1, 1, -1, 0, 1, 0, -1, 1, 1, -2], ctildes: [-0.8126906285047538, 0.5746590574405827, -0.3317795852061401, 0.5746590574405827, -0.6635591704122802, 0.5746590574405827, -0.3317795852061401, 0.5746590574405827, -0.8126906285047538]}
    - {mu0: 0, rank: 3, ndensity: 1, num_ms_combs: 9, mus: [0, 0, 0], ns: [3, 3, 1], ls: [1, 1, 2], ms_combs: [-1, -1, 2, -1, 0, 1, -1, 1, 0, 0, -1, 1, 0, 0, 0, 0, 1, -1, 1, -1, 0, 1, 0, -1, 1, 1, -2], ctildes: [0.3336309032844158, -0.23591267536481883, 0.1362042563568282, -0.23591267536481883, 0.2724085127136564, -0.23591267536481883, 0.1362042563568282, -0.23591267536481883, 0.3336309032844158]}
    - {mu0: 0, rank: 3, ndensity: 1, num_ms_combs: 9, mus: [0, 0, 0], ns: [3, 3, 2], ls: [1, 1, 2], ms_combs: [-1, -1, 2, -1, 0, 1, -1, 1, 0, 0, -1, 1, 0, 0, 0, 0, 1, -1, 1, -1, 0, 1, 0, -1, 1, 1, -2], ctildes: [1.262989208769704, -0.8930682387768913, 0.5156132248952006, -0.8930682387768913, 1.0312264497904011, -0.8930682387768913, 0.5156132248952006, -0.8930682387768913, 1.262989208769704]}
    - {mu0: 0, rank: 3, ndensity: 1, num_ms_combs: 9, mus: [0, 0, 0], ns: [3, 3, 3], ls: [1, 1, 2], ms_combs: [-1, -1, 2, -1, 0, 1, -1, 1, 0, 0, -1, 1, 0, 0, 0, 0, 1, -1, 1, -1, 0, 1, 0, -1, 1, 1, -2], ctildes: [-0.1319326509752046, 0.09329047265444744, -0.05386128334743531, 0.09329047265444744, -0.10772256669487063, 0.09329047265444744, -0.05386128334743531, 0.09329047265444744, -0.1319326509752046]}
    - {mu0: 0, rank: 3, ndensity: 1, num_ms_combs: 15, mus: [0, 0, 0], ns: [1, 1, 1], ls: [1, 2, 3], ms_combs: [-1, -2, 3, -1, -1, 2, -1, 0, 1, -1, 1, 0, -1, 2, -1, 0, -2, 2, 0, -1, 1, 0, 0, 0, 0, 1, -1, 0, 2, -2, 1, -2, 1, 1, -1, 0, 1, 0, -1, 1, 1, -2, 1, 2, -3], ctildes: [0.07455677951853627, -0.060875359338881656, 0.04715384890505897, -0.03334280484399389, 0.01925047793026475, -0.043045375319819425, 0.054448573260488166, -0.057751435260486095, 0.054448573260488166, -0.043045375319819425, 0.01925047793026475, -0.03334280484399389, 0.04715384890505897, -0.060875359338881656, 0.07455677951853627]}
    - {mu0: 0, rank: 3, ndensity: 1, num_ms_combs: 15, mus: [0, 0, 0], ns: [1, 1, 2], ls: [1, 2, 3], ms_combs: [-1, -2, 3, -1, -1, 2, -1, 0, 1, -1, 1, 0, -1, 2, -1, 0, -2, 2, 0, -1, 1, 0, 0, 0, 0, 1, -1, 0, 2, -2, 1, -2, 1, 1, -1, 0, 1, 0, -1, 1, 1, -2, 1, 2, -3], ctildes: [0.38227151863382947, -0.31212340731628246, 0.2417697430974137, -0.17095701726301155, 0.09870208290045247, -0.22070455698236663, 0.2791716450488225, -0.2961062562368403, 0.2791716450488225, -0.22070455698236663, 0.09870208290045247, -0.17095701726301155, 0.2417697430974137, -0.31212340731628246, 0.38227151863382947]}
    - {mu0: 0, rank: 3, ndensity: 1, num_ms_combs: 15, mus: [0, 0, 0], ns: [1, 1, 3], ls: [1, 2, 3], ms_combs: [-1, -2, 3, -1, -1, 2, -1, 0, 1, -1, 1, 0, -1, 2, -1, 0, -2, 2, 0, -1, 1, 0, 0, 0, 0, 1, -1, 0, 2, -2, 1, -2, 1, 1, -1, 0, 1, 0, -1, 1, 1, -2, 1, 2, -3], ctildes: [0.05306430654870511, -0.04332682755453347, 0.03356081511845988, -0.02373107890202602, 0.013701145203658947, -0.030636690670190134, 0.038752690248857136, -0.041103436657000815, 0.038752690248857136, -0.030636690670190134, 0.013701145203658947, -0.02373107890202602, 0.03356081511845988, -0.04332682755453347, 0.05306430654870511]}
    - {mu0: 0, rank: 3, ndensity: 1, num_ms_combs: 15, mus: [0, 0, 0], ns: [1, 2, 1], ls: [1, 2, 3], ms_combs: [-1, -2, 3, -1, -1, 2, -1, 0, 1, -1, 1, 0, -1, 2, -1, 0, -2, 2, 0, -1, 1, 0, 0, 0, 0, 1, -1, 0, 2, -2, 1, -2, 1, 1, -1, 0, 1, 0, -1, 1, 1, -2, 1, 2, -3], ctildes: [0.1475420456311336, -0.12046758327531987, 0.09331378543656248, -0.06598280753984893, 0.03809519283893035, -0.08518343698130208, 0.10774947539883736, -0.11428558142519646, 0.10774947539883736, -0.08518343698130208, 0.03809519283893035, -0.06598280753984893, 0.09331378543656248, -0.12046758327531987, 0.1475420456311336]}
    - {mu0: 0, rank: 3, ndensity: 1, num_ms_combs: 15, mus: [0, 0, 0], ns: [1, 2, 2], ls: [1, 2, 3], ms_combs: [-1, -2, 3, -1, -1, 2, -1, 0, 1, -1, 1, 0, -1, 2, -1, 0, -2, 2, 0, -1, 1, 0, 0, 0, 0, 1, -1, 0, 2, -2, 1, -2, 1, 1, -1, 0, 1, 0, -1, 1, 1, -2, 1, 2, -3], ctildes: [0.2362263678639876, -0.19287803365304762, 0.14940267712180327, -0.1056436414442527, 0.06099338665750316, -0.13638535262396895, 0.17251534709199134, -0.18298016462909428, 0.17251534709199134, -0.13638535262396895, 0.06099338665750316, -0.1056436414442527, 0.14940267712180327, -0.19287803365304762, 0.2362263678639876]}
    - {mu0: 0, rank: 3, ndensity: 1, num_ms_combs: 15, mus: [0, 0, 0], ns: [1, 2, 3], ls: [1, 2, 3], ms_combs: [-1, -2, 3, -1, -1, 2, -1, 0, 1, -1, 1, 0, -1, 2, -1, 0, -2, 2, 0, -1, 1, 0, 0, 0, 0, 1, -1, 0, 2, -2, 1, -2, 1, 1, -1, 0, 1, 0, -1, 1, 1, -2, 1, 2, -3], ctildes: [0.2740409964216728, -0.22375355049512238, 0.17331874877785838, -0.12255485714306846, 0.07075708188671964, -0.15821763788838855, 0.20013124717025818, -0.21227125106216022, 0.20013124717025818, -0.15821763788838855, 0.07075708188671964, -0.12255485714306846, 0.17331874877785838, -0.22375355049512238, 0.2740409964216728]}
    - {mu0: 0, rank: 3, ndensity: 1, num_ms_combs: 15, mus: [0, 0, 0], ns: [1, 3, 1], ls: [1, 2, 3], ms_combs: [-1, -2, 3, -1, -1, 2, -1, 0, 1, -1, 1, 0, -1, 2, -1, 0, -2, 2, 0, -1, 1, 0, 0, 0, 0, 1, -1, 0, 2, -2, 1, -2, 1, 1, -1, 0, 1, 0, -1, 1, 1, -2, 1, 2, -3], ctildes: [-0.32219978142793715, 0.2630750362340741, -0.20377703957718168, 0.1440921201573395, -0.08319162685899767, 0.1860221244679859, -0.23530145101332733, 0.24957488692831875, -0.23530145101332733, 0.1860221244679859, -0.08319162685899767, 0.1440921201573395, -0.20377703957718168, 0.2630750362340741, -0.32219978142793715]}
    - {mu0: 0, rank: 3, ndensity: 1, num_ms_combs: 15, mus: [0, 0, 0], ns: [1, 3, 2], ls: [1, 2, 3], ms_combs: [-1, -2, 3, -1, -1, 2, -1, 0, 1, -1, 1, 0, -1, 2, -1, 0, -2, 2, 0, -1, 1, 0, 0, 0, 0, 1, -1, 0, 2, -2, 1, -2, 1, 1, -1, 0, 1, 0, -1, 1, 1, -2, 1, 2, -3], ctildes: [0.2421451303245437, -0.197710683265257, 0.1531460312818446, -0.10829059243804146, 0.06252160457218772, -0.1398025516122937, 0.17683780004028282, -0.1875648184898209, 0.17683780004028282, -0.1398025516122937, 0.06252160457218772, -0.10829059243804146, 0.1531460312818446, -0.197710683265257, 0.2421451303245437]}
    - {mu0: 0, rank: 3, ndensity: 1, num_ms_combs: 15, mus: [0, 0, 0], ns: [1, 3, 3], ls: [1, 2, 3], ms_combs: [-1, -2, 3, -1, -1, 2, -1, 0, 1, -1, 1, 0, -1, 2, -1, 0, -2, 2, 0, -1, 1, 0, 0, 0, 0, 1, -1, 0, 2, -2, 1, -2, 1, 1, -1, 0, 1, 0, -1, 1, 1, -2, 1, 2, -3], ctildes: [-0.36035441944888913, 0.29422816965761395, -0.2279081521049148, 0.1611553927080207, -0.09304311215520694, 0.2080507142811417, -0.26316565889525056, 0.27912934356906544, -0.26316565889525056, 0.2080507142811417, -0.09304311215520694, 0.1611553927080207, -0.2279081521049148, 0.29422816965761395, -0.36035441944888913]}
    - {mu0: 0, rank: 3, ndensity: 1, num_ms_combs: 15, mus: [0, 0, 0], ns: [2, 1, 1], ls: [1, 2, 3], ms_combs: [-1, -2, 3, -1, -1, 2, -1, 0, 1, -1, 1, 0, -1, 2, -1, 0, -2, 2, 0, -1, 1, 0, 0, 0, 0, 1, -1, 0, 2, -2, 1, -2, 1, 1, -1, 0, 1, 0, -1, 1, 1, -2, 1, 2, -3], ctildes: [0.2174296181159219, -0.1775305507989626, 0.13751456844476292, -0.09723747955530836, 0.056140086682336096, -0.12553304445128227, 0.15878814196958974, -0.16842026433306434, 0.15878814196958974, -0.12553304445128227, 0.056140086682336096, -0.09723747955530836, 0.13751456844476292, -0.1775305507989626, 0.2174296181159219]}
    - {mu0: 0, rank: 3, ndensity: 1, num_ms_combs: 15, mus: [0, 0, 0], ns: [2, 1, 2], ls: [1, 2, 3], ms_combs: [-1, -2, 3, -1, -1, 2, -1, 0, 1, -1, 1, 0, -1, 2, -1, 0, -2, 2, 0, -1, 1, 0, 0, 0, 0, 1, -1, 0, 2, -2, 1, -2, 1, 1, -1, 0, 1, 0, -1, 1, 1, -2, 1, 2, -3], ctildes: [0.3106369062481134, -0.2536339875982836, 0.19646403500994564, -0.1389210452658808, 0.08020610528876591, -0.17934629558822598, 0.2268571209283082, -0.24061832198969163, 0.2268571209283082, -0.17934629558822598, 0.08020610528876591, -0.1389210452658808, 0.19646403500994564, -0.2536339875982836, 0.3106369062481134]}
    - {mu0: 0, rank: 3, ndensity: 1, num_ms_combs: 15, mus: [0, 0, 0], ns: [2, 1, 3], ls: [1, 2, 3], ms_combs: [-1, -2, 3, -1, -1, 2, -1, 0, 1, -1, 1, 0, -1, 2, -1, 0, -2, 2, 0, -1, 1, 0, 0, 0, 0, 1, -1, 0, 2, -2, 1, -2, 1, 1, -1, 0, 1, 0, -1, 1, 1, -2, 1, 2, -3], ctildes: [0.48275660712424484, -0.39416914359345806, 0.30532209488200895, -0.21589531418119304, 0.12464722150216091, -0.27871964797807963, 0.35255557790628655, -0.3739416740227662, 0.35255557790628655, -0.27871964797807963, 0.12464722150216091, -0.21589531418119304, 0.30532209488200895, -0.39416914359345806, 0.48275660712424484]}
    - {mu0: 0, rank: 3, ndensity: 1, num_ms_combs: 15, mus: [0, 0, 0], ns: [2, 2, 1], ls: [1, 2, 3], ms_combs: [-1, -2, 3, -1, -1, 2, -1, 0, 1, -1, 1, 0, -1, 2, -1, 0, -2, 2, 0, -1, 1, 0, 0, 0, 0, 1, -1, 0, 2, -2, 1, -2, 1, 1, -1, 0, 1, 0, -1, 1, 1, -2, 1, 2, -3], ctildes: [-0.2001590423590706, 0.16342918386792027, -0.1265916969768574, 0.08951384341218688, -0.05168084314208133, 0.11556187321449071, -0.14617549674241845, 0.15504253337185583, -0.14617549674241845, 0.11556187321449071, -0.05168084314208133, 0.08951384341218688, -0.1265916969768574, 0.16342918386792027, -0.2001590423590706]}
    - {mu0: 0, rank: 3, ndensity: 1, num_ms_combs: 15, mus: [0, 0, 0], ns: [2, 2, 2], ls: [1, 2, 3], ms_combs: [-1, -2, 3, -1, -1, 2, -1, 0, 1, -1, 1, 0, -1, 2, -1, 0, -2, 2, 0, -1, 1, 0, 0, 0, 0, 1, -1, 0, 2, -2, 1, -2, 1, 1, -1, 0, 1, 0, -1, 1, 1, -2, 1, 2, -3], ctildes: [0.10596410938250314, -0.08651933837996172, 0.06701758894963318, -0.047388589507544605, 0.02735981573025009, -0.06117840507939625, 0.0773852439704852, -0.08207944927955545, 0.0773852439704852, -0.06117840507939625, 0.02735981573025009, -0.047388589507544605, 0.06701758894963318, -0.08651933837996172, 0.10596410938250314]}
    - {mu0: 0, rank: 3, ndensity: 1, num_ms_combs: 15, mus: [0, 0, 0], ns: [2, 2, 3], ls: [1, 2, 3], ms_combs: [-1, -2, 3, -1, -1, 2, -1, 0, 1, -1, 1, 0, -1, 2, -1, 0, -2, 2, 0, -1, 1, 0, 0, 0, 0, 1, -1, 0, 2, -2, 1, -2, 1, 1, -1, 0, 1, 0, -1, 1, 1, -2, 1, 2, -3], ctildes: [0.007713646594306198, -0.006298166461505837, 0.004878538589834171, -0.0034496475664637055, 0.0019916550109119915, -0.004453475792282663, 0.005633250985461041, -0.005974965184790336, 0.005633250985461041, -0.004453475792282663, 0.0019916550109119915, -0.0034496475664637055, 0.004878538589834171, -0.006298166461505837, 0.007713646594306198]}
    - {mu0: 0, rank: 3, ndensity: 1, num_ms_combs: 15, mus: [0, 0, 0], ns: [2, 3, 1], ls: [1, 2, 3], ms_combs: [-1, -2, 3, -1, -1, 2, -1, 0, 1, -1, 1, 0, -1, 2, -1, 0, -2, 2, 0, -1, 1, 0, 0, 0, 0, 1, -1, 0, 2, -2, 1, -2, 1, 1, -1, 0, 1, 0, -1, 1, 1, -2, 1, 2, -3], ctildes: [-0.26380431519293146, 0.2153953347532222, -0.16684450293373213, 0.11797687420624862, -0.06811398212643498, 0.1523074874182899, -0.19265543220847042, 0.20434195157951682, -0.19265543220847042, 0.1523074874182899, -0.06811398212643498, 0.11797687420624862, -0.16684450293373213, 0.2153953347532222, -0.26380431519293146]}
    - {mu0: 0, rank: 3, ndensity: 1, num_ms_combs: 15, mus: [0, 0, 0], ns: [2, 3, 2], ls: [1, 2, 3], ms_combs: [-1, -2, 3, -1, -1, 2, -1, 0, 1, -1, 1, 0, -1, 2, -1, 0, -2, 2, 0, -1, 1, 0, 0, 0, 0, 1, -1, 0, 2, -2, 1, -2, 1, 1, -1, 0, 1, 0, -1, 1, 1, -2, 1, 2, -3], ctildes: [0.2538093695812937, -0.2072344953284217, 0.16052314412197877, -0.11350699872199012, 0.0655332982348622, -0.14653690306724285, 0.18535615598055136, -0.19659989970777428, 0.18535615598055136, -0.14653690306724285, 0.0655332982348622, -0.11350699872199012, 0.16052314412197877, -0.2072344953284217, 0.2538093695812937]}
    - {mu0: 0, rank: 3, ndensity: 1, num_ms_combs: 15, mus: [0, 0, 0], ns: [2, 3, 3], ls: [1, 2, 3], ms_combs: [-1, -2, 3, -1, -1, 2, -1, 0, 1, -1, 1, 0, -1, 2, -1, 0, -2, 2, 0, -1, 1, 0, 0, 0, 0, 1, -1, 0, 2, -2, 1, -2, 1, 1, -1, 0, 1, 0, -1, 1, 1, -2, 1, 2, -3], ctildes: [0.0835596569429185, -0.06822617843048306, 0.05284776868702249, -0.03736901395514446, 0.02157501091420165, -0.048243188854596816, 0.06102334532229375, -0.06472503438976497, 0.06102334532229375, -0.048243188854596816, 0.02157501091420165, -0.03736901395514446, 0.05284776868702249, -0.06822617843048306, 0.0835596569429185]}
    - {mu0: 0, rank: 3, ndensity: 1, num_ms_combs: 15, mus: [0, 0, 0], ns: [3, 1, 1], ls: [1, 2, 3], ms_combs: [-1, -2, 3, -1, -1, 2, -1, 0, 1, -1, 1, 0, -1, 2, -1, 0, -2, 2, 0, -1, 1, 0, 0, 0, 0, 1, -1, 0, 2, -2, 1, -2, 1, 1, -1, 0, 1, 0, -1, 1, 1, -2, 1, 2, -3], ctildes: [-0.008647285431184969, 0.007060479426936436, -0.0054690236527670626, 0.0038671835401719416, -0.0022327195249674087, 0.004992512408484877, -0.006315084387291281, 0.006698158745360835, -0.006315084387291281, 0.004992512408484877, -0.0022327195249674087, 0.0038671835401719416, -0.0054690236527670626, 0.007060479426936436, -0.008647285431184969]}
    - {mu0: 0, rank: 3, ndensity: 1, num_ms_combs: 15, mus: [0, 0, 0], ns: [3, 1, 2], ls: [1, 2, 3], ms_combs: [-1, -2, 3, -1, -1, 2, -1, 0, 1, -1, 1, 0, -1, 2, -1, 0, -2, 2, 0, -1, 1, 0, 0, 0, 0, 1, -1, 0, 2, -2, 1, -2, 1, 1, -1, 0, 1, 0, -1, 1, 1, -2, 1, 2, -3], ctildes: [-0.23960274740538207, 0.19563483617555646, -0.151538087097518, 0.10715360425186002, -0.06186516411711905, 0.13833470619744714, -0.1749811060746352, 0.18559549707449843, -0.1749811060746352, 0.13833470619744714, -0.06186516411711905, 0.10715360425186002, -0.151538087097518, 0.19563483617555646, -0.23960274740538207]}
    - {mu0: 0, rank: 3, ndensity: 1, num_ms_combs: 15, mus: [0, 0, 0], ns: [3, 1, 3], ls: [1, 2, 3], ms_combs: [-1, -2, 3, -1, -1, 2, -1, 0, 1, -1, 1, 0, -1, 2, -1, 0, -2, 2, 0, -1, 1, 0, 0, 0, 0, 1, -1, 0, 2, -2, 1, -2, 1, 1, -1, 0, 1, 0, -1, 1, 1, -2, 1, 2, -3], ctildes: [-0.47039002314873674, 0.38407186943321425, -0.2975007802273456, 0.21036480979587804, -0.12145418321066527, 0.2715797976239282, -0.343524301905356, 0.3643625589045044, -0.343524301905356, 0.2715797976239282, -0.12145418321066527, 0.21036480979587804, -0.2975007802273456, 0.38407186943321425, -0.47039002314873674]}
    - {mu0: 0, rank: 3, ndensity: 1, num_ms_combs: 15, mus: [0, 0, 0], ns: [3, 2, 1], ls: [1, 2, 3], ms_combs: [-1, -2, 3, -1, -1, 2, -1, 0, 1, -1, 1, 0, -1, 2, -1, 0, -2, 2, 0, -1, 1, 0, 0, 0, 0, 1, -1, 0, 2, -2, 1, -2, 1, 1, -1, 0, 1, 0, -1, 1, 1, -2, 1, 2, -3], ctildes: [-0.15656269689538735, 0.12783291464730676, -0.09901894638217572, 0.07001696535369283, -0.04042431500864475, 0.09039151224697888, -0.11433722763801399, 0.1212729481121582, -0.11433722763801399, 0.09039151224697888, -0.04042431500864475, 0.07001696535369283, -0.09901894638217572, 0.12783291464730676, -0.15656269689538735]}
    - {mu0: 0, rank: 3, ndensity: 1, num_ms_combs: 15, mus: [0, 0, 0], ns: [3, 2, 2], ls: [1, 2, 3], ms_combs: [-1, -2, 3, -1, -1, 2, -1, 0, 1, -1, 1, 0, -1, 2, -1, 0, -2, 2, 0, -1, 1, 0, 0, 0, 0, 1, -1, 0, 2, -2, 1, -2, 1, 1, -1, 0, 1, 0, -1, 1, 1, -2, 1, 2, -3], ctildes: [-0.06659277086285934, 0.05437277309758935, -0.04211696744030891, 0.0297811919618804, -0.017194179712281363, 0.03844735292872789, -0.048632483677005296, 0.05158254044954634, -0.048632483677005296, 0.03844735292872789, -0.017194179712281363, 0.0297811919618804, -0.04211696744030891, 0.05437277309758935, -0.06659277086285934]}
    - {mu0: 0, rank: 3, ndensity: 1, num_ms_combs: 15, mus: [0, 0, 0], ns: [3, 2, 3], ls: [1, 2, 3], ms_combs: [-1, -2, 3, -1, -1, 2, -1, 0, 1, -1, 1, 0, -1, 2, -1, 0, -2, 2, 0, -1, 1, 0, 0, 0, 0, 1, -1, 0, 2, -2, 1, -2, 1, 1, -1, 0, 1, 0, -1, 1, 1, -2, 1, 2, -3], ctildes: [-0.231472650528171, 0.18899663946083523, -0.14639616221547305, 0.10351771446034594, -0.059765982104210955, 0.13364079273007382, -0.16904372280389407, 0.17929795087551056, -0.16904372280389407, 0.13364079273007382, -0.059765982104210955, 0.10351771446034594, -0.14639616221547305, 0.18899663946083523, -0.231472650528171]}
    - {mu0: 0, rank: 3, ndensity: 1, num_ms_combs: 15, mus: [0, 0, 0], ns: [3, 3, 1], ls: [1, 2, 3], ms_combs: [-1, -2, 3, -1, -1, 2, -1, 0, 1, -1, 1, 0, -1, 2, -1, 0, -2, 2, 0, -1, 1, 0, 0, 0, 0, 1, -1, 0, 2, -2, 1, -2, 1, 1, -1, 0, 1, 0, -1, 1, 1, -2, 1, 2, -3], ctildes: [0.5520053815165081, -0.4507105346262897, 0.34911886649204704, -0.24686430700997994, 0.14252717838528672, -0.31870044520942165, 0.40312773231055166, -0.42758154603720205, 0.40312773231055166, -0.31870044520942165, 0.14252717838528672, -0.24686430700997994, 0.34911886649204704, -0.4507105346262897, 0.5520053815165081]}
    - {mu0: 0, rank: 3, ndensity: 1, num_ms_combs: 15, mus: [0, 0, 0], ns: [3, 3, 2], ls: [1, 2, 3], ms_combs: [-1, -2, 3, -1, -1, 2, -1, 0, 1, -1, 1, 0, -1, 2, -1, 0, -2, 2, 0, -1, 1, 0, 0, 0, 0, 1, -1, 0, 2, -2, 1, -2, 1, 1, -1, 0, 1, 0, -1, 1, 1, -2, 1, 2, -3], ctildes: [0.09147388998874344, -0.074688123053996, 0.057853169291128145, -0.040908366508204, 0.023618457124827567, -0.052812473284879306, 0.0668030839400145, -0.07085537317765112, 0.0668030839400145, -0.052812473284879306, 0.023618457124827567, -0.040908366508204, 0.057853169291128145, -0.074688123053996, 0.09147388998874344]}
    - {mu0: 0, rank: 3, ndensity: 1, num_ms_combs: 15, mus: [0, 0, 0], ns: [3, 3, 3], ls: [1, 2, 3], ms_combs: [-1, -2, 3, -1, -1, 2, -1, 0, 1, -1, 1, 0, -1, 2, -1, 0, -2, 2, 0, -1, 1, 0, 0, 0, 0, 1, -1, 0, 2, -2, 1, -2, 1, 1, -1, 0, 1, 0, -1, 1, 1, -2, 1, 2, -3], ctildes: [0.023391357444069817, -0.019098964561337455, 0.01479399380880808, -0.010460932880018202, 0.0060396225956091355, -0.01350500607620404, 0.017082632158743557, -0.01811886824792682, 0.017082632158743557, -0.01350500607620404, 0.0060396225956091355, -0.010460932880018202, 0.01479399380880808, -0.019098964561337455, 0.023391357444069817]}
    - {mu0: 0, rank: 3, ndensity: 1, num_ms_combs: 19, mus: [0, 0, 0], ns: [1, 1, 1], ls: [2, 2, 2], ms_combs: [-2, 0, 2, -2, 1, 1, -2, 2, 0, -1, -1, 2, -1, 0, 1, -1, 1, 0, -1, 2, -1, 0, -2, 2, 0, -1, 1, 0, 0, 0, 0, 1, -1, 0, 2, -2, 1, -2, 1, 1, -1, 0, 1, 0, -1, 1, 1, -2, 2, -2, 0, 2, -1, -1, 2, 0, -2], ctildes: [0.1217061358717616, -0.14905896739741809, 0.1217061358717616, -0.14905896739741809, 0.0608530679358808, 0.0608530679358808, -0.14905896739741809, 0.1217061358717616, 0.0608530679358808, -0.1217061358717616, 0.0608530679358808, 0.1217061358717616, -0.14905896739741809, 0.0608530679358808, 0.0608530679358808, -0.14905896739741809, 0.1217061358717616, -0.14905896739741809, 0.1217061358717616]}
    - {mu0: 0, rank: 3, ndensity: 1, num_ms_combs: 19, mus: [0, 0, 0], ns: [1, 1, 2], ls: [2, 2, 2], ms_combs: [-2, 0, 2, -2, 1, 1, -2, 2, 0, -1, -1, 2, -1, 0, 1, -1, 1, 0, -1, 2, -1, 0, -2, 2, 0, -1, 1, 0, 0, 0, 0, 1, -1, 0, 2, -2, 1, -2, 1, 1, -1, 0, 1, 0, -1, 1, 1, -2, 2, -2, 0, 2, -1, -1, 2, 0, -2], ctildes: [-0.23054328948511452, 0.28235671459706996, -0.23054328948511452, 0.28235671459706996, -0.11527164474255726, -0.11527164474255726, 0.28235671459706996, -0.23054328948511452, -0.11527164474255726, 0.23054328948511452, -0.11527164474255726, -0.23054328948511452, 0.28235671459706996, -0.11527164474255726, -0.11527164474255726, 0.28235671459706996, -0.23054328948511452, 0.28235671459706996, -0.23054328948511452]}
    - {mu0: 0, rank: 3, ndensity: 1, num_ms_combs: 19, mus: [0, 0, 0], ns: [1, 1, 3], ls: [2, 2, 2], ms_combs: [-2, 0, 2, -2, 1, 1, -2, 2, 0, -1, -1, 2, -1, 0, 1, -1, 1, 0, -1, 2, -1, 0, -2, 2, 0, -1, 1, 0, 0, 0, 0, 1, -1, 0, 2, -2, 1, -2, 1, 1, -1, 0, 1, 0, -1, 1, 1, -2, 2, -2, 0, 2, -1, -1, 2, 0, -2], ctildes: [-0.36905916858903887, 0.45200332903836465, -0.36905916858903887, 0.45200332903836465, -0.18452958429451943, -0.18452958429451943, 0.45200332903836465, -0.36905916858903887, -0.18452958429451943, 0.36905916858903887, -0.18452958429451943, -0.36905916858903887, 0.45200332903836465, -0.18452958429451943, -0.18452958429451943, 0.45200332903836465, -0.36905916858903887, 0.45200332903836465, -0.36905916858903887]}
    - {mu0: 0, rank: 3, ndensity: 1, num_ms_combs: 19, mus: [0, 0, 0], ns: [1, 2, 2], ls: [2, 2, 2], ms_combs: [-2, 0, 2, -2, 1, 1, -2, 2, 0, -1, -1, 2, -1, 0, 1, -1, 1, 0, -1, 2, -1, 0, -2, 2, 0, -1, 1, 0, 0, 0, 0, 1, -1, 0, 2, -2, 1, -2, 1, 1, -1, 0, 1, 0, -1, 1, 1, -2, 2, -2, 0, 2, -1, -1, 2, 0, -2], ctildes: [0.1575568628248947, -0.19296696186132498, 0.1575568628248947, -0.19296696186132498, 0.07877843141244735, 0.07877843141244735, -0.19296696186132498, 0.1575568628248947, 0.07877843141244735, -0.1575568628248947, 0.07877843141244735, 0.1575568628248947, -0.19296696186132498, 0.07877843141244735, 0.07877843141244735, -0.19296696186132498, 0.1575568628248947, -0.19296696186132498, 0.1575568628248947]}
    - {mu0: 0, rank: 3, ndensity: 1, num_ms_combs: 19, mus: [0, 0, 0], ns: [1, 2, 3], ls: [2, 2, 2], ms_combs: [-2, 0, 2, -2, 1, 1, -2, 2, 0, -1, -1, 2, -1, 0, 1, -1, 1, 0, -1, 2, -1, 0, -2, 2, 0, -1, 1, 0, 0, 0, 0, 1, -1, 0, 2, -2, 1, -2, 1, 1, -1, 0, 1, 0, -1, 1, 1, -2, 2, -2, 0, 2, -1, -1, 2, 0, -2], ctildes: [0.17992343596709567, -0.2203603079150373, 0.17992343596709567, -0.2203603079150373, 0.08996171798354784, 0.08996171798354784, -0.2203603079150373, 0.17992343596709567, 0.08996171798354784, -0.17992343596709567, 0.08996171798354784, 0.17992343596709567, -0.2203603079150373, 0.08996171798354784, 0.08996171798354784, -0.2203603079150373, 0.17992343596709567, -0.2203603079150373, 0.17992343596709567]}
    - {mu0: 0, rank: 3, ndensity: 1, num_ms_combs: 19, mus: [0, 0, 0], ns: [1, 3, 3], ls: [2, 2, 2], ms_combs: [-2, 0, 2, -2, 1, 1, -2, 2, 0, -1, -1, 2, -1, 0, 1, -1, 1, 0, -1, 2, -1, 0, -2, 2, 0, -1, 1, 0, 0, 0, 0, 1, -1, 0, 2, -2, 1, -2, 1, 1, -1, 0, 1, 0, -1, 1, 1, -2, 2, -2, 0, 2, -1, -1, 2, 0, -2], ctildes: [0.4557172975621103, -0.5581374292527431, 0.4557172975621103, -0.5581374292527431, 0.22785864878105516, 0.22785864878105516, -0.5581374292527431, 0.4557172975621103, 0.22785864878105516, -0.4557172975621103, 0.22785864878105516, 0.4557172975621103, -0.5581374292527431, 0.22785864878105516, 0.22785864878105516, -0.5581374292527431, 0.4557172975621103, -0.5581374292527431, 0.4557172975621103]}
    - {mu0: 0, rank: 3, ndensity: 1, num_ms_combs: 19, mus: [0, 0, 0], ns: [2, 2, 2], ls: [2, 2, 2], ms_combs: [-2, 0, 2, -2, 1, 1, -2, 2, 0, -1, -1, 2, -1, 0, 1, -1, 1, 0, -1, 2, -1, 0, -2, 2, 0, -1, 1, 0, 0, 0, 0, 1, -1, 0, 2, -2, 1, -2, 1, 1, -1, 0, 1, 0, -1, 1, 1, -2, 2, -2, 0, 2, -1, -1, 2, 0, -2], ctildes: [0.08820546891250264, -0.10802919689074836, 0.08820546891250264, -0.10802919689074836, 0.04410273445625132, 0.04410273445625132, -0.10802919689074836, 0.08820546891250264, 0.04410273445625132, -0.08820546891250264, 0.04410273445625132, 0.08820546891250264, -0.10802919689074836, 0.04410273445625132, 0.04410273445625132, -0.10802919689074836, 0.08820546891250264, -0.10802919689074836, 0.08820546891250264]}
    - {mu0: 0, rank: 3, ndensity: 1, num_ms_combs: 19, mus: [0, 0, 0], ns: [2, 2, 3], ls: [2, 2, 2], ms_combs: [-2, 0, 2, -2, 1, 1, -2, 2, 0, -1, -1, 2, -1, 0, 1, -1, 1, 0, -1, 2, -1, 0, -2, 2, 0, -1, 1, 0, 0, 0, 0, 1, -1, 0, 2, -2, 1, -2, 1, 1, -1, 0, 1, 0, -1, 1, 1, -2, 2, -2, 0, 2, -1, -1, 2, 0, -2], ctildes: [0.048368923684670995, -0.0592395918818618, 0.048368923684670995, -0.0592395918818618, 0.024184461842335497, 0.024184461842335497, -0.0592395918818618, 0.048368923684670995, 0.024184461842335497, -0.048368923684670995, 0.024184461842335497, 0.048368923684670995, -0.0592395918818618, 0.024184461842335497, 0.024184461842335497, -0.0592395918818618, 0.048368923684670995, -0.0592395918818618, 0.048368923684670995]}
    - {mu0: 0, rank: 3, ndensity: 1, num_ms_combs: 19, mus: [0, 0, 0], ns: [2, 3, 3], ls: [2, 2, 2], ms_combs: [-2, 0, 2, -2, 1, 1, -2, 2, 0, -1, -1, 2, -1, 0, 1, -1, 1, 0, -1, 2, -1, 0, -2, 2, 0, -1, 1, 0, 0, 0, 0, 1, -1, 0, 2, -2, 1, -2, 1, 1, -1, 0, 1, 0, -1, 1, 1, -2, 2, -2, 0, 2, -1, -1, 2, 0, -2], ctildes: [-0.09446356320583167, 0.11569376586714075, -0.09446356320583167, 0.11569376586714075, -0.047231781602915836, -0.047231781602915836, 0.11569376586714075, -0.09446356320583167, -0.047231781602915836, 0.09446356320583167, -0.047231781602915836, -0.09446356320583167, 0.11569376586714075, -0.047231781602915836, -0.047231781602915836, 0.11569376586714075, -0.09446356320583167, 0.11569376586714075, -0.09446356320583167]}
    - {mu0: 0, rank: 3, ndensity: 1, num_ms_combs: 19, mus: [0, 0, 0], ns: [3, 3, 3], ls: [2, 2, 2], ms_combs: [-2, 0, 2, -2, 1, 1, -2, 2, 0, -1, -1, 2, -1, 0, 1, -1, 1, 0, -1, 2, -1, 0, -2, 2, 0, -1, 1, 0, 0, 0, 0, 1, -1, 0, 2, -2, 1, -2, 1, 1, -1, 0, 1, 0, -1, 1, 1, -2, 2, -2, 0, 2, -1, -1, 2, 0, -2], ctildes: [-0.18944781897159446, 0.23202524728378043, -0.18944781897159446, 0.23202524728378043, -0.09472390948579723, -0.09472390948579723, 0.23202524728378043, -0.18944781897159446, -0.09472390948579723, 0.18944781897159446, -0.09472390948579723, -0.18944781897159446, 0.23202524728378043, -0.09472390948579723, -0.09472390948579723, 0.23202524728378043, -0.18944781897159446, 0.23202524728378043, -0.18944781897159446]}
    - {mu0: 0, rank: 3, ndensity: 1, num_ms_combs: 29, mus: [0, 0, 0], ns: [1, 1, 1], ls: [2, 3, 3], ms_combs: [-2, -1, 3, -2, 0, 2, -2, 1, 1, -2, 2, 0, -2, 3, -1, -1, -2, 3, -1, -1, 2, -1, 0, 1, -1, 1, 0, -1, 2, -1, -1, 3, -2, 0, -3, 3, 0, -2, 2, 0, -1, 1, 0, 0, 0, 0, 1, -1, 0, 2, -2, 0, 3, -3, 1, -3, 2, 1, -2, 1, 1, -1, 0, 1, 0, -1, 1, 1, -2, 1, 2, -3, 2, -3, 1, 2, -2, 0, 2, -1, -1, 2, 0, -2, 2, 1, -3], ctildes: [0.09560372800642715, -0.13520407595794212, 0.14810865329204115, -0.13520407595794212, 0.09560372800642715, -0.1511627568136312, 0.11709016829692274, -0.04275528427976721, -0.04275528427976721, 0.11709016829692274, -0.1511627568136312, 0.1511627568136312, -0.0, -0.09069765778118083, 0.12093020729740601, -0.09069765778118083, -0.0, 0.1511627568136312, -0.1511627568136312, 0.11709016829692274, -0.04275528427976721, -0.04275528427976721, 0.11709016829692274, -0.1511627568136312, 0.09560372800642715, -0.13520407595794212, 0.14810865329204115, -0.13520407595794212, 0.09560372800642715]}
    - {mu0: 0, rank: 3, ndensity: 1, num_ms_combs: 29, mus: [0, 0, 0], ns: [1, 1, 2], ls: [2, 3, 3], ms_combs: [-2, -1, 3, -2, 0, 2, -2, 1, 1, -2, 2, 0, -2, 3, -1, -1, -2, 3, -1, -1, 2, -1, 0, 1, -1, 1, 0, -1, 2, -1, -1, 3, -2, 0, -3, 3, 0, -2, 2, 0, -1, 1, 0, 0, 0, 0, 1, -1, 0, 2, -2, 0, 3, -3, 1, -3, 2, 1, -2, 1, 1, -1, 0, 1, 0, -1, 1, 1, -2, 1, 2, -3, 2, -3, 1, 2, -2, 0, 2, -1, -1, 2, 0, -2, 2, 1, -3], ctildes: [-0.02890059013829868, 0.04087160266412623, -0.044772600127485636, 0.04087160266412623, -0.02890059013829868, 0.04569584230598599, -0.035395847355934526, 0.012924736022144737, 0.012924736022144737, -0.035395847355934526, 0.04569584230598599, -0.04569584230598599, 0.0, 0.02741750649997003, -0.03655667440297801, 0.02741750649997003, 0.0, -0.04569584230598599, 0.04569584230598599, -0.035395847355934526, 0.012924736022144737, 0.012924736022144737, -0.035395847355934526, 0.04569584230598599, -0.02890059013829868, 0.04087160266412623, -0.044772600127485636, 0.04087160266412623, -0.02890059013829868]}
    - {mu0: 0, rank: 3, ndensity: 1, num_ms_combs: 29, mus: [0, 0, 0], ns: [1, 1, 3], ls: [2, 3, 3], ms_combs: [-2, -1, 3, -2, 0, 2, -2, 1, 1, -2, 2, 0, -2, 3, -1, -1, -2, 3, -1, -1, 2, -1, 0, 1, -1, 1, 0, -1, 2, -1, -1, 3, -2, 0, -3, 3, 0, -2, 2, 0, -1, 1, 0, 0, 0, 0, 1, -1, 0, 2, -2, 0, 3, -3, 1, -3, 2, 1, -2, 1, 1, -1, 0, 1, 0, -1, 1, 1, -2, 1, 2, -3, 2, -3, 1, 2, -2, 0, 2, -1, -1, 2, 0, -2, 2, 1, -3], ctildes: [-0.12012503474620821, 0.16988243723283375, -0.1860968969925992, 0.16988243723283375, -0.12012503474620821, 0.18993434454092972, -0.1471225111029314, 0.053721545349630806, 0.053721545349630806, -0.1471225111029314, 0.18993434454092972, -0.18993434454092972, 0.0, 0.11396061136477446, -0.1519474779528521, 0.11396061136477446, 0.0, -0.18993434454092972, 0.18993434454092972, -0.1471225111029314, 0.053721545349630806, 0.053721545349630806, -0.1471225111029314, 0.18993434454092972, -0.12012503474620821, 0.16988243723283375, -0.1860968969925992, 0.16988243723283375, -0.12012503474620821]}
    - {mu0: 0, rank: 3, ndensity: 1, num_ms_combs: 29, mus: [0, 0, 0], ns: [1, 2, 2], ls: [2, 3, 3], ms_combs: [-2, -1, 3, -2, 0, 2, -2, 1, 1, -2, 2, 0, -2, 3, -1, -1, -2, 3, -1, -1, 2, -1, 0, 1, -1, 1, 0, -1, 2, -1, -1, 3, -2, 0, -3, 3, 0, -2, 2, 0, -1, 1, 0, 0, 0, 0, 1, -1, 0, 2, -2, 0, 3, -3, 1, -3, 2, 1, -2, 1, 1, -1, 0, 1, 0, -1, 1, 1, -2, 1, 2, -3, 2, -3, 1, 2, -2, 0, 2, -1, -1, 2, 0, -2, 2, 1, -3], ctildes: [0.08890287937150568, -0.12572764583632917, 0.13772774359398718, -0.12572764583632917, 0.08890287937150568, -0.1405677855319936, 0.10888333880652448, -0.03975857385564548, -0.03975857385564548, 0.10888333880652448, -0.1405677855319936, 0.1405677855319936, -0.0, -0.0843406747533564, 0.11245423014267499, -0.0843406747533564, -0.0, 0.1405677855319936, -0.1405677855319936, 0.10888333880652448, -0.03975857385564548, -0.03975857385564548, 0.10888333880652448, -0.1405677855319936, 0.08890287937150568, -0.12572764583632917, 0.13772774359398718, -0.12572764583632917, 0.08890287937150568]}
    - {mu0: 0, rank: 3, ndensity: 1, num_ms_combs: 29, mus: [0, 0, 0], ns: [1, 2, 3], ls: [2, 3, 3], ms_combs: [-2, -1, 3, -2, 0, 2, -2, 1, 1, -2, 2, 0, -2, 3, -1, -1, -2, 3, -1, -1, 2, -1, 0, 1, -1, 1, 0, -1, 2, -1, -1, 3, -2, 0, -3, 3, 0, -2, 2, 0, -1, 1, 0, 0, 0, 0, 1, -1, 0, 2, -2, 0, 3, -3, 1, -3, 2, 1, -2, 1, 1, -1, 0, 1, 0, -1, 1, 1, -2, 1, 2, -3, 2, -3, 1, 2, -2, 0, 2, -1, -1, 2, 0, -2, 2, 1, -3], ctildes: [0.05143909030664202, -0.07274585225964329, 0.07968909320536395, -0.07274585225964329, 0.05143909030664202, -0.08133233777467973, 0.06299975813328548, -0.023004259091290304, -0.023004259091290304, 0.06299975813328548, -0.08133233777467973, 0.08133233777467973, -0.0, -0.04879940465180848, 0.0650658712132441, -0.04879940465180848, -0.0, 0.08133233777467973, -0.08133233777467973, 0.06299975813328548, -0.023004259091290304, -0.023004259091290304, 0.06299975813328548, -0.08133233777467973, 0.05143909030664202, -0.07274585225964329, 0.07968909320536395, -0.07274585225964329, 0.05143909030664202]}
    - {mu0: 0, rank: 3, ndensity: 1, num_ms_combs: 29, mus: [0, 0, 0], ns: [1, 3, 3], ls: [2, 3, 3], ms_combs: [-2, -1, 3, -2, 0, 2, -2, 1, 1, -2, 2, 0, -2, 3, -1, -1, -2, 3, -1, -1, 2, -1, 0, 1, -1, 1, 0, -1, 2, -1, -1, 3, -2, 0, -3, 3, 0, -2, 2, 0, -1, 1, 0, 0, 0, 0, 1, -1, 0, 2, -2, 0, 3, -3, 1, -3, 2, 1, -2, 1, 1, -1, 0, 1, 0, -1, 1, 1, -2, 1, 2, -3, 2, -3, 1, 2, -2, 0, 2, -1, -1, 2, 0, -2, 2, 1, -3], ctildes: [0.010787676446922986, -0.015256076893167025, 0.0167121958946687, -0.015256076893167025, 0.010787676446922986, -0.017056813006504613, 0.013212150582852224, -0.004824395270185846, -0.004824395270185846, 0.013212150582852224, -0.017056813006504613, 0.017056813006504613, -0.0, -0.01023408822061154, 0.013645450613558078, -0.01023408822061154, -0.0, 0.017056813006504613, -0.017056813006504613, 0.013212150582852224, -0.004824395270185846, -0.004824395270185846, 0.013212150582852224, -0.017056813006504613, 0.010787676446922986, -0.015256076893167025, 0.0167121958946687, -0.015256076893167025, 0.010787676446922986]}
    - {mu0: 0, rank: 3, ndensity: 1, num_ms_combs: 29, mus: [0, 0, 0], ns: [2, 1, 1], ls: [2, 3, 3], ms_combs: [-2, -1, 3, -2, 0, 2, -2, 1, 1, -2, 2, 0, -2, 3, -1, -1, -2, 3, -1, -1, 2, -1, 0, 1, -1, 1, 0, -1, 2, -1, -1, 3, -2, 0, -3, 3, 0, -2, 2, 0, -1, 1, 0, 0, 0, 0, 1, -1, 0, 2, -2, 0, 3, -3, 1, -3, 2, 1, -2, 1, 1, -1, 0, 1, 0, -1, 1, 1, -2, 1, 2, -3, 2, -3, 1, 2, -2, 0, 2, -1, -1, 2, 0, -2, 2, 1, -3], ctildes: [-0.04808393328034092, 0.06800094413844178, -0.07449130647558937, 0.06800094413844178, -0.04808393328034092, 0.07602736906462897, -0.05889054702756596, 0.021503787347624426, 0.021503787347624426, -0.05889054702756596, 0.07602736906462897, -0.07602736906462897, 0.0, 0.045616423296174276, -0.06082189618040162, 0.045616423296174276, 0.0, -0.07602736906462897, 0.07602736906462897, -0.05889054702756596, 0.021503787347624426, 0.021503787347624426, -0.05889054702756596, 0.07602736906462897, -0.04808393328034092, 0.06800094413844178, -0.07449130647558937, 0.06800094413844178, -0.04808393328034092]}
    - {mu0: 0, rank: 3, ndensity: 1, num_ms_combs: 29, mus: [0, 0, 0], ns: [2, 1, 2], ls: [2, 3, 3], ms_combs: [-2, -1, 3, -2, 0, 2, -2, 1, 1, -2, 2, 0, -2, 3, -1, -1, -2, 3, -1, -1, 2, -1, 0, 1, -1, 1, 0, -1, 2, -1, -1, 3, -2, 0, -3, 3, 0, -2, 2, 0, -1, 1, 0, 0, 0, 0, 1, -1, 0, 2, -2, 0, 3, -3, 1, -3, 2, 1, -2, 1, 1, -1, 0, 1, 0, -1, 1, 1, -2, 1, 2, -3, 2, -3, 1, 2, -2, 0, 2, -1, -1, 2, 0, -2, 2, 1, -3], ctildes: [-0.08300291109196511, 0.11738383146788925, -0.1285875523632669, 0.11738383146788925, -0.08300291109196511, 0.1312391171960855, -0.1016573833631189, 0.03712002799249246, 0.03712002799249246, -0.1016573833631189, 0.1312391171960855, -0.1312391171960855, 0.0, 0.07874347352390625, -0.10499129535999586, 0.07874347352390625, 0.0, -0.1312391171960855, 0.1312391171960855, -0.1016573833631189, 0.03712002799249246, 0.03712002799249246, -0.1016573833631189, 0.1312391171960855, -0.08300291109196511, 0.11738383146788925, -0.1285875523632669, 0.11738383146788925, -0.08300291109196511]}
    - {mu0: 0, rank: 3, ndensity: 1, num_ms_combs: 29, mus: [0, 0, 0], ns: [2, 1, 3], ls: [2, 3, 3], ms_combs: [-2, -1, 3, -2, 0, 2, -2, 1, 1, -2, 2, 0, -2, 3, -1, -1, -2, 3, -1, -1, 2, -1, 0, 1, -1, 1, 0, -1, 2, -1, -1, 3, -2, 0, -3, 3, 0, -2, 2, 0, -1, 1, 0, 0, 0, 0, 1, -1, 0, 2, -2, 0, 3, -3, 1, -3, 2, 1, -2, 1, 1, -1, 0, 1, 0, -1, 1, 1, -2, 1, 2, -3, 2, -3, 1, 2, -2, 0, 2, -1, -1, 2, 0, -2, 2, 1, -3], ctildes: [0.04163967079610295, -0.05888738159668344, 0.06450789831877833, -0.05888738159668344, 0.04163967079610295, -0.06583809608269481, 0.05099797008978962, -0.01862182573135241, -0.01862182573135241, 0.05099797008978962, -0.06583809608269481, 0.06583809608269481, -0.0, -0.03950285925808337, 0.052670477670389085, -0.03950285925808337, -0.0, 0.06583809608269481, -0.06583809608269481, 0.05099797008978962, -0.01862182573135241, -0.01862182573135241, 0.05099797008978962, -0.06583809608269481, 0.04163967079610295, -0.05888738159668344, 0.06450789831877833, -0.05888738159668344, 0.04163967079610295]}
    - {mu0: 0, rank: 3, ndensity: 1, num_ms_combs: 29, mus: [0, 0, 0], ns: [2, 2, 2], ls: [2, 3, 3], ms_combs: [-2, -1, 3, -2, 0, 2, -2, 1, 1, -2, 2, 0, -2, 3, -1, -1, -2, 3, -1, -1, 2, -1, 0, 1, -1, 1, 0, -1, 2, -1, -1, 3, -2, 0, -3, 3, 0, -2, 2, 0, -1, 1, 0, 0, 0, 0, 1, -1, 0, 2, -2, 0, 3, -3, 1, -3, 2, 1, -2, 1, 1, -1, 0, 1, 0, -1, 1, 1, -2, 1, 2, -3, 2, -3, 1, 2, -2, 0, 2, -1, -1, 2, 0, -2, 2, 1, -3], ctildes: [-0.08026098827627078, 0.11350616740212155, -0.12433978395369287, 0.11350616740212155, -0.08026098827627078, 0.126903756845256, -0.09829922766520262, 0.03589380290794021, 0.03589380290794021, -0.09829922766520262, 0.126903756845256, -0.126903756845256, 0.0, 0.07614225720749296, -0.10152300702637448, 0.07614225720749296, 0.0, -0.126903756845256, 0.126903756845256, -0.09829922766520262, 0.03589380290794021, 0.03589380290794021, -0.09829922766520262, 0.126903756845256, -0.08026098827627078, 0.11350616740212155, -0.12433978395369287, 0.11350616740212155, -0.08026098827627078]}
    - {mu0: 0, rank: 3, ndensity: 1, num_ms_combs: 29, mus: [0, 0, 0], ns: [2, 2, 3], ls: [2, 3, 3], ms_combs: [-2, -1, 3, -2, 0, 2, -2, 1, 1, -2, 2, 0, -2, 3, -1, -1, -2, 3, -1, -1, 2, -1, 0, 1, -1, 1, 0, -1, 2, -1, -1, 3, -2, 0, -3, 3, 0, -2, 2, 0, -1, 1, 0, 0, 0, 0, 1, -1, 0, 2, -2, 0, 3, -3, 1, -3, 2, 1, -2, 1, 1, -1, 0, 1, 0, -1, 1, 1, -2, 1, 2, -3, 2, -3, 1, 2, -2, 0, 2, -1, -1, 2, 0, -2, 2, 1, -3], ctildes: [-0.08602070492974134, 0.12165163603760935, -0.13326269830732476, 0.12165163603760935, -0.08602070492974134, 0.13601066790363506, -0.10535341065953228, 0.03846962634103362, 0.03846962634103362, -0.10535341065953228, 0.13601066790363506, -0.13601066790363506, 0.0, 0.081606404065008, -0.10880853598432152, 0.081606404065008, 0.0, -0.13601066790363506, 0.13601066790363506, -0.10535341065953228, 0.03846962634103362, 0.03846962634103362, -0.10535341065953228, 0.13601066790363506, -0.08602070492974134, 0.12165163603760935, -0.13326269830732476, 0.12165163603760935, -0.08602070492974134]}
    - {mu0: 0, rank: 3, ndensity: 1, num_ms_combs: 29, mus: [0, 0, 0], ns: [2, 3, 3], ls: [2, 3, 3], ms_combs: [-2, -1, 3, -2, 0, 2, -2, 1, 1, -2, 2, 0, -2, 3, -1, -1, -2, 3, -1, -1, 2, -1, 0, 1, -1, 1, 0, -1, 2, -1, -1, 3, -2, 0, -3, 3, 0, -2, 2, 0, -1, 1, 0, 0, 0, 0, 1, -1, 0, 2, -2, 0, 3, -3, 1, -3, 2, 1, -2, 1, 1, -1, 0, 1, 0, -1, 1, 1, -2, 1, 2, -3, 2, -3, 1, 2, -2, 0, 2, -1, -1, 2, 0, -2, 2, 1, -3], ctildes: [0.11126013850806094, -0.1573455819309028, 0.17236345928274957, -0.1573455819309028, 0.11126013850806094, -0.17591771378637333, 0.13626527557347964, -0.04975704347636552, -0.04975704347636552, 0.13626527557347964, -0.17591771378637333, 0.17591771378637333, -0.0, -0.10555063256960544, 0.1407341731779894, -0.10555063256960544, -0.0, 0.17591771378637333, -0.17591771378637333, 0.13626527557347964, -0.04975704347636552, -0.04975704347636552, 0.13626527557347964, -0.17591771378637333, 0.11126013850806094, -0.1573455819309028, 0.17236345928274957, -0.1573455819309028, 0.11126013850806094]}
    - {mu0: 0, rank: 3, ndensity: 1, num_ms_combs: 29, mus: [0, 0, 0], ns: [3, 1, 1], ls: [2, 3, 3], ms_combs: [-2, -1, 3, -2, 0, 2, -2, 1, 1, -2, 2, 0, -2, 3, -1, -1, -2, 3, -1, -1, 2, -1, 0, 1, -1, 1, 0, -1, 2, -1, -1, 3, -2, 0, -3, 3, 0, -2, 2, 0, -1, 1, 0, 0, 0, 0, 1, -1, 0, 2, -2, 0, 3, -3, 1, -3, 2, 1, -2, 1, 1, -1, 0, 1, 0, -1, 1, 1, -2, 1, 2, -3, 2, -3, 1, 2, -2, 0, 2, -1, -1, 2, 0, -2, 2, 1, -3], ctildes: [-0.03583133384687069, 0.05067315348603355, -0.055509661729517296, 0.05067315348603355, -0.03583133384687069, 0.05665430959176007, -0.0438842396412749, 0.016024258642332555, 0.016024258642332555, -0.0438842396412749, 0.05665430959176007, -0.05665430959176007, 0.0, 0.033992587139156795, -0.04532344836545843, 0.033992587139156795, 0.0, -0.05665430959176007, 0.05665430959176007, -0.0438842396412749, 0.016024258642332555, 0.016024258642332555, -0.0438842396412749, 0.05665430959176007, -0.03583133384687069, 0.05067315348603355, -0.055509661729517296, 0.05067315348603355, -0.03583133384687069]}
    - {mu0: 0, rank: 3, ndensity: 1, num_ms_combs: 29, mus: [0, 0, 0], ns: [3, 1, 2], ls: [2, 3, 3], ms_combs: [-2, -1, 3, -2, 0, 2, -2, 1, 1, -2, 2, 0, -2, 3, -1, -1, -2, 3, -1, -1, 2, -1, 0, 1, -1, 1, 0, -1, 2, -1, -1, 3, -2, 0, -3, 3, 0, -2, 2, 0, -1, 1, 0, 0, 0, 0, 1, -1, 0, 2, -2, 0, 3, -3, 1, -3, 2, 1, -2, 1, 1, -1, 0, 1, 0, -1, 1, 1, -2, 1, 2, -3, 2, -3, 1, 2, -2, 0, 2, -1, -1, 2, 0, -2, 2, 1, -3], ctildes: [-0.03292545769723948, 0.04656362441377083, -0.05100789791622325, 0.04656362441377083, -0.03292545769723948, 0.05205971627519292, -0.04032528295093058, 0.014724711402386792, 0.014724711402386792, -0.04032528295093058, 0.05205971627519292, -0.05205971627519292, 0.0, 0.031235831036967674, -0.0416477736560803, 0.031235831036967674, 0.0, -0.05205971627519292, 0.05205971627519292, -0.04032528295093058, 0.014724711402386792, 0.014724711402386792, -0.04032528295093058, 0.05205971627519292, -0.03292545769723948, 0.04656362441377083, -0.05100789791622325, 0.04656362441377083, -0.03292545769723948]}
    - {mu0: 0, rank: 3, ndensity: 1, num_ms_combs: 29, mus: [0, 0, 0], ns: [3, 1, 3], ls: [2, 3, 3], ms_combs: [-2, -1, 3, -2, 0, 2, -2, 1, 1, -2, 2, 0, -2, 3, -1, -1, -2, 3, -1, -1, 2, -1, 0, 1, -1, 1, 0, -1, 2, -1, -1, 3, -2, 0, -3, 3, 0, -2, 2, 0, -1, 1, 0, 0, 0, 0, 1, -1, 0, 2, -2, 0, 3, -3, 1, -3, 2, 1, -2, 1, 1, -1, 0, 1, 0, -1, 1, 1, -2, 1, 2, -3, 2, -3, 1, 2, -2, 0, 2, -1, -1, 2, 0, -2, 2, 1, -3], ctildes: [0.061130353823895756, -0.08645136726453014, 0.09470273355359646, -0.08645136726453014, 0.061130353823895756, -0.09665556983710472, 0.07486908268691357, -0.027338323623611306, -0.027338323623611306, 0.07486908268691357, -0.09665556983710472, 0.09665556983710472, -0.0, -0.05799334426361977, 0.07732445705036224, -0.05799334426361977, -0.0, 0.09665556983710472, -0.09665556983710472, 0.07486908268691357, -0.027338323623611306, -0.027338323623611306, 0.07486908268691357, -0.09665556983710472, 0.061130353823895756, -0.08645136726453014, 0.09470273355359646, -0.08645136726453014, 0.061130353823895756]}
    - {mu0: 0, rank: 3, ndensity: 1, num_ms_combs: 29, mus: [0, 0, 0], ns: [3, 2, 2], ls: [2, 3, 3], ms_combs: [-2, -1, 3, -2, 0, 2, -2, 1, 1, -2, 2, 0, -2, 3, -1, -1, -2, 3, -1, -1, 2, -1, 0, 1, -1, 1, 0, -1, 2, -1, -1, 3, -2, 0, -3, 3, 0, -2, 2, 0, -1, 1, 0, 0, 0, 0, 1, -1, 0, 2, -2, 0, 3, -3, 1, -3, 2, 1, -2, 1, 1, -1, 0, 1, 0, -1, 1, 1, -2, 1, 2, -3, 2, -3, 1, 2, -2, 0, 2, -1, -1, 2, 0, -2, 2, 1, -3], ctildes: [-0.05597848849194198, 0.07916553013044118, -0.08672149838454184, 0.07916553013044118, -0.05597848849194198, 0.08850975604354269, -0.06855936243498997, 0.025034339548597486, 0.025034339548597486, -0.06855936243498997, 0.08850975604354269, -0.08850975604354269, 0.0, 0.053105855788475154, -0.07080780591600892, 0.053105855788475154, 0.0, -0.08850975604354269, 0.08850975604354269, -0.06855936243498997, 0.025034339548597486, 0.025034339548597486, -0.06855936243498997, 0.08850975604354269, -0.05597848849194198, 0.07916553013044118, -0.08672149838454184, 0.07916553013044118, -0.05597848849194198]}
    - {mu0: 0, rank: 3, ndensity: 1, num_ms_combs: 29, mus: [0, 0, 0], ns: [3, 2, 3], ls: [2, 3, 3], ms_combs: [-2, -1, 3, -2, 0, 2, -2, 1, 1, -2, 2, 0, -2, 3, -1, -1, -2, 3, -1, -1, 2, -1, 0, 1, -1, 1, 0, -1, 2, -1, -1, 3, -2, 0, -3, 3, 0, -2, 2, 0, -1, 1, 0, 0, 0, 0, 1, -1, 0, 2, -2, 0, 3, -3, 1, -3, 2, 1, -2, 1, 1, -1, 0, 1, 0, -1, 1, 1, -2, 1, 2, -3, 2, -3, 1, 2, -2, 0, 2, -1, -1, 2, 0, -2, 2, 1, -3], ctildes: [-0.10633638418073764, 0.1503823424427428, -0.16473561214992974, 0.1503823424427428, -0.10633638418073764, 0.16813257513632823, -0.1302349330872512, 0.04755507373754645, 0.04755507373754645, -0.1302349330872512, 0.16813257513632823, -0.16813257513632823, 0.0, 0.1008795491893825, -0.13450606216285538, 0.1008795491893825, 0.0, -0.16813257513632823, 0.16813257513632823, -0.1302349330872512, 0.04755507373754645, 0.04755507373754645, -0.1302349330872512, 0.16813257513632823, -0.10633638418073764, 0.1503823424427428, -0.16473561214992974, 0.1503823424427428, -0.10633638418073764]}
